<?xml version="1.0"?>
<MethodSetup Method="MLP::MLPBNN">
  <GeneralInfo>
    <Info name="TMVA Release" value="4.1.2 [262402]"/>
    <Info name="ROOT Release" value="5.32/04 [335876]"/>
    <Info name="Creator" value="brianpollack"/>
    <Info name="Date" value="Wed Nov 13 10:50:38 2013"/>
    <Info name="Host" value="Darwin pb-d-128-141-108-211.cern.ch 11.4.2 Darwin Kernel Version 11.4.2: Thu Aug 23 16:25:48 PDT 2012; root:xnu-1699.32.7~1/RELEASE_X86_64 x86_64"/>
    <Info name="Dir" value="/Users/brianpollack/HZG_Analyzer/mva"/>
    <Info name="Training events" value="15120"/>
    <Info name="TrainingTime" value="3.69166825e+02"/>
    <Info name="AnalysisType" value="Classification"/>
  </GeneralInfo>
  <Options>
    <Option name="NCycles" modified="Yes">600</Option>
    <Option name="HiddenLayers" modified="Yes">N+5</Option>
    <Option name="NeuronType" modified="Yes">tanh</Option>
    <Option name="RandomSeed" modified="No">1</Option>
    <Option name="EstimatorType" modified="No">MSE</Option>
    <Option name="NeuronInputType" modified="No">sum</Option>
    <Option name="V" modified="Yes">False</Option>
    <Option name="VerbosityLevel" modified="No">Default</Option>
    <Option name="VarTransform" modified="Yes">N</Option>
    <Option name="H" modified="Yes">True</Option>
    <Option name="CreateMVAPdfs" modified="No">False</Option>
    <Option name="IgnoreNegWeightsInTraining" modified="No">False</Option>
    <Option name="TrainingMethod" modified="Yes">BFGS</Option>
    <Option name="LearningRate" modified="No">2.000000e-02</Option>
    <Option name="DecayRate" modified="No">1.000000e-02</Option>
    <Option name="TestRate" modified="Yes">5</Option>
    <Option name="EpochMonitoring" modified="No">False</Option>
    <Option name="Sampling" modified="No">1.000000e+00</Option>
    <Option name="SamplingEpoch" modified="No">1.000000e+00</Option>
    <Option name="SamplingImportance" modified="No">1.000000e+00</Option>
    <Option name="SamplingTraining" modified="No">True</Option>
    <Option name="SamplingTesting" modified="No">False</Option>
    <Option name="ResetStep" modified="No">50</Option>
    <Option name="Tau" modified="No">3.000000e+00</Option>
    <Option name="BPMode" modified="No">sequential</Option>
    <Option name="BatchSize" modified="No">-1</Option>
    <Option name="ConvergenceImprove" modified="No">1.000000e-30</Option>
    <Option name="ConvergenceTests" modified="No">-1</Option>
    <Option name="UseRegulator" modified="Yes">True</Option>
    <Option name="UpdateLimit" modified="No">10000</Option>
    <Option name="CalculateErrors" modified="No">False</Option>
    <Option name="WeightRange" modified="No">1.000000e+00</Option>
  </Options>
  <Variables NVar="3">
    <Variable VarIndex="0" Expression="smallTheta" Label="smallTheta" Title="cos(#theta)" Unit="" Internal="smallTheta" Type="F" Min="-9.88485515e-01" Max="9.85404670e-01"/>
    <Variable VarIndex="1" Expression="bigTheta" Label="bigTheta" Title="cos(#Theta)" Unit="" Internal="bigTheta" Type="F" Min="-9.99703705e-01" Max="9.99862432e-01"/>
    <Variable VarIndex="2" Expression="comPhi" Label="comPhi" Title="#phi" Unit="rad" Internal="comPhi" Type="F" Min="-3.14131355e+00" Max="3.14112186e+00"/>
  </Variables>
  <Spectators NSpec="0"/>
  <Classes NClass="2">
    <Class Name="Signal" Index="0"/>
    <Class Name="Background" Index="1"/>
  </Classes>
  <Transformations NTransformations="1">
    <Transform Name="Normalize">
      <Selection>
        <Input NInputs="3">
          <Input Type="Variable" Label="smallTheta" Expression="smallTheta"/>
          <Input Type="Variable" Label="bigTheta" Expression="bigTheta"/>
          <Input Type="Variable" Label="comPhi" Expression="comPhi"/>
        </Input>
        <Output NOutputs="3">
          <Output Type="Variable" Label="smallTheta" Expression="smallTheta"/>
          <Output Type="Variable" Label="bigTheta" Expression="bigTheta"/>
          <Output Type="Variable" Label="comPhi" Expression="comPhi"/>
        </Output>
      </Selection>
      <Class ClassIndex="0">
        <Ranges>
          <Range Index="0" Min="-9.8181247711181641e-01" Max="9.8540467023849487e-01"/>
          <Range Index="1" Min="-9.9650317430496216e-01" Max="9.9850142002105713e-01"/>
          <Range Index="2" Min="-3.1413135528564453e+00" Max="3.1403920650482178e+00"/>
        </Ranges>
      </Class>
      <Class ClassIndex="1">
        <Ranges>
          <Range Index="0" Min="-9.8848551511764526e-01" Max="9.8526060581207275e-01"/>
          <Range Index="1" Min="-9.9970370531082153e-01" Max="9.9986243247985840e-01"/>
          <Range Index="2" Min="-3.1401276588439941e+00" Max="3.1411218643188477e+00"/>
        </Ranges>
      </Class>
      <Class ClassIndex="2">
        <Ranges>
          <Range Index="0" Min="-9.8848551511764526e-01" Max="9.8540467023849487e-01"/>
          <Range Index="1" Min="-9.9970370531082153e-01" Max="9.9986243247985840e-01"/>
          <Range Index="2" Min="-3.1413135528564453e+00" Max="3.1411218643188477e+00"/>
        </Ranges>
      </Class>
    </Transform>
  </Transformations>
  <MVAPdfs/>
  <Weights>
    <Layout NLayers="3">
      <Layer Index="0" NNeurons="4">
        <Neuron NSynapses="8">
          4.7176693435217118e-03 1.2261833859142492e+00 -6.9812452973394584e-02 1.0492629498219741e+00 -8.1458751234081284e-01 -2.7236632728453514e-01 -5.6313762293877789e-01 7.3308352429025125e-01 
        </Neuron>
        <Neuron NSynapses="8">
          -1.6045554684264389e+00 -2.3845536913333940e-01 -8.8816112107660505e-01 -4.4285230975573375e-01 -2.9993493527728465e-01 -3.7026448850022053e-01 1.1874211441854766e-01 2.7019750244951385e-01 
        </Neuron>
        <Neuron NSynapses="8">
          -6.0589288593902957e-01 4.4819870994762168e-01 4.4684734306991913e-01 2.8953568729788737e-01 9.1908269110910646e-03 -2.4224442553215836e-01 3.9116764387053327e-01 1.1749239814931846e-01 
        </Neuron>
        <Neuron NSynapses="8">
          -1.1218703138286847e+00 6.7385446120910894e-02 1.2418224119459447e+00 -3.6261286370852569e-01 -1.2857989265359200e+00 -6.8712126861265632e-01 2.2190152866361301e-01 8.7445612986209831e-01 
        </Neuron>
      </Layer>
      <Layer Index="1" NNeurons="9">
        <Neuron NSynapses="1">
          -2.7284485749890652e-01 
        </Neuron>
        <Neuron NSynapses="1">
          -1.0268716725115125e-01 
        </Neuron>
        <Neuron NSynapses="1">
          4.4729558781207468e-01 
        </Neuron>
        <Neuron NSynapses="1">
          4.2366699008577757e-02 
        </Neuron>
        <Neuron NSynapses="1">
          -2.6526164890205376e-02 
        </Neuron>
        <Neuron NSynapses="1">
          1.2888136992742102e-01 
        </Neuron>
        <Neuron NSynapses="1">
          -2.6721693082229042e-01 
        </Neuron>
        <Neuron NSynapses="1">
          -9.6946407761039383e-02 
        </Neuron>
        <Neuron NSynapses="1">
          2.9796225906454699e-02 
        </Neuron>
      </Layer>
      <Layer Index="2" NNeurons="1">
        <Neuron NSynapses="0"/>
      </Layer>
    </Layout>
    <InverseHessian NElements="1681" NRows="41" NCols="41">
      <Row Index="0">
        6.3713460408844647e-01 9.9465405494087977e-01 2.0467181147879324e-01 4.2724836755889708e+00 -3.0336583547145462e+01 7.9782521977392786e+00 -8.7924547165097000e-01 -8.6160957570644463e+00 -1.8219500804340787e+00 1.2868052728975252e+00 4.8913959782391025e-01 -1.3628651726993892e+00 4.6051733690211272e-01 1.1064485109860657e+01 4.2950024554090838e-01 5.7854048043395023e+00 -6.9154821478036599e-01 8.7988192147610966e-01 1.5949833279536038e-01 1.0096099103930158e+00 -2.3450448599288290e+01 -1.2461735510468288e+00 -6.7551693650261369e-02 2.8970232543247842e+00 -6.8438561634643880e-01 -2.7052011756870198e-01 -2.3729019971418991e-01 -8.7641115788745907e+00 -6.9311660047126225e+00 1.0437568853629942e+01 -5.9992919932148281e-02 1.3111814624330584e+01 9.1867224647448886e-01 7.3127631273041394e-01 2.4372796553749448e-01 -6.9907163365387182e-01 -3.0033177810738856e+00 -4.3452226040022150e+00 3.0048961171012434e-01 -8.3938611339339211e+00 8.9173602752114056e-01 
      </Row>
      <Row Index="1">
        9.9465405375963201e-01 1.2022522080604575e+02 4.8427178656053727e+00 5.8777291374521823e+01 7.0313444566274109e+02 1.4643731078248521e+02 -1.4071903323248703e+01 -2.9038918701352151e+02 3.1758958254369025e+00 2.4992894291353362e+01 -1.2748572109046654e+00 -2.1498592711055613e+02 5.5952761352252844e+02 -1.0308785266886949e+02 -4.8938366158090085e+00 -1.2818696651031621e+02 9.1333423720693729e-01 7.1466082083015436e+01 -1.7348657991510144e+00 -3.2713872953181642e+01 -6.5711262998891743e+02 -4.8196489197535314e+01 -4.8652015762793228e+00 -3.4806619975365081e+01 2.3255474384817751e+00 7.4407341629257431e+01 -1.0511150469471191e+00 -2.3326766246614068e+02 8.0183357756198075e+02 8.8860082969836810e+01 -1.7901719935120555e-01 3.7695878186402496e+02 -1.7517230304768017e+00 5.0096410357388706e+01 -2.0916159399820178e-01 -4.9962202157710330e+01 -2.4339437436348916e+02 -9.4216513201598048e+01 5.9442615279390165e-01 -3.2121474493237963e+02 -2.7875132223454877e+01 
      </Row>
      <Row Index="2">
        2.0467181137262713e-01 4.8427178661781909e+00 2.2984576416683575e+00 -1.6098698734542016e+00 7.9311345048545860e+01 9.0788118009268715e+00 -1.5986316881431495e+00 1.1287901813973692e+01 -2.5340111121964948e-01 2.4161484428212394e+00 1.4280312171333165e-01 -1.8181880924044719e+01 7.7477233297469411e+01 -7.2911957181625875e-01 9.5775276410890731e-02 -1.5704303515981977e+01 -1.2400232154465739e-01 3.6239343602078282e+00 5.4950368865911085e-02 -2.8574115077505943e-02 -7.8214235852025411e+01 1.7230184966183952e+00 8.2542372196846503e-01 -2.0143125041832937e+00 1.9675836554398363e-03 2.4548521682290589e+00 -1.9621878138312601e-01 -1.4496020147297450e+01 1.6961887134174432e+02 8.9380784460226952e+00 -6.4054016145548953e-02 4.9742329008780388e+01 1.4853247903934230e-01 2.5063214043705155e+00 1.7455343482877278e-01 -2.5568371439916153e+00 -2.5378563025398197e+01 -8.3516238194661829e-01 1.5117129351330447e+00 -2.3869957657066809e+01 -3.2091556591819907e+00 
      </Row>
      <Row Index="3">
        4.2724836735403642e+00 5.8777291337418674e+01 -1.6098698769764042e+00 1.1823383429624052e+03 -4.2149436390655728e+03 7.4763032511467611e+02 -1.0535002782625666e+01 -8.8171465260181503e+02 9.4895286979116680e+00 1.9603603518356542e+02 3.1522578665361955e+01 -3.5630919090876847e+02 -2.3597015732056275e+02 -3.6814686879654766e+02 9.3466846201806977e+00 -1.4695985018085577e+02 4.3672967884124194e+00 1.3789553218423120e+02 -1.2904366659514938e+01 4.0704219622604569e+02 -2.8424263918922661e+03 -7.9554858512880330e+01 -5.1997942878313403e+01 9.1780759638680991e+02 7.2510930393717814e+00 -1.6593760793978325e+02 -2.1836264165604128e+01 -1.2424591522046787e+03 -8.2541208503754897e+03 2.5871168898844945e+02 -7.8710414607574641e+00 1.4621029200705179e+03 -5.8892350730110863e+00 7.2222840191411393e+01 2.8308049060305471e+01 -1.2651328374164146e+02 -1.2721290451953689e+02 -4.3154771000750958e+02 -4.2397258113025522e+01 -6.0094221714583546e+02 1.1392947898487307e+01 
      </Row>
      <Row Index="4">
        -3.0336583616059215e+01 7.0313444525080502e+02 7.9311345012607489e+01 -4.2149436394233626e+03 1.1099163934740005e+05 3.0787807251406953e+03 -3.4260852565785660e+02 -1.4305673945805345e+04 3.2862499023023440e+02 -1.0086657357787565e+03 -1.3937029636734209e+02 -4.8113890626475336e+02 4.2030349583595380e+04 -3.7759638369062995e+03 -1.6833244545068879e+02 -3.7241039495053178e+03 6.6078467988232816e+01 1.7365025698533884e+02 -7.5090917415569791e+01 -1.9711530510370574e+03 -8.5258653310767841e+03 -2.3178161808757841e+03 1.5975559370573404e+02 -9.0852107837703588e+03 1.1976635605316898e+02 1.3681428441386736e+03 1.7050631199356950e+01 3.7593648488489785e+03 1.4108139996149417e+05 -2.1494129764112179e+02 2.7008775440305038e+02 -5.4082416237520956e+03 -1.6018888070797067e+02 1.6589363570684665e+02 -8.9655992859907712e+01 1.0795221908419049e+02 -1.2459185137122671e+04 -2.3778033643734898e+03 2.5427207569218575e+02 -1.2241823010108132e+04 -2.7579902521143190e+03 
      </Row>
      <Row Index="5">
        7.9782521921583793e+00 1.4643731065395764e+02 9.0788117923127629e+00 7.4763032492304910e+02 3.0787807256050874e+03 2.7426309164994623e+03 -1.4357120038700640e+02 -3.9528474809253103e+03 1.3240878316699914e+02 1.0196175235457352e+02 -1.3831748986201863e+01 -4.5318787836220076e+02 1.9667059503988730e+03 -1.2583283042567411e+03 -5.0427927665404070e+01 -1.9643328357201776e+02 4.0344847254433027e+01 1.5642177504641191e+02 -1.3296334548912533e+01 4.7478086949224235e+01 -6.3656320902093285e+02 -5.9624452239990774e+02 2.2552297053079144e+01 1.2315488944754675e+03 5.7502919965930765e+01 -1.6614860163796813e+01 -1.1574934537415810e+01 -8.9347560853468929e+02 -3.7187074761112526e+03 4.9744248147534029e+02 9.4228255731153894e+00 -1.6932855856123954e+03 -6.3489419827508321e+01 1.0057920062735505e+02 -1.0766157290045694e+01 -1.1712049421021455e+02 -2.5431924540541786e+02 -1.2056920900952243e+03 7.0915878588626242e+01 -1.4393511444704284e+03 -1.3845487403775650e+02 
      </Row>
      <Row Index="6">
        -8.7924547138624121e-01 -1.4071903324672926e+01 -1.5986316882651010e+00 -1.0535002790046970e+01 -3.4260852597153280e+02 -1.4357120042264276e+02 1.4881463903192817e+01 1.7628305980919305e+02 -5.1027767069295544e+00 -3.0880162987847442e+00 1.9020270555434968e+00 3.3787885851081249e+01 -1.8782362949781970e+02 4.1566276614703796e+01 2.7895829246261425e+00 3.3483417496622447e-01 -1.5312672344123583e+00 -8.1246707887083289e+00 2.5306375960477134e-01 8.9806048756936434e+00 1.5198105092418700e+01 3.2515701722128853e+01 -2.9218352500981450e+00 -8.3547462857949704e+00 -2.3639298750647502e+00 -1.0641300832892068e+01 -2.2385345360203290e-01 3.3851070464082049e+01 -5.0505986606753004e+02 -4.6074735073421870e+01 -2.3481603292962672e+00 5.9230426877765645e+01 2.3602749950612369e+00 -7.0454841373790016e+00 1.7882766024167198e+00 6.9811039943284730e+00 5.0613413012484465e+01 5.5484732465992842e+01 -7.5173339737740292e+00 1.0703093922770724e+02 6.2040346823749815e+00 
      </Row>
      <Row Index="7">
        -8.6160957382098786e+00 -2.9038918669756964e+02 1.1287901835275079e+01 -8.8171465208120605e+02 -1.4305673945443239e+04 -3.9528474805411151e+03 1.7628305969400668e+02 8.7615018216740555e+03 -1.3811277659588325e+02 -9.9007983349559883e+00 -4.4810160468310034e+00 6.3778495333477656e+02 -7.4070109198602586e+03 2.2819334649397433e+03 7.9767033414744816e+01 9.0100922420511267e+02 -3.4996752376853692e+01 -2.8322825495773253e+02 3.6305383884203380e+01 8.4222941265732516e+01 3.5800486081873096e+03 1.2999529822093059e+03 2.2920700947375316e+01 -1.1517568743713405e+03 -6.7484944277591879e+01 -1.3143641166140682e+02 3.7914021369411969e+01 9.6081125853293850e+02 -4.5481721832019684e+02 -1.0644494858484395e+03 -3.1687445039222165e+01 2.2508814845846937e+03 6.8518584576417794e+01 -1.7565209394322196e+02 -1.0657448533074666e+01 1.7770874922846417e+02 1.7700851022889435e+03 2.4138576673713542e+03 -2.9206093492826717e+01 3.7228088980282137e+03 6.0913837578349717e+02 
      </Row>
      <Row Index="8">
        -1.8219500804844060e+00 3.1758958123157885e+00 -2.5340111227450635e-01 9.4895286767396065e+00 3.2862498978275016e+02 1.3240878313379523e+02 -5.1027767044708741e+00 -1.3811277649054315e+02 2.4780649132127987e+01 -6.3688890879491511e-01 -4.1430031563498249e+00 -1.1426579791773923e+01 4.5098911547360885e+01 -1.1535133000624785e+02 -4.1251899085313211e+00 -2.7905200337122078e+01 8.0401378199278213e+00 1.9262361485982533e+00 7.0567957625598865e-02 -3.9812734017068578e+00 2.3420950510578837e+02 -2.0968949271415216e+01 3.7701975338899016e+00 6.6719497806281495e+01 9.6130161004346366e+00 -1.3746483160935321e+00 1.4652119042805707e+00 -5.8205100515528789e+00 -2.0278881679056508e+02 -5.0974452155435877e+01 1.7674919124303596e+00 -2.7800873301328164e+02 -1.1238299106975489e+01 1.4524779646104635e+00 -3.6720718539404258e+00 -1.3761707857619478e+00 4.4425795445152104e+01 -2.3341010871039629e+01 5.7058467313870445e+00 1.5957556323101409e+01 -4.3433275477783670e+00 
      </Row>
      <Row Index="9">
        1.2868052726086034e+00 2.4992894306217977e+01 2.4161484434405054e+00 1.9603603524157583e+02 -1.0086657349938760e+03 1.0196175251946894e+02 -3.0880163032445931e+00 -9.9007987439514338e+00 -6.3688890123479258e-01 7.2037035730134590e+01 5.4004366403777455e+00 -1.1319540575094133e+02 -1.0886801875407296e+02 -3.0249937096738481e+01 2.1087695381516225e+00 2.2074702150592787e+00 1.6497794443785097e-01 4.0343238734833086e+01 -7.7931642465273399e-01 4.7813345371600008e+01 -8.9038339849060912e+02 -2.8598249182037216e+00 -6.5469240665332578e+00 8.7967484193353883e+01 9.5804716369001697e-01 -2.4033037181503700e+00 -3.9079591061794150e+00 -3.4844539182750560e+02 -8.7599459754854615e+02 8.4278195953503797e+01 -2.6756665156273467e+00 7.1208891771597951e+02 3.6688183572756783e-01 2.6774192456424984e+01 4.5524765640210312e+00 -3.8467914799387806e+01 -1.2786589384529633e+02 -5.6818520811391657e+01 -4.8083379872068130e+00 -2.0211360523708012e+02 1.5348739755063434e+01 
      </Row>
      <Row Index="10">
        4.8913959765771153e-01 -1.2748572075911966e+00 1.4280312191840494e-01 3.1522578675286411e+01 -1.3937029617077133e+02 -1.3831748960643303e+01 1.9020270552106282e+00 -4.4810161208123089e+00 -4.1430031545663599e+00 5.4004366398547745e+00 5.8400719247077024e+00 -6.1476712550242354e+00 4.3800719792311455e+01 1.7597541516824947e+01 1.7998672027989033e+00 -1.7773108607641475e+00 -2.1288907546150426e+00 4.1067738290002769e+00 -1.0624320700022736e+00 1.3847761153107058e+01 -2.3923487825894756e+02 -8.5323462645508990e+00 -3.1402778407892873e+00 -1.0282493093775235e+01 -1.3886436358908443e+00 -4.3043107467582660e+00 -2.2684251288448567e+00 -3.4005894595777796e+01 6.8099686340668484e+00 2.9067582018116280e+01 -4.7084692851649779e-01 1.6812235921174664e+02 2.2880998247976194e+00 1.5897211525320634e+00 4.4826158409274779e+00 -3.2226668839211179e+00 -4.6015798847602881e+01 -1.2706436598714467e+01 -3.8470455677908117e+00 -5.5887007512964161e+01 -3.3333283696034659e+00 
      </Row>
      <Row Index="11">
        -1.3628651694934888e+00 -2.1498592711141509e+02 -1.8181880922540586e+01 -3.5630919101347041e+02 -4.8113890754018212e+02 -4.5318787873050684e+02 3.3787885847727253e+01 6.3778495425686287e+02 -1.1426579827589078e+01 -1.1319540570922709e+02 -6.1476712462476266e+00 5.7256486750750446e+02 -1.2703025762941106e+03 3.3328741012291852e+02 9.1612228266028701e+00 3.3071820454293379e+02 -3.9053561521204756e+00 -1.6850309256994242e+02 7.6530450095724518e+00 -3.8152586205389525e+01 2.4372136989066803e+03 1.1014602610349237e+02 2.1615929375229332e+01 -9.8286712410605588e+01 -8.0900241675342439e+00 -1.1383420563755568e+02 8.6691374474884704e+00 7.9421210936811315e+02 -6.2273839857947587e+02 -2.5547972845549396e+02 2.7629169220148264e+00 -1.4754818257482607e+03 6.3413323936877166e+00 -1.1494175592621374e+02 -9.1034849654051762e+00 1.3393703799714436e+02 6.4883836121698300e+02 2.8449873529093588e+02 7.6333710682958626e+00 8.9792864447799548e+02 6.2291579379570521e+01 
      </Row>
      <Row Index="12">
        4.6051729714599787e-01 5.5952761340112920e+02 7.7477233283392707e+01 -2.3597015713721123e+02 4.2030349590563215e+04 1.9667059513259171e+03 -1.8782362935753000e+02 -7.4070109232188715e+03 4.5098911841446792e+01 -1.0886801920227299e+02 4.3800719689772450e+01 -1.2703025758813326e+03 2.2392260468048509e+04 -1.9776476622219084e+03 -2.8150288181538222e+01 -2.6469910477807503e+03 -4.3420736813568510e+00 4.7516040414518608e+02 -4.5093438628129661e+01 -3.1137191168271238e+02 -1.4230075555043994e+04 -1.3915765344964886e+03 -3.4969034351511617e+01 -3.5452523348133864e+03 3.9475772928360030e+01 5.4313402607980584e+02 -6.4378719895930942e+01 -7.1088960917682243e+02 5.6749224270253239e+04 1.3920423321521541e+03 9.0419300339003371e+01 4.5852711847150458e+03 -2.1830257716754012e+01 2.9400276538281042e+02 4.3625677791922456e+01 -2.4810166707890417e+02 -7.4577605457792242e+03 -1.9749747470341295e+03 1.3970432017134677e+01 -8.1771524828028651e+03 -1.3626763157958662e+03 
      </Row>
      <Row Index="13">
        1.1064485115304251e+01 -1.0308785253374549e+02 -7.2911956138523237e-01 -3.6814686859782114e+02 -3.7759638346166321e+03 -1.2583283040573390e+03 4.1566276574346801e+01 2.2819334645262406e+03 -1.1535133003913641e+02 -3.0249936960790365e+01 1.7597541544836190e+01 3.3328740973926688e+02 -1.9776476599597518e+03 1.1981504274437625e+03 4.3686852249842708e+01 5.3573527562404900e+02 -4.0508330824556651e+01 -1.0907974477227823e+02 1.9205775612674188e+01 -9.8543539362581214e+00 6.9486008383091939e+02 3.1609939227817085e+02 -4.1338124497236151e-01 -5.6594513496981324e+02 -4.8674054000624814e+01 -2.8123984100384746e+01 4.3467679506474344e+00 3.7743644094699312e+02 1.6188994032365772e+03 -1.1737790020747177e+01 -7.7304266507766481e+00 8.1248806698258170e+02 5.8973087394377160e+01 -6.1062487106122937e+01 4.6969436917371610e+00 7.5213111971875918e+01 3.7598101507284463e+02 6.4409615852100978e+02 -1.0484320672872606e+01 8.9421478840003817e+02 1.8140395915586967e+02 
      </Row>
      <Row Index="14">
        4.2950024560950339e-01 -4.8938366123495030e+00 9.5775276651121288e-02 9.3466846263441994e+00 -1.6833244539172279e+02 -5.0427927658184032e+01 2.7895829238010430e+00 7.9767033399483978e+01 -4.1251899087729154e+00 2.1087695411519150e+00 1.7998672033307370e+00 9.1612228169158243e+00 -2.8150288128063949e+01 4.3686852245773650e+01 4.3998524010325832e+00 9.3092181835143109e+00 -1.3620292433185739e+00 -2.3938865614684941e+00 1.2973111100710071e+00 1.4854481685238966e+01 -9.4460504966347827e+01 8.2135915316048482e+00 -2.4960187422837339e+00 -1.5062403924007713e+01 -1.2036308807370610e+00 -6.5571998093805846e+00 -3.1933565256086222e-01 -7.6291642274708522e+00 -2.5473389138088919e+01 1.1822769090309478e+01 -9.4215603140629578e-01 9.6922249379912273e+01 2.2712712888918878e+00 -1.7315432822105130e+00 5.8378969566501271e-01 9.7683818701381997e-01 -4.1890990971991915e+00 1.8742416038194282e+01 -2.7396932994475778e+00 1.3227293527021448e+01 3.5620005701250905e+00 
      </Row>
      <Row Index="15">
        5.7854048096205588e+00 -1.2818696642344207e+02 -1.5704303508548037e+01 -1.4695985007303696e+02 -3.7241039474462596e+03 -1.9643328342129055e+02 3.3483414205964701e-01 9.0100922381122132e+02 -2.7905200372168110e+01 2.2074703052148834e+00 -1.7773108379083737e+00 3.3071820429397485e+02 -2.6469910459319653e+03 5.3573527566382211e+02 9.3092181874076960e+00 6.9361273098323022e+02 -1.1373511973970380e+01 -1.0756064678868825e+02 1.0205295057796320e+01 -3.6693190083784430e+01 1.7497814037762582e+03 9.7769161174836867e+01 1.9853874163482221e+01 -1.5556180567359760e+01 -1.3876407813876900e+01 -5.3121451126736616e+01 8.4356980049047827e+00 2.5713544202738672e+02 -1.3236511882928135e+03 -1.1197862712338484e+01 -4.8337583479436281e+00 -4.3536965849478230e+02 1.5987085604543360e+01 -6.1010505245658806e+01 -7.7862100504096343e+00 6.4407261794570758e+01 6.5261631909047935e+02 2.3023605437287719e+02 2.0325778096474817e+01 7.1376955262851300e+02 1.8811604344740158e+02 
      </Row>
      <Row Index="16">
        -6.9154821476297457e-01 9.1333423200702768e-01 -1.2400232195440708e-01 4.3672967791352031e+00 6.6078467790081504e+01 4.0344847237834365e+01 -1.5312672335070090e+00 -3.4996752324951245e+01 8.0401378195833715e+00 1.6497794197141502e-01 -2.1288907552401817e+00 -3.9053561379602684e+00 -4.3420738056101982e+00 -4.0508330807393115e+01 -1.3620292431304988e+00 -1.1373511956984661e+01 3.2308912537044137e+00 4.9612054420657614e-01 9.3720022476134091e-02 -2.3773449730026641e-01 1.0313970816570975e+02 -1.4768319753837604e+00 1.3357832462967814e+00 3.0581128060548131e+01 3.2071093892497164e+00 -1.2200680802826178e+00 9.9259198947806870e-01 -3.0182342764838399e+00 -1.6972987341175696e+02 -2.0590436035770335e+01 5.5982772595148789e-01 -1.0335207372832147e+02 -3.8324902637573368e+00 3.6871370061952757e-01 -1.7147546239316278e+00 -4.7405505725343794e-01 2.5787840064455800e+01 -4.2510268847079509e+00 1.8904427635586525e+00 1.9156725529997519e+01 -3.6054613977066641e-01 
      </Row>
      <Row Index="17">
        8.7988192027717105e-01 7.1466082083666549e+01 3.6239343597607672e+00 1.3789553222012842e+02 1.7365025752176734e+02 1.5642177517688214e+02 -8.1246707873254991e+00 -2.8322825529723673e+02 1.9262361614246402e+00 4.0343238719080091e+01 4.1067738258776103e+00 -1.6850309257045774e+02 4.7516040432849695e+02 -1.0907974491285249e+02 -2.3938865649316505e+00 -1.0756064688362720e+02 4.9612054927592908e-01 6.2293750048010224e+01 -2.4187936847711171e+00 1.6097915298543739e+01 -8.9488005503546810e+02 -4.8576311744106533e+01 -6.5829569418729346e+00 2.2307944931535257e+01 2.1577618725773728e+00 3.2272166590859676e+01 -4.1585984486061598e+00 -2.8763407596674620e+02 1.9748955793185405e+02 9.8431883433010952e+01 -2.1721415713798076e-01 5.1976800400060097e+02 -1.1264043518542826e+00 3.9335814658603176e+01 4.2740089241873642e+00 -4.4221666366065193e+01 -2.3913429644127297e+02 -1.1440074655007264e+02 -4.3140688205160860e+00 -3.3877996170166404e+02 -2.3277224745383627e+01 
      </Row>
      <Row Index="18">
        1.5949833293327487e-01 -1.7348657963822909e+00 5.4950369079577399e-02 -1.2904366655399542e+01 -7.5090917363857898e+01 -1.3296334543429342e+01 2.5306375864222730e-01 3.6305383872456261e+01 7.0567956806765864e-02 -7.7931642180902827e-01 -1.0624320693678619e+00 7.6530450016408622e+00 -4.5093438577617235e+01 1.9205775612733504e+01 1.2973111101522325e+00 1.0205295057448314e+01 9.3720022058221275e-02 -2.4187936818087223e+00 1.5729788829798395e+00 -1.6403189231554052e+00 2.0175080323131112e+01 4.5483624176409307e+00 3.8651927112272544e-01 -3.6585662061777171e+00 2.3155197719302870e-01 -1.8193532138848556e-01 4.5432669822295096e-01 9.6639337453550471e+00 -3.2427100710317006e+01 1.5976610103381466e+00 -2.7936728486870771e-01 3.9926189592825914e+00 1.7460560549585691e-01 -1.2395064910581273e+00 -1.5634724584730300e+00 1.8941438448387984e+00 1.2529006824446894e+01 1.2203008686755584e+01 6.3407273152758303e-01 2.0338813412807117e+01 5.1384307334104324e+00 
      </Row>
      <Row Index="19">
        1.0096099103854979e+00 -3.2713872961836650e+01 -2.8574115899647090e-02 4.0704219621949744e+02 -1.9711530512779534e+03 4.7478086955891371e+01 8.9806048765649198e+00 8.4222941268665380e+01 -3.9812734007737802e+00 4.7813345365407528e+01 1.3847761151755575e+01 -3.8152586182007596e+01 -3.1137191184748701e+02 -9.8543539331160463e+00 1.4854481684891999e+01 -3.6693190068897650e+01 -2.3773449670099467e-01 1.6097915290573056e+01 -1.6403189229382349e+00 2.2691756610180775e+02 -8.4121169077887362e+02 3.8196030444047736e+01 -2.5563024531942808e+01 3.0327310326514242e+02 -6.0200025311623051e-01 -1.0983980255403192e+02 -6.0726640468401083e+00 -3.0624303360637629e+02 -3.1057121628056507e+03 2.2595741995101644e+01 -2.4712358738916631e+00 4.8712687623096127e+02 1.7628279119289640e+00 -1.3451696151781825e+00 1.0916280531042776e+01 -2.0487784505405589e+01 6.2311715045790450e+01 -3.3535509873286500e+01 -2.4925586025255051e+01 3.7626242451393628e+00 2.2018773959875737e+01 
      </Row>
      <Row Index="20">
        -2.3450448562318343e+01 -6.5711263072897418e+02 -7.8214235893306977e+01 -2.8424263942421676e+03 -8.5258653723220341e+03 -6.3656321506485847e+02 1.5198105177911202e+01 3.5800486249258015e+03 2.3420950468759111e+02 -8.9038339839722903e+02 -2.3923487825598477e+02 2.4372137008917634e+03 -1.4230075576834381e+04 6.9486009021147322e+02 -9.4460504840886870e+01 1.7497814087636366e+03 1.0313970801935648e+02 -8.9488005573966075e+02 2.0175080464425264e+01 -8.4121169109968469e+02 4.1208390675745817e+04 1.0208774429016921e+03 3.5477201502522803e+02 3.0611886884954915e+03 2.7803083989856653e+01 -3.4142089462286094e+02 1.6662437303165396e+02 4.6598368577185820e+03 -3.7054383942973909e+04 -3.9790561989603739e+03 1.9772031815428829e+01 -2.8107029998197038e+04 -1.2762191959382534e+02 -4.9439578031034205e+02 -1.8204483571375732e+02 7.0510588596693287e+02 1.1073214835620533e+04 2.2577961461807336e+03 3.1112577635026207e+02 1.2602320494235488e+04 7.1278422107022197e+02 
      </Row>
      <Row Index="21">
        -1.2461735479168965e+00 -4.8196489180724484e+01 1.7230184977746603e+00 -7.9554858512711689e+01 -2.3178161821770336e+03 -5.9624452252457991e+02 3.2515701711199654e+01 1.2999529827105846e+03 -2.0968949293902256e+01 -2.8598248654961935e+00 -8.5323462563393946e+00 1.1014602604949687e+02 -1.3915765348072600e+03 3.1609939250652275e+02 8.2135915367664580e+00 9.7769161368102445e+01 -1.4768319849117688e+00 -4.8576311723954859e+01 4.5483624232074362e+00 3.8196030436229194e+01 1.0208774410101050e+03 2.8806277781276367e+02 4.4016225794912316e+00 6.6867555156777996e+01 -1.2213249074918304e+01 -4.7731109850506073e+01 9.6365584200341843e+00 1.5003237209981071e+02 -2.4094110146978119e+03 -2.8532622908332769e+02 1.1611479874782278e+00 -1.0139364706546672e+02 8.6457743123861341e+00 -3.2132908882302388e+01 -5.1248162674977076e+00 3.0955803163784676e+01 4.8207953210816834e+02 4.0459747449337516e+02 -5.4016990146292869e+00 8.1836953496039746e+02 9.3659049952333874e+01 
      </Row>
      <Row Index="22">
        -6.7551693416646685e-02 -4.8652015795038182e+00 8.2542372184380497e-01 -5.1997942891497360e+01 1.5975559351337870e+02 2.2552297017913357e+01 -2.9218352498145919e+00 2.2920701040521436e+01 3.7701975311940856e+00 -6.5469240652760163e+00 -3.1402778405389853e+00 2.1615929383819548e+01 -3.4969034448160528e+01 -4.1338120841473830e-01 -2.4960187415085997e+00 1.9853874190381863e+01 1.3357832453015135e+00 -6.5829569449006158e+00 3.8651927190733204e-01 -2.5563024534024407e+01 3.5477201497210945e+02 4.4016225886111897e+00 9.1373798709149128e+00 -6.3766331158975353e-01 1.0187564573931913e+00 2.2624229811561918e+00 1.5767903704245891e+00 4.7347932234065375e+01 1.9857492813277315e+02 -2.2829185600898786e+01 1.2838101157296011e+00 -2.3315875399642013e+02 -1.8554001934750077e+00 -3.7339493525960505e+00 -2.4591035159625574e+00 7.5308262070433782e+00 6.1717614382051600e+01 1.4110799637610249e+01 8.4612422941340668e+00 7.2320930286631494e+01 2.6315620314559673e+00 
      </Row>
      <Row Index="23">
        2.8970232580309130e+00 -3.4806620197392476e+01 -2.0143125182244148e+00 9.1780759585387750e+02 -9.0852107911182393e+03 1.2315488934761008e+03 -8.3547462516344240e+00 -1.1517568717560998e+03 6.6719497753063706e+01 8.7967484101061928e+01 -1.0282493110272412e+01 -9.8286711800501507e+01 -3.5452523394378659e+03 -5.6594513397178935e+02 -1.5062403907452108e+01 -1.5556179745581176e+01 3.0581128045183505e+01 2.2307944717184000e+01 -3.6585661842764239e+00 3.0327310320136894e+02 3.0611886925771250e+03 6.6867555558892491e+01 -6.3766327719713445e-01 2.4995754940875677e+03 2.4937474411781963e+01 -2.5881132938231167e+02 -2.4316777899237763e-01 -6.3868094809619197e+02 -2.5540319390265911e+04 -1.6286008602108464e+02 -1.5292204615394652e+01 -2.9465896097699974e+03 -3.5518499905616700e+01 3.2998140434195991e+00 -3.6617852739131003e+00 -3.5749734632916017e+01 2.0733805866352709e+03 -3.6108137108243784e+02 6.5067001826239448e+00 1.5331941022449034e+03 1.3178248779081412e+02 
      </Row>
      <Row Index="24">
        -6.8438561643213802e-01 2.3255474341031608e+00 1.9675832894030520e-03 7.2510930336717081e+00 1.1976635594589402e+02 5.7502919961359268e+01 -2.3639298741387833e+00 -6.7484944261983202e+01 9.6130161010762585e+00 9.5804716011079449e-01 -1.3886436366425450e+00 -8.0900241554325589e+00 3.9475772845688880e+01 -4.8674053997393557e+01 -1.2036308808347798e+00 -1.3876407807996770e+01 3.2071093896184806e+00 2.1577618682464390e+00 2.3155197728971189e-01 -6.0200025313804417e-01 2.7803084166584796e+01 -1.2213249068646121e+01 1.0187564584571902e+00 2.4937474440059873e+01 4.1087338838869591e+00 2.5169880940114808e-01 3.8865478344977777e-01 -8.6492144752918563e+00 -7.3072096944123587e+01 -7.0956000280988194e+00 4.7999479658242167e-01 -6.4213699103783256e+01 -4.3089250582507264e+00 1.3428463480927533e+00 -1.4051221396214915e+00 -1.5887866514185291e+00 1.9448138135745303e+00 -1.6108680106573647e+01 1.9213804575298061e+00 -1.4871490229609700e+01 -3.0679797865193597e+00 
      </Row>
      <Row Index="25">
        -2.7052011842499724e-01 7.4407341646797306e+01 2.4548521691110068e+00 -1.6593760788117197e+02 1.3681428449740633e+03 -1.6614860021424946e+01 -1.0641300834966160e+01 -1.3143641203094921e+02 -1.3746483056833085e+00 -2.4033037187887203e+00 -4.3043107469812014e+00 -1.1383420568507790e+02 5.4313402652900550e+02 -2.8123984246250021e+01 -6.5571998123810715e+00 -5.3121451236365829e+01 -1.2200680766297864e+00 3.2272166607461713e+01 -1.8193532454370143e-01 -1.0983980254534254e+02 -3.4142089459340059e+02 -4.7731109891941742e+01 2.2624229800132980e+00 -2.5881132927812723e+02 2.5169881370528113e-01 1.0409908726815456e+02 1.4543205708956615e+00 4.2434003400435216e+00 2.6611935494623517e+03 6.7342336695278419e+01 1.4262718091195268e+00 3.1062658864385372e+02 8.0817006455652307e-01 2.8992565194562300e+01 -2.9594309389881905e+00 -2.2435405555922966e+01 -2.7994604167329072e+02 -2.7836454455982466e+01 4.8358555533350511e+00 -2.7998985429112884e+02 -2.8614760372979077e+01 
      </Row>
      <Row Index="26">
        -2.3729019953250940e-01 -1.0511150479021723e+00 -1.9621878143099281e-01 -2.1836264170342474e+01 1.7050631071143471e+01 -1.1574934553626765e+01 -2.2385345380422450e-01 3.7914021419937399e+01 1.4652119026752786e+00 -3.9079591042308266e+00 -2.2684251285597803e+00 8.6691374497277138e+00 -6.4378719950886079e+01 4.3467679712197489e+00 -3.1933565213743265e-01 8.4356980216157353e+00 9.9259198885806654e-01 -4.1585984493660817e+00 4.5432669869524034e-01 -6.0726640477550973e+00 1.6662437296816699e+02 9.6365584237714756e+00 1.5767903702247850e+00 -2.4316780071626454e-01 3.8865478288042854e-01 1.4543205722164316e+00 1.8103310420315855e+00 2.6323297633159399e+01 -1.2819857423917881e+01 -2.0600244433460990e+01 2.2785679195659767e-01 -9.7420263068818599e+01 -8.2388657179499514e-01 -2.0553471175594367e+00 -1.6820402676365984e+00 3.0247742911614810e+00 3.7710373780572382e+01 1.7883798892619968e+01 1.7238134678131587e+00 5.1834994249175189e+01 3.9880272191861508e+00 
      </Row>
      <Row Index="27">
        -8.7641115751780490e+00 -2.3326766247535807e+02 -1.4496020145482817e+01 -1.2424591523923045e+03 3.7593648463686695e+03 -8.9347560921626177e+02 3.3851070467178033e+01 9.6081126022955868e+02 -5.8205101018056666e+00 -3.4844539176961734e+02 -3.4005894585538499e+01 7.9421210939308367e+02 -7.1088961018843111e+02 3.7743644157485676e+02 -7.6291642116723324e+00 2.5713544242028729e+02 -3.0182342957941728e+00 -2.8763407597787591e+02 9.6639337582892040e+00 -3.0624303363840590e+02 4.6598368553075961e+03 1.5003237223994802e+02 4.7347932223616226e+01 -6.3868094897995616e+02 -8.6492144935239512e+00 4.2434004029728385e+00 2.6323297632936828e+01 2.0937647815792020e+03 4.9191554340456423e+03 -4.6912632421977628e+02 1.2110233788575197e+01 -2.9228508281978175e+03 3.2629831564335903e+00 -1.8849564169591781e+02 -2.9779595203597253e+01 2.4462342578987813e+02 7.3153821616475102e+02 5.2906933455260526e+02 3.2291818576266451e+01 1.3046927291725829e+03 -4.8541193794802666e+00 
      </Row>
      <Row Index="28">
        -6.9311660753155593e+00 8.0183357961872389e+02 1.6961887146765002e+02 -8.2541208449412079e+03 1.4108140004454926e+05 -3.7187074649239657e+03 -5.0505986629180552e+02 -4.5481724880723050e+02 -2.0278881600852401e+02 -8.7599459711043164e+02 6.8099687093053944e+00 -6.2273840417386964e+02 5.6749224317957181e+04 1.6188993910079605e+03 -2.5473389356480766e+01 -1.3236511983161326e+03 -1.6972987315262435e+02 1.9748955987626687e+02 -3.2427100981003605e+01 -3.1057121620454127e+03 -3.7054383964013483e+04 -2.4094110186134931e+03 1.9857492787987576e+02 -2.5540319385976414e+04 -7.3072096590872945e+01 2.6611935500664404e+03 -1.2819857597928603e+01 4.9191554264400284e+03 3.2198383906804130e+05 2.3153475501350490e+03 3.2685905240821126e+02 2.4012768499508929e+04 1.2891481260795911e+02 2.3634616340916540e+02 -2.6094624442971622e+01 1.1238177271913338e+02 -2.6589276950287258e+04 2.9252111168207932e+02 3.2780745620435482e+02 -2.3832729905774711e+04 -2.3894539881387523e+03 
      </Row>
      <Row Index="29">
        1.0437568849587933e+01 8.8860083049095465e+01 8.9380784517418306e+00 2.5871168920607670e+02 -2.1494129180457094e+02 4.9744248212903040e+02 -4.6074735082455391e+01 -1.0644494878729602e+03 -5.0974452114820451e+01 8.4278195926792250e+01 2.9067582019374072e+01 -2.5547972866302734e+02 1.3920423351364734e+03 -1.1737790746440602e+01 1.1822769076947679e+01 -1.1197863324625359e+01 -2.0590436021911955e+01 9.8431883508474129e+01 1.5976609932477004e+00 2.2595742018296733e+01 -3.9790561991896393e+03 -2.8532622931664810e+02 -2.2829185607113686e+01 -1.6286008566996315e+02 -7.0956000104520669e+00 6.7342336704858099e+01 -2.0600244441861719e+01 -4.6912632441952246e+02 2.3153475491431527e+03 8.7363381910680721e+02 -6.7810666493761076e+00 2.7390993694926674e+03 2.7196633366024578e+01 5.9585378376084996e+01 1.8007537590790953e+01 -7.4733540440709092e+01 -1.0632134922717999e+03 -5.1937980144585242e+02 -8.3233921346544548e+00 -1.5151224526850012e+03 -7.4851295163082227e+01 
      </Row>
      <Row Index="30">
        -5.9992920041402442e-02 -1.7901719966632612e-01 -6.4054016175607131e-02 -7.8710414613259445e+00 2.7008775441178886e+02 9.4228255720013294e+00 -2.3481603288614181e+00 -3.1687445038848182e+01 1.7674919131278699e+00 -2.6756665166007849e+00 -4.7084692879288248e-01 2.7629169231730657e+00 9.0419300333427145e+01 -7.7304266542443987e+00 -9.4215603149164551e-01 -4.8337583513575737e+00 5.5982772624770405e-01 -2.1721415769775376e-01 -2.7936728494381668e-01 -2.4712358736049964e+00 1.9772031867336636e+01 1.1611479892729903e+00 1.2838101159604065e+00 -1.5292204607033341e+01 4.7999479675999535e-01 1.4262718082099184e+00 2.2785679213368581e-01 1.2110233791347824e+01 3.2685905231548224e+02 -6.7810666577418885e+00 3.3057286179500052e+00 -3.6594824126800177e+01 -8.2328551003286476e-01 -5.1020086937618547e-01 -2.4607192879857931e-01 1.0557552882523706e+00 -2.2422147527709757e+01 -1.4680243247773450e+00 1.3220625588861825e+00 -1.9385147570479997e+01 -5.2238876466308897e+00 
      </Row>
      <Row Index="31">
        1.3111814609532303e+01 3.7695878265667307e+02 4.9742329056738527e+01 1.4621029222250072e+03 -5.4082415898998734e+03 -1.6932855805859872e+03 5.9230426726928272e+01 2.2508814712199819e+03 -2.7800873276952007e+02 7.1208891790994676e+02 1.6812235926385347e+02 -1.4754818279221945e+03 4.5852712047337554e+03 8.1248806226756244e+02 9.6922249292664674e+01 -4.3536966215906432e+02 -1.0335207365423412e+02 5.1976800478425866e+02 3.9926188556419220e+00 4.8712687646195991e+02 -2.8107030010258954e+04 -1.0139364894185564e+02 -2.3315875410315493e+02 -2.9465896085194836e+03 -6.4213698979446320e+01 3.1062658893215848e+02 -9.7420263156179317e+01 -2.9228508311848491e+03 2.4012768505968597e+04 2.7390993708060705e+03 -3.6594824083627259e+01 2.2986308205811045e+04 1.4519910821730298e+02 2.8674464803675789e+02 1.2541388268443204e+02 -4.4513984232869109e+02 -7.0579344517674335e+03 -4.3729613750323762e+02 -2.3297113896406199e+02 -7.2871121382695528e+03 -9.7102465531664620e+01 
      </Row>
      <Row Index="32">
        9.1867224650644275e-01 -1.7517230232105021e+00 1.4853247961091753e-01 -5.8892350606224539e+00 -1.6018888045778795e+02 -6.3489419806697015e+01 2.3602749936303304e+00 6.8518584513110881e+01 -1.1238299106897486e+01 3.6688183984531975e-01 2.2880998257804119e+00 6.3413323737934206e+00 -2.1830257552327112e+01 5.8973087374778373e+01 2.2712712887154023e+00 1.5987085584709291e+01 -3.8324902639224945e+00 -1.1264043447017116e+00 1.7460560501757527e-01 1.7628279125250401e+00 -1.2762191982268510e+02 8.6457742992911335e+00 -1.8554001949564025e+00 -3.5518499933031876e+01 -4.3089250578595930e+00 8.0817007017974163e-01 -8.2388657270000287e-01 3.2629831283832758e+00 1.2891481302470527e+02 2.7196633388868520e+01 -8.2328550965186775e-01 1.4519910834749086e+02 5.3047816434713218e+00 -7.8682246552199386e-01 1.8210609222179739e+00 8.1145155870702546e-01 -2.5039977229889075e+01 1.1727460986603305e+01 -2.6831756858645934e+00 -1.1583379478909837e+01 2.5126452220534099e+00 
      </Row>
      <Row Index="33">
        7.3127631202760313e-01 5.0096410357987395e+01 2.5063214040859236e+00 7.2222840214973075e+01 1.6589363602274170e+02 1.0057920071090666e+02 -7.0454841367580343e+00 -1.7565209415514209e+02 1.4524779724874008e+00 2.6774192447212727e+01 1.5897211506643885e+00 -1.1494175592729971e+02 2.9400276549259797e+02 -6.1062487192902282e+01 -1.7315432843755900e+00 -6.1010505302805541e+01 3.6871370371704870e-01 3.9335814658913023e+01 -1.2395064928673492e+00 -1.3451696101183188e+00 -4.9439577988808696e+02 -3.2132908895639048e+01 -3.7339493507865882e+00 3.2998141758607744e+00 1.3428463507792121e+00 2.8992565184436899e+01 -2.0553471171445779e+00 -1.8849564169130781e+02 2.3634616221310625e+02 5.9585378332098230e+01 -5.1020086906793871e-01 2.8674464756291331e+02 -7.8682246990351246e-01 2.7341096806753516e+01 1.7656499206848912e+00 -2.9862504476871848e+01 -1.4301300761318413e+02 -6.7554003800108404e+01 -1.2824949427356955e+00 -2.0324986857459075e+02 -1.3069589543065810e+01 
      </Row>
      <Row Index="34">
        2.4372796536104602e-01 -2.0916159313411242e-01 1.7455343485882224e-01 2.8308049064870772e+01 -8.9655992761996458e+01 -1.0766157276386139e+01 1.7882766026705923e+00 -1.0657448574035243e+01 -3.6720718523634588e+00 4.5524765624055590e+00 4.4826158406150860e+00 -9.1034849674028919e+00 4.3625677831961184e+01 4.6969436737360040e+00 5.8378969528343561e-01 -7.7862100648653723e+00 -1.7147546233137518e+00 4.2740089248158029e+00 -1.5634724588766176e+00 1.0916280532061819e+01 -1.8204483564722022e+02 -5.1248162699419026e+00 -2.4591035157469605e+00 -3.6617852525685066e+00 -1.4051221390794866e+00 -2.9594309403472607e+00 -1.6820402675854105e+00 -2.9779595204373379e+01 -2.6094624624766510e+01 1.8007537581538458e+01 -2.4607192865978256e-01 1.2541388260134795e+02 1.8210609213396225e+00 1.7656499210527570e+00 4.0185368046633405e+00 -3.3266628048213853e+00 -3.6419868635025125e+01 -1.2356875474691515e+01 -3.3421673091846706e+00 -4.4330093756612449e+01 -4.6139197305343185e+00 
      </Row>
      <Row Index="35">
        -6.9907163288132779e-01 -4.9962202160253128e+01 -2.5568371437709061e+00 -1.2651328377395112e+02 1.0795221864109408e+02 -1.1712049432040749e+02 6.9811039942812840e+00 1.7770874950819325e+02 -1.3761707949924471e+00 -3.8467914789554470e+01 -3.2226668820382827e+00 1.3393703800361527e+02 -2.4810166725708405e+02 7.5213112081518076e+01 9.7683818969053959e-01 6.4407261866990666e+01 -4.7405506081895510e-01 -4.4221666368442584e+01 1.8941438471310903e+00 -2.0487784511458813e+01 7.0510588553538582e+02 3.0955803185122022e+01 7.5308262053004000e+00 -3.5749734784598331e+01 -1.5887866547042542e+00 -2.2435405545352069e+01 3.0247742909968878e+00 2.4462342579213509e+02 1.1238177403569853e+02 -7.4733540398494370e+01 1.0557552877793839e+00 -4.4513984180338048e+02 8.1145156383755079e-01 -2.9862504478055655e+01 -3.3266628046640747e+00 3.6286803078202112e+01 1.6443458837525515e+02 8.0660958362533847e+01 4.5409890464937632e+00 2.4044059786199210e+02 1.0636079028291597e+01 
      </Row>
      <Row Index="36">
        -3.0033177662407979e+00 -2.4339437457960867e+02 -2.5378563037153981e+01 -1.2721290522420168e+02 -1.2459185149675934e+04 -2.5431924717526999e+02 5.0613413022456371e+01 1.7700851072834921e+03 4.4425795296371689e+01 -1.2786589378968347e+02 -4.6015798838253431e+01 6.4883836178875936e+02 -7.4577605521233054e+03 3.7598101710828126e+02 -4.1890990570495887e+00 6.5261632071287022e+02 2.5787840010536456e+01 -2.3913429663852003e+02 1.2529006869677687e+01 6.2311714933748590e+01 1.1073214833942737e+04 4.8207953261217335e+02 6.1717614391487587e+01 2.0733805851166253e+03 1.9448137545698501e+00 -2.7994604165180499e+02 3.7710373794037423e+01 7.3153821682575654e+02 -2.6589276940659813e+04 -1.0632134919222954e+03 -2.2422147542768585e+01 -7.0579344467528135e+03 -2.5039977148443995e+01 -1.4301300773253524e+02 -3.6419868651181787e+01 1.6443458849292438e+02 4.1366766657638245e+03 7.0300802913572534e+02 4.2868439685990779e+01 4.4430485351484576e+03 4.0045612174845508e+02 
      </Row>
      <Row Index="37">
        -4.3452225983955941e+00 -9.4216513148069225e+01 -8.3516237828916928e-01 -4.3154770995636864e+02 -2.3778033660910151e+03 -1.2056920902403035e+03 5.5484732442224413e+01 2.4138576680712904e+03 -2.3341010909252873e+01 -5.6818520702669048e+01 -1.2706436581247999e+01 2.8449873512880004e+02 -1.9749747471521841e+03 6.4409615885993571e+02 1.8742416046554808e+01 2.3023605465773289e+02 -4.2510269015838276e+00 -1.1440074649083545e+02 1.2203008695127210e+01 -3.3535509881585313e+01 2.2577961421647597e+03 4.0459747445407993e+02 1.4110799616650183e+01 -3.6108137185426312e+02 -1.6108680116004983e+01 -2.7836454366901307e+01 1.7883798883282509e+01 5.2906933420160567e+02 2.9252111962188792e+02 -5.1937980096746651e+02 -1.4680243274279974e+00 -4.3729613380126648e+02 1.1727461009127182e+01 -6.7554003761894023e+01 -1.2356875467736756e+01 8.0660958307271926e+01 7.0300802802039607e+02 7.8174760606922621e+02 -1.9685196731493306e+00 1.3730425114908960e+03 1.5296125800852084e+02 
      </Row>
      <Row Index="38">
        3.0048961186911072e-01 5.9442615075057859e-01 1.5117129350822083e+00 -4.2397258121514540e+01 2.5427207561773230e+02 7.0915878569725578e+01 -7.5173339737140310e+00 -2.9206093447273702e+01 5.7058467295818431e+00 -4.8083379869040073e+00 -3.8470455675593378e+00 7.6333710736894318e+00 1.3970431979351815e+01 -1.0484320652517011e+01 -2.7396932989991925e+00 2.0325778110873898e+01 1.8904427628721692e+00 -4.3140688223150505e+00 6.3407273194138725e-01 -2.4925586026815381e+01 3.1112577630522685e+02 -5.4016990108783602e+00 8.4612422940870431e+00 6.5067001594643443e+00 1.9213804568469595e+00 4.8358555541688588e+00 1.7238134678448045e+00 3.2291818584166151e+01 3.2780745639813404e+02 -8.3233921285629151e+00 1.3220625588069721e+00 -2.3297113889711750e+02 -2.6831756848918182e+00 -1.2824949438730577e+00 -3.3421673092348030e+00 4.5409890476475443e+00 4.2868439673644716e+01 -1.9685196634181494e+00 1.0218576811339465e+01 3.5504241546705877e+01 1.8783891398402179e+00 
      </Row>
      <Row Index="39">
        -8.3938611161775043e+00 -3.2121474512218720e+02 -2.3869957667252493e+01 -6.0094221784129331e+02 -1.2241823024678743e+04 -1.4393511464532930e+03 1.0703093922845619e+02 3.7228089038263861e+03 1.5957556151991412e+01 -2.0211360511005478e+02 -5.5887007495032776e+01 8.9792864496924449e+02 -8.1771524897512281e+03 8.9421479072639147e+02 1.3227293573888346e+01 7.1376955448673107e+02 1.9156725466644275e+01 -3.3877996187190001e+02 2.0338813465263229e+01 3.7626241309044417e+00 1.2602320490442391e+04 8.1836953549785540e+02 7.2320930284826318e+01 1.5331941002557578e+03 -1.4871490294983431e+01 -2.7998985421951511e+02 5.1834994259637824e+01 1.3046927296286558e+03 -2.3832729891813040e+04 -1.5151224521150689e+03 -1.9385147588702353e+01 -7.2871121310171293e+03 -1.1583379383947431e+01 -2.0324986867499365e+02 -4.4330093770816802e+01 2.4044059794998975e+02 4.4430485346205569e+03 1.3730425127134558e+03 3.5504241553564498e+01 5.4127277921054247e+03 4.5163544424588497e+02 
      </Row>
      <Row Index="40">
        8.9173603038227611e-01 -2.7875132190398062e+01 -3.2091556566404051e+00 1.1392947947215362e+01 -2.7579902517563241e+03 -1.3845487397074612e+02 6.2040346664900881e+00 6.0913837568600866e+02 -4.3433275650155565e+00 1.5348739798590486e+01 -3.3333283596131764e+00 6.2291579281714803e+01 -1.3626763152350832e+03 1.8140395920866104e+02 3.5620005720657559e+00 1.8811604349679328e+02 -3.6054614789600237e-01 -2.3277224707372625e+01 5.1384307346679634e+00 2.2018773953652271e+01 7.1278421890898699e+02 9.3659049873442200e+01 2.6315620202180980e+00 1.3178248744390658e+02 -3.0679797897544807e+00 -2.8614760327590375e+01 3.9880272121222333e+00 -4.8541195525658623e+00 -2.3894539840101443e+03 -7.4851294878612407e+01 -5.2238876460175447e+00 -9.7102463861388969e+01 2.5126452318862675e+00 -1.3069589520145371e+01 -4.6139197248567427e+00 1.0636078998049896e+01 4.0045612107928611e+02 1.5296125789374469e+02 1.8783891346750750e+00 4.5163544346213325e+02 1.0693840454042112e+02 
      </Row>
    </InverseHessian>
  </Weights>
</MethodSetup>
