<?xml version="1.0"?>
<MethodSetup Method="MLP::MLPBNN">
  <GeneralInfo>
    <Info name="TMVA Release" value="4.1.2 [262402]"/>
    <Info name="ROOT Release" value="5.32/04 [335876]"/>
    <Info name="Creator" value="brianpollack"/>
    <Info name="Date" value="Wed Nov 13 13:09:51 2013"/>
    <Info name="Host" value="Darwin pb-d-128-141-108-211.cern.ch 11.4.2 Darwin Kernel Version 11.4.2: Thu Aug 23 16:25:48 PDT 2012; root:xnu-1699.32.7~1/RELEASE_X86_64 x86_64"/>
    <Info name="Dir" value="/Users/brianpollack/HZG_Analyzer/mva"/>
    <Info name="Training events" value="15120"/>
    <Info name="TrainingTime" value="7.30246408e+02"/>
    <Info name="AnalysisType" value="Classification"/>
  </GeneralInfo>
  <Options>
    <Option name="NCycles" modified="Yes">600</Option>
    <Option name="HiddenLayers" modified="Yes">N+5</Option>
    <Option name="NeuronType" modified="Yes">tanh</Option>
    <Option name="RandomSeed" modified="No">1</Option>
    <Option name="EstimatorType" modified="No">MSE</Option>
    <Option name="NeuronInputType" modified="No">sum</Option>
    <Option name="V" modified="Yes">False</Option>
    <Option name="VerbosityLevel" modified="No">Default</Option>
    <Option name="VarTransform" modified="Yes">N</Option>
    <Option name="H" modified="Yes">True</Option>
    <Option name="CreateMVAPdfs" modified="No">False</Option>
    <Option name="IgnoreNegWeightsInTraining" modified="No">False</Option>
    <Option name="TrainingMethod" modified="Yes">BFGS</Option>
    <Option name="LearningRate" modified="No">2.000000e-02</Option>
    <Option name="DecayRate" modified="No">1.000000e-02</Option>
    <Option name="TestRate" modified="Yes">5</Option>
    <Option name="EpochMonitoring" modified="No">False</Option>
    <Option name="Sampling" modified="No">1.000000e+00</Option>
    <Option name="SamplingEpoch" modified="No">1.000000e+00</Option>
    <Option name="SamplingImportance" modified="No">1.000000e+00</Option>
    <Option name="SamplingTraining" modified="No">True</Option>
    <Option name="SamplingTesting" modified="No">False</Option>
    <Option name="ResetStep" modified="No">50</Option>
    <Option name="Tau" modified="No">3.000000e+00</Option>
    <Option name="BPMode" modified="No">sequential</Option>
    <Option name="BatchSize" modified="No">-1</Option>
    <Option name="ConvergenceImprove" modified="No">1.000000e-30</Option>
    <Option name="ConvergenceTests" modified="No">-1</Option>
    <Option name="UseRegulator" modified="Yes">True</Option>
    <Option name="UpdateLimit" modified="No">10000</Option>
    <Option name="CalculateErrors" modified="No">False</Option>
    <Option name="WeightRange" modified="No">1.000000e+00</Option>
  </Options>
  <Variables NVar="7">
    <Variable VarIndex="0" Expression="smallTheta" Label="smallTheta" Title="cos(#theta)" Unit="" Internal="smallTheta" Type="F" Min="-9.88485515e-01" Max="9.85404670e-01"/>
    <Variable VarIndex="1" Expression="bigTheta" Label="bigTheta" Title="cos(#Theta)" Unit="" Internal="bigTheta" Type="F" Min="-9.99703705e-01" Max="9.99862432e-01"/>
    <Variable VarIndex="2" Expression="comPhi" Label="comPhi" Title="#phi" Unit="rad" Internal="comPhi" Type="F" Min="-3.14131355e+00" Max="3.14112186e+00"/>
    <Variable VarIndex="3" Expression="GPtOM" Label="GPtOM" Title="#pT_{#gamma}/m_{ll#gamma}" Unit="" Internal="GPtOM" Type="F" Min="1.36367142e-01" Max="1.45451248e+00"/>
    <Variable VarIndex="4" Expression="diffZGvectorOM" Label="diffZGvectorOM" Title="(#pT_{#gamma}-pT_{ll})/m_{ll#gamma}" Unit="" Internal="diffZGvectorOM" Type="F" Min="1.67611835e-03" Max="3.01243019e+00"/>
    <Variable VarIndex="5" Expression="threeBodyPtOM" Label="threeBodyPtOM" Title="#pT_{ll#gamma}/m_{ll#gamma}" Unit="" Internal="threeBodyPtOM" Type="F" Min="1.10865303e-03" Max="4.17393541e+00"/>
    <Variable VarIndex="6" Expression="ZPtOM" Label="ZPtOM" Title="#pT_{ll}/m_{ll#gamma}" Unit="" Internal="ZPtOM" Type="F" Min="1.58683863e-03" Max="3.55387020e+00"/>
  </Variables>
  <Spectators NSpec="0"/>
  <Classes NClass="2">
    <Class Name="Signal" Index="0"/>
    <Class Name="Background" Index="1"/>
  </Classes>
  <Transformations NTransformations="1">
    <Transform Name="Normalize">
      <Selection>
        <Input NInputs="7">
          <Input Type="Variable" Label="smallTheta" Expression="smallTheta"/>
          <Input Type="Variable" Label="bigTheta" Expression="bigTheta"/>
          <Input Type="Variable" Label="comPhi" Expression="comPhi"/>
          <Input Type="Variable" Label="GPtOM" Expression="GPtOM"/>
          <Input Type="Variable" Label="diffZGvectorOM" Expression="diffZGvectorOM"/>
          <Input Type="Variable" Label="threeBodyPtOM" Expression="threeBodyPtOM"/>
          <Input Type="Variable" Label="ZPtOM" Expression="ZPtOM"/>
        </Input>
        <Output NOutputs="7">
          <Output Type="Variable" Label="smallTheta" Expression="smallTheta"/>
          <Output Type="Variable" Label="bigTheta" Expression="bigTheta"/>
          <Output Type="Variable" Label="comPhi" Expression="comPhi"/>
          <Output Type="Variable" Label="GPtOM" Expression="GPtOM"/>
          <Output Type="Variable" Label="diffZGvectorOM" Expression="diffZGvectorOM"/>
          <Output Type="Variable" Label="threeBodyPtOM" Expression="threeBodyPtOM"/>
          <Output Type="Variable" Label="ZPtOM" Expression="ZPtOM"/>
        </Output>
      </Selection>
      <Class ClassIndex="0">
        <Ranges>
          <Range Index="0" Min="-9.8181247711181641e-01" Max="9.8540467023849487e-01"/>
          <Range Index="1" Min="-9.9650317430496216e-01" Max="9.9850142002105713e-01"/>
          <Range Index="2" Min="-3.1413135528564453e+00" Max="3.1403920650482178e+00"/>
          <Range Index="3" Min="1.3636714220046997e-01" Max="1.0599957704544067e+00"/>
          <Range Index="4" Min="1.0852362029254436e-02" Max="3.0124301910400391e+00"/>
          <Range Index="5" Min="1.7367595573887229e-03" Max="4.1739354133605957e+00"/>
          <Range Index="6" Min="2.7940343134105206e-03" Max="3.5538702011108398e+00"/>
        </Ranges>
      </Class>
      <Class ClassIndex="1">
        <Ranges>
          <Range Index="0" Min="-9.8848551511764526e-01" Max="9.8526060581207275e-01"/>
          <Range Index="1" Min="-9.9970370531082153e-01" Max="9.9986243247985840e-01"/>
          <Range Index="2" Min="-3.1401276588439941e+00" Max="3.1411218643188477e+00"/>
          <Range Index="3" Min="1.3637056946754456e-01" Max="1.4545124769210815e+00"/>
          <Range Index="4" Min="1.6761183505877852e-03" Max="2.6240503787994385e+00"/>
          <Range Index="5" Min="1.1086530284956098e-03" Max="2.9350819587707520e+00"/>
          <Range Index="6" Min="1.5868386253714561e-03" Max="2.7795662879943848e+00"/>
        </Ranges>
      </Class>
      <Class ClassIndex="2">
        <Ranges>
          <Range Index="0" Min="-9.8848551511764526e-01" Max="9.8540467023849487e-01"/>
          <Range Index="1" Min="-9.9970370531082153e-01" Max="9.9986243247985840e-01"/>
          <Range Index="2" Min="-3.1413135528564453e+00" Max="3.1411218643188477e+00"/>
          <Range Index="3" Min="1.3636714220046997e-01" Max="1.4545124769210815e+00"/>
          <Range Index="4" Min="1.6761183505877852e-03" Max="3.0124301910400391e+00"/>
          <Range Index="5" Min="1.1086530284956098e-03" Max="4.1739354133605957e+00"/>
          <Range Index="6" Min="1.5868386253714561e-03" Max="3.5538702011108398e+00"/>
        </Ranges>
      </Class>
    </Transform>
  </Transformations>
  <MVAPdfs/>
  <Weights>
    <Layout NLayers="3">
      <Layer Index="0" NNeurons="8">
        <Neuron NSynapses="12">
          5.4175082305118187e-02 1.0155082282672345e+00 1.4829604856929144e+00 9.1496482508340682e-01 -2.6419305272502653e-02 5.9656554491324867e-03 2.1267123270630125e-02 7.3302493064989749e-01 -4.8128644931764292e-01 -7.4188760470363646e-01 -2.7565128072891798e-02 -1.3910822221743641e-01 
        </Neuron>
        <Neuron NSynapses="12">
          -5.6721176735804557e-01 5.3171902959981687e-01 -1.9230563551845700e-02 5.6223430076628306e-02 -1.0122565267029922e+00 2.3814269307642735e+00 -1.0514684479698586e+00 8.2456025106621700e-01 -6.1456480290992599e-01 -9.9081481022496787e-01 -2.0818436441983101e-01 -1.5434763297548199e-01 
        </Neuron>
        <Neuron NSynapses="12">
          5.0875429639105577e-03 6.5214803618773479e-02 -2.6177005558112343e-01 -6.0874279665323692e-03 -3.4423031287296374e-02 -9.1242172075165218e-02 -6.6486284296538467e-02 2.5292270889967622e-01 -2.5381997313131580e-02 -3.7500650338699099e-01 9.5319682817517945e-02 -1.1379085252480951e-01 
        </Neuron>
        <Neuron NSynapses="12">
          -2.0809705579522042e+00 2.3088659880422373e+00 -1.6912665881341378e+00 1.2506078000830481e+00 -8.1955896903958114e-01 -4.6895594914766328e+00 5.2210901877526252e+00 1.6100020771793393e+00 -1.3624292673520844e+00 -1.5543658418825761e+00 5.7318454837250261e+00 9.3514788983822217e-01 
        </Neuron>
        <Neuron NSynapses="12">
          -1.5093989035844666e+00 8.6255806917003930e-01 4.6704213404866252e-01 1.3118604546943289e+00 -1.0773904988047098e+00 -4.0994589243922591e-01 -1.1345207918481444e+00 -6.4936324618477370e-01 -1.2994978117823786e+00 -4.2941769908564870e-01 6.7264322260213509e+00 -1.2648245807367990e+00 
        </Neuron>
        <Neuron NSynapses="12">
          -2.5786661876670167e+00 9.5904405014553482e-02 -8.2515834960088108e-01 7.3696979654258077e-01 7.4808865029084348e-01 2.4487849538779757e-01 1.0304480516765107e+00 -1.1078086896759691e+00 1.5000764891370101e-02 -6.6487907983429229e-01 -5.1066673702181005e+00 -1.8501176316981123e+00 
        </Neuron>
        <Neuron NSynapses="12">
          6.9315237549043840e-01 2.2054078993335163e-01 1.2782158595888797e+00 -5.9280271548951123e-02 -2.0992206666143889e+00 1.2876905881754661e+00 -5.3129689487797067e-02 9.7206260818663293e-01 1.5408223842525006e+00 1.5233904580600788e+00 7.0737521404416559e-01 -1.4584907608966471e+00 
        </Neuron>
        <Neuron NSynapses="12">
          -4.0342303093454346e+00 3.9794843218708309e-01 1.3826273932800353e+00 -1.2870373303912586e+00 -2.7843822127959954e+00 -2.7211663534512427e+00 5.1669918277094560e+00 3.7154873539687810e-01 1.2948901859262301e+00 -5.3115698120960542e-01 4.6653023584344382e+00 -1.6622486130584518e-01 
        </Neuron>
      </Layer>
      <Layer Index="1" NNeurons="13">
        <Neuron NSynapses="1">
          1.0436517764834417e+00 
        </Neuron>
        <Neuron NSynapses="1">
          5.1455942920479295e-02 
        </Neuron>
        <Neuron NSynapses="1">
          -1.9798250816521332e-01 
        </Neuron>
        <Neuron NSynapses="1">
          -2.5444537486631386e-01 
        </Neuron>
        <Neuron NSynapses="1">
          -1.8370659372625695e+00 
        </Neuron>
        <Neuron NSynapses="1">
          -3.5507580278796119e-01 
        </Neuron>
        <Neuron NSynapses="1">
          1.0387593118105281e+00 
        </Neuron>
        <Neuron NSynapses="1">
          -6.5529230533226002e-01 
        </Neuron>
        <Neuron NSynapses="1">
          -7.5994866341775347e-01 
        </Neuron>
        <Neuron NSynapses="1">
          -4.8614170712738564e-01 
        </Neuron>
        <Neuron NSynapses="1">
          -8.8002709555451042e-01 
        </Neuron>
        <Neuron NSynapses="1">
          -6.4483012822342123e-01 
        </Neuron>
        <Neuron NSynapses="1">
          -1.0107242008110766e-02 
        </Neuron>
      </Layer>
      <Layer Index="2" NNeurons="1">
        <Neuron NSynapses="0"/>
      </Layer>
    </Layout>
    <InverseHessian NElements="11881" NRows="109" NCols="109">
      <Row Index="0">
        1.4842504809131265e-02 -2.3727106868527184e-01 -5.4103033047523966e-02 -4.8542330525522738e-02 1.4990049648632132e-03 -8.9026900519083838e-04 2.2447084619322947e-04 1.5853544831354982e-02 -3.2213145563340775e-02 -1.7116144448754086e-02 6.2744180598321340e-04 -1.1572670119549665e-02 -2.6214919538586970e-03 1.9877914952667416e-01 -1.0477744879306514e-02 -4.3459061403820365e-01 -5.1402630828382059e-03 1.3954123588181799e-02 -3.8065705247108325e-03 2.5809904127036369e-02 -4.1713622630120281e-02 -9.6836676024290320e-03 -1.0221584511326941e-04 -6.1788546234391893e-03 1.4419281978472382e-03 5.2487982717480119e-03 1.8077449576800353e-02 9.3824626452964882e-02 -4.8413064345429260e-04 -2.4855781067240935e-04 -6.3771206219511399e-04 1.6159933848676682e-02 -1.8558710413941332e-05 -8.4365866773322556e-03 2.0257432647748357e-04 -9.9327680959816339e-03 -3.3032358820773350e-02 -2.0470160018603498e-01 1.0823101948484336e-01 1.1227541367870875e-01 7.4382113185965859e-03 -3.4522183536748408e-02 2.6461940923225503e-02 -2.8726293574034764e-03 -1.7581802575790648e-01 6.2056865613275714e-03 5.1569435164525047e-03 6.7213016210941889e-03 -1.2343727521665727e-02 1.7794997355199214e+00 -1.6212349428273964e-01 -1.4655619267383595e+00 -4.7291059372111931e-03 -1.9004571306085440e-02 9.6006045971590639e-04 -2.4007956917393852e-02 3.8501548618894994e-02 1.5367052302580239e-01 1.2035847693895775e-02 -1.3245742214259577e-02 -4.9659163266467507e-02 1.2354724677064277e+00 -4.7341172243955738e-02 -2.0239993154870302e+00 2.3474271141596840e-02 -1.4695963842951652e-02 1.0663782909532725e-03 9.0612609863048602e-02 1.9377206132568617e-01 1.0863765547515500e-01 -1.9267061660369891e-03 -2.3186771417493746e-02 4.6342407980780129e-03 -1.7464456628677814e+00 1.1549845292990178e-01 3.7975737259089541e+00 -2.8416926481946152e-02 3.3027047470531576e-02 4.3968030405482517e-03 -1.0447898484528567e-02 2.0150606385670236e-01 -2.4109557474373761e-01 -5.4560324485599422e-03 -4.9929846170940317e-02 -6.5381658461241554e-02 5.8418339933374397e-01 -2.5023283578930772e-02 -4.9546083772136207e-03 -2.4239276371505226e-03 -2.6050298576890021e-02 2.8240824601695934e-02 5.6552804752753594e-02 2.9711724382230559e-01 2.6028566982663412e-03 5.8111313330173574e-03 -1.3552913124936328e-02 -4.5398632932846239e-02 3.0849860333144099e-02 -9.8342116522506413e-03 4.8725261371192527e-02 3.2048758355426518e-02 3.9585752561059730e-03 -8.7075058419806058e-03 -2.6517943515918130e-02 1.8932368805063776e-01 -3.6517702665160356e-02 1.2647538378619564e-03 1.8122139567788197e-02 -8.4250288750916363e-02 
      </Row>
      <Row Index="1">
        -2.3727106870828912e-01 6.1919348106195616e+02 -6.0049879179512999e-01 1.0524738438971588e+02 2.4901053827475858e-01 -3.7145664834553527e-01 -3.8964877268981235e-01 -1.8502439675436402e+00 1.0345824891622556e+01 2.6645945566666525e+00 2.6556599309400825e-02 1.0741062554829188e+00 4.0194282326924874e-01 1.0499871188012514e+02 -1.7958386475904127e+00 -3.2689105763260088e+01 -2.8772549528287461e-01 -2.6696039025050480e+00 4.6620739015834259e-02 2.8413906042383585e+00 3.3675008726139431e+01 5.1388301242300720e+00 5.9570065307365305e-02 -4.5442397322975756e+00 -4.9487871954871809e-02 2.0514007997397233e+01 -5.9867888626651289e-01 -3.1482500228294739e+01 4.9155874342252295e-03 2.5565202325799463e-01 -9.7118271921425831e-02 2.0603076661689008e+00 -1.2321481899270825e-01 3.1631179784111745e+00 -2.0580355392899947e-02 9.2894515579770087e-01 2.6051679343615834e+00 1.0447477372283827e+03 -1.5865403058450713e+01 2.4246191935922880e+02 1.5130659129505364e+00 1.0207853578298122e+01 8.2080613118766732e-01 -1.3426820782935625e+01 3.2026768786397319e+01 1.4823377927400687e+01 -3.0909535191472264e+00 -1.7339457561245936e+01 2.2668526180877935e+00 -5.1591160748286848e+02 4.1668013517867770e+01 1.3779662007875029e+03 -1.9355858541522342e+00 4.2229552880804393e+00 7.2089344597477956e-02 4.3517937378637399e+01 8.3743310767394519e+00 7.1586271606354845e+00 4.2964567324426808e+00 9.3175988873772901e+00 4.3536825595410829e+00 -5.4964624925018711e+02 3.8726524963447254e+01 1.0625043032860813e+03 -2.6721338646876744e+00 3.1827924671332308e-01 -4.4151342800307447e-01 4.8066874214389813e+01 -7.9307886310509048e+01 2.8886995368733182e+01 3.8163880803425130e+00 4.9542936635281194e+01 -2.1272178854613606e+00 1.2719273704851071e+03 -7.0876414987771170e+01 -2.3292201604255806e+03 3.4255127205777169e+00 -5.3584374828294745e+00 -1.9124326682527393e+00 -8.9031177348492221e+01 -6.7908062606466927e+01 -2.8950002276167950e+01 -7.0665846018163840e+00 -4.2717916721856710e+01 5.5283851282612737e+00 3.8440771226680897e+02 -1.1753388205391893e+01 -2.9289733617817802e+01 2.6341463820040900e-01 7.2580691642112960e+00 -1.3491171155612189e+00 -1.0743059785285517e+01 -1.1449473868274481e+02 1.6251231148082169e+01 -2.2165040988657507e+00 -1.1926722406572171e+01 2.3595662996017785e+00 -5.6100452926370160e+01 6.8907013495539049e-01 4.6534611745192883e+01 -3.8550325072167146e-01 -9.1801918185690956e-01 -2.5694503151325787e-01 -2.4099271741486717e+01 -1.0630710415527800e+02 -2.4116305306763291e+01 -1.8546804627686425e-01 -3.8121291933502111e+00 9.6990489988196387e+01 
      </Row>
      <Row Index="2">
        -5.4103033044258717e-02 -6.0049879243239712e-01 7.8069760266067547e+00 -6.9281829973742326e-02 -3.9550606195049871e-03 1.4704501314555097e-02 2.1895687394614990e-02 -1.6253193896559312e-02 7.9920906747603304e-01 -3.4919825460972720e-02 5.8712177026468901e-03 6.7541109721511283e-02 1.7142548980622022e-02 3.8013326101905704e+00 4.6923766241288878e-01 1.1109960266635682e+01 3.9655417667573613e-02 -1.3216118516689242e-02 -5.7878581674957914e-03 -4.5617278151504281e-01 1.4567051565195063e-01 -2.4776311861562011e-01 -4.9205538124404841e-04 5.0156407087860802e-02 1.2716003940659550e-02 -7.3392523773451801e-01 -1.0845519114544180e+00 1.2323760808780264e+00 5.0763734633608188e-03 -3.2563617345068574e-03 -3.9932122632183598e-03 -4.3849447424400684e-01 -1.7795017352118109e-03 -5.2418150786133245e-02 4.6800612263148880e-03 9.3808764542397949e-03 3.5502633825036919e-02 -2.5020813268523764e+01 -6.8779519154692856e+00 -2.7131352159667404e+01 -8.4454268524604220e-02 6.0616330778998265e-02 2.5616434861160159e-01 -1.8337997646997519e+00 -1.4326314954244046e+00 2.0640839677728984e+00 -2.0571113376822041e-02 4.9387977135925099e-01 3.5812697773713176e-01 -8.8334853928517756e+00 4.3446163361632557e+00 -6.5317152835446430e+00 1.1792190314784085e-01 -7.7897225490369634e-02 -8.8846743567478889e-02 -6.5918336538097488e-01 1.0778348653107868e+00 -4.0374913452664556e+00 1.9884042961058901e-01 -4.8434535618654806e-01 5.1349671641411243e-01 -1.7542562025802926e+01 -2.7099556404489418e+00 4.6104510561349386e+01 -9.7756616151817508e-02 1.1957109069584493e-01 -1.0322391514788631e-01 -2.2004841643653270e+00 -2.4954348483270272e-01 -5.4910191392162915e+00 -2.8766893363648890e-02 -1.3722015781034225e+00 -5.9625440458195877e-01 2.3853802058450519e+01 1.9666426339411291e+00 -3.5893582006684269e+01 9.2429760103438591e-02 -1.3318025247094023e-02 1.2247987747646749e-01 2.3851441031206844e+00 1.9213519024069301e+00 8.2859387623634131e+00 -1.5026763847011365e-01 1.6449585171016903e+00 1.8444935132048906e-01 -1.4734710742958445e+01 3.6419235768282932e-01 -9.1329933839465980e+00 1.9661213002131528e-02 6.6574788508391727e-02 1.8641905075393089e-01 -1.8691707505377619e+00 1.0407327649508542e+00 9.8955513968454389e-01 -3.7046008836881056e-02 4.1030362763181738e-01 1.8419104973919426e-01 8.6728597548728770e-01 1.5322612884784299e+00 -1.1573369650827567e+00 -1.7216882771470696e-01 -3.7666360299264678e-03 -5.7736555858370793e-02 2.0270151249395210e+00 2.9179904685675484e-01 2.1822120187988263e+00 1.1592071470539764e-02 6.1296629202895261e-03 -2.1148724166902579e+00 
      </Row>
      <Row Index="3">
        -4.8542330514944221e-02 1.0524738437239785e+02 -6.9281829784017646e-02 1.9264898647331822e+02 6.4663866089015545e-02 1.7942478325591635e-02 4.3631373203100862e-03 1.5895989599956339e-01 2.2122759652668300e-01 8.9033295073720861e-02 3.1622337908874573e-02 1.9484428863029459e+00 8.7311889737226561e-02 5.1684505443427042e+01 2.1088559714219995e-01 -9.6856174971825482e+01 -9.5060856084986066e-03 -4.7832819596914566e-01 9.0214344932008972e-02 3.8287536569645114e-01 2.3691367705921569e+00 5.4842101724532055e-01 -4.4901367266136340e-02 -1.9712655495250884e+00 1.3404531958885430e-02 1.3556367593913869e+01 -8.3781105252323518e-02 -1.0544236604367924e+01 1.9318584182246083e-02 -6.0856817582687350e-03 -8.9526560800729099e-03 -2.9363601885962584e-02 4.6663611540755706e-01 7.4512439022903865e-01 8.0344961142804292e-03 -3.2048725520602739e-01 2.9908012389511773e-01 3.1256457337388167e+02 1.0482271341741649e+00 5.0668251415870736e+02 6.5125159184734205e-01 1.7795767136056844e+00 -2.3861442788814624e-01 -4.1004743534269092e+00 -1.0932594105615703e+00 3.6713854176261074e+00 -8.2961179040494870e-01 -1.2696257070577666e-01 8.4436616143478238e-01 -1.7944060230431668e+02 3.8041989511753740e+00 3.2865174483094239e+02 -8.7720766439556497e-01 2.4154560982763815e+00 -1.6194878493719009e-02 8.0735242621536525e+00 -8.8475509292262231e+00 -2.1536146118556676e+00 1.1915506336828461e+00 9.9314086335096496e-01 1.7593268074148707e+00 -3.2215438935547564e+02 4.7483774996723609e+00 -2.6361721832299747e+02 -1.0702300401022911e+00 1.4486416183587703e+00 -3.4224544681221297e-03 1.0459156656075148e+01 -1.8342793547530452e+01 -1.8472930376664110e+00 9.3298201928529112e-01 1.2373926477692409e+01 -1.2610766199120227e+00 3.8795183242205303e+02 -8.9904537725584657e+00 1.8035593185712605e+02 1.6470224157420570e+00 -2.3277460152986347e+00 -6.6445376752350116e-01 -1.6362660840914202e+01 9.1762208870138693e+00 2.0919749406831225e+00 -1.9756395280566657e+00 -2.1370774617909476e+01 1.2236609929425017e+00 4.3697650145882477e+01 2.1860772028507256e+00 -3.0152040785808243e+00 3.9584013905242710e-01 2.4991422991553307e+00 -8.6300410173719899e-01 -1.7607625569101728e+00 -1.9034955842791344e+01 1.3064234456537145e+00 -7.2532695790344093e-01 -4.2967487302864695e+00 5.9988781292795967e-01 -1.3405106512060199e+01 -4.7105103448686392e-01 4.3198984426022626e+01 -4.5459404120178049e-01 -1.8030032501538273e-01 6.3816390572094928e-02 -2.2182238648472841e+00 -4.0747105872550096e+00 -2.6074485197900494e+00 -3.9461620943799326e-02 1.8970514916585954e+00 3.2421576264474176e+01 
      </Row>
      <Row Index="4">
        1.4990049649075085e-03 2.4901053818963248e-01 -3.9550606165368318e-03 6.4663866064595510e-02 5.3389934711514792e-03 -3.5179861924907060e-03 7.8046824280225398e-04 1.3609559521269717e-02 -2.7174690064981445e-02 -9.7576738703707856e-03 -2.4598479773187370e-04 6.0161205080295176e-03 1.8726660955521275e-03 -8.6228972202304632e-02 -2.3064876928891778e-02 1.3942866253188946e-01 1.4897907782870168e-03 -4.8755599165395142e-04 1.9012447576161845e-03 -4.1955013723622052e-03 6.8659257489469896e-03 -1.0605584815163362e-02 -9.5581942130302600e-04 -8.6622785937685680e-03 -1.0346537664863336e-04 6.3997286572444745e-03 2.8055659690083669e-03 -2.8140479537733909e-02 1.6430536515736778e-04 -2.9266273410243071e-04 -7.3611260982048158e-05 4.5471041453834689e-03 2.0127213290398564e-03 -1.7560730794923596e-02 2.3177365951712039e-04 1.5595319520792378e-03 8.2787266226978969e-04 6.7319781374342580e-01 -7.1030473942741285e-03 1.5626987036143497e-01 2.4629391563607207e-03 -2.6477699236004439e-03 -9.1122755002655577e-03 3.7404795702343167e-02 -6.1745209076497727e-02 -1.7663583600565559e-02 2.4800430629024922e-03 -1.7117247307854355e-02 1.4128377089890707e-02 -2.1563819501405884e-01 -3.6742293566493382e-02 6.1393990517823283e-01 -3.3100529369174702e-03 7.9863152247479710e-03 7.5816756824273399e-03 -1.5969602988303194e-01 1.4254994435771509e-02 1.4135899664859897e-02 2.8679467307808518e-03 -2.3127412459840263e-02 3.0010842933179911e-02 -2.9429352589677521e-01 3.5045352900091822e-02 1.2667965427336281e-01 -1.3332257178963140e-02 9.4194006823497354e-03 5.3082763588222052e-03 -1.2317256715576358e-01 -3.8438570425611621e-03 -1.0491934881826379e-01 -5.1684835310257570e-03 1.0631433494746073e-02 -2.9966299044888109e-02 3.8347308297226962e-01 -2.1237239622138311e-02 -7.5717650671078163e-01 7.6888974135375758e-03 -1.5898653552811372e-02 -9.7158468226478945e-03 1.8243623763148553e-01 5.1565151989569666e-02 1.3656947748575318e-01 6.6358349294883684e-04 2.9286625288283852e-02 7.4052272892991735e-03 1.1194565900900169e-01 -2.0639316415546477e-02 4.6759102144675158e-02 -4.3383805215215926e-03 -1.9397591920495083e-03 -6.4464888521025944e-03 -4.1598718849398517e-02 5.5372373101356537e-02 2.3791211850773882e-02 -2.2588787502145560e-04 -9.4336418937408725e-03 7.4776684264714361e-03 -2.1721329508781872e-02 -9.3558976309878611e-04 1.9710251841315272e-02 -4.6004234151181896e-04 1.7803319474241097e-04 2.9858866028523064e-03 9.4379096856374911e-02 -1.5911445364196475e-02 7.6371211964815097e-02 1.0827755826167682e-03 -6.3267558165475343e-03 3.0292623050489551e-02 
      </Row>
      <Row Index="5">
        -8.9026900530798816e-04 -3.7145664826853297e-01 1.4704501313215226e-02 1.7942478339201113e-02 -3.5179861924461439e-03 2.7441499474568490e-02 1.0666090969562929e-03 -1.0611880477949275e-02 1.8537890595403658e-02 1.6064009678457464e-02 -1.9851407973848320e-03 -9.4853647644305150e-04 2.0885550387153120e-03 1.1384608792248518e-01 -1.4198680276785482e-03 -3.7898824266363862e-01 1.3951993412951260e-03 -5.4701600796036292e-03 1.1090704536028811e-03 -9.1939538286593542e-03 3.0142022136213198e-02 3.4578856245690487e-02 1.9999876696850244e-04 6.5405819245113097e-03 -3.5908435724205838e-04 -7.0320439871910834e-02 3.0385265609549662e-03 -2.4406838379630758e-02 -1.0094720492092246e-04 6.9931436081093618e-04 -1.0749145456386629e-04 7.4630327230752972e-03 -8.0878594976327104e-03 1.0534481725466496e-02 -4.5316844601803034e-04 -1.5562097208347836e-04 4.1557704750151137e-03 -9.3957249156230005e-01 3.9818351970955394e-02 9.1109148925132544e-01 -4.0575267598841908e-03 1.8900442752377129e-02 6.3151368524469128e-04 1.9068663758246659e-02 -6.1400104378542389e-02 -1.7849545326926106e-03 -2.5752127429584546e-03 -1.9710291106237610e-03 5.1013045918617342e-03 -9.0926055316046472e-02 6.0817472983232590e-02 6.4438707745840151e-01 9.7519989409636503e-03 -1.3231046548997386e-02 4.9793787260740859e-03 1.5165913868256159e-01 -1.2768265849142688e-02 -2.3265823930824693e-02 -5.4259462037075344e-05 -8.2473886370991012e-02 -6.5402083060002569e-03 1.3744412773720516e-01 2.6745386785581960e-02 -6.9567413225022534e-01 1.3394760443798075e-02 -1.0185281853278022e-02 -2.7751264092801286e-04 6.0123421870760682e-02 7.7631821637791254e-02 1.6608839842266776e-01 6.5011276453016825e-03 -1.0546429299670625e-01 4.7315836139983627e-03 -4.8672077802141778e-01 -5.6705220996700972e-02 -1.1806402068633726e-01 -2.0929543982969603e-02 1.5322893035971681e-02 -3.7575313650620836e-03 -1.5566948484226314e-01 5.9882031501533470e-02 -1.5568274741237248e-01 -4.9833985752052385e-03 1.7005994019998050e-01 5.4746971517029182e-03 -4.0832352636401881e-01 6.9989521208968480e-02 3.1625206005480166e-01 -2.5164245824467989e-03 1.0797295667660502e-02 -2.8528810599676678e-04 4.5527853027565804e-02 5.6392481023183512e-02 -1.1288243317374855e-02 -4.0866931613544460e-04 -6.9831123821752494e-03 1.6040197516490190e-03 3.0656375145687184e-02 -3.4686825611266597e-04 -4.5032348065391749e-03 -2.2790617895585602e-03 -1.2222462237354425e-03 3.8180272260529080e-05 -9.0886154039327496e-02 1.7417804026978335e-02 -8.5053958306830921e-02 -6.5543958244910225e-04 4.7564632401960773e-03 -1.6988109921430275e-03 
      </Row>
      <Row Index="6">
        2.2447084625445789e-04 -3.8964877268801162e-01 2.1895687393101770e-02 4.3631373081549629e-03 7.8046824270751563e-04 1.0666090970333779e-03 8.3279290322251041e-03 -1.3424147543582879e-02 2.4576828816283498e-02 7.3128426504589523e-03 2.5053129365987530e-04 8.9344039900174366e-04 2.4168670042630850e-04 -3.7523269141134818e-01 -4.0368132156372027e-03 -2.0435174075560703e-01 2.0596885476891627e-03 1.0875305451887952e-02 -4.2691709782738635e-05 -7.3165861406819886e-03 -4.7362896939306669e-02 -4.2999956177736196e-03 -7.6843579018731991e-04 1.8053863782287096e-05 -4.4424727561790268e-05 1.9853551370035472e-02 -9.7893878034078334e-03 2.8480516824056057e-02 -4.8866852137604189e-05 -1.8551057947071284e-03 3.0945267294413313e-04 -1.0514492342635313e-02 1.7464981282815624e-03 9.4803224906683890e-04 1.2786842256960664e-04 -1.3195745525225941e-03 1.9427063689716265e-03 -4.2107318009708150e-01 4.2259712306235681e-02 2.4092821245153209e-01 2.2201322610103120e-03 -3.5122803906924974e-02 1.4732704618588482e-02 -8.1504561476230669e-02 -3.7422726488149857e-02 4.0688109182689135e-02 3.2931030867939920e-03 6.0327160993052520e-04 -6.6128732629804395e-03 5.2413312503414233e-01 3.6231978199813913e-02 -1.6974777993191557e+00 -4.6575620463740960e-03 -1.0027078389518267e-03 -9.6989912299054251e-03 -5.2534206896522745e-03 6.4379406825235186e-02 -7.3778873768527556e-02 -9.2710118449233162e-03 1.6001914580885068e-01 3.1762232696193656e-03 -1.6850825205035808e-01 3.7327570178020235e-02 -1.7568760279560804e+00 -3.1501656676579974e-03 1.5439890295695877e-02 -2.8711907123193992e-03 -1.2667292028400126e-02 8.7228208906943966e-02 -1.0607011197323010e-01 -2.9065768236139532e-03 2.3485390482682306e-01 3.6305680211174049e-03 -1.3619385737687681e+00 -6.3980394222922343e-02 3.1496393261980593e+00 1.0703506509534177e-02 -5.6204466699257445e-03 7.9924600442106992e-03 5.0301867722650231e-02 6.0918831266463941e-02 1.3279572973977746e-01 9.5711225321643539e-03 -4.0228805501400222e-01 2.8886739921816316e-03 -3.3011795756418932e-01 5.5528477598695336e-02 1.7106058254657708e-01 6.1160734946140386e-03 -2.1575884554383057e-02 8.7475893416852999e-03 -4.3877566332638201e-02 1.8917769778904475e-01 3.0504887090310809e-03 1.6991591280977394e-03 1.2673823522305408e-03 1.5722053975172120e-03 6.9642782301906334e-02 4.1352697241829346e-03 -5.1354084962537933e-02 -4.5933906975962335e-03 4.1092234284019410e-03 -3.7485387203567170e-03 2.1513986750411846e-02 8.9033931736491767e-02 3.4135680752616450e-02 -2.5863280745921143e-04 3.9794593926796573e-03 -7.8784938113728400e-02 
      </Row>
      <Row Index="7">
        1.5853544834235116e-02 -1.8502439705507749e+00 -1.6253193819757872e-02 1.5895989523284193e-01 1.3609559520752088e-02 -1.0611880478617193e-02 -1.3424147540317413e-02 9.5039566079453497e-01 -5.4583072643351327e-01 -9.6753986815930437e-01 1.6862818260912982e-03 3.0172896206446476e-02 1.7919366221299103e-02 -3.9903508760759223e+00 1.5647498458917530e-01 -1.0289769578625156e+00 -4.6955784802796718e-02 5.5132239880656311e-02 -1.4881193129548047e-02 1.3474818145237891e-01 -2.6846022925092294e-01 -9.3352082697432981e-01 -2.0064568564894386e-03 -1.3549091421813758e-01 1.7956059612123508e-02 -3.9598647764185024e-01 1.7479705275833557e-01 -3.0826107762728050e-01 3.1656712077190591e-03 -8.9915578494521586e-03 -2.2675770231012013e-03 2.3004396626830494e-02 1.9665559125516319e-02 -6.4136340825111016e-01 7.4442149633315163e-03 -8.2104358998531524e-03 -2.5001054158193509e-01 3.2864891593855026e+00 9.2090771104274372e-01 8.2691404146964125e+00 6.8997930960578019e-02 -1.5857136762140248e-01 -1.8911927119986849e-02 1.3801115141574494e+00 -5.9429589924253523e-01 -8.8372290807495268e-01 6.7300683113848070e-02 -8.5427933125333588e-02 1.1456287412378735e-01 1.4861700041810577e+00 -1.1181566902593558e+00 8.3285647503745164e-01 -1.6329354378433891e-01 -3.4907471251889061e-02 9.0682825503400691e-02 -3.4992148410782655e+00 -9.9696419789408175e-01 -2.0269544668373713e+00 1.0633928308262029e-01 -5.1748141622769128e-01 7.9991638351698646e-02 2.2149529120676301e+00 -9.2713365836308692e-01 -2.1465625319235556e+01 -4.1491710170824168e-02 -1.0102720523832864e-01 6.4367648526485882e-02 -4.3692293925049110e+00 -3.3128776757299688e-01 -4.4528566853487108e+00 -4.8850176421781688e-02 -1.7638514530483329e-01 -3.5739171661963437e-01 -2.7320256543085017e+00 1.1814754137623578e+00 1.8549442479224627e+01 -1.3478607475706422e-02 1.3342248192323125e-01 -9.8381206957913095e-02 6.2139458527688918e+00 9.2058307360075942e-01 6.3939640458075599e+00 -3.3836238071057650e-02 6.6808673057052204e-01 -3.2882474110412452e-01 3.2588558052159238e+00 2.8434394900424431e-02 4.6522178395718115e+00 -1.3542595759603276e-01 -1.1675790666157626e-01 1.8941015711679519e-02 -3.8181159966562267e-02 -2.5298436391997381e-01 -4.8819645121122457e-01 5.0274183559858632e-02 -9.4496308992150890e-02 -1.9318549247274308e-01 -1.6811493428421070e-01 -7.1641825696045686e-02 3.4736525520900446e-01 2.7589472072742982e-01 1.7347212006037876e-02 -2.0609159625036037e-03 3.3761521186292742e+00 7.2675150671495481e-01 3.0269773625182865e+00 1.7953427775253380e-02 -4.0742235822783246e-02 -1.9473062764919116e-01 
      </Row>
      <Row Index="8">
        -3.2213145574880565e-02 1.0345824899406610e+01 7.9920906740659348e-01 2.2122759899707489e-01 -2.7174690059561895e-02 1.8537890591884171e-02 2.4576828809692697e-02 -5.4583072627223084e-01 6.6084807043468397e+00 4.2837231524423774e-01 4.9126851605009632e-03 9.6616488287352809e-02 -8.1522999924417989e-03 1.9608991990501863e+01 2.2622191383051415e-01 1.6525953421881489e+01 2.8518309231468780e-03 -2.2824091209827896e-01 -3.8399943373716976e-03 6.9817267366686231e-01 5.1794084846916775e+00 1.1527492141021323e+00 2.2945607391326873e-02 2.7066435008268613e-01 5.1931368598307241e-04 1.4299353582285679e+00 -3.9254891305239425e-01 4.2195613970856609e+00 4.0673618270063621e-03 3.0381074445171713e-02 -3.8423313554014887e-05 1.9003544210576351e-01 4.0119166889186336e-01 1.0364977550191563e+00 -1.1410970277854694e-02 1.1333999884570978e-01 9.9931906474877596e-02 -3.0399502986802517e+01 -5.2786370447195086e-02 -3.4787895989761232e+01 -5.0450944981735024e-03 5.0499419780114430e-01 7.4279554961277944e-02 -1.7130891979775833e+00 1.1083396570000037e+01 6.6635655539845173e-01 -2.5565965626109655e-01 7.1400756395989062e-01 -1.2159830121503090e-01 5.0493652377574271e+01 2.8597933276074499e+00 -1.6244834453918525e+01 -1.5271333415380563e-02 1.6581626923018894e-01 -2.7360447247407896e-02 1.0701689420924930e+01 8.1663022883270422e+00 3.3737032593876872e+00 -2.3956195091728813e-01 -1.8853630083559851e+00 -1.2595377789247952e-01 3.1032808594774895e+01 1.2526142007277254e+00 7.7989309334648283e+01 -5.7532312045719597e-02 7.2747316418978941e-02 7.7226912580162496e-02 1.1692772956495489e+01 -9.3619165478698174e-01 9.0988338442860268e+00 2.7570612377227344e-01 -4.2377185113188807e+00 5.0072202670637045e-01 -7.1107089010189043e+01 -4.0001677410832688e+00 -6.4933652998196251e+01 2.1779180676502186e-01 -2.2217972131834940e-01 -1.0773182546860555e-01 -1.9645442244777584e+01 -3.9987340164937550e+00 -1.1542773802329753e+01 -1.9260493668758086e-01 6.5676183248510824e+00 2.9980257173598696e-01 -2.8153739854486915e+01 -3.0383195664320439e-01 -2.9492715547645787e+00 1.1841716089095766e-01 3.9633672247784701e-01 3.6294762063722397e-02 1.8965171951091309e-01 4.5022920685260255e+00 8.0685274141198682e-01 -2.7590883482607187e-01 8.6101189553295110e-01 2.0190236270128145e-01 2.5980056675544416e+00 3.0222861014288310e-01 -3.4386955581940275e+00 -1.8804245871852215e-01 -6.6594036514822388e-02 -3.8439354252213377e-02 -7.1259898351088751e+00 -7.0075668121313015e+00 -6.4396590672087699e+00 -6.3738081093787161e-02 -1.8173278307099383e-01 5.1960699093412810e+00 
      </Row>
      <Row Index="9">
        -1.7116144458480531e-02 2.6645945650239087e+00 -3.4919825659715187e-02 8.9033296998944689e-02 -9.7576738687445534e-03 1.6064009680718472e-02 7.3128426414007380e-03 -9.6753986816410831e-01 4.2837231579208146e-01 1.2684537292479379e+00 -5.5486577267053350e-03 5.2509809546914532e-03 -1.4887022793834200e-02 2.3172978261909520e+00 -8.7355348241377584e-02 5.2601890084346170e-01 3.6833313297910189e-02 -6.5959301417427368e-02 1.7958110018409065e-02 5.5192056808959811e-01 2.0826120623095895e-01 2.1434153338409936e+00 5.0956793206451273e-03 1.4208134587619370e-01 -2.6233403473926914e-02 -1.7782533191350680e-01 -1.2255786269912328e-01 -1.3995583951623480e-02 7.4092858837576572e-04 1.1591872388046653e-02 -3.7408938820501884e-03 5.0520645902393235e-01 -3.7732017295407760e-02 1.4817970213728537e+00 -9.8076608173199575e-03 2.2016561301652082e-02 2.5960318528142851e-01 1.1256679014128226e+00 -8.1307947881467613e-01 -3.3150676709600280e+00 -7.4935728015672901e-02 2.0711640874986392e-01 -2.2065087482302792e-02 -1.5709585474902623e+00 3.5959708087598452e-01 8.2001416532734095e-01 -1.0179281590523005e-01 9.2264384176672376e-02 -8.3114736616087259e-02 -4.2277747786731723e+00 1.3538249052261733e+00 9.9024626617131908e+00 1.8325424810805033e-01 4.4044143144322839e-02 -7.8090714149734772e-02 8.0796003828568530e+00 1.2603525223940776e-01 8.9396752312907548e+00 -8.5424567995026651e-02 -8.5211383465383661e-01 -2.1583639409043753e-01 -8.1902346484829067e+00 1.4207468398863969e+00 2.2287166838296542e+01 1.2513991407754160e-01 1.1420882236999597e-01 -8.1359705939710134e-02 1.2168896588878628e+01 -7.6656302016416000e-01 1.5552310084988381e+01 1.1376402991536612e-01 -1.7751414848693106e+00 4.7958897736459127e-01 1.0684521030525627e+01 -2.1487553989510411e+00 -3.1136964971071826e+01 -1.0697277456010383e-01 -2.0234823466985530e-01 1.2815752183797816e-01 -1.7182929537298246e+01 3.8445781903255805e-01 -2.2168419951141253e+01 -3.9811207209609178e-02 2.7459718365639105e+00 3.6136031882960323e-01 -7.7128345489577788e-01 -2.3585642253969596e-01 -2.0018419282808475e+00 1.0589486927947787e-01 1.1559432457842339e-01 -3.7216454095946358e-02 8.0116714832987002e-01 -5.3015592014288113e-02 1.5629167150395693e+00 -6.6282850007260863e-02 8.8208467558902159e-02 1.7580511779790467e-01 -4.8023174957157244e-02 6.5404169174147944e-02 -1.2204895812922829e-01 -1.9124063871709629e-01 -1.9690967501940840e-02 1.0256804495270635e-02 -9.1993478725580164e+00 -8.9699026148822047e-01 -9.0021167440175685e+00 -2.5882275447469773e-02 -4.9249429066745565e-03 4.8964037335528854e-01 
      </Row>
      <Row Index="10">
        6.2744180602527621e-04 2.6556599273487049e-02 5.8712177034520030e-03 3.1622337908053189e-02 -2.4598479771469430e-04 -1.9851407974148180e-03 2.5053129369656361e-04 1.6862818270054233e-03 4.9126851554339435e-03 -5.5486577292431687e-03 4.6970908111241255e-03 -3.5066226281565971e-03 9.3059217653879947e-04 -7.3321315026069200e-02 4.5800266777068499e-04 3.9915748510224835e-02 -3.2056894721755897e-04 3.9319955215810331e-04 -7.2687730025717900e-05 -5.4049830863256302e-04 1.0373287915262727e-02 -1.1240836425581015e-02 -2.3909713501067686e-04 -4.2149387452345023e-03 1.9955858960548446e-04 -1.3940850652349981e-02 -1.1516061618896956e-03 -6.5146163449145700e-03 2.4814878847734126e-06 -2.6570546404936705e-04 1.2546302604709673e-05 -3.7680872654306100e-03 -2.7680522271877912e-03 -5.0961500296077180e-03 -1.2582067011375848e-05 -9.7551721311028849e-04 -3.8694530343295307e-03 -1.0137256356883428e-01 9.2107368020735419e-03 -1.5135412900328613e-01 1.7932596662081750e-03 -2.2256527352545134e-03 7.8341720019075277e-04 -2.3909919184286553e-02 9.7368550666857671e-03 1.5790345127492146e-02 -2.9980176228711331e-03 -1.8255106826057153e-02 -4.4398938837614185e-03 -1.7054412633636482e-02 3.4645985749355165e-02 4.7965271195727621e-01 -6.0687472812514650e-03 1.0827064871150030e-02 -2.8264660972045436e-03 -3.1065978029357857e-02 3.0628059008819306e-02 -2.1554164954228999e-02 -9.8735458099865493e-03 8.3816724798892794e-02 4.3612838010530751e-03 3.6635757445316436e-01 -2.4821475162967288e-02 1.0645460725882172e+00 -6.1082343978938972e-03 1.2234527679345637e-02 2.0939847383724315e-03 -8.4233759139612022e-03 3.3035801225950998e-02 -7.4875525680326224e-02 2.4265380061987488e-04 1.7537448269783334e-01 -2.0751547346970255e-03 -3.2855665182541327e-01 7.4785842869382439e-03 -1.4365042679736244e+00 9.6161938676923905e-03 -1.9657891386411032e-02 -8.0548148820025998e-04 2.6819108241129184e-02 -9.4861432036462232e-02 9.8558034595237279e-02 5.3547315464705534e-03 -2.4888685495596130e-01 -5.0550435262497403e-03 -6.3311477941197652e-02 2.1395822376417364e-02 -9.4580512981906756e-02 -4.3108514843318013e-04 1.8763878793711091e-04 -7.8754006551964330e-04 -2.9632273654832272e-02 -3.3848763976552738e-02 1.8225848364229129e-02 -4.2580748931089103e-03 -1.0455736760137287e-02 -4.3479770490568043e-04 -3.8250211584841681e-03 1.3980788385641327e-03 6.9589655710993572e-03 -2.3783937449703115e-04 1.0850942971388656e-04 -2.6032840690335790e-04 2.8829707642561125e-02 -4.0599572298471866e-02 3.3376135959237350e-02 -8.3316228985928049e-04 -4.5913257004189401e-04 3.8941454116283698e-02 
      </Row>
      <Row Index="11">
        -1.1572670119737956e-02 1.0741062553218561e+00 6.7541109733557647e-02 1.9484428863055978e+00 6.0161205085624342e-03 -9.4853647696996335e-04 8.9344039917456375e-04 3.0172896224229112e-02 9.6616488234435610e-02 5.2509809033388973e-03 -3.5066226280158208e-03 2.0224009020203715e-01 6.6324526135513031e-03 -8.2025912085288155e-01 -1.3590971959446918e-02 -4.4262550591000949e-01 -3.6019814861292009e-03 -1.4048270655193850e-02 4.9686326098059863e-04 -1.5067890694407083e-02 4.4175933644237692e-02 3.6345915428709935e-02 2.7313539678108789e-04 2.9022622042358712e-02 -2.9820646793204835e-03 -7.1908184844906908e-02 -1.2837307728563729e-03 -1.7309018068866866e-02 1.0035078460357478e-03 -8.3723655989380048e-04 -7.2664288958873536e-04 9.1121654868752261e-03 3.1820878102906602e-03 2.2644499525131439e-03 -6.0208754291954554e-04 1.3655671152050269e-02 3.9340834886753502e-02 -4.7512088834885613e-02 -1.8682158538484334e-01 6.9850396907226751e+00 -1.8408007268168082e-02 7.7993981835138282e-03 -2.0339529899252900e-02 2.0356344910214999e-01 -8.0355550421296051e-04 -1.2055362723489924e-01 -7.2971131741637069e-03 1.1655697771359996e-02 2.5813718073079323e-02 -2.1985813401366343e+00 3.1883570674363076e-01 5.8767605479632810e+00 5.7680816065329536e-03 4.6140654457547531e-02 -4.2687065908788985e-03 -1.3242826635828081e-01 -1.6614872151572119e-02 3.4809968552247314e-03 -5.3194938853339093e-03 -8.2583954397324688e-01 1.1151644392777941e-02 -8.4315406521508862e-01 2.9555752307101069e-01 -2.6584291921732834e+00 1.0896726142116306e-02 4.7162840505279163e-02 1.5092997873856076e-03 -2.9985458560719669e-01 -7.7908388920569699e-02 1.7776546171630869e-01 1.9773203853105419e-02 -9.7233194399260214e-01 2.4714851863930999e-02 2.5185086135434229e+00 -3.9477915239253170e-01 -2.4095799981563091e+00 -1.7304499185158584e-02 -6.5914655991526766e-02 7.6817882315334887e-03 -7.1585832670305494e-02 -6.8046069462761413e-02 1.8903731251964256e-01 -1.8745513121680053e-02 1.9680994645694865e+00 7.9149689417299274e-02 -8.5107532497481309e-01 4.0083103620517979e-02 2.6210185722553860e+00 -2.1898172791793853e-02 2.6338785435490925e-02 -1.3499718717769837e-02 -2.5714855600939590e-01 -1.7431275837465310e-01 2.2057075826323913e-01 -7.0602967589642879e-03 2.6760630586408075e-02 3.5875775557200798e-02 -3.0888975004732089e-02 1.1316735512284595e-02 3.1085981325957995e-01 1.9948647147635726e-02 -2.9813126463633637e-03 4.2012621649792255e-03 3.5778324680452764e-02 -2.4715101010131613e-01 -4.9865848482612378e-03 -3.2754015195503835e-03 -2.2285447350411935e-02 5.1628604173795767e-01 
      </Row>
      <Row Index="12">
        -2.6214919537753721e-03 4.0194282308647861e-01 1.7142548989500517e-02 8.7311889689663524e-02 1.8726660954956572e-03 2.0885550386072343e-03 2.4168670067382936e-04 1.7919366223186139e-02 -8.1523000095712513e-03 -1.4887022802309541e-02 9.3059217651608739e-04 6.6324526122709671e-03 6.9886663808819652e-02 -1.5689453604110781e-03 8.6356445330766363e-03 3.3683879081720813e-01 9.5193290598894406e-03 -1.1448424241381160e-02 3.2412954808204483e-02 -5.8202812913728905e-02 3.2646282249503271e-02 9.7231359708064950e-03 -7.9732648269549844e-03 -6.6369167594442835e-02 1.1399055777739225e-03 -3.0658806628781676e-02 -2.1160830551463228e-03 -9.6148370279656753e-02 1.3258921983668377e-03 -2.8823306312117788e-03 2.2431875817347431e-03 -1.3753362119481135e-02 2.4330985187661289e-03 -3.0702542293997333e-02 -3.7025348204642770e-04 8.7584231042092259e-03 2.1827069375177272e-02 6.4044305704529347e-01 3.0630271262200217e-03 2.1973172302463390e-01 -1.7184252784217570e-03 1.8229104185336520e-02 -1.5078355941043309e-01 -2.0367107303948580e-02 -6.5754977056099839e-02 3.8092712175554294e-02 -8.5016907085465158e-03 4.0428220579517601e-02 1.2627740300846560e-01 -1.4009500252729268e+00 1.5749235091661873e-02 2.7573190029374430e+00 -4.1655827017903116e-02 1.0464130696134247e-01 2.5525833269401221e-02 -2.0188899542376151e-01 -7.8640261334045419e-02 -1.6966368655069683e-01 -6.3280888686883835e-02 -3.0807551052101712e-01 9.0314231071376483e-02 1.5852543272779296e-01 -4.2209945223960682e-02 3.3796680256836744e+00 -1.0851219560341589e-01 1.2669610776369597e-01 -3.3819004249918065e-02 -2.9798755541181488e-01 -4.8372628334612672e-02 -3.5726214595859335e-01 -1.8869814357754824e-02 -3.7494181288365797e-01 -3.2909911063280485e-02 6.0402447874334397e-01 -2.0050526952271663e-02 -6.1047408792850613e+00 1.0929171457299719e-01 -1.9832166168276644e-01 2.1976110777868155e-02 3.5449126080013438e-01 -1.0093645373831725e-01 5.4732860876256650e-01 3.6840926141122915e-02 7.8205387284120254e-01 1.1958632999255937e-01 -2.6444152968045392e-01 -5.2324940202593262e-02 7.4275525446323432e-03 -5.0446567349254456e-02 3.3412022305815671e-02 -1.4708000014148459e-01 -1.0797344921275234e-01 -1.4056906016308229e-01 4.8658135311668654e-02 -3.1902034978353394e-02 4.5626004105466723e-02 8.4197931449736585e-02 -4.0500878311074379e-02 6.5927172942566378e-03 6.4508482200567631e-03 -4.0488167021273565e-02 8.7557002797651259e-04 4.7997595236522826e-02 2.2113329288928782e-01 -1.6966436395763659e-01 2.1174971326290432e-01 -1.7205915114590414e-03 -3.9045356255827758e-02 1.2115256274302151e-01 
      </Row>
      <Row Index="13">
        1.9877914952308573e-01 1.0499871188678685e+02 3.8013326100433602e+00 5.1684505444291062e+01 -8.6228972205219176e-02 1.1384608792560513e-01 -3.7523269141639481e-01 -3.9903508762106386e+00 1.9608991990974832e+01 2.3172978265233120e+00 -7.3321315025611788e-02 -8.2025912083827990e-01 -1.5689453674969656e-03 4.5318828664039074e+02 -1.4623689800361319e+00 1.4522135163342404e+02 2.3061797318020390e-02 -2.3692826191190619e+00 -1.7391655848360169e-01 -1.4516640097355729e+00 2.8854700042181889e+01 9.2116022391616537e-01 2.1616713843338076e-01 1.8872399397979169e+00 -2.2251638710363411e-02 1.9167326657938968e+01 -2.6069380093140069e+00 1.2013337365916769e+01 -4.9272931129170153e-02 2.3954293630482959e-01 -4.5849781086298717e-02 -6.0548171281149954e-01 2.1497852747104571e+00 2.1811420154293795e-01 -4.9805031225289606e-02 3.7435316542752783e-01 1.5003838317109452e-01 3.5519612095244881e+01 -1.2008225831472410e+01 -7.9707492642077327e+01 -2.1086575270714680e-01 1.0173540143712344e+01 2.9738688823089392e+00 -7.1670407480591258e+00 1.9163314346130353e+01 5.8982089523857688e+00 -3.0328207904697631e+00 -1.5111175554428447e+00 1.5956136336777309e+00 2.5651158267857926e+02 6.7751709808530975e+00 -3.6537698170744125e+02 3.5253664018160658e+00 -2.4956172946139774e+00 1.5591526500397048e+00 7.1408104764797633e+00 1.2885301801553545e+01 -4.7663821178727179e+00 4.1069459102828958e+00 1.7850806217150001e+01 -1.2747783899296488e+00 -3.4173339157771625e+02 1.7292640127550657e-01 -4.2868574583807435e+02 1.9638442658594564e+00 -5.3558866873167821e+00 1.3756932306819332e+00 5.5394153090781186e+00 -1.5157103036402313e+01 -8.1181936414221649e+00 2.3852747491630826e+00 2.7342680733453999e+01 -1.3346720066060678e+00 2.2282040270371454e+02 5.5680989953315612e+00 9.4847602462359851e+02 -4.8483324466789135e+00 6.6300971467613401e+00 -3.2708349968944481e+00 -8.4383699393932723e+00 6.2296884692589728e+01 2.2780802931151483e+00 -6.3440408065990184e+00 -4.6053488941214994e+01 -7.7108324113159044e-01 -9.6081570222224883e+01 -4.2842901308486319e+00 -1.2387515104676619e+02 6.3931335055458005e-02 7.4504843518996928e+00 2.3437842025793749e+00 -9.0516739223017195e-01 4.2153081964180245e+01 -5.1407644353795696e+00 -2.9111158569406195e+00 -2.4467374094462480e-01 -4.6679939749319238e-01 5.9262780521222460e+00 2.9424924742282679e+00 -2.0213399993915528e+00 -7.3725474784048961e-01 -8.3017364227193302e-01 -1.1032570833959081e+00 -3.7372943012976373e-01 8.4100035841215259e+00 4.5283735274913733e-01 -1.6404706316266152e-01 7.3794802716366359e-01 -7.8891348599215245e+00 
      </Row>
      <Row Index="14">
        -1.0477744880840561e-02 -1.7958386463018012e+00 4.6923766237685444e-01 2.1088559740291130e-01 -2.3064876928784239e-02 -1.4198680272028679e-03 -4.0368132169677834e-03 1.5647498458090930e-01 2.2622191393900198e-01 -8.7355348220695628e-02 4.5800266812886462e-04 -1.3590971951622843e-02 8.6356445342286973e-03 -1.4623689801017044e+00 9.1605075417672754e-01 -1.7351112810089528e+00 7.4326142071090484e-03 6.7579461217904299e-02 7.7867101191716158e-05 4.3574052724606371e-01 1.0953911040833925e-01 -6.0857424878776857e-02 -8.1723789197798193e-03 -1.2960294668994204e-02 5.7561772041555791e-03 -4.0111665486998138e-01 -2.4314036024403962e-02 2.7535091068892736e-01 1.0370895626371448e-02 1.4391549414924099e-03 -1.0557496785914191e-03 4.2262138068481864e-02 7.4555782827913364e-03 2.0752055898858351e-01 1.0957729168532028e-03 -1.8689893004094404e-02 1.1040530752477226e-02 -6.5412236170105666e+00 -5.4731973075245277e-01 -1.6891333119709349e+00 1.0496690802192266e-01 -2.3553639125647535e-01 8.7190392362590713e-02 -4.7030904427357695e-01 2.3046397589112599e-01 3.6472840219761682e-01 1.9733225462432093e-02 8.5601007593333334e-02 -4.1381282593510205e-02 3.8827186342203218e-01 7.0787333756711490e-01 1.8468804387804014e+00 -5.1406063733542055e-02 4.4535054460182785e-02 -1.2020391688691651e-02 1.6647183744756469e+00 -1.3869932920115291e-01 6.6763679753303373e-01 4.5234290831124117e-03 1.4593380752506574e-01 -5.9532656970586934e-02 1.0179049594863123e+00 -1.0224983089729489e+00 1.3333942590540627e+01 4.6863255878435151e-02 1.4412890090080938e-01 2.1732082031075829e-02 1.5056001714130505e+00 -5.7364551703578326e-01 2.2492914059246911e+00 1.5472309951972060e-02 2.9073663614196005e-01 3.0809348136772753e-02 -2.3993382155326444e+00 1.1148705911198713e+00 -1.4276070481705911e+01 -3.3671141132381351e-02 -1.2047816866008168e-01 -2.5554021357458934e-02 -2.1813588786587541e+00 1.0491309841083347e+00 -3.0657945325664766e+00 -1.5315492770424863e-02 -5.3184066876650427e-01 -2.6770799880714999e-02 -2.5772389920832994e+00 2.2098965262679604e-01 -1.0851928990594191e+00 7.1886110926500740e-02 -1.4479677273962424e-01 5.3617177811708855e-02 2.6067931835291291e-01 3.5898303216329785e-01 1.3031351814922815e-01 2.0247085709321599e-02 3.2647967349841323e-02 -2.9758553138678534e-02 2.4423962553730585e-01 8.4484150520200127e-02 -8.9103307734297477e-02 -3.6781113621536139e-03 2.2301008189182552e-02 -2.1131612639856100e-02 -1.2064050683080625e+00 4.3645348770305445e-02 -1.1971185671221056e+00 -7.1669427575838524e-04 1.9732783267338003e-02 8.9315810011618632e-03 
      </Row>
      <Row Index="15">
        -4.3459061404426702e-01 -3.2689105771838804e+01 1.1109960268070836e+01 -9.6856174968451882e+01 1.3942866256347980e-01 -3.7898824272553711e-01 -2.0435174073337303e-01 -1.0289769563759168e+00 1.6525953416595904e+01 5.2601889619701370e-01 3.9915748530244599e-02 -4.4262550596972972e-01 3.3683879089213420e-01 1.4522135163203166e+02 -1.7351112817256080e+00 8.5994419975403832e+02 -3.6800005133082780e-01 6.9798117513560953e-01 -5.5822630131989937e-01 -7.1923786715787958e+00 2.6093109027189950e+01 -2.1646592168261716e+00 3.0334527948845391e-02 -3.1815982539917718e+00 -7.7537473709763771e-02 1.6271091408796220e+01 -2.3159394537190678e+00 6.3834038618128034e+01 -6.5908153252921597e-02 6.1199958815856659e-02 1.4251458219299462e-02 -3.0969635601254000e+00 3.0846367365866003e+00 -3.8104826642306340e+00 -3.6771075118105991e-02 8.3211942320918830e-01 -1.9508122567178967e+00 -2.9871056527165672e+02 -1.7558864082839612e+01 -3.4700902654828280e+02 -2.2780670744979115e+00 -2.6304443663985584e+00 1.8526588347756074e+00 -9.6196412971121559e-01 6.2810992853177964e+01 5.4667935612404115e+00 2.5225501859689048e-01 4.1356069547664269e+00 2.2706829499143844e-01 2.8975998304252448e+02 -8.5757823701539131e+00 4.0316160476476398e+01 2.2919622648526916e+00 -1.1265882390842492e+00 -1.1755985015011061e+00 -2.3291145175546465e+01 2.2587380805694519e+01 -3.5875020467065717e+01 3.7975757402942278e-01 1.6263304528063873e+01 -2.8681516927511126e+00 7.3176940311301692e+01 -1.9521004890679279e+01 -8.2988356530103238e+02 2.6121201630912321e+00 -9.2289450166741549e-01 -7.1402471354303687e-01 -4.3244048348207833e+01 -7.8190002089188013e+00 -5.2910438672576930e+01 -3.6763802666613676e-01 2.9435145231485070e+01 2.2995219977403885e+00 -2.2130662959205836e+02 3.1803455903208963e+01 5.8682408466656568e+02 -5.3692103785940564e+00 -1.9702392027676634e+00 1.5028861952185553e+00 5.4391926956120429e+01 -3.1079631079519768e+01 7.5176925588832688e+01 -1.5200451370466208e+00 -4.2696747094453315e+01 -2.0209058736350967e+00 -1.9108102231059445e+02 -1.4829996841543696e+01 3.1712852293164741e+02 -3.1061360103340316e+00 -5.2798699832651970e+00 1.5978501629333319e+00 -9.7897250418870527e+00 2.8958518007690685e+01 -3.1546428670745299e+00 -1.0480745972630898e+00 4.3703148839394101e+00 -6.2048869900724668e-01 2.5572045931114317e+01 5.0647526468390520e+00 -5.5871606732687177e+01 2.8091410659516489e+00 2.1523104780440810e-01 -4.1759252917135170e-01 2.8394536326943200e+01 -5.0914020613166393e+01 2.9369841617667163e+01 -8.2817338578720923e-04 -1.8671921344290148e+00 1.5078876926201721e+01 
      </Row>
      <Row Index="16">
        -5.1402630826393701e-03 -2.8772549552994942e-01 3.9655417673899240e-02 -9.5060857279926081e-03 1.4897907779226906e-03 1.3951993414485081e-03 2.0596885480483901e-03 -4.6955784812042593e-02 2.8518309374399413e-03 3.6833313319292911e-02 -3.2056894734017183e-04 -3.6019814880855483e-03 9.5193290592417296e-03 2.3061797344325896e-02 7.4326142105466397e-03 -3.6800005138617564e-01 5.0576739478183502e-02 -3.8121042665492377e-02 1.4081151367143408e-02 -6.4884710776911769e-02 -1.1205880841122659e-02 -1.8400074500718389e-02 -1.0550213930384245e-02 -7.7300233179147804e-04 -2.4045553284064878e-03 7.0410617662833297e-03 -1.2082423976957246e-02 -3.8191899559102183e-02 2.0586488988354147e-03 -5.0727664926503071e-04 5.0258874291061204e-04 -4.0402852032721877e-02 2.3865208753942428e-04 -2.1007896954882359e-02 -4.8121469581311220e-04 -1.5757033250516916e-03 9.8447360933572217e-02 -1.2465280535636030e+00 -1.4881306521998865e-02 -7.6397747626435453e-01 -2.7445513025502952e-02 8.9227504398416702e-03 -1.1634311697134415e-01 -5.9324918513196580e-02 -1.1411059815564763e-01 6.5861157536480405e-02 8.5167875117797831e-03 9.2519292277398246e-02 1.0952974168660702e-01 -7.1879390541402743e-01 1.3237420807711681e-01 1.0796079427939484e+00 2.8576922076170727e-02 1.5134743624036121e-02 3.5321037541472082e-02 -4.5614634001711535e-02 1.4482978668572150e-02 -4.9723647409183896e-01 -4.9081295473139795e-02 -8.3494352695461571e-02 3.0288106109150797e-01 9.3919680969600872e-01 -1.3640362444299612e-02 4.5430519908854246e+00 -1.2707386027681050e-01 1.2927979866342296e-01 6.0326692654603969e-02 -3.7402469435414726e-01 9.3337346601472693e-02 -5.2757157387784237e-01 -2.0097309379563583e-02 -3.4895412909658019e-01 -2.1520172908399418e-01 -1.2363671765409694e+00 -1.4084677531454745e-02 -5.1773661848191725e+00 1.5003410532303307e-01 -1.4995425848113614e-01 -9.7813598385150968e-02 4.7885873122570999e-01 1.6352725491924291e-02 7.9630364410013088e-01 3.8814790740744981e-02 3.4720559602277512e-01 1.9437060530326083e-01 -9.2868421208942842e-01 7.7777215581167625e-02 -8.9206452034053652e-01 3.5379037950400365e-02 1.0452716000922020e-03 -1.0425530072665597e-01 -2.8138651185066615e-03 1.1278674340188936e-01 -8.8260015795846872e-02 -1.0130288746281349e-02 5.4487328946721224e-02 1.5652184227651070e-01 2.5969519085133945e-02 1.2013713318777017e-02 -2.9204370952821943e-02 -1.8419733072441069e-01 -4.5902367987356862e-03 3.2152446199069387e-02 2.2792893859693367e-01 -9.2063330079643606e-03 2.5593126074243078e-01 9.5755072846901009e-04 1.2359233485040590e-02 -6.7972086692742642e-02 
      </Row>
      <Row Index="17">
        1.3954123588573474e-02 -2.6696039028238543e+00 -1.3216118506342189e-02 -4.7832819599859111e-01 -4.8755599109845361e-04 -5.4701600801211545e-03 1.0875305452052402e-02 5.5132239897729973e-02 -2.2824091215133607e-01 -6.5959301454926331e-02 3.9319955220867842e-04 -1.4048270656201678e-02 -1.1448424240457958e-02 -2.3692826191057712e+00 6.7579461213294612e-02 6.9798117504339530e-01 -3.8121042664236146e-02 8.6449784709362310e-01 -4.3670108501808608e-02 5.8261169236928229e-02 -2.0466882323704449e-01 -1.3023556063995198e-01 1.0228887830172256e-02 7.3208978838778332e-02 3.3376324546560733e-03 2.1187198875185875e-01 -2.8983716470234233e-02 5.5245107790121040e-02 -5.9462228331162393e-03 -4.9644976631961837e-02 2.8796517027288374e-03 -1.7238775723259828e-02 2.4331638509889848e-02 -3.5154147304711336e-02 6.3302718092940174e-03 -8.6312261633103536e-03 -2.4039173920574550e-01 1.4181104878881137e+00 -2.6426517356415835e-01 -5.6345251790013551e-01 -1.5687821837855007e-01 -1.9077392108286342e+00 1.7916340134837094e-01 5.6276239346491660e-02 -3.4366388374503709e-01 -1.4529855540946796e-01 2.4791084100262581e-01 5.1115958590490229e-02 -1.5076429531396490e-01 1.2921626456252040e+00 -3.5334649495714426e-01 -3.3883738011116336e+00 -7.8376397565455669e-02 -2.4244967588840999e-01 5.6277142197502100e-04 -8.3003219257158045e-01 1.5753799012127501e-01 4.2105186765523200e-01 4.1512557354645663e-01 -5.0016361341231286e-01 -2.2597149866098945e-01 -2.0426007742199452e+00 -1.4080796277714897e-01 -8.2298040640777970e+00 1.8017197335148363e-01 2.3683468254484127e-01 -1.1784090529436729e-01 -5.3011580098947375e-01 2.3403747424016152e-01 -1.7816917340997337e-01 -2.7101217134052330e-01 -9.0211074967498306e-01 7.1094207809303755e-02 -3.8271843725116250e-01 3.3878683078333544e-01 1.1310618251753434e+01 -2.6816755261442793e-01 2.9339492925459759e-01 8.7929485851221068e-02 1.1518753078373529e+00 2.9848382849153310e-01 -1.1656670841434633e-01 -4.8256851977374060e-03 1.3347566635992623e+00 -3.8904215182916535e-01 2.8566450407886599e+00 -2.9300747429746066e-01 7.0432997021835142e-01 -2.7352037574229088e-01 -1.2442124702409898e+00 1.0757085018711564e-01 -3.5254751984837046e-02 7.1286286906660157e-01 -6.7894904922603166e-02 2.2300144220045859e-01 1.0026726724139255e-02 -2.0880099212745723e-01 1.5533133614607775e-01 -3.9758862373198423e-03 -1.6001677346770139e-02 3.6123708678521183e-01 2.0148794572080711e-01 -4.3534428615222560e-02 2.9402316554023156e-01 3.4929950201234145e-01 2.6826183524548086e-01 6.5080943022107193e-02 2.6432569748621002e-02 -5.7483834975496924e-02 
      </Row>
      <Row Index="18">
        -3.8065705246846720e-03 4.6620738963184784e-02 -5.7878581645497834e-03 9.0214344887657227e-02 1.9012447573588096e-03 1.1090704537629528e-03 -4.2691709644615073e-05 -1.4881193135583722e-02 -3.8399943246332901e-03 1.7958110031187493e-02 -7.2687730086999202e-05 4.9686326019499072e-04 3.2412954807740993e-02 -1.7391655846858578e-01 7.7867103234527391e-05 -5.5822630134957407e-01 1.4081151367061838e-02 -4.3670108502966529e-02 6.8552769637800298e-02 -3.5153213889081825e-02 -2.2534194457897623e-02 2.0875756847885492e-03 -6.1026059811795340e-03 -3.9244888176737644e-02 -1.4583512980570973e-03 -1.8250286773421383e-02 -6.3520862261451372e-04 -1.0015762927964555e-01 3.4843866119333669e-04 9.4932396426435799e-04 1.6922010446424629e-03 -3.1235739861569987e-02 3.3857866748649729e-03 1.2440580763763989e-02 -5.5636419458395989e-04 1.0182685675629161e-03 7.4038668728017537e-02 4.3977767426757253e-01 6.1552023228834796e-02 -1.2932211260404819e-01 2.6620410114494515e-02 1.4077726370196841e-01 -2.4269570930501336e-01 -4.5234289059305696e-03 -6.3040032526457138e-02 3.5398237478843908e-03 -1.6218777231213181e-02 3.9815155126169122e-03 1.0543185820588988e-01 -1.4135067711261637e+00 6.4930962145125531e-02 1.0829663866594246e+00 -2.4556802338053858e-02 8.2627493283741332e-02 7.3834327547149220e-02 -2.3986593425264401e-02 -5.1175763293706239e-02 -1.7445460371145849e-01 -6.6736424084993320e-02 1.1233972451591362e-02 1.6017635351612364e-01 -2.8903131795518866e-01 3.5364919391349017e-02 3.9400054969071023e+00 -1.1114936624424614e-01 1.2964745227606442e-01 -7.8468955177121817e-03 -5.2549212908225743e-02 -7.8470366818075066e-02 -3.3589679367660530e-01 -1.2738128614452421e-02 5.2768670173524490e-02 -8.5201210920080081e-02 5.7241172700755860e-01 -9.9366337704378693e-02 -4.5627250866973261e+00 1.1925382747518876e-01 -1.5946798482567950e-01 -1.3186057069548306e-02 9.3832791673687216e-02 1.4789446270222259e-02 4.2720429765164075e-01 4.6777589551478434e-02 -5.6513209133748965e-02 1.5835153638947150e-01 -3.2656073079165848e-02 4.3118040250754941e-02 -7.9605564395843353e-01 9.9947569408211801e-03 1.3016643635846387e-01 -2.0071031088483854e-01 1.2866214633149228e-02 -8.2511949474223689e-02 -5.2576988149041236e-02 -2.8050225699855384e-02 2.2088942319236429e-03 1.1316934710123287e-01 -4.8166992583882781e-02 -3.4362679527330190e-03 4.2475503241256353e-02 -9.5690002252729056e-02 -9.6102092103182990e-03 6.4000997730445638e-02 9.8894433917661770e-02 -4.6895006410255492e-02 1.0333778169343749e-01 -3.5797088921825653e-03 -1.4630802689084189e-02 4.9126238536596010e-03 
      </Row>
      <Row Index="19">
        2.5809904089029903e-02 2.8413906355323828e+00 -4.5617278227759961e-01 3.8287537227486235e-01 -4.1955013697802801e-03 -9.1939538156414757e-03 -7.3165861740411772e-03 1.3474818130165866e-01 6.9817267622993884e-01 5.5192056844651483e-01 -5.4049830030009072e-04 -1.5067890501507808e-02 -5.8202812884755539e-02 -1.4516640106286616e+00 4.3574052722241685e-01 -7.1923786538922059e+00 -6.4884710858117089e-02 5.8261169347308961e-02 -3.5153213933143398e-02 4.8083389674251862e+00 -1.2008061729771216e-01 5.4518616446765957e+00 1.1435783270003164e-02 6.2548501134034318e-02 2.8386613178013644e-03 -1.5855246286702931e+00 5.5198741927267037e-03 -7.8038139886541558e-01 -1.7615435568920173e-03 1.6286482334798152e-02 -1.1607869700860593e-02 3.0419915504467556e+00 -1.3523912918331196e-01 4.5043965731936346e+00 2.5543124907599322e-03 -5.6719571089824727e-02 -1.0647332349547090e-01 1.6590337355041910e+01 -6.6819984426949508e-01 1.3741026105480973e+01 1.7608611867415661e-01 -6.0779807433806066e-02 1.5750498054233128e-01 -2.0840367010456724e+00 8.6622350742161580e-01 -1.0845993314548961e+00 -1.5768055458825245e-01 -1.4716770762039610e-01 -3.6304732953747143e-01 5.3070373414249117e+00 2.5619901338440028e+00 4.5428967919839245e+00 -2.7523764171312809e-01 1.0107648893070761e-01 -1.4335242998627810e-02 2.8226307800151446e+01 -2.9211009377675641e+00 3.8682139452111265e+01 2.8595043894736390e-02 -2.7318830165220196e+00 -8.4098152962015327e-01 -3.1765900070511265e+01 3.8507977138477925e+00 -2.1148968001495973e+01 5.1114463373695636e-02 1.1102151573353025e-01 1.1948395921173668e-01 4.6615409661742255e+01 -5.9401765255177388e+00 6.2785437290013284e+01 3.8905480047185126e-01 -3.4329936287256557e+00 6.7799903383226423e-01 2.6551329820926711e+01 -5.9933850734011678e+00 1.2027525411804914e+01 1.9154942668837885e-01 -1.4553517353587475e-01 -1.3083732396837178e-01 -6.5427142949837034e+01 8.0303222503062024e+00 -8.8949910200928414e+01 -3.8333830386054402e-01 6.2939602043868916e+00 -3.3911353687806911e-01 1.2709570545128527e+01 -9.8023854699758939e-01 6.9609043142099978e+00 1.3670899728517355e-01 -1.3256908004587342e-02 1.0563319024734327e-01 4.2598932411035131e+00 -3.1230387189924963e-01 5.7551588991272844e+00 -8.5477018913742694e-02 -1.1218940952330361e-01 -3.4065236836576007e-01 -3.3411220702165323e-01 2.2973067455649948e-02 6.2242480196862460e-01 2.9401863916647730e-01 1.7627570605588408e-02 -8.4039991180149348e-02 -3.3591535796348623e+01 7.7748628525107144e-01 -3.3785235816120270e+01 -5.0698332439473269e-02 -4.7801203917750418e-02 -2.7051870690211083e-01 
      </Row>
      <Row Index="20">
        -4.1713622640090264e-02 3.3675008728085558e+01 1.4567051585981972e-01 2.3691367738819622e+00 6.8659257675643699e-03 3.0142022117793488e-02 -4.7362896940173815e-02 -2.6846022859967528e-01 5.1794084830394862e+00 2.0826120433126025e-01 1.0373287924096530e-02 4.4175933684329038e-02 3.2646282293598006e-02 2.8854700040978969e+01 1.0953911010301454e-01 2.6093109031262429e+01 -1.1205880803977664e-02 -2.0466882316159496e-01 -2.2534194451441891e-02 -1.2008062468915431e-01 1.0989159292055277e+01 1.0491980399460121e+00 2.6623111785227138e-02 7.9479514252113859e-02 6.2298452738567874e-03 3.5301149838948787e+00 -7.2334238180133070e-02 2.3085376971139340e+00 -1.0314293890109757e-03 3.4850413729209918e-02 -1.1858849269408988e-02 -4.5198251152043567e-02 4.7049334671197812e-01 5.2081689954728339e-01 -1.7386316832304592e-02 1.3108399632123369e-01 1.4397475710566163e-01 1.7447385142532287e+01 -7.6832610297486115e-01 -5.0195354023888740e+01 -2.8860574365028036e-03 8.5269148430727137e-01 6.1650565177123673e-01 -7.8480289061322983e-01 1.3199584912591353e+01 7.3585520517399361e-01 -2.2753996473573551e-01 -2.6020054191214292e-01 -1.1048623727466315e-01 5.8425951341526030e+00 1.8134736979660881e+00 2.1883814841078629e+02 2.6421554439245631e-01 -3.2678044824842550e-01 2.8540629634678827e-01 8.7949796335105930e+00 1.2424035450290839e+01 -6.4294228632436612e-01 -3.3881317802930418e-02 -6.3600538975197676e+00 -2.9710933508027704e-01 3.5979954855536683e+01 1.5779047261320580e+00 3.8082478435935184e+02 2.4210692660771549e-01 -4.7932269032554553e-01 3.3314936659315336e-01 8.1068825019790527e+00 -6.1202554234072819e+00 2.2851165156048894e+00 2.7191296464314102e-01 -8.9737882912459810e+00 4.3148522869649625e-01 1.4080706809624230e+01 -2.6645298689560293e+00 -5.7238823600022749e+02 -6.7129595213734561e-01 3.2403589158037205e-01 -6.6121283450379242e-01 -1.5817877271013007e+01 -1.4475102531374990e+01 -1.0540105818303767e+00 -3.0590249288416610e-01 1.6374188970834393e+01 1.3028897443511961e-01 4.1761324588651760e+00 -5.4475545620184440e-01 -1.8520415724499948e+01 -1.8216082259441879e-01 2.9668802905658964e-01 4.7781554890489364e-01 -4.0537082626781151e-01 -4.9041099346504122e+00 1.0458474773549682e+00 -2.1691110490664078e-01 1.3996168305333206e-02 3.9928661970006107e-02 -2.1353377979948940e+00 1.3680402496318950e-01 7.1133034007678120e-01 2.0430609312800385e-01 -6.5142448883072829e-02 -2.0541828642312923e-01 -3.9341912205453715e+00 -2.0835841508097616e+01 -3.1969991031573763e+00 -4.4187037555357474e-02 -2.8361086720834483e-01 1.8543767978825692e+01 
      </Row>
      <Row Index="21">
        -9.6836676605062122e-03 5.1388301718154752e+00 -2.4776311972870246e-01 5.4842102778039248e-01 -1.0605584808273272e-02 3.4578856262152513e-02 -4.2999956684315888e-03 -9.3352082708918704e-01 1.1527492176298069e+00 2.1434153340523943e+00 -1.1240836411640531e-02 3.6345915724785627e-02 9.7231360198892780e-03 9.2116022240281836e-01 -6.0857424966201279e-02 -2.1646591897310827e+00 -1.8400074619740803e-02 -1.3023556045556450e-01 2.0875756174040250e-03 5.4518616433945404e+00 1.0491980510408769e+00 1.0434801415548986e+01 2.4107990564758097e-02 9.3545627895714745e-02 -2.2990293077721699e-02 -1.2651135773217170e+00 -1.0519351630165374e-01 -1.3176684298634882e+00 3.1160016918233262e-04 3.0775619306032093e-02 -1.0238318224294368e-02 4.3635470024493621e+00 -1.2914656755758694e-01 7.1669092434866730e+00 -1.6459195305052743e-02 1.6234975765613724e-02 2.7695892274163758e-01 1.5910204348922456e+01 -1.7216737583596973e+00 6.4391476447841800e+00 9.2463187564339744e-03 4.5884718196566598e-01 1.6309955374485333e-02 -3.6009199614795562e+00 1.5771220825881913e+00 -1.0559850057130247e+00 -3.1533794980423407e-01 7.4310695317092890e-02 -3.1105440445353760e-01 -4.5965101556939123e+00 3.8549410367756773e+00 5.4496776699419172e+01 -4.8943043190709891e-02 1.2449997093738119e-01 -2.1885227033942245e-02 4.3749169708240274e+01 -2.0653928347532471e+00 5.8062165826643763e+01 -1.2057753579331876e-01 -5.9924773127968365e+00 -1.0236832231516804e+00 -2.8132604722348113e+01 6.0088543049277172e+00 5.2301174402347755e+01 8.6544488920689500e-02 4.2235726263773032e-02 5.4372863180878271e-02 7.2280369789459854e+01 -6.8535514960732211e+00 9.3418663085793654e+01 5.4930740079723805e-01 -8.6971265190138620e+00 1.2950210004186919e+00 3.2244875492012348e+01 -9.2327145031381868e+00 -1.0564579574430296e+02 1.0952897747264334e-01 -3.0717655427948232e-01 -3.9459325681421228e-02 -1.0195318899229929e+02 6.0925035005210759e+00 -1.3232354888925295e+02 -4.6067682046488401e-01 1.5036743877729588e+01 3.0750707374952135e-01 1.1610110384245363e+01 -1.6201198353060384e+00 2.2516300513889593e+00 1.1671603291344336e-01 2.3691495608106292e-01 -8.8395735404535117e-03 5.9833649053555646e+00 -1.8183047216518795e+00 9.1247699565122211e+00 -2.2688532275141421e-01 4.2394182714338174e-02 -1.0297575775148379e-02 -8.6236230790680213e-01 1.4325965844036975e-01 8.7903933739504914e-01 8.3601016000926398e-02 -3.5439723808041154e-02 -2.8235612090038314e-02 -5.1888506586972888e+01 -2.6052995148047016e+00 -5.1814111681139465e+01 -9.1758032936492720e-02 -1.1867512860722224e-01 2.4270070185419987e+00 
      </Row>
      <Row Index="22">
        -1.0221584519299210e-04 5.9570065449316756e-02 -4.9205538519353498e-04 -4.4901367222105734e-02 -9.5581942124652324e-04 1.9999876697784913e-04 -7.6843579035753120e-04 -2.0064568557955145e-03 2.2945607393323464e-02 5.0956793196650016e-03 -2.3909713497734936e-04 2.7313539753738569e-04 -7.9732648269343308e-03 2.1616713842444568e-01 -8.1723789200849328e-03 3.0334527976510373e-02 -1.0550213930756124e-02 1.0228887830800271e-02 -6.1026059814364413e-03 1.1435783262584468e-02 2.6623111809132533e-02 2.4107990556925325e-02 2.3871120787458046e-02 -4.9635069509344487e-03 -1.0690336966655582e-04 -1.7854484878359611e-03 -1.0999007520001158e-03 3.3118929194152713e-02 -4.0434926967382833e-04 2.5913027670633262e-03 -9.1850137416588399e-06 9.8040196613265289e-03 -1.3253741720930662e-03 1.5092925907449522e-02 -2.7364561867350271e-04 4.5545030078320003e-04 -4.6674001607806218e-03 4.8462841987472860e-02 7.7744451752781302e-03 -3.5482181576328942e-01 5.3007668802598990e-03 3.6385816522170711e-02 3.9019217685990620e-02 -1.2230392024709633e-02 7.7011446427973279e-02 1.1276715432365081e-02 -4.8945894924898370e-02 1.4333413913178342e-02 -2.2328771893879953e-02 1.3251265756707031e-01 -5.1218826454575359e-02 -5.4347004425852763e-01 2.0343212979719829e-02 -1.9260715979044472e-02 -4.0716751801690111e-03 9.7825056263722621e-02 -1.8421779168020597e-02 1.0787771557954716e-01 -1.6069658518069740e-02 -9.4575924926388194e-02 -8.8663529005425318e-02 -7.8728101008558760e-01 -1.7627751793635731e-02 1.5218852501911062e-01 3.2856414757098495e-02 -1.0628178200514486e-01 -3.5876153645043193e-02 1.9579637118791327e-01 -1.0646249839634833e-01 1.5058003169667913e-01 8.8073169658424051e-03 -1.4287481648126510e-01 6.2519616339179560e-02 1.0497767201049812e+00 3.1622172266961970e-02 3.5195530367376837e-01 -5.2113942832914442e-02 1.1950062561910660e-01 3.4646561090408055e-02 -2.7182067809843691e-01 1.2803318151746551e-01 -2.1742432509168078e-01 2.3962778854995478e-02 2.4200403809713289e-01 -2.9328661106806365e-02 1.0412786346974101e-01 -1.9937120114221829e-02 -2.1209651055862255e-02 4.9749164610022297e-03 2.1849725494119794e-02 3.5934517170214203e-02 1.7107130061981939e-03 -1.1424665525777492e-02 3.1166915522909136e-02 -2.1388779178570363e-02 6.9199876955490010e-03 -2.8774968032004865e-02 1.0106959106599931e-02 -5.6371094387160786e-06 -1.7775087040459533e-02 2.7070181784249518e-02 -1.2665004197130879e-03 -6.9049367135162907e-03 -1.1455016035414536e-01 1.3282301896498590e-02 -1.1475175332568611e-01 -4.6291515966334360e-03 -3.7013145176184731e-03 -1.7253639326185854e-02 
      </Row>
      <Row Index="23">
        -6.1788546243714548e-03 -4.5442397312503999e+00 5.0156407062116770e-02 -1.9712655494343849e+00 -8.6622785939866852e-03 6.5405819250164976e-03 1.8053862633066187e-05 -1.3549091423681286e-01 2.7066435018172597e-01 1.4208134592855984e-01 -4.2149387451588805e-03 2.9022622046611879e-02 -6.6369167594802381e-02 1.8872399397968138e+00 -1.2960294662775595e-02 -3.1815982535252942e+00 -7.7300233634747251e-04 7.3208978841512451e-02 -3.9244888178915222e-02 6.2548501290574904e-02 7.9479514481029939e-02 9.3545628168043043e-02 -4.9635069498372708e-03 1.0230436579895148e+00 -5.0820604899989878e-03 -1.7217369029698304e-01 -5.4599914387345905e-02 9.8722573041857231e-01 -1.6672701475319144e-03 -4.3454350693695144e-03 -2.1846036837475441e-03 1.4756361263666671e-02 8.5323642618574322e-04 1.1576238108083724e-01 -2.8355487058442166e-03 6.4918952754598136e-02 1.7451850949014372e-02 -1.5421430218310961e+01 1.3838214235110533e-01 -9.5123987622683135e+00 -1.0962803932931466e-01 -3.4334278497749615e-01 1.9679495832431082e-01 1.2842392324968249e-01 1.4193927767006909e-01 -8.2807987159435964e-02 5.4015220972324578e-02 -1.8039163232621114e-02 -1.9928027080426880e-01 1.3827498348091542e+01 -4.5032478219482369e-01 -2.3470596988496681e+01 1.6608463957489328e-01 -8.0183181370311982e-02 -7.9091181079344874e-03 3.0055884789685494e-01 6.3627808214115222e-01 5.5893885503331364e-01 -5.2500582874334852e-04 7.8944341813058316e-01 -4.0044259348473954e-01 1.1085488531586320e+01 -7.6962084069501446e-01 5.0983272984005907e+00 3.3037491486814480e-01 5.2087645390116177e-02 1.5878997935878042e-01 1.4712673438220036e-01 6.4464939131243970e-01 1.4627895046502177e+00 3.7835279354653029e-02 -1.6283018295034810e+00 2.9017042519952546e-01 -1.6160363876725633e+01 6.7686404197338224e-01 1.5335643190411204e+01 -2.9575300135922100e-01 1.8014577774323026e-02 1.9629780127751600e-02 -6.9132481362117626e-01 7.7807293825234169e-01 -1.6540143576099113e+00 -3.2805559570981878e-02 1.5489198115449154e+00 -1.7126579185261262e-01 -3.0969847755347306e+00 -2.2384215525568707e-01 4.4619657742889907e-01 7.0544540470914463e-02 -2.8353922538420506e-01 3.4056712692711172e-01 -1.0965562854492500e-01 1.3240717752114384e+00 1.7704848504611731e-01 4.8603696265040131e-02 4.9309831620654820e-01 -1.4599486194337513e-01 7.8399946679297994e-01 1.4406822333465491e-02 -7.7454337280922481e-01 1.2403453999450853e-01 2.6486702707136801e-02 -8.8688848112304194e-02 -6.4976784053402736e-01 9.9620167841228946e-01 -6.1718975596466563e-01 -5.6395678756588526e-03 3.5382612013242193e-02 -9.7394541874808338e-01 
      </Row>
      <Row Index="24">
        1.4419281979101417e-03 -4.9487872023657786e-02 1.2716003942415954e-02 1.3404531946524495e-02 -1.0346537663415470e-04 -3.5908435727854959e-04 -4.4424727489173008e-05 1.7956059612906958e-02 5.1931368018892036e-04 -2.6233403475845473e-02 1.9955858959247452e-04 -2.9820646796665240e-03 1.1399055777957384e-03 -2.2251638708929100e-02 5.7561772040239378e-03 -7.7537473744584418e-02 -2.4045553281415617e-03 3.3376324543265903e-03 -1.4583512978981030e-03 2.8386613139170227e-03 6.2298452583486388e-03 -2.2990293086219762e-02 -1.0690336971534709e-04 -5.0820604898509925e-03 6.4301008300810640e-03 7.6363912949348522e-02 7.0831448321668766e-03 -5.3587410134117164e-03 7.9391551400643937e-04 -1.3185951386046110e-03 -4.6749593394626956e-04 -3.3828952070988670e-03 1.3730610264322592e-02 -9.8156469208669165e-03 1.1439677187326776e-03 -2.8689493046513137e-04 -1.3900050250434653e-02 2.5822328115156334e-02 -2.4066034574130618e-02 7.3159897924278905e-02 5.0837580418815215e-03 -1.0932947343484847e-02 6.7495975742652529e-03 1.4179224902189654e-02 1.5449276042867867e-02 -1.7126094086265774e-02 4.2189689119533135e-04 -4.0046503245932952e-04 -1.0625462347838028e-03 3.8005821540950213e-01 9.9290748729852791e-03 -1.2189085221952722e-01 -5.6896287345867434e-03 3.1379917914887978e-03 -3.6468789198788906e-03 -9.4193665944603919e-02 3.5693364476308505e-02 3.6269280032724827e-03 4.4967836192642621e-03 3.3595801794827337e-02 -1.2859466928605543e-02 1.0962385337467186e-01 1.0585685522752783e-02 -3.2744187313752793e-01 3.0732289371353107e-03 1.6063496563971866e-03 -2.0864392341740021e-03 -8.8114182980888425e-02 1.1656772749277719e-03 -8.3300480949117850e-02 3.5238189055764304e-03 5.7223441480489877e-02 -1.9734178790080411e-03 -2.3399012723043489e-01 1.9530619270670114e-02 5.0432194346153469e-01 -1.6229913422823386e-03 -1.5695646076920658e-03 4.0701151441828341e-03 1.3096864060902699e-01 4.8932087234347076e-03 1.2461651424862871e-01 -6.4485557925468544e-03 -1.1347503482176913e-01 -2.1790206162188634e-02 1.5963506938960970e-01 2.7722636132877843e-02 3.7509000926043090e-02 1.2027328668343611e-04 -5.8274063051518103e-03 4.0998783541061762e-03 -1.9883594046636317e-02 3.4048963747639105e-02 2.0343478766412577e-02 7.6423737194867072e-04 -4.3625312254312789e-03 -1.5524038481067700e-02 1.6629003123117148e-03 -5.1729780421440590e-04 2.1056210324534388e-02 1.1480395653052434e-02 9.6689120567624057e-04 -2.3252170857238005e-03 6.9755336606179955e-02 3.1357410332085740e-03 7.0670423151142650e-02 -4.2051710024346969e-05 2.7587139643580581e-03 2.3088562176289257e-02 
      </Row>
      <Row Index="25">
        5.2487982805553557e-03 2.0514007985172725e+01 -7.3392523737268789e-01 1.3556367592777306e+01 6.3997286665129320e-03 -7.0320439885533048e-02 1.9853551382410517e-02 -3.9598647723167102e-01 1.4299353565453252e+00 -1.7782533303053358e-01 -1.3940850651334991e-02 -7.1908184893516136e-02 -3.0658806608663269e-02 1.9167326657626745e+01 -4.0111665502124083e-01 1.6271091405173138e+01 7.0410618215497323e-03 2.1187198875305313e-01 -1.8250286746562594e-02 -1.5855246323826029e+00 3.5301149811054930e+00 -1.2651135833826173e+00 -1.7854485056112424e-03 -1.7217369035640218e-01 7.6363912955929064e-02 4.4731270024813767e+01 -3.4411603393749601e-01 1.5775646590230281e+01 1.8527657916954036e-02 1.4609623332538113e-01 1.0970559131856200e-01 -1.2438323653065386e+00 3.2724426740438615e+00 -9.5755354876390997e-01 -9.5937801500155934e-04 6.6963738211469226e-01 5.1384873506002959e-03 5.3034068389871308e+01 -7.9525655978771215e-01 3.7861236004917338e+01 9.2940133039285833e-02 9.6799612472861174e-02 6.8657433411046764e-01 -8.5888983524167906e-01 4.9412839504234949e+00 -2.6625237104874144e-01 1.4611148109908781e-01 -3.7828446645941449e-01 3.6258363910338820e-01 2.5404529380426226e+01 -1.9229740969504820e+00 4.7288061455773800e+01 -2.9760489849058117e-02 -1.1376773296702922e+00 3.8631457033455213e-01 -7.1580983166555283e+00 1.0538460233343365e+01 -7.6217289999606130e+00 1.4100708129168471e-01 7.5984698218377500e-02 9.3364957508154434e-01 -2.7858297614903309e+00 -5.9178075682193576e-02 -2.1208305298815844e+01 -2.5182941625213145e-01 -1.0603867127894757e+00 3.7710135311909443e-01 -1.0107836211442550e+01 2.1413307024955044e+00 -1.7704368689271419e+01 -2.3243878751271857e-01 6.4952979595310434e-02 -9.6982909998784050e-01 8.5088727433942069e-01 3.0282798089209813e+00 -7.2854100991553619e+00 1.0544809013530693e-01 2.1901306777598881e+00 -6.7383184663926232e-01 1.8969598578929599e+01 -1.6905170443604955e+01 1.7205336231610527e+01 2.4332264576421747e-01 -2.2242612185709305e+00 1.6289871957919999e-01 2.9336778829241482e+01 -4.3276473205793131e-01 1.3325215674828542e+01 -5.2280737380680897e-02 1.9582865313525177e-01 6.5787166578448752e-01 1.2452173390416326e+00 -1.1207271898904656e+00 -6.2980974802426495e+00 1.9975313539552386e-01 -1.1475234743038807e+00 1.4289816163058022e-01 -1.8631611493461775e+00 5.3471335326365721e-02 2.7340629157970873e+00 -1.1054941050650680e-01 4.0620910057766121e-02 -1.8521498708616524e-01 8.6614441121211634e+00 -9.9838081649460566e+00 9.2362153177147306e+00 6.1336192535236450e-02 3.7187220418133338e-01 1.0112464482154181e+01 
      </Row>
      <Row Index="26">
        1.8077449576929583e-02 -5.9867888712140882e-01 -1.0845519114243771e+00 -8.3781105388260890e-02 2.8055659700160530e-03 3.0385265598783517e-03 -9.7893878026755060e-03 1.7479705279362867e-01 -3.9254891317442858e-01 -1.2255786279319403e-01 -1.1516061618085383e-03 -1.2837307754960392e-03 -2.1160830528108576e-03 -2.6069380093420591e+00 -2.4314036037608844e-02 -2.3159394538147353e+00 -1.2082423971507383e-02 -2.8983716470585286e-02 -6.3520861997953815e-04 5.5198738778444506e-03 -7.2334238366101866e-02 -1.0519351680921218e-01 -1.0999007538203820e-03 -5.4599914392813531e-02 7.0831448327332699e-03 -3.4411603391883006e-01 4.5065236687435117e-01 -3.7892815591294493e-01 -7.5211940134327750e-04 -4.2849065830799157e-03 -2.5261009954370807e-03 7.5261394121003855e-02 -2.6700459395687805e-02 -1.6111964416702340e-01 -9.4196572063924913e-04 -4.3316564709305061e-03 -3.7385748229533035e-02 4.0154527294168991e+00 1.5611165296216103e+00 4.9792039015950742e+00 1.1207459934427594e-02 3.2830837350588143e-02 -8.1131665051371968e-02 6.2712670255220726e-01 -2.1988566003776938e-02 -4.2455425272724923e-01 2.7810708561362828e-02 -8.4439893383476960e-04 -1.5972807968718472e-02 -2.7352575763945419e-01 -1.0423510618755423e+00 1.1521463552762135e+01 -2.7308296792989309e-02 -4.7905580112464312e-04 2.0027036060067931e-02 -7.1807444882697335e-01 -1.5596534325651437e-01 -1.0781338390626988e-01 -3.0292145316024015e-02 -7.3865577413881234e-01 -5.5360273284739497e-02 8.5623598605084137e+00 8.9328362291303337e-02 4.2384247311279850e+00 3.2415894709750884e-02 -5.0008995730211309e-02 2.4170277286875166e-02 -1.0258245961841252e+00 4.0594539995262191e-01 -1.6187248436151536e-01 -6.0826581231382404e-04 -1.1167121824568425e+00 3.1260819103435387e-02 -5.9994711659393278e+00 4.3995438848749402e-02 -1.5296872636329548e+01 -6.2923029246320886e-02 -9.3687072989323272e-03 -6.5338428772345920e-03 1.4351360183916531e+00 -1.1880377440600816e+00 4.1999864069127518e-01 2.3667659583689389e-02 1.8086263272934757e+00 -5.6333071896690387e-02 3.6344656125431132e+00 1.9327901644517925e-01 1.5095342257125708e+00 -4.2506124502932327e-02 -2.1691067234676127e-02 -3.9566035741501415e-02 2.5250042324448752e-01 -5.3049834788711192e-01 -1.5432387113636437e-01 2.2251465505744944e-02 -4.6993748251068779e-02 -5.5254450389281159e-02 -3.1792722532223161e-01 -2.9187312021776263e-01 4.3503237767521374e-01 7.9509773419850605e-02 -5.8004971191374360e-03 1.6854676149690089e-02 5.2829439218803953e-01 -4.2965781570179706e-01 4.3295797245783241e-01 3.3608460398835510e-04 -9.0743537177658193e-03 8.6485504064384155e-01 
      </Row>
      <Row Index="27">
        9.3824626455370708e-02 -3.1482500231067917e+01 1.2323760810113598e+00 -1.0544236605461748e+01 -2.8140479537747006e-02 -2.4406838383493668e-02 2.8480516828420122e-02 -3.0826107758630417e-01 4.2195613966919030e+00 -1.3995584129785138e-02 -6.5146163447482586e-03 -1.7309018089914474e-02 -9.6148370282224338e-02 1.2013337366091605e+01 2.7535091066392425e-01 6.3834038617713304e+01 -3.8191899566680121e-02 5.5245107791424442e-02 -1.0015762928279509e-01 -7.8038139960800257e-01 2.3085376964506450e+00 -1.3176684310606390e+00 3.3118929199073222e-02 9.8722573043842488e-01 -5.3587410125863974e-03 1.5775646589952295e+01 -3.7892815594180007e-01 4.2379105196022920e+01 2.9577242488053141e-03 7.4590751924078644e-02 1.4241261218115491e-02 -7.9179370711472752e-01 1.2638941684482228e+00 -9.5326152195357516e-01 -7.4067061397606881e-03 -1.3517781606792006e-01 -4.2447198973024469e-01 -1.4856583254940801e+02 -3.0859647359222442e-01 -6.8771442286388762e+01 -7.3683137001936572e-02 -3.9415458325251596e-01 6.2695959244857380e-01 -2.8437845585351935e+00 5.3684497564012466e+00 3.8768331370871669e+00 3.9912324141057659e-01 1.6394884730461454e+00 -3.9727202174254406e-02 1.6488117547018661e+02 -2.2701221233878504e+00 -1.9400565703470826e+02 5.0552702368923641e-01 -7.6999500089030615e-01 2.2014819573753741e-01 -1.4386392456315653e+00 1.3629544242130752e+01 -1.1528789206400083e+01 -7.3008114101961430e-01 -3.6659936641765962e+00 -6.7829207848412310e-01 1.2786354509640222e+02 -4.1472947251536176e+00 -7.0660482770832459e+01 5.3316737304647055e-01 -7.9075643612978364e-01 2.3956726707486856e-01 -6.4290632956993798e+00 1.0720743611019294e+01 -1.5249980625853375e+01 -4.0440483478180961e-01 -1.0436417524523288e+01 -2.7446240791152710e-03 -1.8005283694611231e+02 5.9670432348130724e+00 2.3205921913750868e+02 -1.0034516072267499e+00 1.7948305087035774e+00 2.6542034685330340e-02 1.0742872544223358e+01 -4.1970495505592895e+00 1.8438417343119859e+01 1.1720689336265366e+00 1.1978455084776957e+01 -9.3364515111516599e-01 -2.4133113293435567e+01 -1.3712906531431299e+00 5.9497574561505303e+01 -8.8624427492569602e-02 -6.2456178774296767e-02 1.0406314552243758e+00 1.5254135280942993e-01 1.7920224452748048e+01 -2.7626872501264050e+00 4.7006140740975222e-01 1.2504858938701262e+00 -4.6757294438896824e-01 9.0206057442138814e+00 6.3162005298485968e-01 -9.2994593786555342e+00 1.9200977504893979e-01 1.1379856884704553e-03 -2.0213907187793195e-01 6.2159906756348153e+00 7.7303761026336359e-01 6.6712308953468265e+00 1.7960289939318856e-02 4.2671855435578543e-01 -2.1744507334262382e+00 
      </Row>
      <Row Index="28">
        -4.8413064344776072e-04 4.9155874153153922e-03 5.0763734639477955e-03 1.9318584173702892e-02 1.6430536513985754e-04 -1.0094720491856399e-04 -4.8866852111241027e-05 3.1656712073147193e-03 4.0673618274177665e-03 7.4092858922478340e-04 2.4814878778579375e-06 1.0035078458985741e-03 1.3258921983507895e-03 -4.9272931128205688e-02 1.0370895626519855e-02 -6.5908153256498014e-02 2.0586488988781531e-03 -5.9462228332381418e-03 3.4843866122661910e-04 -1.7615435534239130e-03 -1.0314293921698820e-03 3.1160017404658572e-04 -4.0434926966294435e-04 -1.6672701473077339e-03 7.9391551399232198e-04 1.8527657913532804e-02 -7.5211940169407632e-04 2.9577242493035172e-03 2.2256580881816865e-03 -2.5972711737539994e-03 9.3858480758843852e-04 -7.3437717058483379e-03 6.5752476652801706e-03 3.9936847155627340e-03 -3.0819495753851308e-04 3.3445086126466378e-03 6.2501865667279949e-03 -7.6135181352969122e-03 1.5476082816654295e-02 2.8602053318315285e-01 2.6854236854514171e-03 1.2509072238009943e-02 -7.2928610931960250e-03 4.5704633393861341e-03 3.5719572014116033e-03 1.0523524881908414e-03 -2.7995971260919841e-04 7.8844980990997668e-03 8.3623778394323091e-03 -3.0086764739723625e-02 1.3196076675885184e-02 2.8774361254545772e-02 1.2535169487840983e-03 7.2359965465788835e-03 3.3399887668459950e-03 -1.3279942874164872e-02 -1.0694019094923507e-02 -2.6741388402200333e-02 -4.1646890147335348e-03 -1.5714546236329008e-02 1.7437606819654280e-02 -8.4826772432450709e-02 -1.3496053263253118e-02 -4.2084882306040083e-01 -6.8396329416559598e-03 -8.0558283529551071e-05 3.1190841094003571e-03 -3.6044354613763215e-02 -1.8150881234609846e-02 -3.3001995653722319e-02 -5.9312258787042234e-04 -3.8179178799771105e-02 -1.1449343035344848e-02 -4.2456486441443009e-02 2.1522077211519053e-03 2.8086052322546079e-01 7.2192415279446693e-03 -5.8806968274142625e-03 -5.8060356917766041e-03 4.8218751565299270e-02 2.0703003169513241e-02 4.4512605863142006e-02 3.5634211361136436e-03 5.1051744428801671e-02 1.3874624816661652e-02 -8.0211708560579909e-02 1.2982302199686643e-02 1.4076066568950157e-01 4.3159917586008904e-03 1.1233571274613642e-02 -5.7214517918262875e-03 5.1958782025299036e-03 4.5548802463661643e-03 -1.2561819916353884e-02 -5.5675152688946985e-04 4.4603075894887236e-03 9.6973356277399933e-03 2.2366409605568821e-03 2.7737087499794897e-04 -2.8922743006656536e-03 -1.0663287788500569e-02 -1.8461156535318878e-03 2.6774841649018144e-03 2.2154332367199728e-02 -1.1264188462751592e-03 1.8999212155168466e-02 -6.3296526990239585e-06 -1.0126150631678094e-03 -1.1401703466927130e-03 
      </Row>
      <Row Index="29">
        -2.4855781084282685e-04 2.5565202342423321e-01 -3.2563617392719069e-03 -6.0856817178982503e-03 -2.9266273408955174e-04 6.9931436086482363e-04 -1.8551057948837050e-03 -8.9915578500192224e-03 3.0381074455542348e-02 1.1591872389193320e-02 -2.6570546400311174e-04 -8.3723655890555193e-04 -2.8823306311401217e-03 2.3954293629423162e-01 1.4391549412512417e-03 6.1199958896878570e-02 -5.0727664974954678e-04 -4.9644976631149550e-02 9.4932396390107025e-04 1.6286482331355694e-02 3.4850413765889265e-02 3.0775619306953925e-02 2.5913027671002203e-03 -4.3454350702452071e-03 -1.3185951385746193e-03 1.4609623334745803e-01 -4.2849065811392251e-03 7.4590751926333354e-02 -2.5972711737758613e-03 2.7842042229802032e-02 -8.1590349873904375e-04 1.2916950132441254e-02 4.0548892972025741e-03 2.1846297092720533e-02 -2.2353043126705063e-03 -4.3432518394778130e-03 1.9340732698952152e-02 -1.8297737691938687e-01 -1.6392701861096459e-03 -3.7451052833121407e-01 1.8307207476589527e-02 1.2711909547703165e-01 -6.8584123944147486e-05 -7.1285099903701882e-02 7.7272579020538884e-02 9.1424683075405688e-02 -1.6017172565538803e-02 1.9041845858304929e-02 2.8754469283974980e-03 1.4595932774398973e-01 2.3271765103923113e-02 4.3237020999286280e-01 9.9341690514481717e-03 1.7211818580382614e-02 4.7792580237626010e-03 2.0917980527118796e-01 5.1801314936045728e-02 1.1391636541331247e-01 -2.9643088671060691e-02 -2.4911178123685353e-02 8.7660682014823396e-03 1.0339117780008171e-01 1.8004484505764667e-02 1.6667632735354729e+00 -6.4976312277850203e-03 -4.5864871225149324e-02 -2.4711730975441638e-03 2.8225078566465478e-01 -3.6940688621625542e-02 2.2670418522604813e-01 8.4700293591368041e-03 -7.3976760214416307e-02 -3.0871654552035543e-03 2.9321460625890716e-01 -3.8486103572930197e-02 -2.0016436035252472e+00 1.0392558320270128e-02 1.1606269622653775e-02 1.1003338850880532e-03 -4.0353853621047175e-01 -4.4662429756839955e-02 -3.3526102934118601e-01 1.6533334652033410e-02 8.9069022844331491e-02 2.2031655100533537e-02 -4.3989556081456577e-02 -6.7142999411652082e-03 -9.2078667510055112e-02 2.7744037474158351e-02 8.4782827109508532e-02 7.7992598078643373e-03 9.8252611989597602e-04 -1.8823702802104814e-02 6.2632504766826275e-02 -1.0829456906975345e-02 1.3553450126107307e-02 8.1813143073786558e-03 -8.0941799640130690e-03 1.2434654015934326e-03 -5.8691564639556989e-03 -2.3072670027427297e-02 -1.5910103904675160e-02 1.6861007165088772e-03 -1.7043831057372807e-01 -6.9708711959957217e-02 -1.6513098362085118e-01 -3.3667986832788192e-03 1.8371629882143643e-03 3.8732188143343081e-02 
      </Row>
      <Row Index="30">
        -6.3771206213705973e-04 -9.7118271979384829e-02 -3.9932122618595578e-03 -8.9526560993628546e-03 -7.3611261018461643e-05 -1.0749145456138975e-04 3.0945267301145211e-04 -2.2675770238495888e-03 -3.8423314429740160e-05 -3.7408938800872200e-03 1.2546302580240809e-05 -7.2664288998591786e-04 2.2431875816554050e-03 -4.5849781082374363e-02 -1.0557496781694042e-03 1.4251458194145528e-02 5.0258874301326029e-04 2.8796517024477358e-03 1.6922010447294467e-03 -1.1607869691297238e-02 -1.1858849280943173e-02 -1.0238318211730466e-02 -9.1850137175497615e-06 -2.1846036831686955e-03 -4.6749593397684731e-04 1.0970559130848306e-01 -2.5261009963333247e-03 1.4241261217613044e-02 9.3858480758958755e-04 -8.1590349869645890e-04 3.8329347552124556e-03 -5.6756959936632937e-03 8.3338916654110556e-03 -9.4347379223765921e-03 -4.5978733574914346e-04 3.0913517424704384e-03 -7.9396314202342423e-04 -2.0326621284983287e-01 -1.4627796030304918e-02 5.2846250920147698e-02 2.5104799044640045e-03 -1.5317300803794828e-03 -9.9915603203218038e-03 1.6769050882283858e-02 -7.4983586028344942e-04 -3.1071413648383811e-02 8.8921687719650941e-04 1.4235279988160585e-02 2.3233384321735087e-03 1.0109289438650204e-01 -8.9286513743528067e-03 -6.2671855235655660e-01 1.0494404352145143e-04 2.1685308313099064e-03 3.9419981091591430e-03 -6.7598073679562568e-02 2.0272462609367468e-02 -5.3386286541553321e-02 -7.9317062111458371e-03 -1.1763249992756894e-03 9.3535495576325886e-03 3.8508640050553639e-01 -1.6682706315836546e-02 -8.4760190055655471e-01 -3.8319210325080573e-03 -5.9926335677615043e-03 -2.9340744545008563e-03 -1.1726771899114309e-01 6.1594931211602449e-02 -8.1932634775279331e-02 -4.7879786818720857e-03 -3.1926729479056504e-02 -3.2013729093588092e-03 -7.2535073778489267e-01 3.7295853490643564e-02 1.3801912461626862e+00 6.6747159289119425e-03 9.7804488470267896e-03 -1.1391308957830314e-03 1.6743904367607679e-01 -6.5679752274750564e-02 1.1652871409545565e-01 9.4917058249557318e-03 2.8568182223599137e-02 4.9688387050280921e-03 -1.8373331117355746e-01 3.0889283036965171e-03 3.2132423299557900e-02 4.5414957783406276e-03 4.7232543263444459e-03 -1.0437790461859735e-02 1.8934315819965474e-03 1.4536906906571695e-02 -3.3813355494647160e-02 -5.7101677785412544e-04 9.1877258910880652e-03 5.4344916833476784e-03 1.2642901391982717e-02 -1.1623714521757870e-03 -1.6159538580986139e-02 -7.0043279427623485e-03 1.2223642181770323e-04 4.0296035054550637e-03 6.2029262484333637e-02 1.6960092893661585e-02 6.7124708786007986e-02 2.9875125766180583e-04 6.3749272416483739e-04 -2.5371276127829873e-02 
      </Row>
      <Row Index="31">
        1.6159933821281756e-02 2.0603076883412861e+00 -4.3849447477337172e-01 -2.9363597237403394e-02 4.5471041476755252e-03 7.4630327318488295e-03 -1.0514492366283948e-02 2.3004396534565350e-02 1.9003544389435528e-01 5.0520645923474417e-01 -3.7680872593595493e-03 9.1121656239682713e-03 -1.3753362097505453e-02 -6.0548171344907775e-01 4.2262138045250669e-02 -3.0969635473811188e+00 -4.0402852088827865e-02 -1.7238775643889575e-02 -3.1235739892089755e-02 3.0419915502858812e+00 -4.5198245914013377e-02 4.3635470031158450e+00 9.8040196659382531e-03 1.4756361148003383e-02 -3.3828952040645104e-03 -1.2438323626198580e+00 7.5261394346546662e-02 -7.9179370656336800e-01 -7.3437717081921618e-03 1.2916950134067511e-02 -5.6756960001294304e-03 2.3687555395808597e+00 -1.5437418870264047e-01 3.0038141379958851e+00 -2.2924998547415101e-03 -2.4066885884559519e-02 -6.6772473702929908e-02 1.0244113648269801e+01 -4.7608836171386548e-01 8.7507669919268984e+00 5.9776651394182700e-02 7.2501695690619039e-02 7.9697006028496220e-02 -1.0328108490739352e+00 -2.4255516551973222e-02 -1.1234975103474916e+00 -1.0544818855245919e-01 -6.6597952767455282e-02 -1.5429621117770237e-01 2.4220874916623338e+00 1.5104108641852103e+00 1.0032102034739410e+01 -1.2368644091505820e-01 1.7723698548242836e-02 -5.0720027232792689e-04 1.9574854851122655e+01 -2.0128235082363806e+00 2.8155339899943051e+01 3.9701069944817390e-02 -2.5920110330819752e+00 -5.0079795456005272e-01 -1.4841703703917055e+01 2.8738670574602887e+00 -1.0723118555294391e+01 6.4680496991407613e-02 -6.8462497129324576e-02 6.8068001320224017e-02 3.2842119457042472e+01 -3.1840180754634839e+00 4.5284061849688598e+01 2.6861436927639060e-01 -3.4323234794328554e+00 3.8655152945808474e-01 1.3672919617497524e+01 -4.2775136828705245e+00 -2.2438906810184962e+00 4.3127076112075127e-02 -6.2158451522859592e-03 -7.8925838844565499e-02 -4.6345161221743695e+01 4.5367202540257701e+00 -6.3832838324104159e+01 -2.9478674783347453e-01 6.1765132202634287e+00 -1.7733489734576699e-01 7.8712422572537646e+00 -8.4676364015007699e-01 4.7459286722805967e+00 3.1801333542953523e-02 1.6441311388674718e-02 5.7657258287826002e-02 2.9473786271072435e+00 -4.4453913949690205e-01 4.2934654458936299e+00 -6.6279015172541922e-02 -4.2968393537328009e-02 -2.0074859755846386e-01 -3.7027826614635484e-01 -3.2336970398914493e-03 4.9027557244267628e-01 2.1257565641016835e-01 -3.6887765597963498e-03 -4.3225981776463279e-02 -2.3983450219972482e+01 2.9859404172492848e-01 -2.4156240758131343e+01 -3.2229296533086496e-02 -5.6228700891870459e-02 1.9007769574188978e-02 
      </Row>
      <Row Index="32">
        -1.8558709915572624e-05 -1.2321481996120554e-01 -1.7795016970705291e-03 4.6663611527383342e-01 2.0127213297506659e-03 -8.0878594988958996e-03 1.7464981294045556e-03 1.9665559158867231e-02 4.0119166875108636e-01 -3.7732017392667058e-02 -2.7680522270480123e-03 3.1820878058574920e-03 2.4330985205600619e-03 2.1497852746995818e+00 7.4555782692069528e-03 3.0846367363390073e+00 2.3865209163465018e-04 2.4331638508952036e-02 3.3857866771006412e-03 -1.3523912952015593e-01 4.7049334648606789e-01 -1.2914656809933822e-01 -1.3253741732075497e-03 8.5323642137247191e-04 1.3730610264867327e-02 3.2724426740377943e+00 -2.6700459398867338e-02 1.2638941684714382e+00 6.5752476655221732e-03 4.0548892954452853e-03 8.3338916662027973e-03 -1.5437418894682156e-01 3.8468689349769081e-01 -6.1239354125850132e-02 -2.1266646631068198e-03 6.9104575145445324e-02 -1.9182100945790974e-02 -7.4090204228380951e-01 4.7234630424631094e-02 3.6317275427638838e+00 9.2618977338260293e-03 -3.9852725078817458e-02 4.3187848329783202e-02 7.7586219709605858e-02 7.4048011280768666e-01 -8.4583565243010195e-02 2.1363740991700436e-02 7.5128813332062894e-02 7.2522821044547284e-02 7.3719498904338190e+00 -2.8596893497284676e-01 -3.5856337563556906e-01 4.4450118802501319e-03 -5.1405341309386628e-02 5.1615948361348585e-02 -9.0481263892513863e-01 1.0627421452442072e+00 -6.5449034679704188e-01 8.3966095796222731e-03 -8.0340584537015247e-01 7.2882916052896651e-02 -4.3158505965002730e-02 -3.0377763031858240e-01 -1.0976639438606355e+01 -9.1531862457143905e-03 -4.1533208418795375e-02 3.8206250431926395e-02 -1.0688567276217580e+00 1.7913968451125745e-01 -1.9410790286153552e+00 -4.4527937084618281e-02 -1.2965209094979451e+00 -1.0354793953644738e-01 -6.5063361766617405e+00 5.9708620829167469e-01 1.0002745851300148e+01 -2.1890235599332220e-02 1.1477260129991081e-01 -6.6619063759089464e-02 1.8443256425796009e+00 -5.3581499745284855e-01 2.0315309289157160e+00 4.7040869330306934e-02 1.8828304794761213e+00 4.1950916481073713e-03 -9.0886425042567531e-01 1.3451366696414224e-02 3.9587736987030553e+00 -1.4850268425640717e-02 -1.1598212481452569e-02 5.1793440855698286e-02 5.2543979182808898e-02 1.0849163773623265e+00 -4.8714298798996281e-01 2.1871284298818537e-02 -5.4582619547333001e-03 5.5253678360375844e-03 2.6965700978140472e-01 1.5129562460645882e-02 -2.3020909464325379e-01 1.1725839942479277e-02 6.9069126555293646e-03 -1.1431528360552983e-02 9.8105750124077118e-01 -7.4030921482827960e-01 9.8243014985014310e-01 6.5199140778280720e-03 1.3460756870311300e-02 7.5243603087019317e-01 
      </Row>
      <Row Index="33">
