<?xml version="1.0"?>
<MethodSetup Method="MLP::MLPBNN">
  <GeneralInfo>
    <Info name="TMVA Release" value="4.1.2 [262402]"/>
    <Info name="ROOT Release" value="5.32/00 [335872]"/>
    <Info name="Creator" value="bpollack"/>
    <Info name="Date" value="Mon Nov 11 10:31:57 2013"/>
    <Info name="Host" value="Linux lxbuild168.cern.ch 2.6.18-308.16.1.el5 #1 SMP Thu Oct 4 14:02:28 CEST 2012 x86_64 x86_64 x86_64 GNU/Linux"/>
    <Info name="Dir" value="/uscms_data/d2/bpollack/CMSSW_5_3_8_patch1/src/HZG_Analyzer/mva"/>
    <Info name="Training events" value="15120"/>
    <Info name="TrainingTime" value="3.05733941e+02"/>
    <Info name="AnalysisType" value="Classification"/>
  </GeneralInfo>
  <Options>
    <Option name="NCycles" modified="Yes">600</Option>
    <Option name="HiddenLayers" modified="Yes">N+5</Option>
    <Option name="NeuronType" modified="Yes">tanh</Option>
    <Option name="RandomSeed" modified="No">1</Option>
    <Option name="EstimatorType" modified="No">MSE</Option>
    <Option name="NeuronInputType" modified="No">sum</Option>
    <Option name="V" modified="Yes">False</Option>
    <Option name="VerbosityLevel" modified="No">Default</Option>
    <Option name="VarTransform" modified="Yes">N</Option>
    <Option name="H" modified="Yes">True</Option>
    <Option name="CreateMVAPdfs" modified="No">False</Option>
    <Option name="IgnoreNegWeightsInTraining" modified="No">False</Option>
    <Option name="TrainingMethod" modified="Yes">BFGS</Option>
    <Option name="LearningRate" modified="No">2.000000e-02</Option>
    <Option name="DecayRate" modified="No">1.000000e-02</Option>
    <Option name="TestRate" modified="Yes">5</Option>
    <Option name="EpochMonitoring" modified="No">False</Option>
    <Option name="Sampling" modified="No">1.000000e+00</Option>
    <Option name="SamplingEpoch" modified="No">1.000000e+00</Option>
    <Option name="SamplingImportance" modified="No">1.000000e+00</Option>
    <Option name="SamplingTraining" modified="No">True</Option>
    <Option name="SamplingTesting" modified="No">False</Option>
    <Option name="ResetStep" modified="No">50</Option>
    <Option name="Tau" modified="No">3.000000e+00</Option>
    <Option name="BPMode" modified="No">sequential</Option>
    <Option name="BatchSize" modified="No">-1</Option>
    <Option name="ConvergenceImprove" modified="No">1.000000e-30</Option>
    <Option name="ConvergenceTests" modified="No">-1</Option>
    <Option name="UseRegulator" modified="Yes">True</Option>
    <Option name="UpdateLimit" modified="No">10000</Option>
    <Option name="CalculateErrors" modified="No">False</Option>
    <Option name="WeightRange" modified="No">1.000000e+00</Option>
  </Options>
  <Variables NVar="4">
    <Variable VarIndex="0" Expression="medisc" Label="medisc" Title="-log(Pb/(Ps+Pb))" Unit="" Internal="medisc" Type="F" Min="-0.00000000e+00" Max="2.15531349e-01"/>
    <Variable VarIndex="1" Expression="smallTheta" Label="smallTheta" Title="cos(#theta)" Unit="" Internal="smallTheta" Type="F" Min="-9.88485515e-01" Max="9.85404670e-01"/>
    <Variable VarIndex="2" Expression="bigTheta" Label="bigTheta" Title="cos(#Theta)" Unit="" Internal="bigTheta" Type="F" Min="-9.99703705e-01" Max="9.99862432e-01"/>
    <Variable VarIndex="3" Expression="comPhi" Label="comPhi" Title="#phi" Unit="rad" Internal="comPhi" Type="F" Min="-3.14131355e+00" Max="3.14112186e+00"/>
  </Variables>
  <Spectators NSpec="0"/>
  <Classes NClass="2">
    <Class Name="Signal" Index="0"/>
    <Class Name="Background" Index="1"/>
  </Classes>
  <Transformations NTransformations="1">
    <Transform Name="Normalize">
      <Selection>
        <Input NInputs="4">
          <Input Type="Variable" Label="medisc" Expression="medisc"/>
          <Input Type="Variable" Label="smallTheta" Expression="smallTheta"/>
          <Input Type="Variable" Label="bigTheta" Expression="bigTheta"/>
          <Input Type="Variable" Label="comPhi" Expression="comPhi"/>
        </Input>
        <Output NOutputs="4">
          <Output Type="Variable" Label="medisc" Expression="medisc"/>
          <Output Type="Variable" Label="smallTheta" Expression="smallTheta"/>
          <Output Type="Variable" Label="bigTheta" Expression="bigTheta"/>
          <Output Type="Variable" Label="comPhi" Expression="comPhi"/>
        </Output>
      </Selection>
      <Class ClassIndex="0">
        <Ranges>
          <Range Index="0" Min="5.4240372264757752e-06" Max="1.6322508454322815e-01"/>
          <Range Index="1" Min="-9.8181247711181641e-01" Max="9.8540467023849487e-01"/>
          <Range Index="2" Min="-9.9650317430496216e-01" Max="9.9850142002105713e-01"/>
          <Range Index="3" Min="-3.1413135528564453e+00" Max="3.1403920650482178e+00"/>
        </Ranges>
      </Class>
      <Class ClassIndex="1">
        <Ranges>
          <Range Index="0" Min="-0.0000000000000000e+00" Max="2.1553134918212891e-01"/>
          <Range Index="1" Min="-9.8848551511764526e-01" Max="9.8526060581207275e-01"/>
          <Range Index="2" Min="-9.9970370531082153e-01" Max="9.9986243247985840e-01"/>
          <Range Index="3" Min="-3.1401276588439941e+00" Max="3.1411218643188477e+00"/>
        </Ranges>
      </Class>
      <Class ClassIndex="2">
        <Ranges>
          <Range Index="0" Min="-0.0000000000000000e+00" Max="2.1553134918212891e-01"/>
          <Range Index="1" Min="-9.8848551511764526e-01" Max="9.8540467023849487e-01"/>
          <Range Index="2" Min="-9.9970370531082153e-01" Max="9.9986243247985840e-01"/>
          <Range Index="3" Min="-3.1413135528564453e+00" Max="3.1411218643188477e+00"/>
        </Ranges>
      </Class>
    </Transform>
  </Transformations>
  <MVAPdfs/>
  <Weights>
    <Layout NLayers="3">
      <Layer Index="0" NNeurons="5">
        <Neuron NSynapses="9">
          -2.3522169099961441e+00 1.9635431860545309e+00 1.0927726606725630e+00 2.2522431985706519e+00 -2.1028907593564279e+00 -1.7817896279903829e+00 -9.0298606764254641e-01 -5.7368912046298626e-01 -3.1249410304288641e+00 
        </Neuron>
        <Neuron NSynapses="9">
          -5.1741809455402443e-01 -4.3381576455760590e-01 5.2789248775584663e-01 -1.4277206518227786e-01 -1.4353494660977717e+00 1.0172679304937744e-01 -4.3799711281370296e-01 -1.5532001295565301e-01 9.3591459814300915e-01 
        </Neuron>
        <Neuron NSynapses="9">
          -1.5203394951098442e-01 2.8902165705441757e-01 2.1700748432367276e-01 -2.2938397164916124e+00 -4.0396849755368958e-01 1.5157346231520763e+00 4.8263774444717820e-03 -3.4215838681559191e-01 -6.5173406390201771e-01 
        </Neuron>
        <Neuron NSynapses="9">
          -2.9186586077572223e-02 -4.7592265534062133e-03 1.6616339620438177e-02 1.8149055760129328e-02 1.0226703297523664e-02 3.8026013472878747e-03 2.3172254428181728e-03 -1.8730993635301466e-03 -1.2519698802755148e-02 
        </Neuron>
        <Neuron NSynapses="9">
          -1.8452100226683108e+00 8.1993310853815760e-01 3.7056540738266926e-02 4.4307924799214538e-01 8.6566829523315714e-01 -2.0638103333938493e-01 1.4620837189342870e+00 4.6099171035011671e-01 -1.0926800916169175e+00 
        </Neuron>
      </Layer>
      <Layer Index="1" NNeurons="10">
        <Neuron NSynapses="1">
          -8.3202399535728544e-01 
        </Neuron>
        <Neuron NSynapses="1">
          1.0631655782172214e+00 
        </Neuron>
        <Neuron NSynapses="1">
          -1.0427300841029985e+00 
        </Neuron>
        <Neuron NSynapses="1">
          8.2886961607078635e-01 
        </Neuron>
        <Neuron NSynapses="1">
          -7.4209019832699052e-01 
        </Neuron>
        <Neuron NSynapses="1">
          1.3085796913563719e+00 
        </Neuron>
        <Neuron NSynapses="1">
          4.2621870531924333e-01 
        </Neuron>
        <Neuron NSynapses="1">
          6.1572284021735424e-01 
        </Neuron>
        <Neuron NSynapses="1">
          6.5717723708135634e-01 
        </Neuron>
        <Neuron NSynapses="1">
          -7.8342735924565243e-01 
        </Neuron>
      </Layer>
      <Layer Index="2" NNeurons="1">
        <Neuron NSynapses="0"/>
      </Layer>
    </Layout>
    <InverseHessian NElements="3025" NRows="55" NCols="55">
      <Row Index="0">
        4.2538450605040001e+00 3.8511308505384685e+00 -3.4412912987166102e+00 -9.4033216674191469e-02 -1.9383593181538208e+00 2.2832732669282890e-01 4.2130012772931110e+01 -1.0436907353178744e+00 3.8324067454097297e+00 5.2173462436222195e-01 -1.9260736486934675e+00 -1.1204881308719437e+00 -2.8178927649287057e-03 -9.3657080209059607e-01 -1.4677042393406690e-02 1.8325366887825641e+01 -2.5322451937258095e-01 -1.5948618162284995e+00 -6.7216914817515946e-02 1.0117061554592173e+00 -4.3151424829332027e-02 1.7104706290823168e-01 2.2296722140950839e-03 -3.4228730683083186e-01 3.6908216629648560e+00 1.8773301363705088e+00 1.2654416544463922e+00 7.9834697099883001e-02 -1.3847031320853340e-02 5.1645516428934057e-02 4.0407090701858588e-03 4.7526128901902609e-02 -7.3395932000990885e-03 1.2936122203479589e-02 2.1646317935649730e-02 1.2185157398453636e-01 3.1413609847119863e+00 6.5597003370805584e-01 1.6163870254025898e+00 4.6466877732870365e-02 6.7026363560665636e-01 1.0525424364666216e-03 3.8503735107662429e+00 1.2147826418731991e+00 1.0322834347092402e+00 -4.1831153176327600e+00 2.5588891684984225e+00 2.0709832141653881e+00 -3.4395563596551382e-02 1.2303411899135783e+00 2.5526155738818784e-01 3.2113196112435119e+01 6.0010067498677122e+00 4.5259376770130597e+00 -3.3786359096182295e+01 
      </Row>
      <Row Index="1">
        3.8511308503604624e+00 1.1424178725756324e+01 -5.4980652880401699e+00 3.2028193218944329e-01 -9.9005105861290932e-01 -1.1180759164711611e-01 9.5622551646575033e+01 -4.0468960349968119e+00 1.2325104611067376e+01 1.0900005216625694e+00 -5.4090620498631585e+00 -9.3954353582495420e-01 -1.4721059782461449e-01 1.2216240557822164e+00 1.4148591856919424e-01 4.4713258031783383e+01 -9.3070144397017507e-01 -5.1255714003641621e+00 5.2149740399555160e-02 3.0346109775081032e+00 2.1785615827708374e-01 -4.0625503196176277e-01 1.9113807721036935e-01 1.1067594572847904e-01 6.0913811830656996e+00 8.7134474057746658e-01 4.2817685497016980e+00 1.3986029344925582e-01 1.2885156586120470e-02 1.1121947895522521e-01 1.5791741067514017e-02 -7.9692802153638720e-02 -1.1303630688859527e-02 1.0573857984359185e-01 4.7522703442708474e-02 3.3204486515399417e-01 2.6586163069243196e+00 2.1266692013675517e+00 -3.1000910469538856e+00 3.9302230817338538e-02 -4.6633529627963866e-01 6.7818348930607966e-02 -4.7010143084820397e+00 -1.9222968019511470e+00 3.1338053150657630e+00 -4.8469261192582858e+00 9.7437033838498674e+00 2.0031765297748114e+00 -5.0149187654106475e-01 -2.1746388389275118e+00 -7.2240968339872280e-01 7.2973081365590886e+01 3.6459877151881601e+00 1.4269381711206377e+01 -6.9317707859120745e+01 
      </Row>
      <Row Index="2">
        -3.4412912972959049e+00 -5.4980652845653415e+00 3.4795611101732320e+01 -4.8362170956282224e-01 1.4546524561808420e+00 -5.8321869814576444e-01 1.2936061761519065e+02 -1.2396510913617142e+01 -7.2378074533339476e-01 9.1435924693180226e-01 1.5224658187440288e+00 1.7957537005571169e+01 -3.4394560370059807e-01 -2.8664196793571479e+00 4.5049869181017327e-01 4.7702644217802082e+01 -1.5446813286837275e+01 1.2178928820428718e+00 -9.3749085257363741e-03 -9.3666003158923494e-01 3.9633318097997137e+00 9.6324098734147190e-01 7.4002364513482966e-01 9.9365863973172175e-01 1.4005152056288361e+01 1.7122930445648350e+01 -7.3106870775561228e-01 9.6408147891781371e-03 2.5586970786593763e-02 8.8667159467513168e-01 5.5875340436763376e-03 6.2010874811012440e-01 -9.1862907323289916e-02 -1.7283323763341414e+00 -6.6511653782168478e-01 -8.7198320536397922e-02 -1.8272808591620393e+00 -2.3386121359057652e+00 2.5830245171421950e+01 -2.4171640818616663e-01 1.2783543853246675e+00 -3.1901184436833663e-01 -1.8794560027410159e+02 -1.7960060633045948e+01 4.5408586103794935e-01 3.9879226453159671e+00 7.1608315014536505e-01 1.0446137408604115e+02 2.2821689190449623e+00 6.8246963875458500e+00 1.8855565885191039e+00 4.2375373432051617e+01 8.6914457671523351e+01 -2.6484952768883390e+00 -2.9977866560120304e+01 
      </Row>
      <Row Index="3">
        -9.4033216924291452e-02 3.2028193156269757e-01 -4.8362171111006746e-01 9.8927397974836104e+00 -1.5199476564340131e-01 3.9439239984120045e+00 -1.8841098994962913e+01 -2.8209219530928382e+00 1.7104384153160579e+00 -1.3825255258687008e-01 -2.3322403051782173e-01 -1.4997873497514363e-01 -7.6680081293633817e-01 -4.5855318322210403e-01 -4.4420442549695527e-01 -9.4268367195816953e+00 -7.2055294670457504e-01 -6.7986284446103673e-01 -2.0532367509720181e-01 4.5399277299836471e-01 -6.4585441455176218e-01 -1.4496887945399816e+01 -2.7171603501938235e-01 -8.2394916922855526e+00 -9.4116919718528158e-01 -2.2994566984738318e+00 3.3408310014695564e-01 -2.5691572971055465e-02 6.3518788296265463e-03 -1.2689796652142712e-03 4.1794626522480577e-01 -1.4293886795348709e-02 2.3687249848441425e-01 -9.7158315505760443e-02 1.5564329154824657e-02 1.3353867058459486e-02 -8.1027431053710117e-02 -2.8602113497049036e-01 3.6457483145878217e-01 4.0371001304799563e+00 2.9320239969666756e-01 2.8234561342422189e+00 1.5195311184524851e+01 -4.2111882736105644e+00 6.1141151711560882e-01 1.1923687051751906e-01 1.8436847349348915e+00 -1.1206576100806749e+00 -2.8104193800622234e+01 6.7351248917247097e-01 -2.7645760288444215e+01 -1.0306224374534629e+01 -4.6211962359684584e+00 1.5316466480052455e+00 1.2056894970388615e+01 
      </Row>
      <Row Index="4">
        -1.9383593186029970e+00 -9.9005105957791328e-01 1.4546524555174229e+00 -1.5199476528737960e-01 7.1686326830358542e+00 -2.8939069117971683e-01 2.4424729668490450e+01 7.6947080543396551e-02 -1.8718734309650313e+00 -2.7273746341439820e-01 5.5612294205551449e-01 1.6483178902216233e+00 -4.4401954211232622e-02 6.6757041660877823e+00 1.0794383231302619e-01 8.5420301582990650e+00 -8.6916224427688826e-01 7.5617354943744564e-01 1.7167821671354377e-01 -2.5395974184987824e-01 4.9314111765587260e-01 1.0532951012166857e-01 1.4457826380751819e+00 6.7708865839401988e-01 -5.1943037020357796e-01 4.4486506373645607e-01 -6.7916383555012105e-01 -2.4922177644402105e-03 -9.6960945991400264e-03 6.8726955295800602e-03 1.1588476675258639e-02 -2.4020315037407741e-01 -3.2817841905942197e-02 3.3263770023130018e-01 -4.3092050914474544e-02 -4.6106557947237205e-02 -1.6936172748208373e+00 2.2415802985434993e-01 -6.5558694846247816e+00 -2.0849004432812215e-01 -3.0914372225618236e+00 -1.6292377469675351e-03 -4.2809905817257302e+01 -2.4937640913767476e+00 -6.4043945027134452e-01 2.1848421149802362e+00 -1.9292775511220470e+00 -1.2741598760272335e+00 7.5413140980514815e-01 -8.6020816852818172e+00 3.6824819673953924e-01 2.6466956643166992e+00 1.8209504545651283e+00 -2.0382482616742750e+00 1.2463568079574254e+00 
      </Row>
      <Row Index="5">
        2.2832732667795597e-01 -1.1180759175201771e-01 -5.8321869858365616e-01 3.9439239982507370e+00 -2.8939069143132201e-01 2.2229311651762176e+00 -1.7139487687906538e+01 -1.0744325328518110e+00 8.0883859797047997e-01 -6.8126606281943225e-02 -2.8882665830321175e-02 -2.6687244493247858e-01 -2.9114014147980771e-01 -5.6580023797558443e-01 -2.5336003857070338e-01 -9.5156032045436465e+00 -2.5701272736224603e-02 -3.1050840227858345e-01 -1.1716389195937138e-01 1.0917724506086492e-01 -3.7588749848876507e-01 -6.0325181144632767e+00 -1.5127911347349329e-01 -4.1709396033020427e+00 -6.5283626858841959e-01 -7.0852096468643766e-01 1.6798825378475360e-01 -1.0753498787613742e-02 9.0677412681277074e-04 -1.1874630263771210e-02 1.8397744158397566e-01 1.4362739536115887e-02 1.0747211918418333e-01 -1.8754391464200413e-02 1.6293208685298429e-02 6.0400444342437881e-03 1.7064537109101063e-01 -3.1760384747606157e-01 7.2023996976695148e-01 1.7408820072792734e+00 3.7413918829288972e-01 1.3336986633029804e+00 1.0484862557178207e+01 -1.4019448860557695e+00 3.6166407556714608e-01 -2.4866487331168052e-01 1.0032013289400727e+00 -1.1501675040085484e+00 -1.2494511840037514e+01 8.1811919645676856e-01 -1.1964179786026699e+01 -1.2175666666408523e+01 -1.3617129079950892e+00 6.6309876074930185e-01 1.1361115061645460e+01 
      </Row>
      <Row Index="6">
        4.2130012758765588e+01 9.5622551632459391e+01 1.2936061751129751e+02 -1.8841098939468793e+01 2.4424729712442058e+01 -1.7139487668451828e+01 4.7549744034261848e+03 -6.8920243162618817e+01 8.8580751185676661e+01 1.8127159977749216e+01 -4.3446472258999833e+01 9.5057574713868675e+01 -4.0184018353210762e+00 3.8522287867390595e+01 8.5484248893875527e+00 2.1221643773699343e+03 -7.9378102408443809e+01 -3.6245922990301686e+01 5.8973519040248448e+00 2.6754871004276630e+01 7.2285076006567920e+01 2.8967417911963622e+01 2.6755641772638796e+01 3.2157346601379963e+01 1.5315378806460100e+02 1.4579653234056616e+02 2.8492774365670410e+01 2.6678422822924608e+00 -2.5817651100896771e-01 9.4538697812009254e+00 -3.9320545876018326e-01 1.1183100782217896e+00 -1.8540290553760610e+00 -1.3877358807851547e+01 -3.0642628661603553e+00 3.1251422830721562e+00 2.3221009663816119e+01 1.7873350467195483e+01 5.9723228296233657e+01 -9.9543888396398454e+00 -1.6685738065197562e+01 -7.6782869143471659e+00 -2.0854757721589935e+03 -6.6408675036024476e+01 2.2418311126872986e+01 -4.6268050752849376e+01 6.5121628406303643e+01 7.8275237428254866e+02 6.9072022214801677e+01 -5.6831197906392198e+01 5.5028801708861167e+01 3.3260949260618468e+03 6.0559349108353251e+02 1.0683155478564599e+02 -2.9933934337483861e+03 
      </Row>
      <Row Index="7">
        -1.0436907360136445e+00 -4.0468960367579268e+00 -1.2396510911709601e+01 -2.8209219537661072e+00 7.6947080245844290e-02 -1.0744325330419362e+00 -6.8920243199343517e+01 2.0308680747127109e+01 -5.7338620128716409e+00 -1.1049385989525646e+00 2.3855624925343109e+00 -8.6674480686928579e+00 4.1313951075063221e-01 5.1416758052677158e-01 -8.0222454008104946e-02 -2.3561317961519435e+01 1.3481033147139517e+01 1.9860011728984324e+00 1.4828307389124173e-01 -1.2986979947811048e+00 3.7991353004165573e-01 4.0159305812215882e+00 4.4362084717516337e-01 2.4165528876795026e+00 -1.6643143601601096e+01 -7.0194180417627887e+00 -1.9183540216196588e+00 -7.8545200630515344e-02 1.4361629856572241e-02 -4.9205274966444768e-01 -1.4714446103462936e-01 -2.0792190452598835e-01 -3.4290709298378338e-02 4.2291260182178825e-01 3.6297638798234316e-01 -1.5537138761090535e-01 -8.9194736440217148e-01 2.5827928853210835e-02 -9.9630146000404753e+00 -1.0791197421895447e+00 -5.1048300812851477e-01 -8.9177736470429370e-01 5.1307690691784032e+01 2.5130495634411332e+01 -1.7612078346956448e+00 1.5026882828625467e+00 -5.1709938002010958e+00 -5.3282271868429618e+01 8.1032566519920337e+00 -2.1065812716341732e+00 8.0136935808499246e+00 -2.2800898568552245e+01 -4.6988241832028621e+01 -6.3770319990593656e+00 1.7040439542896735e+01 
      </Row>
      <Row Index="8">
        3.8324067458249971e+00 1.2325104612330408e+01 -7.2378074866483910e-01 1.7104384155842851e+00 -1.8718734301389190e+00 8.0883859785289336e-01 8.8580751237709606e+01 -5.7338620113953969e+00 2.0213213843524642e+01 1.3110386153946223e+00 -6.3823031991614911e+00 1.1620431414073336e+00 -3.2496735127811255e-01 -4.0072569886324971e-01 1.0996646899545161e-01 3.9105927073499458e+01 -2.4369750573056681e+00 -7.9606277926059663e+00 1.6182959561525934e-02 3.7442623247394557e+00 5.2493663041870975e-01 -2.3789413350872310e+00 9.6169295194467166e-02 -1.7464465928743635e+00 7.4434799077947069e+00 3.2696074741931604e+00 6.4173598845765341e+00 1.5359518203750985e-01 6.6191206490364543e-02 2.1078097189388031e-01 7.7836045426146944e-02 6.7112312065479268e-02 2.7228712535968095e-02 -1.7765249497833491e-01 -7.5488365218743803e-03 4.2736045205752460e-01 2.8875198744427477e+00 1.1452343088797363e+00 2.0664393223046624e+00 7.2363669825990695e-01 2.1484961586480145e-01 5.3362058783570354e-01 -1.5576504875093512e+01 -4.3660361006760233e+00 5.9453211235599435e+00 -4.8073817705728885e+00 1.7058661395424490e+01 1.4944362014192967e+01 -5.0485917418947572e+00 5.9234756556785528e-01 -4.8110965278264555e+00 6.2575930845024565e+01 1.5341533676293013e+01 2.0452945376578697e+01 -5.9758265070562288e+01 
      </Row>
      <Row Index="9">
        5.2173462441461638e-01 1.0900005218478976e+00 9.1435924649784117e-01 -1.3825255243918999e-01 -2.7273746325406734e-01 -6.8126606253575708e-02 1.8127159985523090e+01 -1.1049385988228635e+00 1.3110386154034284e+00 2.5374946266527232e-01 -5.9425412372630337e-01 7.0118347545576687e-01 -1.9647198267480903e-02 -1.1956851693380548e-01 3.9901168036757778e-02 7.6741153346754576e+00 -8.7576556323608690e-01 -4.8423067467657432e-01 8.2209180823644701e-03 3.0579877219766827e-01 1.8648864606141966e-01 2.1144500051282614e-01 1.5446494555935709e-02 1.5607913753361924e-01 1.7747990528692603e+00 1.1223213748174288e+00 4.4139953305004681e-01 2.1469692887803822e-02 -2.5015963160117715e-03 5.8577370692251281e-02 -5.2024188152039160e-03 2.2474934784963957e-02 -7.6858340443829269e-03 -6.1244557928553420e-02 -2.2059794233611367e-02 3.8860179783213038e-02 4.1610863578732626e-01 1.0374460496174739e-01 8.9394020011601349e-01 -6.0084472638707018e-02 7.0552083374753521e-02 -4.7311902738053531e-02 -7.7626376576854659e+00 -1.0762285281093829e+00 3.8120845826260769e-01 -5.8507311278333241e-01 1.0353263043781580e+00 5.2911856347699837e+00 4.5330114799748789e-01 1.9247892978305553e-01 4.2867213179979358e-01 1.1189102007726001e+01 5.2088085580733443e+00 1.4866633094385886e+00 -1.0674170454433547e+01 
      </Row>
      <Row Index="10">
        -1.9260736487132277e+00 -5.4090620500829623e+00 1.5224658202928547e+00 -2.3322403076691600e-01 5.5612294163469755e-01 -2.8882665850715496e-02 -4.3446472271907176e+01 2.3855624917995648e+00 -6.3823031988101411e+00 -5.9425412367261998e-01 2.7412730660787399e+00 -1.6820566572626366e-01 8.4733973027763643e-02 -3.2697391543386145e-01 -6.5859444041625692e-02 -2.0004652769017198e+01 8.5942270862839820e-01 2.5288213066180205e+00 -8.1627464091216240e-03 -1.4863137269252567e+00 -1.3973258796411692e-01 3.2303796036630394e-01 -1.0196325372614742e-01 8.4452853629230162e-02 -3.3224314208227277e+00 -9.9121627789892530e-01 -2.1673289257579111e+00 -6.9017850491132515e-02 -7.8411113599976615e-03 -7.6782709345710312e-02 -1.2921456858838732e-02 1.0416965022331082e-02 4.1584763869278139e-03 8.2089067712434825e-04 -1.4049185041252474e-03 -1.6363733485671883e-01 -1.4176025005513335e+00 -8.8351088533741884e-01 3.3328428599488719e-01 -6.0788005690418305e-02 1.4441381596935718e-01 -6.8199677572903197e-02 6.0698461233623240e+00 1.5338121376180229e+00 -1.6938276638058156e+00 2.3856043560925180e+00 -5.0258846583441557e+00 -4.1071012175265151e+00 5.4345374109055600e-01 5.3134940492115157e-01 6.0078242293020112e-01 -3.1405706338945496e+01 -4.6456974188944873e+00 -7.1641437777125097e+00 2.9885375438220553e+01 
      </Row>
      <Row Index="11">
        -1.1204881302031140e+00 -9.3954353406469138e-01 1.7957537004601441e+01 -1.4997873392505667e-01 1.6483178907874390e+00 -2.6687244462142357e-01 9.5057574765047335e+01 -8.6674480692782385e+00 1.1620431428450146e+00 7.0118347562396366e-01 -1.6820566646502078e-01 1.0155491066191894e+01 -2.0947390356870477e-01 -2.1784333837278264e-01 2.5964724702813785e-01 3.6823813334010694e+01 -9.2865564341839466e+00 -1.0122270051880378e-02 6.1882526857051090e-03 1.0709612639858842e-03 2.1494457908236848e+00 3.3711199446270712e-01 6.0275559628863173e-01 4.9334536528216688e-01 1.0385832992089156e+01 1.0183263055304078e+01 1.7972002942016957e-01 3.8053330879616647e-02 4.0261238315706495e-03 5.1743470835994720e-01 1.6094437045273125e-02 2.7761220410788684e-01 -5.7538537765609535e-02 -8.4694741243719962e-01 -3.7580477959010655e-01 8.7692603053276443e-03 -5.4483323138763118e-01 -8.1830424849735117e-01 1.2408236241874006e+01 -1.0992279422303645e-01 3.2420723919675126e-02 -1.1727224866386993e-01 -1.0646785153812405e+02 -1.1747168835430106e+01 5.8561403344122120e-01 1.2174079194278278e+00 1.3971393961745797e+00 5.8510052026638355e+01 9.3497847162095404e-01 1.9502487233318193e+00 7.0199127209016265e-01 3.8389574807870609e+01 5.1192583413449455e+01 6.2689273380433619e-01 -3.1470781410691632e+01 
      </Row>
      <Row Index="12">
        -2.8178927480393412e-03 -1.4721059779901544e-01 -3.4394560348047143e-01 -7.6680081299253533e-01 -4.4401954226179541e-02 -2.9114014151025769e-01 -4.0184018320557149e+00 4.1313951067608656e-01 -3.2496735124389292e-01 -1.9647198253259113e-02 8.4733973012511982e-02 -2.0947390344622657e-01 1.0071268643792922e-01 -7.4256723626933913e-03 -2.3220178860930661e-03 -1.6174277699098598e+00 2.6597063777468083e-01 1.2424837801044752e-01 4.3196528821096702e-03 -7.8612471717705301e-02 -3.2765122669357223e-02 1.1267040659541678e+00 -1.5885282450216032e-02 6.1476071125202325e-01 -2.6566637910094182e-01 -4.7036073775375768e-02 -8.0456087216251346e-02 -8.3215193204486029e-04 -6.9868033040205112e-04 -1.5832100385237292e-02 -3.2423591381544790e-02 -3.3186357720713933e-03 -1.7133742365004208e-02 3.0926994690470996e-02 6.5639640767041095e-03 -6.1878727915525974e-03 8.3210359257108145e-04 1.7110603423581328e-02 -2.4909470378106530e-01 -3.0928243065102401e-01 -8.7148428058558200e-03 -2.1527226557839976e-01 2.7345478731661408e+00 5.0529513619589106e-01 -1.0517443004710897e-01 4.5564885234343766e-03 -3.2182760295800328e-01 -1.4143252744357817e+00 2.1675168108549943e+00 -5.9447672280787955e-03 2.1597575489580594e+00 -2.4095065142701273e+00 -8.5580340872217087e-01 -3.2321100070095654e-01 1.8436577306717457e+00 
      </Row>
      <Row Index="13">
        -9.3657080280974014e-01 1.2216240543094294e+00 -2.8664196809062110e+00 -4.5855318275522627e-01 6.6757041663146452e+00 -5.6580023768805365e-01 3.8522287811800837e+01 5.1416758145251984e-01 -4.0072570050369805e-01 -1.1956851720711015e-01 -3.2697391473033938e-01 -2.1784333950673229e-01 -7.4256723361150190e-03 7.6254201844428842e+00 1.2362434734575556e-01 1.7992679954532822e+01 1.7152838393530623e-01 -2.1218717682156552e-02 2.1933240977198576e-01 2.5855798365907889e-01 1.9078897570612771e-01 6.0882231152001098e-01 1.3219029311201318e+00 1.1158427450537465e+00 7.1723128717783347e-01 -9.6398146295652232e-01 -9.9247802725686729e-02 2.6302230334417281e-02 -2.0569567163748075e-02 -4.8966623139185463e-02 -9.8798032331124958e-03 -3.5208151917335473e-01 -3.6280378531827008e-02 5.1830884617576933e-01 3.7831327529511460e-02 1.5259467054323336e-02 -1.0645774710850793e+00 7.9231101420264460e-01 -1.0693140711424636e+01 -3.3802352784383066e-01 -3.7012168164112302e+00 -1.6302613172678920e-01 -2.4951774318628573e+01 -1.2395338926725632e+00 -3.5693996146543228e-01 1.0557237469678249e+00 -9.9469414649410903e-01 -1.1204181063935835e+01 1.8747281638547215e+00 -1.0283452466107429e+01 1.3610812384992663e+00 1.9546738030583573e+01 -5.2520588306748390e+00 2.1301913385897819e-02 -1.6360742717917489e+01 
      </Row>
      <Row Index="14">
        -1.4677042397147844e-02 1.4148591859028661e-01 4.5049869173168722e-01 -4.4420442540716154e-01 1.0794383239431582e-01 -2.5336003854627437e-01 8.5484248922327239e+00 -8.0222453995723392e-02 1.0996646894707307e-01 3.9901168033846801e-02 -6.5859444040363702e-02 2.5964724700616226e-01 -2.3220178944661218e-03 1.2362434745149997e-01 6.3911060984580811e-02 3.8913489739747629e+00 -2.0188759575761597e-01 -4.0074186870834083e-02 2.4390890211968941e-02 3.0129554877185296e-02 1.3821497777778263e-01 6.7236826289300988e-01 6.0145120709060862e-02 4.8048471372356949e-01 3.5894217675265588e-01 3.1421294618257550e-01 4.1190322781343380e-02 4.4873447500205161e-03 -4.7282531399516024e-05 1.8900055960857413e-02 -2.0310950534929380e-02 2.1528171216972231e-03 -1.3361562250970405e-02 -2.3640114842135660e-02 -9.4883346447302390e-03 4.9385270911752408e-03 -1.7351694954609080e-02 3.8631028713947489e-02 1.1873412630076279e-01 -1.9746342071692580e-01 -6.1701665625866563e-02 -1.4952918003680302e-01 -5.4850565485576928e+00 -7.9663487376431641e-02 2.0924417157998754e-02 1.0091346504664145e-02 7.9109466579695392e-02 1.7234274989440086e+00 1.3985239218612293e+00 -1.7018261205835050e-01 1.3151152376764375e+00 5.4329835718213371e+00 1.3845700176300542e+00 1.4101459517100290e-01 -4.7804083553368706e+00 
      </Row>
      <Row Index="15">
        1.8325366880487309e+01 4.4713258023369860e+01 4.7702644170787423e+01 -9.4268366943372257e+00 8.5420301784524781e+00 -9.5156031956306837e+00 2.1221643773268661e+03 -2.3561317944138111e+01 3.9105927047664750e+01 7.6741153308871617e+00 -2.0004652762220971e+01 3.6823813310439199e+01 -1.6174277713521548e+00 1.7992679979505738e+01 3.8913489726222648e+00 9.7193220773546432e+02 -2.8997825727689058e+01 -1.6373535618146434e+01 2.6845574389610078e+00 1.2343552741871596e+01 3.1924948414998198e+01 1.5066513155089586e+01 1.1265920874076301e+01 1.6618814051871368e+01 6.1077491979262142e+01 5.4497787481083087e+01 1.2733014244912511e+01 1.1627132116482439e+00 -1.1501214485695217e-01 3.9382747010932015e+00 -2.7277120935795335e-01 2.3496656500562904e-01 -8.3709194109418705e-01 -6.2871164379065236e+00 -1.1416569515051078e+00 1.4050584117995699e+00 9.9863902185574123e+00 9.2844202278624834e+00 1.7143990820988169e+01 -4.8453158695012704e+00 -9.1204452719313984e+00 -4.4011787552778845e+00 -8.7569473595297438e+02 -2.1079647021949786e+01 9.3836576162151459e+00 -2.0277979381853811e+01 2.7700324499895157e+01 3.1415551215344647e+02 3.5738915773947809e+01 -2.6589330083060901e+01 2.8363486316160063e+01 1.5290357676509614e+03 2.2598175032805258e+02 4.7991852271535890e+01 -1.3730379363206382e+03 
      </Row>
      <Row Index="16">
        -2.5322452008602170e-01 -9.3070144580121705e-01 -1.5446813285501172e+01 -7.2055294751524990e-01 -8.6916224468899372e-01 -2.5701272960102828e-02 -7.9378102454767742e+01 1.3481033147484988e+01 -2.4369750588475809e+00 -8.7576556339939771e-01 8.5942270940056487e-01 -9.2865564339578359e+00 2.6597063787239317e-01 1.7152838291852390e-01 -2.0188759578126664e-01 -2.8997825749225704e+01 1.2031379154584442e+01 6.0735468043728247e-01 7.3895469226231469e-02 -4.6383275686320896e-01 -7.8425858874108612e-01 8.8133729188930487e-01 1.9115570498019707e-02 2.1706154515631937e-01 -1.5404140602460421e+01 -9.3925422195892150e+00 -6.3820376575170812e-01 -5.9566784743254192e-02 9.9905641968731727e-03 -5.0472398440925637e-01 -4.8073402625220828e-02 -2.3007772204850974e-01 2.7458535409564347e-02 5.7555631004960250e-01 3.7048344132707295e-01 -5.9564381045299729e-02 -3.6498884249182878e-01 3.3102882830231284e-01 -1.0996154658093953e+01 -2.2705554124564917e-01 -2.4421599832712526e-01 -1.3105335986320812e-01 7.7908846964214447e+01 1.7086845440943392e+01 -8.4817149263926161e-01 1.3165353916508238e-01 -2.1511257249815317e+00 -5.5762576935756215e+01 1.4872997993235919e+00 -1.7176773779267607e+00 1.6776411873339490e+00 -2.6835297216320605e+01 -5.2095924603518156e+01 -2.3165252370062284e+00 2.3037170349358000e+01 
      </Row>
      <Row Index="17">
        -1.5948618163365893e+00 -5.1255714007472521e+00 1.2178928834706868e+00 -6.7986284457610324e-01 7.5617354908709444e-01 -3.1050840223849169e-01 -3.6245923007712832e+01 1.9860011722190805e+00 -7.9606277924562789e+00 -4.8423067465222402e-01 2.5288213066984251e+00 -1.0122269399814888e-02 1.2424837802056010e-01 -2.1218718340520581e-02 -4.0074186884671785e-02 -1.6373535626973908e+01 6.0735467973866264e-01 3.2529840008873165e+00 -1.2049917856263193e-02 -1.5145384482405246e+00 -1.5783275066865407e-01 9.3145480855295093e-01 -3.1457080652455005e-02 6.9610966566784249e-01 -2.7851316960765864e+00 -9.4628199081783448e-01 -2.5619877013759620e+00 -6.2107912054698372e-02 -2.5507073446926824e-02 -6.5637157868534843e-02 -3.0500044273756098e-02 -6.4702024651761732e-03 -1.1336832343573014e-02 3.2909328415418153e-02 -1.3646965786268311e-02 -1.7293091901446406e-01 -1.1567103155489509e+00 -5.5378492906451016e-01 -2.7894019072717761e-02 -2.9108209273844893e-01 -7.1696838579939776e-03 -2.0381583525823108e-01 3.0273380331118109e+00 1.2083998616226623e+00 -2.3053763411078059e+00 2.0050997872569525e+00 -6.7840676445969121e+00 -3.5461455482606192e+00 1.9911706169892336e+00 9.3837026277971192e-02 1.8955308272890352e+00 -2.6785122502077048e+01 -4.2284666282827397e+00 -8.2085931121895097e+00 2.5790776890842228e+01 
      </Row>
      <Row Index="18">
        -6.7216914859224097e-02 5.2149740329142491e-02 -9.3749086353012712e-03 -2.0532367502594484e-01 1.7167821677390549e-01 -1.1716389193271434e-01 5.8973519029133907e+00 1.4828307394545623e-01 1.6182959441173948e-02 8.2209180665735460e-03 -8.1627463690723268e-03 6.1882526219718126e-03 4.3196528788620459e-03 2.1933240983261371e-01 2.4390890206944862e-02 2.6845574385026003e+00 7.3895469287716509e-02 -1.2049917810871946e-02 4.3760588445215687e-02 7.7802104500412240e-03 1.0302051195552628e-01 2.9452063595858913e-01 7.3844619339415551e-02 2.4019000259372181e-01 4.2596329294695479e-02 3.8583555349606717e-02 9.1198863433357147e-03 2.0476295645228682e-03 3.7685742903267525e-05 4.2759892794155931e-03 -9.9204720078301910e-03 -1.0870200311614731e-02 -5.9754334304853059e-03 5.9027857278148022e-03 1.9988072978164911e-03 1.2276580875467992e-03 -6.6170966603278814e-02 3.5319021351899668e-02 -3.9665003191823694e-01 -9.0614805190121717e-02 -1.1217414606106119e-01 -7.0512709779729468e-02 -2.1644474492200163e+00 2.4090879636583409e-01 -6.2328195286358579e-03 7.4041802239438681e-02 -1.7353396759888659e-02 -3.8910183354818328e-02 6.4420649878635328e-01 -3.6317325984370374e-01 5.8943152826286860e-01 4.3752212338360241e+00 -9.5902301168409698e-02 1.4164813697636225e-02 -3.9589589637935698e+00 
      </Row>
      <Row Index="19">
        1.0117061554266442e+00 3.0346109775428540e+00 -9.3666003258862185e-01 4.5399277318313125e-01 -2.5395974159533807e-01 1.0917724509796306e-01 2.6754871007808795e+01 -1.2986979943048107e+00 3.7442623244424782e+00 3.0579877214932694e-01 -1.4863137268822442e+00 1.0709607626276148e-03 -7.8612471725372890e-02 2.5855798406195163e-01 3.0129554869954944e-02 1.2343552744019149e+01 -4.6383275635542986e-01 -1.5145384481561059e+00 7.7802104684741025e-03 9.0434659214964230e-01 9.8580878835703808e-02 -6.4884533024696422e-01 6.7085146939941609e-02 -2.6266250336065777e-01 1.6373113020793708e+00 3.7041022944097957e-01 1.2035397596368469e+00 3.7673266675032360e-02 7.4644487474271231e-03 4.2710884509115914e-02 2.1248650061838781e-02 -1.1999362710333583e-02 3.9050340659879165e-03 -5.3300684262599799e-04 3.9733994900474435e-03 9.1654030241229686e-02 7.1123921065245033e-01 5.0633423840732272e-01 -4.3072220593641264e-01 1.4255687195833955e-01 -9.6355958166250227e-02 1.4247763578368980e-01 -3.7021637924009481e+00 -1.1427225646075563e+00 9.9222493450473515e-01 -1.2413582097164699e+00 2.9942896105606507e+00 2.0062976206914951e+00 -1.1890195862101782e+00 -4.5424077921059469e-01 -1.2477502227778905e+00 1.9869755474349372e+01 1.8877248520339480e+00 4.1204173668360990e+00 -1.8441084471265977e+01 
      </Row>
      <Row Index="20">
        -4.3151424948263184e-02 2.1785615825519433e-01 3.9633318086574789e+00 -6.4585441369956342e-01 4.9314111829812646e-01 -3.7588749819696682e-01 7.2285076014385169e+01 3.7991353031351183e-01 5.2493662989668888e-01 1.8648864598972636e-01 -1.3973258787025600e-01 2.1494457903294122e+00 -3.2765122730535001e-02 1.9078897652650539e-01 1.3821497774713976e-01 3.1924948419019241e+01 -7.8425858832051176e-01 -1.5783275050556256e-01 1.0302051197691320e-01 9.8580878840933098e-02 1.6213280278085167e+00 9.6078221195738589e-01 5.6237737926987563e-01 7.4932955075905028e-01 9.2879545178943912e-01 2.9803776684139414e+00 1.1427846930895669e-01 2.6375312047861144e-02 3.7925081285726117e-03 1.6494963084780823e-01 -2.0319989747282163e-02 6.8501444179951965e-02 -3.9619488424101054e-02 -3.4911550552021131e-01 -6.6394694621704831e-02 1.4333145107629572e-02 -8.9536207927555095e-02 -4.7045035640483124e-02 2.6112415775622884e+00 -2.7827416048773884e-01 -7.8561165935632810e-02 -2.3113687917082223e-01 -4.5867796510749116e+01 7.1143698006403788e-01 1.8155751504493978e-01 2.2285469808707603e-02 4.9667360688853729e-01 1.5613904764029154e+01 2.0499848600293471e+00 -1.6561992514036369e-01 1.8483405977579921e+00 4.8104930913688754e+01 1.1401067572539077e+01 4.8880903257581920e-01 -4.2398509955666221e+01 
      </Row>
      <Row Index="21">
        1.7104706328909103e-01 -4.0625503100386096e-01 9.6324098963008487e-01 -1.4496887945377646e+01 1.0532951066871021e-01 -6.0325181146978544e+00 2.8967417995835994e+01 4.0159305802145440e+00 -2.3789413346780397e+00 2.1144500073481609e-01 3.2303795998661933e-01 3.3711199602704167e-01 1.1267040658678700e+00 6.0882231224215388e-01 6.7236826302744390e-01 1.5066513193256597e+01 8.8133729068161415e-01 9.3145480837599948e-01 2.9452063606648782e-01 -6.4884532996475952e-01 9.6078221324081881e-01 2.1608919678634543e+01 3.7641396039693120e-01 1.2226054053558398e+01 1.7355846220042468e+00 3.3359064430598950e+00 -4.6040454734703928e-01 3.8162221481940151e-02 -7.9840965901666269e-03 7.0696242763316616e-03 -6.2230948002321418e-01 2.6461568977929395e-02 -3.5287682364590373e-01 1.2747113183713679e-01 -3.2330649544176991e-02 -1.7284256592156814e-02 1.6488797600447005e-01 4.2111248352358421e-01 -2.9697650403493631e-01 -5.8379575204063539e+00 -4.3536074672848113e-01 -4.3377838780727496e+00 -2.2926374862726725e+01 5.9772191837511466e+00 -8.5505939979329249e-01 -1.8072802463721338e-01 -2.5562228244145846e+00 2.4021547545819630e+00 4.1829170647363206e+01 -8.4064519309289432e-01 4.1131047940933236e+01 1.6611390085861487e+01 7.1084157442919835e+00 -2.1145151632200445e+00 -1.8860016465348334e+01 
      </Row>
      <Row Index="22">
        2.2296720926497926e-03 1.9113807701140040e-01 7.4002364469159743e-01 -2.7171603472742145e-01 1.4457826382603542e+00 -1.5127911335344971e-01 2.6755641767261846e+01 4.4362084732955359e-01 9.6169294862847643e-02 1.5446494504338659e-02 -1.0196325361278902e-01 6.0275559604201445e-01 -1.5885282463777739e-02 1.3219029313136588e+00 6.0145120686776465e-02 1.1265920871756823e+01 1.9115570706176754e-02 -3.1457080529563086e-02 7.3844619335667439e-02 6.7085146889669503e-02 5.6237737916226305e-01 3.7641395995518678e-01 5.8814706298008801e-01 3.3665770049190247e-01 -1.9889201302339687e-01 8.1711539004892964e-01 1.0462562497313144e-02 1.2422865646136927e-02 -4.0907137569771946e-04 4.0352617824507060e-02 -5.6760910954848070e-03 -2.2091744615177558e-02 -1.8529173487707308e-02 -1.7090250884472150e-02 -1.8768688272871162e-02 4.1721861334338660e-03 -5.3820615062896426e-02 8.7605451955873048e-02 -4.4818680334294103e-01 -1.2859576484323823e-01 -5.5471889693530330e-01 -8.2220327910277655e-02 -2.3824466584610963e+01 4.2788938994555648e-01 9.1235663026401070e-03 2.0292895678485579e-02 -3.2962290582051190e-02 3.1198804098263326e+00 8.4139853586876057e-01 -1.7016375012157203e+00 7.3558831463775698e-01 1.4590877686801223e+01 2.5772116119091653e+00 1.1901620398670421e-01 -1.1989975094369276e+01 
      </Row>
      <Row Index="23">
        -3.4228730676262842e-01 1.1067594601130804e-01 9.9365864065787080e-01 -8.2394916920317307e+00 6.7708865885887803e-01 -4.1709396033319468e+00 3.2157346641805276e+01 2.4165528872757953e+00 -1.7464465930131539e+00 1.5607913760339187e-01 8.4452853551333362e-02 4.9334536593925904e-01 6.1476071119441023e-01 1.1158427456005455e+00 4.8048471377784807e-01 1.6618814070379244e+01 2.1706154467732119e-01 6.9610966571003630e-01 2.4019000264878088e-01 -2.6266250326814738e-01 7.4932955136653767e-01 1.2226054053192968e+01 3.3665770073336176e-01 8.2940973734699543e+00 1.1831090586695141e+00 2.0345442787881725e+00 -3.5846555237281308e-01 2.4764641504255280e-02 -4.8710498446413956e-03 2.2110385162556475e-02 -3.7180286202773954e-01 -2.4706404427944528e-02 -2.1586235834105064e-01 6.8438423398520257e-02 -2.6561692252540899e-02 -1.2800302684045934e-02 -2.8309028945982556e-01 5.8659917853596188e-01 -1.4103315558394820e+00 -3.6425172718775976e+00 -6.7467020402768940e-01 -2.5520499631994404e+00 -2.0573928909822310e+01 3.0910035780151937e+00 -7.4364613344291541e-01 3.3943816051694320e-01 -2.1337422448719661e+00 2.1773861434298931e+00 2.5195335422815280e+01 -1.6667080217753512e+00 2.4261203583249035e+01 2.0912459573450988e+01 4.1283142258125292e+00 -1.4673868394928116e+00 -2.0511635835562689e+01 
      </Row>
      <Row Index="24">
        3.6908216638620956e+00 6.0913811857105111e+00 1.4005152052029867e+01 -9.4116919603795424e-01 -5.1943036896699368e-01 -6.5283626841345566e-01 1.5315378814521995e+02 -1.6643143600664395e+01 7.4434799090558457e+00 1.7747990529838091e+00 -3.3224314217759883e+00 1.0385832990557773e+01 -2.6566637922745695e-01 7.1723128965663818e-01 3.5894217680065310e-01 6.1077492018207238e+01 -1.5404140601106349e+01 -2.7851316967847168e+00 4.2596329447437853e-02 1.6373113027728079e+00 9.2879545250511697e-01 1.7355846202824523e+00 -1.9889201255932676e-01 1.1831090582109169e+00 3.6235480450353762e+01 1.6782476605870663e+01 2.3780988999198769e+00 1.7904539341103032e-01 -4.4353222751334520e-02 6.4754591756197488e-01 -2.6576019625322207e-02 1.4715556529006157e-01 -8.4542255732521721e-02 -4.3647987302352198e-01 -3.9919536247516796e-01 2.4261250200911910e-01 2.6786783019263356e+00 4.2526419031936114e-01 9.0055610836307132e+00 -3.1888528082176792e-01 -6.7391802699843240e-01 -5.9617477815320385e-01 -5.7067318256601787e+01 -1.4802302764169045e+01 2.2301797028310943e+00 -3.8468717460793798e+00 5.7347262324837516e+00 6.5693600914350668e+01 3.7303887512949649e+00 5.4717426153510873e-01 3.6240322827602967e+00 7.6342346739761268e+01 8.1444213135589010e+01 8.3617909214461044e+00 -8.6476160324341009e+01 
      </Row>
      <Row Index="25">
        1.8773301372906985e+00 8.7134474310005072e-01 1.7122930443588253e+01 -2.2994566972568968e+00 4.4486506479040600e-01 -7.0852096444695445e-01 1.4579653242775862e+02 -7.0194180419411021e+00 3.2696074757684084e+00 1.1223213750249670e+00 -9.9121627888161612e-01 1.0183263054951112e+01 -4.7036073930820876e-02 -9.6398146093616788e-01 3.1421294624558271e-01 5.4497787521932295e+01 -9.3925422193947270e+00 -9.4628199159265591e-01 3.8583555482507137e-02 3.7041023013503438e-01 2.9803776693246462e+00 3.3359064412470616e+00 8.1711539051039495e-01 2.0345442782188279e+00 1.6782476607283378e+01 1.6791981289763491e+01 8.6328921447250195e-01 1.1409586719659615e-01 -8.7096433981010864e-03 6.0853987979353275e-01 -7.1044509669707684e-02 3.6017113659072886e-01 -1.1978947940419175e-01 -8.4512482871640193e-01 -3.7708339333183627e-01 8.7861464349058699e-02 1.4889994180313411e+00 -7.1765459330822368e-01 1.4683440620387060e+01 -9.6545411530362013e-01 6.7754314705569796e-01 -6.3535062348073312e-01 -1.1651875270279913e+02 -6.2956847313585005e+00 1.2864113492694145e+00 -1.8571925854520899e+00 2.9793164715625116e+00 6.6670794890372804e+01 6.9086501248959316e+00 2.8980597549031692e+00 7.0214427905833432e+00 6.6791789990234250e+01 7.0961272526745546e+01 3.0321055694841270e+00 -6.7831049700804655e+01 
      </Row>
      <Row Index="26">
        1.2654416545693081e+00 4.2817685500870741e+00 -7.3106870882368291e-01 3.3408310022411669e-01 -6.7916383527266078e-01 1.6798825373965171e-01 2.8492774382872319e+01 -1.9183540211226042e+00 6.4173598845353466e+00 4.4139953304440738e-01 -2.1673289258585520e+00 1.7972002895587380e-01 -8.0456087226705719e-02 -9.9247802187676371e-02 4.1190322798115631e-02 1.2733014253458002e+01 -6.3820376524267886e-01 -2.5619877014081318e+00 9.1198863834378585e-03 1.2035397597261397e+00 1.1427846948698139e-01 -4.6040454746496096e-01 1.0462562608815063e-02 -3.5846555231553268e-01 2.3780988994704728e+00 8.6328921394896518e-01 2.1505977504582852e+00 5.1399235718463387e-02 1.8659013580642141e-02 5.9790879761999149e-02 1.4628146612797117e-02 1.4716723211939092e-02 5.2318331375322200e-03 -3.6213730960035773e-02 4.4424321345987684e-03 1.4358252559312074e-01 9.4506129899725633e-01 4.6388773333806010e-01 3.3379349306456385e-01 1.4547040381964765e-01 5.4805271360454648e-02 1.0334182911369588e-01 -2.8633117125294820e+00 -1.1941661052846435e+00 1.8536187080176827e+00 -1.6613146893160451e+00 5.4438951350468070e+00 3.7476663504460301e+00 -9.8988866616891180e-01 1.1295270961293166e-01 -9.2929734916667250e-01 2.0695851256876310e+01 4.0525368131604420e+00 6.7061216962474663e+00 -1.9898997544096094e+01 
      </Row>
      <Row Index="27">
        7.9834697097084018e-02 1.3986029345328951e-01 9.6408147195275601e-03 -2.5691572947471708e-02 -2.4922177395581002e-03 -1.0753498781359032e-02 2.6678422827299513e+00 -7.8545200602493828e-02 1.5359518201490793e-01 2.1469692884485969e-02 -6.9017850488384269e-02 3.8053330846847366e-02 -8.3215193357248640e-04 2.6302230370706781e-02 4.4873447493416485e-03 1.1627132118826289e+00 -5.9566784711167386e-02 -6.2107912048289027e-02 2.0476295660150079e-03 3.7673266675828154e-02 2.6375312049244704e-02 3.8162221446242484e-02 1.2422865651191106e-02 2.4764641490198636e-02 1.7904539336608977e-01 1.1409586714739439e-01 5.1399235711376612e-02 7.4976665383248431e-03 4.0620712282232506e-03 4.5474733938293405e-03 8.8766700851316497e-04 5.2393674875718405e-03 -2.2371400299535512e-03 -8.9835385640560442e-03 2.6305345544163526e-03 -4.4399709203976601e-04 5.5691378770179260e-02 2.1287095233498921e-02 2.0876094997377706e-02 -1.1290329284542626e-02 -1.0139919154195839e-02 -7.3255673665266518e-03 -8.4184934827215785e-01 -5.1677813014038169e-02 4.2265931301467163e-02 -8.6632207875514400e-02 1.1629458547045601e-01 3.9456199320900515e-01 7.8162997341060178e-02 -3.6181465087224959e-02 7.5763672932134929e-02 1.7971253175888580e+00 4.5217280452506514e-01 1.7665981502492090e-01 -1.7228682154741364e+00 
      </Row>
      <Row Index="28">
        -1.3847031316177483e-02 1.2885156595274030e-02 2.5586970796592751e-02 6.3518788250473968e-03 -9.6960946017238259e-03 9.0677412440480422e-04 -2.5817651067583042e-01 1.4361629851442397e-02 6.6191206501097194e-02 -2.5015963142864805e-03 -7.8411113644352437e-03 4.0261238384791675e-03 -6.9868033043098653e-04 -2.0569567165096170e-02 -4.7282530685310853e-05 -1.1501214470696257e-01 9.9905641910005283e-03 -2.5507073451197071e-02 3.7685743263765614e-05 7.4644487498891979e-03 3.7925081336877692e-03 -7.9840965831475819e-03 -4.0907137463030985e-04 -4.8710498400203056e-03 -4.4353222736962170e-02 -8.7096433854222111e-03 1.8659013584196721e-02 4.0620712284462068e-03 1.7711752508050155e-02 -2.8559089263078001e-04 3.8819706188746735e-03 6.2914872830712731e-03 -4.1315827601075160e-03 2.8911338077700806e-02 -9.5538118777538476e-03 -1.8557798246838945e-02 -8.8059505170330898e-03 -1.6306288202744112e-03 3.7801289663360008e-02 2.0158660340842812e-03 1.0244044748876600e-02 1.7407938288801716e-03 -1.0339122281098860e-01 1.4690137967773555e-02 1.9709776640627633e-02 1.2319861513196806e-02 6.5468321858085363e-02 3.0470858124258069e-02 -1.5901635396102475e-02 2.8336993535909679e-02 -1.5571746574103262e-02 -1.8537587257531996e-01 -3.1303887124156694e-02 5.4524633352855734e-02 2.0954575557962860e-01 
      </Row>
      <Row Index="29">
        5.1645516448720841e-02 1.1121947903031688e-01 8.8667159451494393e-01 -1.2689795613054500e-03 6.8726956034197428e-03 -1.1874630231412482e-02 9.4538697839655974e+00 -4.9205274964865187e-01 2.1078097190960229e-01 5.8577370692688646e-02 -7.6782709369395796e-02 5.1743470830470706e-01 -1.5832100394368220e-02 -4.8966623023240174e-02 1.8900055959544915e-02 3.9382747024176927e+00 -5.0472398436787103e-01 -6.5637157882513009e-02 4.2759892842492153e-03 4.2710884530647863e-02 1.6494963086779446e-01 7.0696241203442867e-03 4.0352617843463001e-02 2.2110385094120666e-02 6.4754591755038815e-01 6.0853987971956469e-01 5.9790879766880245e-02 4.5474733950872093e-03 -2.8559089334443549e-04 4.5617487055168104e-02 -2.7357640047573116e-03 9.8584564253201279e-03 5.8846669493028969e-04 -8.4752230937456652e-02 2.7820003089719762e-03 2.1824829432228383e-03 4.3260899792416575e-02 -1.3436384539048845e-02 7.0199296211239326e-01 -2.4454157915326392e-03 3.3459469524652508e-02 -4.6448100603804689e-03 -6.7235482737225798e+00 -5.8232256830513129e-01 6.9086161215852648e-02 -5.4418152533989073e-02 1.8816123124802650e-01 3.4863601750214368e+00 2.8222987118701887e-02 1.2158568986253365e-01 1.0493814719615635e-02 5.4149878349176799e+00 2.9383017786298131e+00 2.1438036844647179e-01 -4.7675330622379688e+00 
      </Row>
      <Row Index="30">
        4.0407090587744610e-03 1.5791741040114715e-02 5.5875339670523761e-03 4.1794626522935846e-01 1.1588476662165892e-02 1.8397744159288304e-01 -3.9320546123404643e-01 -1.4714446100337625e-01 7.7836045412695967e-02 -5.2024188221388434e-03 -1.2921456847627882e-02 1.6094436995046146e-02 -3.2423591379329333e-02 -9.8798032500555522e-03 -2.0310950539167344e-02 -2.7277121048121200e-01 -4.8073402586620295e-02 -3.0500044268270354e-02 -9.9204720109643679e-03 2.1248650053797120e-02 -2.0319989786069775e-02 -6.2230948003107267e-01 -5.6760911082319732e-03 -3.7180286204253105e-01 -2.6576019679549368e-02 -7.1044509729135896e-02 1.4628146608852921e-02 8.8766700745124272e-04 3.8819706190563229e-03 -2.7357640095646576e-03 4.1778473767507547e-02 4.9623763629109696e-03 -5.1544395813303279e-03 2.9324640103972472e-02 -9.1580465015065043e-03 -3.9840748967540085e-05 1.5829458545628681e-03 -1.3297778489694902e-02 3.7643121618169954e-02 1.7049970342607257e-01 1.0307108430898819e-02 1.2894253335359596e-01 3.0922845023829360e-01 -2.1573092895161125e-01 2.7716303146157750e-02 -2.0499555173237594e-03 8.3619063514211833e-02 8.7662966923771943e-02 -1.2299446187587928e+00 1.8327064084229155e-02 -1.2039704098120179e+00 -2.5442204824511822e-01 -6.9570769053752576e-02 7.0886394916644974e-02 3.5702969491803604e-01 
      </Row>
      <Row Index="31">
        4.7526128959055461e-02 -7.9692802026385623e-02 6.2010874817508022e-01 -1.4293886790656525e-02 -2.4020315037018508e-01 1.4362739529369825e-02 1.1183100827266699e+00 -2.0792190459547882e-01 6.7112312192556617e-02 2.2474934804660965e-02 1.0416964964243373e-02 2.7761220417317822e-01 -3.3186357770742217e-03 -3.5208151914231628e-01 2.1528171281431016e-03 2.3496656704785113e-01 -2.3007772211331290e-01 -6.4702025180801842e-03 -1.0870200306530669e-02 -1.1999362674856151e-02 6.8501444239707665e-02 2.6461568972487026e-02 -2.2091744597463485e-02 -2.4706404417083275e-02 1.4715556546896921e-01 3.6017113671388817e-01 1.4716723253309111e-02 5.2393674904603338e-03 6.2914872827979744e-03 9.8584564333796636e-03 4.9623763634357573e-03 5.0778787431370098e-02 -5.5111991448852649e-03 2.5056808829899552e-02 -2.1125638684059381e-02 -3.0686466610351099e-03 5.9772622885863720e-02 -6.3884897466739671e-02 9.3568173254245035e-01 1.4115883511909696e-03 1.8740737856717135e-01 -2.5716480590863974e-03 -2.8578177170086687e+00 -1.4224556240878283e-01 4.0986423667024402e-02 -5.2398395909849647e-02 1.0433014907208576e-01 2.2124004890998052e+00 1.6687997025273744e-02 5.4128183948019304e-01 4.0973034287384733e-02 5.8121234305808886e-02 1.7193476937851273e+00 3.2191747390121567e-02 3.9969297699631451e-02 
      </Row>
      <Row Index="32">
        -7.3395932028668120e-03 -1.1303630701590048e-02 -9.1862907331379154e-02 2.3687249846754999e-01 -3.2817841925958824e-02 1.0747211918179977e-01 -1.8540290566716251e+00 -3.4290709290350371e-02 2.7228712540870118e-02 -7.6858340459571295e-03 4.1584763902811073e-03 -5.7538537776815613e-02 -1.7133742362644894e-02 -3.6280378557806969e-02 -1.3361562252215742e-02 -8.3709194169388879e-01 2.7458535417308916e-02 -1.1336832344434056e-02 -5.9754334323829927e-03 3.9050340620390145e-03 -3.9619488441546891e-02 -3.5287682362098050e-01 -1.8529173495851703e-02 -2.1586235833433678e-01 -8.4542255740601757e-02 -1.1978947941008766e-01 5.2318331394702877e-03 -2.2371400304090905e-03 -4.1315827599134481e-03 5.8846669321567513e-04 -5.1544395821887870e-03 -5.5111991437772900e-03 1.7773616620830435e-02 -3.6443550186294436e-02 1.3185913110224852e-02 1.6537641821681159e-03 -4.0377538526095730e-03 -1.3293156390128831e-02 -2.2979065739143153e-02 1.0048330350741830e-01 1.8766473115446696e-02 7.0833972413299209e-02 1.2645340930723248e+00 -5.2303478449118937e-02 1.2997963717377492e-02 6.1124271450785361e-03 3.7862803348400045e-02 -3.6085254996682287e-01 -7.0053527169680396e-01 4.6284425880177907e-02 -6.8200850548894876e-01 -1.1106374418549327e+00 -3.9549166067314617e-01 1.9502106488518189e-02 1.0494176835887048e+00 
      </Row>
      <Row Index="33">
        1.2936122154441065e-02 1.0573857968966148e-01 -1.7283323761838383e+00 -9.7158315679546803e-02 3.3263770011099325e-01 -1.8754391516566216e-02 -1.3877358814273126e+01 4.2291260185897200e-01 -1.7765249504764896e-01 -6.1244557938815447e-02 8.2089073269919766e-04 -8.4694741241668581e-01 3.0926994708227906e-02 5.1830884598884808e-01 -2.3640114842943483e-02 -6.2871164408922535e+00 5.7555631004827745e-01 3.2909328454184816e-02 5.9027857185927068e-03 -5.3300688785062889e-04 -3.4911550558320759e-01 1.2747113209709227e-01 -1.7090250922638717e-02 6.8438423509654900e-02 -4.3647987311592029e-01 -8.4512482869147565e-01 -3.6213730980996672e-02 -8.9835385672181189e-03 2.8911338078944020e-02 -8.4752230942712503e-02 2.9324640095728577e-02 2.5056808841114275e-02 -3.6443550188582918e-02 8.8085054975804578e-01 -1.0592876516372723e-01 -1.4797325445959686e-02 -2.6713697083613368e-02 1.1068502154309948e-01 -1.8412279570471717e+00 -4.5471966591713729e-02 -2.2508852971405391e-01 -1.3256354061087838e-02 1.0851932981128373e+01 4.4425755012898510e-01 -8.7915940628418454e-02 -6.5863450165233317e-03 -2.3781313316612923e-01 -6.1055827397270868e+00 2.5427913259891916e-01 -8.5934257731847008e-01 2.7377294073567260e-01 -9.1079224532509961e+00 -4.1443726128238128e+00 -1.1617462299992010e-01 7.6852747484439856e+00 
      </Row>
      <Row Index="34">
        2.1646317906705903e-02 4.7522703370256332e-02 -6.6511653780416458e-01 1.5564329120764331e-02 -4.3092050930686021e-02 1.6293208675760784e-02 -3.0642628682835245e+00 3.6297638801351384e-01 -7.5488365871505814e-03 -2.2059794241759523e-02 -1.4049184726045993e-03 -3.7580477960096448e-01 6.5639640812453492e-03 3.7831327492769518e-02 -9.4883346461547280e-03 -1.1416569524744915e+00 3.7048344134571209e-01 -1.3646965757679430e-02 1.9988072953820990e-03 3.9733994694065577e-03 -6.6394694644062169e-02 -3.2330649493662378e-02 -1.8768688282300827e-02 -2.6561692232228706e-02 -3.9919536255132160e-01 -3.7708339336247365e-01 4.4424321135223543e-03 2.6305345530137636e-03 -9.5538118775239239e-03 2.7820003061247434e-03 -9.1580465031693321e-03 -2.1125638682214287e-02 1.3185913109989844e-02 -1.0592876516151263e-01 8.5469700475211227e-02 -5.4705078768524373e-04 5.6253633720666782e-03 2.6170090306592803e-02 -5.2876254954841229e-01 7.6420325202074734e-03 -2.2188488418535195e-02 8.9424701577549889e-03 3.8724753817105877e+00 4.7424197868450552e-01 -8.3623548587309360e-03 -2.8298919634175745e-02 -1.8044566571660890e-02 -2.2327639080481210e+00 -7.0006156567135852e-02 -1.1930830841284822e-01 -6.2460735684437441e-02 -1.0366911021512399e+00 -1.9441009779694844e+00 1.0376033181672795e-02 7.9898530481718655e-01 
      </Row>
      <Row Index="35">
        1.2185157398598534e-01 3.3204486516959009e-01 -8.7198320643564586e-02 1.3353867076826065e-02 -4.6106557916711921e-02 6.0400444360100281e-03 3.1251422839991383e+00 -1.5537138756100671e-01 4.2736045203290801e-01 3.8860179779558468e-02 -1.6363733485682985e-01 8.7692602547186915e-03 -6.1878727927189847e-03 1.5259467104707269e-02 4.9385270912594148e-03 1.4050584122842746e+00 -5.9564380992721766e-02 -1.7293091900882818e-01 1.2276580903682888e-03 9.1654030244340545e-02 1.4333145114369006e-02 -1.7284256620140326e-02 4.1721861415364714e-03 -1.2800302690120891e-02 2.4261250194509598e-01 8.7861464281642654e-02 1.4358252558603102e-01 -4.4399709183551295e-04 -1.8557798247158457e-02 2.1824829416272687e-03 -3.9840748135670789e-05 -3.0686466651346223e-03 1.6537641824116989e-03 -1.4797325442057752e-02 -5.4705078551411240e-04 3.8875937790403992e-02 8.7041182324410160e-02 4.2705065496731920e-02 -1.4962955652547901e-02 5.2925785584711140e-03 -5.0028462600539393e-03 4.1808249393817413e-03 -3.4762896151933725e-01 -9.8619745775211876e-02 1.2108453920013673e-01 -1.5124114116110210e-01 3.5208621498421711e-01 3.1240569570649285e-01 -3.7266956470894862e-02 -2.6863742262356043e-02 -3.6137469651807974e-02 2.2775074529395831e+00 3.7999550491831036e-01 4.6865361085355084e-01 -2.1961752341072955e+00 
      </Row>
      <Row Index="36">
        3.1413609848089514e+00 2.6586163072391216e+00 -1.8272808599383432e+00 -8.1027430970776138e-02 -1.6936172745682398e+00 1.7064537105560618e-01 2.3221009679814333e+01 -8.9194736404055908e-01 2.8875198743900268e+00 4.1610863578731383e-01 -1.4176025006324373e+00 -5.4483323170643416e-01 8.3210358034602194e-04 -1.0645774706215292e+00 -1.7351694938419371e-02 9.9863902264044295e+00 -3.6498884212953442e-01 -1.1567103155669507e+00 -6.6170966568275702e-02 7.1123921072673602e-01 -8.9536207751499397e-02 1.6488797587899739e-01 -5.3820614961448854e-02 -2.8309028941796832e-01 2.6786783016298696e+00 1.4889994176643100e+00 9.4506129898980973e-01 5.5691378776607792e-02 -8.8059505201834032e-03 4.3260899792869012e-02 1.5829458588354495e-03 5.9772622852136692e-02 -4.0377538544120739e-03 -2.6713697073328824e-02 5.6253633872339615e-03 8.7041182330111155e-02 2.4173331464774530e+00 3.8511751619631451e-01 2.1459228492549980e+00 4.5318456708337895e-02 6.3994089016102218e-01 -1.6827232207076534e-02 2.6159051119051822e+00 7.8934391786172531e-01 8.1179480279382954e-01 -3.0580370484041843e+00 1.9538325722012857e+00 2.8349702271674042e+00 5.1309382459553965e-03 1.5287843815615778e+00 2.4754571082116605e-01 1.7310013498651912e+01 5.3861053495462574e+00 3.3222064293162461e+00 -1.8940180136164805e+01 
      </Row>
      <Row Index="37">
        6.5597003352266725e-01 2.1266692010373127e+00 -2.3386121365923405e+00 -2.8602113479501412e-01 2.2415803005760893e-01 -3.1760384741370729e-01 1.7873350460082051e+01 2.5827929276994621e-02 1.1452343083114813e+00 1.0374460488126047e-01 -8.8351088514662024e-01 -8.1830424891501252e-01 1.7110603423748039e-02 7.9231101442081808e-01 3.8631028693639990e-02 9.2844202249712495e+00 3.3102882873264150e-01 -5.5378492885283137e-01 3.5319021352679947e-02 5.0633423831282220e-01 -4.7045035761469123e-02 4.2111248325430495e-01 8.7605451958499003e-02 5.8659917840281572e-01 4.2526418944334043e-01 -7.1765459402690723e-01 4.6388773315475973e-01 2.1287095225844155e-02 -1.6306288215131026e-03 -1.3436384568535686e-02 -1.3297778482523448e-02 -6.3884897489771220e-02 -1.3293156383973326e-02 1.1068502159250770e-01 2.6170090322101908e-02 4.2705065483305660e-02 3.8511751604416944e-01 7.4557255250947463e-01 -2.2685905415844014e+00 -1.8659094388360670e-01 -3.4738592446484517e-01 -1.1081501049879841e-01 2.4046682131177421e+00 4.0645003945245528e-01 8.2027372933940690e-02 -7.7711659914180409e-01 5.6543243711764291e-01 -3.9908324500202301e+00 1.1398212837099984e+00 -1.3582051610520902e+00 9.2485340854549847e-01 1.5539548071588495e+01 -3.5228414061543392e+00 1.7010630682825871e+00 -1.4429474651523163e+01 
      </Row>
      <Row Index="38">
        1.6163870274439383e+00 -3.1000910423525805e+00 2.5830245173114822e+01 3.6457483189041273e-01 -6.5558694844186860e+00 7.2023996965131509e-01 5.9723228450332066e+01 -9.9630146024387773e+00 2.0664393268957837e+00 8.9394020079322267e-01 3.3328428390316223e-01 1.2408236243909361e+01 -2.4909470397109390e-01 -1.0693140710189709e+01 1.1873412650629422e-01 1.7143990890760428e+01 -1.0996154660214010e+01 -2.7894020996599878e-02 -3.9665003174561031e-01 -4.3072220465140187e-01 2.6112415795352439e+00 -2.9697650463089076e-01 -4.4818680273848610e-01 -1.4103315556923643e+00 9.0055610898503460e+00 1.4683440624406364e+01 3.3379349455954532e-01 2.0876095098387282e-02 3.7801289653419501e-02 7.0199296237979947e-01 3.7643121648060662e-02 9.3568173252609199e-01 -2.2979065770350360e-02 -1.8412279573993651e+00 -5.2876254960243252e-01 -1.4962955505415820e-02 2.1459228504522123e+00 -2.2685905407399316e+00 3.4050671092174724e+01 4.0546500065946178e-01 5.6085061329883050e+00 9.0418833059462772e-02 -1.2606138718921315e+02 -8.9763200782626473e+00 1.3376242057827259e+00 -1.5265431044620925e+00 3.1957197246539626e+00 8.9700727409285605e+01 -1.6855667529762552e+00 1.7493935616485949e+01 -9.5296942983780530e-01 7.7106491815395621e+00 7.2604787137905873e+01 7.4972784601153108e-01 -3.0095930373108875e+00 
      </Row>
      <Row Index="39">
        4.6466877656614614e-02 3.9302230609062266e-02 -2.4171640875097400e-01 4.0371001304447072e+00 -2.0849004449353714e-01 1.7408820073288371e+00 -9.9543888607247997e+00 -1.0791197419464866e+00 7.2363669821242205e-01 -6.0084472688966883e-02 -6.0788005612984364e-02 -1.0992279460855237e-01 -3.0928243062735944e-01 -3.3802352805007629e-01 -1.9746342074956313e-01 -4.8453158791110074e+00 -2.2705554095308855e-01 -2.9108209271557151e-01 -9.0614805217670513e-02 1.4255687189548549e-01 -2.7827416081041934e-01 -5.8379575203618757e+00 -1.2859576495863756e-01 -3.6425172719488881e+00 -3.1888528119707327e-01 -9.6545411571916251e-01 1.4547040380874865e-01 -1.1290329292981127e-02 2.0158660360037883e-03 -2.4454158300401818e-03 1.7049970342274798e-01 1.4115883513170502e-03 1.0048330351306412e-01 -4.5471966527552476e-02 7.6420325326005539e-03 5.2925785527131453e-03 4.5318456693151057e-02 -1.8659094395041245e-01 4.0546500055741191e-01 1.7660298768862042e+00 1.9191349858966511e-01 1.1089123866272492e+00 7.1203757812524984e+00 -1.4900972812121047e+00 2.8535086972846058e-01 -3.1033615341391929e-02 8.4427510547760087e-01 -5.3757645115710073e-01 -1.1666235804740248e+01 5.1448842397883654e-01 -1.1369790407502308e+01 -5.7602725464188493e+00 -1.8665046331188675e+00 6.2730495735385894e-01 6.1848133177724218e+00 
      </Row>
      <Row Index="40">
        6.7026363598337113e-01 -4.6633529551593422e-01 1.2783543861228615e+00 2.9320239945804971e-01 -3.0914372226989570e+00 3.7413918814992186e-01 -1.6685738037363553e+01 -5.1048300861732443e-01 2.1484961673529668e-01 7.0552083516558284e-02 1.4441381560174271e-01 3.2420724502202347e-02 -8.7148428191918814e-03 -3.7012168164346519e+00 -6.1701665572808650e-02 -9.1204452594508201e+00 -2.4421599885687328e-01 -7.1696842064206123e-03 -1.1217414603170184e-01 -9.6355957957062532e-02 -7.8561165525452559e-02 -4.3536074635931499e-01 -5.5471889684240594e-01 -6.7467020375445586e-01 -6.7391802570088633e-01 6.7754314810590266e-01 5.4805271645804510e-02 -1.0139919135596642e-02 1.0244044748332848e-02 3.3459469583753759e-02 1.0307108422189126e-02 1.8740737858431089e-01 1.8766473102370895e-02 -2.2508852980946092e-01 -2.2188488437498627e-02 -5.0028462337543544e-03 6.3994089040725310e-01 -3.4738592435629684e-01 5.6085061336616393e+00 1.9191349848527484e-01 2.0445463490209015e+00 1.3670404179163959e-01 5.5737349271082381e+00 4.9843104189539744e-01 1.7213162880007893e-01 -7.2922443232826950e-01 5.1872440866237768e-01 6.3706806821597866e+00 -1.2317255855187756e+00 4.9347617485812725e+00 -9.3868101499015566e-01 -1.1040863867668836e+01 3.3835260599678048e+00 5.9601290614017088e-02 9.9058893089902096e+00 
      </Row>
      <Row Index="41">
        1.0525423718963367e-03 6.7818348755616667e-02 -3.1901184479399736e-01 2.8234561342062898e+00 -1.6292378798645757e-03 1.3336986633384118e+00 -7.6782869310612023e+00 -8.9177736451434697e-01 5.3362058778771093e-01 -4.7311902778149673e-02 -6.8199677507341683e-02 -1.1727224896030020e-01 -2.1527226555913967e-01 -1.6302613189628445e-01 -1.4952918006213656e-01 -4.4011787628973114e+00 -1.3105335963703624e-01 -2.0381583523527969e-01 -7.0512709801589857e-02 1.4247763573118966e-01 -2.3113687942422634e-01 -4.3377838780253128e+00 -8.2220328001437970e-02 -2.5520499632487534e+00 -5.9617477845673239e-01 -6.3535062380481655e-01 1.0334182910164547e-01 -7.3255673733392257e-03 1.7407938304362380e-03 -4.6448100905083778e-03 1.2894253335060743e-01 -2.5716480583213297e-03 7.0833972417563729e-02 -1.3256354011491944e-02 8.9424701671693141e-03 4.1808249345081094e-03 -1.6827232221397363e-02 -1.1081501055373796e-01 9.0418833000758259e-02 1.1089123866239929e+00 1.3670404187767815e-01 9.5949640583387052e-01 5.6757543604089662e+00 -1.3912713312701199e+00 1.9852617260393801e-01 -1.4230135668475086e-02 5.7970074263486016e-01 -7.0225406342723617e-01 -8.5304960233760241e+00 2.0728273210754941e-01 -8.3361665548187887e+00 -5.0028188122558905e+00 -1.4565427354862814e+00 4.6809013769734364e-01 5.2616936506888088e+00 
      </Row>
      <Row Index="42">
        3.8503735083852462e+00 -4.7010143190841456e+00 -1.8794560025126287e+02 1.5195311162406426e+01 -4.2809905830716161e+01 1.0484862549582658e+01 -2.0854757725831669e+03 5.1307690693010045e+01 -1.5576504876629315e+01 -7.7626376576411076e+00 6.0698461265973265e+00 -1.0646785153107226e+02 2.7345478750595049e+00 -2.4951774338135692e+01 -5.4850565480877549e+00 -8.7569473615333914e+02 7.7908846960212031e+01 3.0273380348744467e+00 -2.1644474498575619e+00 -3.7021637957048483e+00 -4.5867796513474843e+01 -2.2926374829555243e+01 -2.3824466587688676e+01 -2.0573928894097605e+01 -5.7067318256234103e+01 -1.1651875269129619e+02 -2.8633117128108552e+00 -8.4184934844961390e-01 -1.0339122268905498e-01 -6.7235482737761210e+00 3.0922844921758497e-01 -2.8578177156996389e+00 1.2645340926735571e+00 1.0851932980295885e+01 3.8724753813179582e+00 -3.4762896173674562e-01 2.6159051125635884e+00 2.4046682088398352e+00 -1.2606138714718750e+02 7.1203757728580399e+00 5.5737349368932882e+00 5.6757543538934669e+00 2.1477332508598338e+03 6.5564656987469206e+01 -5.2086004775801484e+00 -4.7347155860867360e+00 -1.4677673807044872e+01 -6.8648225337873055e+02 -5.0904350923181696e+01 2.0415983981932005e+01 -4.3549494822333031e+01 -1.0158351979111560e+03 -5.3741589557803024e+02 -1.4595408656714426e+01 8.0961967462040980e+02 
      </Row>
      <Row Index="43">
        1.2147826414013778e+00 -1.9222968031913232e+00 -1.7960060630995049e+01 -4.2111882746462408e+00 -2.4937640915269839e+00 -1.4019448865046868e+00 -6.6408675039279657e+01 2.5130495634558798e+01 -4.3660361019703302e+00 -1.0762285281639627e+00 1.5338121381659153e+00 -1.1747168834646935e+01 5.0529513627148726e-01 -1.2395338932560236e+00 -7.9663487323182736e-02 -2.1079647023637975e+01 1.7086845440589769e+01 1.2083998622018299e+00 2.4090879636905704e-01 -1.1427225649581607e+00 7.1143698029008462e-01 5.9772191853081438e+00 4.2788938996341841e-01 3.0910035788919670e+00 -1.4802302764795028e+01 -6.2956847307914607e+00 -1.1941661057107567e+00 -5.1677813026572039e-02 1.4690137969904593e-02 -5.8232256827789541e-01 -2.1573092899705898e-01 -1.4224556235069485e-01 -5.2303478474563292e-02 4.4425755001834677e-01 4.7424197864977935e-01 -9.8619745811188153e-02 7.8934391758779421e-01 4.0645003920199230e-01 -8.9763200762523017e+00 -1.4900972816254956e+00 4.9843104219194601e-01 -1.3912713315919747e+00 6.5564656976828758e+01 3.9850866044834831e+01 -1.4059243324690529e+00 -1.1504124902137995e+00 -4.1851943935535374e+00 -6.3563426083523446e+01 1.1652936125378210e+01 2.9258669217868327e-01 1.1832197134135180e+01 -1.7205551646039495e+01 -4.9263370513674921e+01 -4.3230804221018477e+00 3.0630695787572186e+00 
      </Row>
      <Row Index="44">
        1.0322834348923706e+00 3.1338053155551160e+00 4.5408586020161956e-01 6.1141151714756337e-01 -6.4043945007172454e-01 3.6166407551200308e-01 2.2418311145170488e+01 -1.7612078343604409e+00 5.9453211237244901e+00 3.8120845828339256e-01 -1.6938276639707102e+00 5.8561403311622229e-01 -1.0517443005781213e-01 -3.5693996101642256e-01 2.0924417179045918e-02 9.3836576251119777e+00 -8.4817149228584299e-01 -2.3053763412156876e+00 -6.2328194913252588e-03 9.9222493462469119e-01 1.8155751524291031e-01 -8.5505939984162183e-01 9.1235664053748167e-03 -7.4364613336016827e-01 2.2301797026964527e+00 1.2864113489895601e+00 1.8536187080835731e+00 4.2265931310744520e-02 1.9709776637633847e-02 6.9086161219592768e-02 2.7716303148244192e-02 4.0986423634052471e-02 1.2997963714031613e-02 -8.7915940621144717e-02 -8.3623548429589412e-03 1.2108453921170081e-01 8.1179480285434136e-01 8.2027373111056678e-02 1.3376242045972266e+00 2.8535086972351742e-01 1.7213162855970410e-01 1.9852617260273675e-01 -5.2086004783568285e+00 -1.4059243321410300e+00 1.8624948401374297e+00 -1.2980704346475811e+00 5.1330469578862532e+00 5.7975295822697666e+00 -1.9173734655157637e+00 5.9102670852399553e-01 -1.7603178440331932e+00 1.5019231252887852e+01 5.9511847846861476e+00 5.8245817034724814e+00 -1.4587311587054598e+01 
      </Row>
      <Row Index="45">
        -4.1831153176563660e+00 -4.8469261195045918e+00 3.9879226468796638e+00 1.1923687026989072e-01 2.1848421144861732e+00 -2.4866487331060227e-01 -4.6268050770745440e+01 1.5026882820859200e+00 -4.8073817701517072e+00 -5.8507311273226748e-01 2.3856043560910152e+00 1.2174079201550114e+00 4.5564885417674894e-03 1.0557237461609361e+00 1.0091346496071907e-02 -2.0277979391010490e+01 1.3165353837695193e-01 2.0050997871543927e+00 7.4041802189785955e-02 -1.2413582097648348e+00 2.2285469644126366e-02 -1.8072802425993473e-01 2.0292895534318234e-02 3.3943816055965748e-01 -3.8468717451207777e+00 -1.8571925844703969e+00 -1.6613146891934534e+00 -8.6632207879816292e-02 1.2319861518494735e-02 -5.4418152515146700e-02 -2.0499555287769589e-03 -5.2398395846523727e-02 6.1124271432220212e-03 -6.5863450652914324e-03 -2.8298919665974864e-02 -1.5124114116100174e-01 -3.0580370483098660e+00 -7.7711659935866817e-01 -1.5265431021971314e+00 -3.1033615412969340e-02 -7.2922443190459774e-01 -1.4230135729844662e-02 -4.7347155881226399e+00 -1.1504124907561359e+00 -1.2980704344535745e+00 4.4378095475771637e+00 -3.4696663061131519e+00 -2.0704408427493419e+00 1.4597476631135642e-02 -1.3747736126547061e+00 -2.8644934817974388e-01 -3.5518898372049762e+01 -5.7709839165373680e+00 -5.7666369182652364e+00 3.6968075671527245e+01 
      </Row>
      <Row Index="46">
        2.5588891689953641e+00 9.7437033851913313e+00 7.1608314769987613e-01 1.8436847350334666e+00 -1.9292775505413431e+00 1.0032013287864174e+00 6.5121628457398145e+01 -5.1709937991878832e+00 1.7058661395818589e+01 1.0353263044269809e+00 -5.0258846587857704e+00 1.3971393952029842e+00 -3.2182760298732926e-01 -9.9469414520729060e-01 7.9109466637522274e-02 2.7700324524809382e+01 -2.1511257239206998e+00 -6.7840676448754493e+00 -1.7353396653824404e-02 2.9942896108872938e+00 4.9667360743962874e-01 -2.5562228245642871e+00 -3.2962290290541318e-02 -2.1337422446438978e+00 5.7347262319797281e+00 2.9793164706845090e+00 5.4438951352104326e+00 1.1629458549577976e-01 6.5468321849491140e-02 1.8816123125523987e-01 8.3619063520405046e-02 1.0433014897682824e-01 3.7862803339379525e-02 -2.3781313314125097e-01 -1.8044566525109440e-02 3.5208621501528370e-01 1.9538325723551004e+00 5.6543243761779927e-01 3.1957197212138100e+00 8.4427510546676032e-01 5.1872440797407648e-01 5.7970074263407589e-01 -1.4677673808797238e+01 -4.1851943925738029e+00 5.1330469578644227e+00 -3.4696663066373432e+00 1.5175153051665182e+01 1.5204442264607099e+01 -5.6739506417067647e+00 1.5297471614488298e+00 -5.2857065278512074e+00 4.4536999268996077e+01 1.4514901498990803e+01 1.7235894875490171e+01 -4.2281551420191974e+01 
      </Row>
      <Row Index="47">
        2.0709832180983767e+00 2.0031765409210358e+00 1.0446137407613190e+02 -1.1206576016536474e+00 -1.2741598704283206e+00 -1.1501675016066883e+00 7.8275237465799955e+02 -5.3282271870421027e+01 1.4944362021205507e+01 5.2911856356181488e+00 -4.1071012218609440e+00 5.8510052024952870e+01 -1.4143252753478670e+00 -1.1204181054028140e+01 1.7234274990636891e+00 3.1415551232846599e+02 -5.5762576935366042e+01 -3.5461455517273635e+00 -3.8910182819648753e-02 2.0062976238571792e+00 1.5613904767632278e+01 2.4021547419936269e+00 3.1198804118683938e+00 2.1773861382757786e+00 6.5693600921203000e+01 6.6670794889710066e+01 3.7476663527068581e+00 3.9456199341987030e-01 3.0470858061619310e-02 3.4863601753281444e+00 8.7662967324279251e-02 2.2124004884899477e+00 -3.6085254986858217e-01 -6.1055827397240847e+00 -2.2327639079021324e+00 3.1240569600475965e-01 2.8349702286211098e+00 -3.9908324468676595e+00 8.9700727389727660e+01 -5.3757644808564464e-01 6.3706806770695721e+00 -7.0225406104967902e-01 -6.8648225342109663e+02 -6.3563426088171447e+01 5.7975295835315990e+00 -2.0704408468994302e+00 1.5204442268536599e+01 3.8217001200165708e+02 5.3518080498256246e+00 2.3783082765125386e+01 4.3926243089754848e+00 3.9749291326518039e+02 3.2546472073941885e+02 1.3252182564226246e+01 -3.4420718150111992e+02 
      </Row>
      <Row Index="48">
        -3.4395562969351090e-02 -5.0149187487269820e-01 2.2821689231844502e+00 -2.8104193800392878e+01 7.5413141099221548e-01 -1.2494511840415470e+01 6.9072022372519342e+01 8.1032566501737691e+00 -5.0485917413849819e+00 4.5330114838534286e-01 5.4345374045654893e-01 9.3497847447370930e-01 2.1675168106805849e+00 1.8747281653737105e+00 1.3985239221058379e+00 3.5738915845821275e+01 1.4872997971458233e+00 1.9911706167541112e+00 6.4420649899197180e-01 -1.1890195857119963e+00 2.0499848624327051e+00 4.1829170647081156e+01 8.4139853672198228e-01 2.5195335423367908e+01 3.7303887542283984e+00 6.9086501280517503e+00 -9.8988866603497883e-01 7.8162997405712531e-02 -1.5901635410261683e-02 2.8222987406161026e-02 -1.2299446187355518e+00 1.6687997024291690e-02 -7.0053527173955388e-01 2.5427913212238984e-01 -7.0006156658456664e-02 -3.7266956423962938e-02 5.1309384021376303e-03 1.1398212842218229e+00 -1.6855667522207787e+00 -1.1666235804752624e+01 -1.2317255862905085e+00 -8.5304960234096256e+00 -5.0904350985253757e+01 1.1652936122364467e+01 -1.9173734655077368e+00 1.4597476028765044e-02 -5.6739506416589922e+00 5.3518080727047703e+00 8.2793471169559481e+01 -2.6965388743462624e+00 8.0921995610310049e+01 4.1078074903274533e+01 1.4616201742251782e+01 -4.4148005377718551e+00 -4.4610247002197816e+01 
      </Row>
      <Row Index="49">
        1.2303411911384501e+00 -2.1746388364094305e+00 6.8246963900011117e+00 6.7351248844815359e-01 -8.6020816856931503e+00 8.1811919601273075e-01 -5.6831197816934171e+01 -2.1065812732163778e+00 5.9234756842417369e-01 1.9247893024069640e-01 5.3134940371213091e-01 1.9502487251632985e+00 -5.9447672740287061e-03 -1.0283452466130058e+01 -1.7018261188969319e-01 -2.6589330042929134e+01 -1.7176773796130647e+00 9.3837025131549012e-02 -3.6317325974900427e-01 -4.5424077852039257e-01 -1.6561992383741497e-01 -8.4064519197042387e-01 -1.7016375009148064e+00 -1.6667080209282421e+00 5.4717426572025651e-01 2.8980597582329182e+00 1.1295271054965639e-01 -3.6181465026899673e-02 2.8336993534098465e-02 1.2158569005061082e-01 1.8327064058104581e-02 5.4128183953122289e-01 4.6284425839147048e-02 -8.5934257761690569e-01 -1.1930830847205115e-01 -2.6863742176239214e-02 1.5287843823593583e+00 -1.3582051606869685e+00 1.7493935618512772e+01 5.1448842365914071e-01 4.9347617485558430e+00 2.0728273184414459e-01 2.0415983950916086e+01 2.9258669120231495e-01 5.9102670930943901e-01 -1.3747736140334581e+00 1.5297471637021793e+00 2.3783082781192913e+01 -2.6965388719854242e+00 1.4802715016253018e+01 -1.9138028043420938e+00 -3.5546907065713697e+01 1.5654504527376648e+01 -1.4253017932546541e-01 3.0627947028722879e+01 
      </Row>
      <Row Index="50">
        2.5526155812237050e-01 -7.2240968154827256e-01 1.8855565928844751e+00 -2.7645760288421442e+01 3.6824819778192364e-01 -1.1964179786486127e+01 5.5028801869729541e+01 8.0136935789346424e+00 -4.8110965270292212e+00 4.2867213222596945e-01 6.0078242219639222e-01 7.0199127507696346e-01 2.1597575487941256e+00 1.3610812398823100e+00 1.3151152379352808e+00 2.8363486389387464e+01 1.6776411850329680e+00 1.8955308269440252e+00 5.8943152847030866e-01 -1.2477502222338490e+00 1.8483406002193590e+00 4.1131047940963072e+01 7.3558831548471204e-01 2.4261203583967969e+01 3.6240322860459493e+00 7.0214427940479851e+00 -9.2929734893571947e-01 7.5763673000736276e-02 -1.5571746587465629e-02 1.0493815018271957e-02 -1.2039704097978943e+00 4.0973034297735467e-02 -6.8200850553716919e-01 2.7377294023780152e-01 -6.2460735780835830e-02 -3.6137469597832705e-02 2.4754571106450873e-01 9.2485340906565860e-01 -9.5296942870800405e-01 -1.1369790407595865e+01 -9.3868101569745477e-01 -8.3361665549160193e+00 -4.3549494885891136e+01 1.1832197131173519e+01 -1.7603178439377967e+00 -2.8644934890848006e-01 -5.2857065275549848e+00 4.3926243330535684e+00 8.0921995610909960e+01 -1.9138028064950272e+00 7.9363856967252929e+01 3.0449902182770980e+01 1.4910580550918736e+01 -4.2626563222258689e+00 -3.5831343529898049e+01 
      </Row>
      <Row Index="51">
        3.2113196098017397e+01 7.2973081346552988e+01 4.2375373353116629e+01 -1.0306224333479349e+01 2.6466956978238159e+00 -1.2175666651729443e+01 3.3260949258493383e+03 -2.2800898537122521e+01 6.2575930796763714e+01 1.1189102000746061e+01 -3.1405706325325355e+01 3.8389574767093563e+01 -2.4095065164515006e+00 1.9546738070981519e+01 5.4329835694104531e+00 1.5290357675871851e+03 -2.6835297178591645e+01 -2.6785122485177453e+01 4.3752212344569443e+00 1.9869755469358324e+01 4.8104930905329866e+01 1.6611390023725107e+01 1.4590877690150592e+01 2.0912459543027580e+01 7.6342346668886307e+01 6.6791789918758241e+01 2.0695851240940556e+01 1.7971253170944692e+00 -1.8537587281728918e-01 5.4149878324757239e+00 -2.5442204642727972e-01 5.8121230940741953e-02 -1.1106374408445845e+00 -9.1079224479940422e+00 -1.0366911005022672e+00 2.2775074519731788e+00 1.7310013484262583e+01 1.5539548075507327e+01 7.7106490658590587e+00 -5.7602725307503988e+00 -1.1040863887823434e+01 -5.0028187998042313e+00 -1.0158351975433870e+03 -1.7205551641234592e+01 1.5019231236703945e+01 -3.5518898354336216e+01 4.4536999223509078e+01 3.9749291295742523e+02 4.1078074786007392e+01 -3.5546907130552121e+01 3.0449902063539184e+01 2.5551262707399710e+03 2.5548450467747909e+02 7.7084265996276372e+01 -2.3124845126953387e+03 
      </Row>
      <Row Index="52">
        6.0010067544531012e+00 3.6459877272929919e+00 8.6914457663077826e+01 -4.6211962306896766e+00 1.8209504585684044e+00 -1.3617129068817917e+00 6.0559349146790430e+02 -4.6988241833707036e+01 1.5341533684990623e+01 5.2088085591566937e+00 -4.6456974237864301e+00 5.1192583412365764e+01 -8.5580340941536548e-01 -5.2520588223731011e+00 1.3845700179101073e+00 2.2598175050731294e+02 -5.2095924603362619e+01 -4.2284666323744204e+00 -9.5902300612308977e-02 1.8877248553742874e+00 1.1401067576509661e+01 7.1084157364371094e+00 2.5772116138267620e+00 4.1283142232375383e+00 8.1444213143770554e+01 7.0961272527975609e+01 4.0525368160385256e+00 4.5217280475662847e-01 -3.1303887175747391e-02 2.9383017789881150e+00 -6.9570768795828464e-02 1.7193476932857266e+00 -3.9549166064756491e-01 -4.1443726129748484e+00 -1.9441009778520755e+00 3.7999550525410086e-01 5.3861053516087054e+00 -3.5228414029814799e+00 7.2604787121705471e+01 -1.8665046312979072e+00 3.3835260556425055e+00 -1.4565427340735795e+00 -5.3741589562908848e+02 -4.9263370516435153e+01 5.9511847864647507e+00 -5.7709839214996634e+00 1.4514901504415818e+01 3.2546472074622653e+02 1.4616201728504265e+01 1.5654504513674325e+01 1.4910580535924794e+01 2.5548450498991042e+02 3.2732934176778139e+02 1.4188666508146071e+01 -2.5032831423860108e+02 
      </Row>
      <Row Index="53">
        4.5259376772979749e+00 1.4269381712259005e+01 -2.6484952808432354e+00 1.5316466484479676e+00 -2.0382482606556209e+00 6.6309876068947915e-01 1.0683155483385218e+02 -6.3770319972332743e+00 2.0452945376149643e+01 1.4866633093682680e+00 -7.1641437779306045e+00 6.2689273200996354e-01 -3.2321100073872788e-01 2.1301915255605763e-02 1.4101459520394855e-01 4.7991852295943900e+01 -2.3165252351012668e+00 -8.2085931121841895e+00 1.4164813821828659e-02 4.1204173670720490e+00 4.8880903301881418e-01 -2.1145151638959305e+00 1.1901620433091864e-01 -1.4673868394782303e+00 8.3617909195002973e+00 3.0321055673157815e+00 6.7061216961506602e+00 1.7665981504234196e-01 5.4524633340790274e-02 2.1438036840796904e-01 7.0886394937448305e-02 3.2191747240972290e-02 1.9502106488857862e-02 -1.1617462288994140e-01 1.0376033260648398e-02 4.6865361086877044e-01 3.3222064292524820e+00 1.7010630688683039e+00 7.4972784062003361e-01 6.2730495746665405e-01 5.9601289627977394e-02 4.6809013779869346e-01 -1.4595408651847265e+01 -4.3230804206061713e+00 5.8245817031691445e+00 -5.7666369185318089e+00 1.7235894874706020e+01 1.3252182554603500e+01 -4.4148005387815452e+00 -1.4253018256439764e-01 -4.2626563235369446e+00 7.7084266042993931e+01 1.4188666496793754e+01 2.1675881069185316e+01 -7.3550646240486600e+01 
      </Row>
      <Row Index="54">
        -3.3786359083547723e+01 -6.9317707842991723e+01 -2.9977866487195456e+01 1.2056894934071124e+01 1.2463567773702380e+00 1.1361115048899592e+01 -2.9933934336016100e+03 1.7040439513421006e+01 -5.9758265027219750e+01 -1.0674170448191035e+01 2.9885375426267728e+01 -3.1470781373195223e+01 1.8436577326061752e+00 -1.6360742755285173e+01 -4.7804083532544155e+00 -1.3730379362851781e+03 2.3037170314379182e+01 2.5790776875766824e+01 -3.9589589644577927e+00 -1.8441084466990958e+01 -4.2398509948695050e+01 -1.8860016410370008e+01 -1.1989975097646948e+01 -2.0511635809028917e+01 -8.6476160259851440e+01 -6.7831049635772388e+01 -1.9898997529829103e+01 -1.7228682150507666e+00 2.0954575580336154e-01 -4.7675330600471000e+00 3.5702969330915835e-01 3.9969300796656171e-02 1.0494176827041883e+00 7.6852747437044400e+00 7.9898530329617046e-01 -2.1961752332576907e+00 -1.8940180123298319e+01 -1.4429474655481659e+01 -3.0095929304532802e+00 6.1848133039772506e+00 9.9058893276815070e+00 5.2616936397065501e+00 8.0961967429308788e+02 3.0630695731859987e+00 -1.4587311572391627e+01 3.6968075655946905e+01 -4.2281551379034383e+01 -3.4420718122107655e+02 -4.4610246898740229e+01 3.0627947088877839e+01 -3.5831343424401211e+01 -2.3124845127348308e+03 -2.5032831395269355e+02 -7.3550646198857748e+01 2.1239327912803124e+03 
      </Row>
    </InverseHessian>
  </Weights>
</MethodSetup>
