<?xml version="1.0"?>
<MethodSetup Method="BDT::BDTG">
  <GeneralInfo>
    <Info name="TMVA Release" value="4.1.2 [262402]"/>
    <Info name="ROOT Release" value="5.32/04 [335876]"/>
    <Info name="Creator" value="brianpollack"/>
    <Info name="Date" value="Sat Sep  6 15:35:57 2014"/>
    <Info name="Host" value="Darwin pb-d-128-141-108-211.cern.ch 11.4.2 Darwin Kernel Version 11.4.2: Thu Aug 23 16:25:48 PDT 2012; root:xnu-1699.32.7~1/RELEASE_X86_64 x86_64"/>
    <Info name="Dir" value="/Users/brianpollack/MVA_Scripts"/>
    <Info name="Training events" value="10187"/>
    <Info name="TrainingTime" value="1.62262521e+01"/>
    <Info name="AnalysisType" value="Classification"/>
  </GeneralInfo>
  <Options>
    <Option name="V" modified="Yes">False</Option>
    <Option name="VerbosityLevel" modified="No">Default</Option>
    <Option name="VarTransform" modified="No">None</Option>
    <Option name="H" modified="Yes">False</Option>
    <Option name="CreateMVAPdfs" modified="No">False</Option>
    <Option name="IgnoreNegWeightsInTraining" modified="No">False</Option>
    <Option name="NTrees" modified="Yes">1200</Option>
    <Option name="RenormByClass" modified="No">False</Option>
    <Option name="BoostType" modified="Yes">Grad</Option>
    <Option name="AdaBoostR2Loss" modified="No">quadratic</Option>
    <Option name="UseBaggedGrad" modified="Yes">True</Option>
    <Option name="GradBaggingFraction" modified="Yes">7.000000e-01</Option>
    <Option name="Shrinkage" modified="Yes">1.000000e-01</Option>
    <Option name="AdaBoostBeta" modified="No">1.000000e+00</Option>
    <Option name="UseRandomisedTrees" modified="No">False</Option>
    <Option name="UseNvars" modified="No">3</Option>
    <Option name="UsePoissonNvars" modified="No">True</Option>
    <Option name="UseNTrainEvents" modified="No">10187</Option>
    <Option name="UseWeightedTrees" modified="No">True</Option>
    <Option name="UseYesNoLeaf" modified="No">True</Option>
    <Option name="NodePurityLimit" modified="No">5.000000e-01</Option>
    <Option name="SeparationType" modified="No">giniindex</Option>
    <Option name="nEventsMin" modified="Yes">100</Option>
    <Option name="nCuts" modified="Yes">5000</Option>
    <Option name="UseFisherCuts" modified="No">False</Option>
    <Option name="MinLinCorrForFisher" modified="No">8.000000e-01</Option>
    <Option name="UseExclusiveVars" modified="No">False</Option>
    <Option name="PruneStrength" modified="No">0.000000e+00</Option>
    <Option name="PruneMethod" modified="No">nopruning</Option>
    <Option name="PruneBeforeBoost" modified="No">False</Option>
    <Option name="PruningValFraction" modified="No">5.000000e-01</Option>
    <Option name="NNodesMax" modified="Yes">4</Option>
    <Option name="MaxDepth" modified="No">3</Option>
    <Option name="DoBoostMonitor" modified="No">False</Option>
    <Option name="NegWeightTreatment" modified="Yes">ignorenegweights</Option>
  </Options>
  <Variables NVar="6">
    <Variable VarIndex="0" Expression="threeBodyPtOM" Label="threeBodyPtOM" Title="pT_{ll#gamma}/m_{ll#gamma}" Unit="" Internal="threeBodyPtOM" Type="F" Min="1.23020401e-03" Max="3.51258802e+00"/>
    <Variable VarIndex="1" Expression="l2Eta" Label="l2Eta" Title="#eta_{l2}" Unit="" Internal="l2Eta" Type="F" Min="-2.53735971e+00" Max="2.51902580e+00"/>
    <Variable VarIndex="2" Expression="GEta" Label="GEta" Title="#eta_{#gamma}" Unit="" Internal="GEta" Type="F" Min="-2.51608276e+00" Max="2.52249050e+00"/>
    <Variable VarIndex="3" Expression="bigTheta" Label="bigTheta" Title="cos(#Theta)" Unit="" Internal="bigTheta" Type="F" Min="-9.95217860e-01" Max="9.99888301e-01"/>
    <Variable VarIndex="4" Expression="smallTheta" Label="smallTheta" Title="cos(#theta)" Unit="" Internal="smallTheta" Type="F" Min="-9.90398765e-01" Max="9.90844965e-01"/>
    <Variable VarIndex="5" Expression="l1Eta" Label="l1Eta" Title="#eta_{l1}" Unit="" Internal="l1Eta" Type="F" Min="-2.52269697e+00" Max="2.51828051e+00"/>
  </Variables>
  <Spectators NSpec="1">
    <Spectator SpecIndex="0" Expression="threeBodyMass" Label="threeBodyMass" Title="m_{ll#gamma}" Unit="GeV" Internal="threeBodyMass" Type="F" Min="1.15000526e+02" Max="1.89885742e+02"/>
  </Spectators>
  <Classes NClass="2">
    <Class Name="Signal" Index="0"/>
    <Class Name="Background" Index="1"/>
  </Classes>
  <Transformations NTransformations="0"/>
  <MVAPdfs/>
  <Weights NTrees="1200" AnalysisType="1">
    <BinaryTree type="DecisionTree" boostWeight="1.0000000000000000e+00" itree="0">
      <Node pos="s" depth="0" NCoef="0" IVar="0" Cut="1.2163785099983215e-01" cType="0" res="-8.3748184144496918e-02" rms="4.9293634295463562e-01" purity="4.1625180840492249e-01" nType="0">
        <Node pos="l" depth="1" NCoef="0" IVar="-1" Cut="0.0000000000000000e+00" cType="1" res="4.2077573016285896e-03" rms="4.9845618009567261e-01" purity="5.3926116228103638e-01" nType="-99"/>
        <Node pos="r" depth="1" NCoef="0" IVar="0" Cut="5.1478158682584763e-02" cType="0" res="-2.4000778794288635e-01" rms="4.3862998485565186e-01" purity="2.5999221205711365e-01" nType="0">
          <Node pos="l" depth="2" NCoef="0" IVar="-1" Cut="0.0000000000000000e+00" cType="1" res="-1.9474439322948456e-02" rms="4.6737122535705566e-01" purity="3.2233703136444092e-01" nType="-99"/>
          <Node pos="r" depth="2" NCoef="0" IVar="-1" Cut="0.0000000000000000e+00" cType="1" res="-3.8709212094545364e-02" rms="3.6934825778007507e-01" purity="1.6298091411590576e-01" nType="-99"/>
        </Node>
      </Node>
    </BinaryTree>
    <BinaryTree type="DecisionTree" boostWeight="1.0000000000000000e+00" itree="1">
      <Node pos="s" depth="0" NCoef="0" IVar="0" Cut="1.1918823421001434e-01" cType="0" res="-8.2510709762573242e-02" rms="4.9001297354698181e-01" purity="4.1279453039169312e-01" nType="0">
        <Node pos="l" depth="1" NCoef="0" IVar="-1" Cut="0.0000000000000000e+00" cType="1" res="3.0586435459554195e-03" rms="4.9927169084548950e-01" purity="5.2608042955398560e-01" nType="-99"/>
        <Node pos="r" depth="1" NCoef="0" IVar="0" Cut="5.4747588932514191e-02" cType="0" res="-2.2471606731414795e-01" rms="4.3876025080680847e-01" purity="2.6176595687866211e-01" nType="0">
          <Node pos="l" depth="2" NCoef="0" IVar="-1" Cut="0.0000000000000000e+00" cType="1" res="-1.7560627311468124e-02" rms="4.7163140773773193e-01" purity="3.3397641777992249e-01" nType="-99"/>
          <Node pos="r" depth="2" NCoef="0" IVar="-1" Cut="0.0000000000000000e+00" cType="1" res="-3.4420263022184372e-02" rms="3.7224778532981873e-01" purity="1.6629326343536377e-01" nType="-99"/>
        </Node>
      </Node>
    </BinaryTree>
    <BinaryTree type="DecisionTree" boostWeight="1.0000000000000000e+00" itree="2">
      <Node pos="s" depth="0" NCoef="0" IVar="0" Cut="1.2059249728918076e-01" cType="0" res="-7.3757864534854889e-02" rms="4.8865282535552979e-01" purity="4.1704979538917542e-01" nType="0">
        <Node pos="l" depth="1" NCoef="0" IVar="-1" Cut="0.0000000000000000e+00" cType="1" res="3.7076969165354967e-03" rms="4.9854677915573120e-01" purity="5.3798276185989380e-01" nType="-99"/>
        <Node pos="r" depth="1" NCoef="0" IVar="0" Cut="4.6409744769334793e-02" cType="0" res="-2.1369053423404694e-01" rms="4.3752521276473999e-01" purity="2.6061993837356567e-01" nType="0">
          <Node pos="l" depth="2" NCoef="0" IVar="-1" Cut="0.0000000000000000e+00" cType="1" res="-1.7809400334954262e-02" rms="4.6527737379074097e-01" purity="3.1735035777091980e-01" nType="-99"/>
          <Node pos="r" depth="2" NCoef="0" IVar="-1" Cut="0.0000000000000000e+00" cType="1" res="-3.6991845816373825e-02" rms="3.5808202624320984e-01" purity="1.5103401243686676e-01" nType="-99"/>
        </Node>
      </Node>
    </BinaryTree>
    <BinaryTree type="DecisionTree" boostWeight="1.0000000000000000e+00" itree="3">
      <Node pos="s" depth="0" NCoef="0" IVar="0" Cut="1.1859689652919769e-01" cType="0" res="-7.7767804265022278e-02" rms="4.8528525233268738e-01" purity="4.0856882929801941e-01" nType="0">
        <Node pos="l" depth="1" NCoef="0" IVar="-1" Cut="0.0000000000000000e+00" cType="1" res="2.4666567333042622e-03" rms="4.9934309720993042e-01" purity="5.2446770668029785e-01" nType="-99"/>
        <Node pos="r" depth="1" NCoef="0" IVar="0" Cut="5.3478941321372986e-02" cType="0" res="-2.0534624159336090e-01" rms="4.3433955311775208e-01" purity="2.5628346204757690e-01" nType="0">
          <Node pos="l" depth="2" NCoef="0" IVar="-1" Cut="0.0000000000000000e+00" cType="1" res="-1.6923800110816956e-02" rms="4.6864083409309387e-01" purity="3.2567560672760010e-01" nType="-99"/>
          <Node pos="r" depth="2" NCoef="0" IVar="-1" Cut="0.0000000000000000e+00" cType="1" res="-3.3216282725334167e-02" rms="3.6943918466567993e-01" purity="1.6344216465950012e-01" nType="-99"/>
        </Node>
      </Node>
    </BinaryTree>
    <BinaryTree type="DecisionTree" boostWeight="1.0000000000000000e+00" itree="4">
      <Node pos="s" depth="0" NCoef="0" IVar="0" Cut="1.1423849314451218e-01" cType="0" res="-6.5538659691810608e-02" rms="4.8530906438827515e-01" purity="4.1718950867652893e-01" nType="0">
        <Node pos="l" depth="1" NCoef="0" IVar="-1" Cut="0.0000000000000000e+00" cType="1" res="2.1547514479607344e-03" rms="4.9906590580940247e-01" purity="5.2558273077011108e-01" nType="-99"/>
        <Node pos="r" depth="1" NCoef="0" IVar="0" Cut="4.9151279032230377e-02" cType="0" res="-1.8949478864669800e-01" rms="4.3582400679588318e-01" purity="2.6028323173522949e-01" nType="0">
          <Node pos="l" depth="2" NCoef="0" IVar="-1" Cut="0.0000000000000000e+00" cType="1" res="-1.6125530004501343e-02" rms="4.6903863549232483e-01" purity="3.2731822133064270e-01" nType="-99"/>
          <Node pos="r" depth="2" NCoef="0" IVar="-1" Cut="0.0000000000000000e+00" cType="1" res="-3.3669285476207733e-02" rms="3.5926613211631775e-01" purity="1.5230821073055267e-01" nType="-99"/>
        </Node>
      </Node>
    </BinaryTree>
    <BinaryTree type="DecisionTree" boostWeight="1.0000000000000000e+00" itree="5">
      <Node pos="s" depth="0" NCoef="0" IVar="0" Cut="1.0549380630254745e-01" cType="0" res="-6.3479028642177582e-02" rms="4.8298096656799316e-01" purity="4.1452047228813171e-01" nType="0">
        <Node pos="l" depth="1" NCoef="0" IVar="-1" Cut="0.0000000000000000e+00" cType="1" res="2.0635416731238365e-03" rms="4.9865275621414185e-01" purity="5.2289444208145142e-01" nType="-99"/>
        <Node pos="r" depth="1" NCoef="0" IVar="0" Cut="4.6438321471214294e-02" cType="0" res="-1.9360715150833130e-01" rms="4.2580652236938477e-01" purity="2.4326305091381073e-01" nType="0">
          <Node pos="l" depth="2" NCoef="0" IVar="-1" Cut="0.0000000000000000e+00" cType="1" res="-1.7015231773257256e-02" rms="4.5971783995628357e-01" purity="3.0413821339607239e-01" nType="-99"/>
          <Node pos="r" depth="2" NCoef="0" IVar="-1" Cut="0.0000000000000000e+00" cType="1" res="-3.2294206321239471e-02" rms="3.5543423891067505e-01" purity="1.4833578467369080e-01" nType="-99"/>
        </Node>
      </Node>
    </BinaryTree>
    <BinaryTree type="DecisionTree" boostWeight="1.0000000000000000e+00" itree="6">
      <Node pos="s" depth="0" NCoef="0" IVar="0" Cut="1.2427484244108200e-01" cType="0" res="-5.9270180761814117e-02" rms="4.8174509406089783e-01" purity="4.1548097133636475e-01" nType="0">
        <Node pos="l" depth="1" NCoef="0" IVar="-1" Cut="0.0000000000000000e+00" cType="1" res="3.2133909408003092e-03" rms="4.9848955869674683e-01" purity="5.3883492946624756e-01" nType="-99"/>
        <Node pos="r" depth="1" NCoef="0" IVar="0" Cut="3.7462480366230011e-02" cType="0" res="-1.7346568405628204e-01" rms="4.3341425061225891e-01" purity="2.5769630074501038e-01" nType="0">
          <Node pos="l" depth="2" NCoef="0" IVar="-1" Cut="0.0000000000000000e+00" cType="1" res="-1.6113465651869774e-02" rms="4.5670726895332336e-01" purity="2.9956820607185364e-01" nType="-99"/>
          <Node pos="r" depth="2" NCoef="0" IVar="-1" Cut="0.0000000000000000e+00" cType="1" res="-3.3249784260988235e-02" rms="3.3261048793792725e-01" purity="1.2667673826217651e-01" nType="-99"/>
        </Node>
      </Node>
    </BinaryTree>
    <BinaryTree type="DecisionTree" boostWeight="1.0000000000000000e+00" itree="7">
      <Node pos="s" depth="0" NCoef="0" IVar="0" Cut="1.2231051921844482e-01" cType="0" res="-6.0507189482450485e-02" rms="4.8028358817100525e-01" purity="4.1070654988288879e-01" nType="0">
        <Node pos="l" depth="1" NCoef="0" IVar="-1" Cut="0.0000000000000000e+00" cType="1" res="2.1500941365957260e-03" rms="4.9925202131271362e-01" purity="5.2731430530548096e-01" nType="-99"/>
        <Node pos="r" depth="1" NCoef="0" IVar="3" Cut="5.9841609001159668e-01" cType="1" res="-1.5981917083263397e-01" rms="4.3508315086364746e-01" purity="2.6122611761093140e-01" nType="0">
          <Node pos="l" depth="2" NCoef="0" IVar="-1" Cut="0.0000000000000000e+00" cType="1" res="-1.6557291150093079e-02" rms="4.4749745726585388e-01" purity="2.8598538041114807e-01" nType="-99"/>
          <Node pos="r" depth="2" NCoef="0" IVar="-1" Cut="0.0000000000000000e+00" cType="1" res="-3.2844167202711105e-02" rms="3.3174964785575867e-01" purity="1.2976063787937164e-01" nType="-99"/>
        </Node>
      </Node>
    </BinaryTree>
    <BinaryTree type="DecisionTree" boostWeight="1.0000000000000000e+00" itree="8">
      <Node pos="s" depth="0" NCoef="0" IVar="0" Cut="6.0911349952220917e-02" cType="0" res="-5.3721901029348373e-02" rms="4.7943904995918274e-01" purity="4.1392272710800171e-01" nType="0">
        <Node pos="l" depth="1" NCoef="0" IVar="-1" Cut="0.0000000000000000e+00" cType="1" res="-1.0404163040220737e-03" rms="4.9522426724433899e-01" purity="4.8084864020347595e-01" nType="-99"/>
        <Node pos="r" depth="1" NCoef="0" IVar="3" Cut="6.8918716907501221e-01" cType="1" res="-2.0898243784904480e-01" rms="3.8057845830917358e-01" purity="1.7878332734107971e-01" nType="0">
          <Node pos="l" depth="2" NCoef="0" IVar="-1" Cut="0.0000000000000000e+00" cType="1" res="-2.2091606631875038e-02" rms="3.9520168304443359e-01" purity="1.9679126143455505e-01" nType="-99"/>
          <Node pos="r" depth="2" NCoef="0" IVar="-1" Cut="0.0000000000000000e+00" cType="1" res="-3.7187784910202026e-02" rms="2.0380674302577972e-01" purity="4.5226600021123886e-02" nType="-99"/>
        </Node>
      </Node>
    </BinaryTree>
    <BinaryTree type="DecisionTree" boostWeight="1.0000000000000000e+00" itree="9">
      <Node pos="s" depth="0" NCoef="0" IVar="0" Cut="1.2059249728918076e-01" cType="0" res="-4.7823727130889893e-02" rms="4.7945737838745117e-01" purity="4.1646930575370789e-01" nType="0">
        <Node pos="l" depth="1" NCoef="0" IVar="-1" Cut="0.0000000000000000e+00" cType="1" res="2.6137372478842735e-03" rms="4.9871680140495300e-01" purity="5.3513652086257935e-01" nType="-99"/>
        <Node pos="r" depth="1" NCoef="0" IVar="3" Cut="5.8973717689514160e-01" cType="1" res="-1.4023078978061676e-01" rms="4.3655374646186829e-01" purity="2.6478457450866699e-01" nType="0">
          <Node pos="l" depth="2" NCoef="0" IVar="-1" Cut="0.0000000000000000e+00" cType="1" res="-1.4269430190324783e-02" rms="4.5027980208396912e-01" purity="2.9093503952026367e-01" nType="-99"/>
          <Node pos="r" depth="2" NCoef="0" IVar="-1" Cut="0.0000000000000000e+00" cType="1" res="-2.9712580144405365e-02" rms="3.3720460534095764e-01" purity="1.3657836616039276e-01" nType="-99"/>
        </Node>
      </Node>
    </BinaryTree>
    <BinaryTree type="DecisionTree" boostWeight="1.0000000000000000e+00" itree="10">
      <Node pos="s" depth="0" NCoef="0" IVar="0" Cut="1.4025217294692993e-01" cType="0" res="-5.0854586064815521e-02" rms="4.7753033041954041e-01" purity="4.1047528386116028e-01" nType="0">
        <Node pos="l" depth="1" NCoef="0" IVar="-1" Cut="0.0000000000000000e+00" cType="1" res="3.0606207437813282e-03" rms="4.9828267097473145e-01" purity="5.4140472412109375e-01" nType="-99"/>
        <Node pos="r" depth="1" NCoef="0" IVar="2" Cut="1.3888041973114014e+00" cType="1" res="-1.3345427811145782e-01" rms="4.4010177254676819e-01" purity="2.7523013949394226e-01" nType="0">
          <Node pos="l" depth="2" NCoef="0" IVar="-1" Cut="0.0000000000000000e+00" cType="1" res="-1.3845025561749935e-02" rms="4.4918051362037659e-01" purity="2.9491734504699707e-01" nType="-99"/>
          <Node pos="r" depth="2" NCoef="0" IVar="-1" Cut="0.0000000000000000e+00" cType="1" res="-2.4087613448500633e-02" rms="3.5777631402015686e-01" purity="1.5308514237403870e-01" nType="-99"/>
        </Node>
      </Node>
    </BinaryTree>
    <BinaryTree type="DecisionTree" boostWeight="1.0000000000000000e+00" itree="11">
      <Node pos="s" depth="0" NCoef="0" IVar="0" Cut="2.2196587920188904e-01" cType="0" res="-4.7076050192117691e-02" rms="4.7711092233657837e-01" purity="4.1183990240097046e-01" nType="0">
        <Node pos="l" depth="1" NCoef="0" IVar="-1" Cut="0.0000000000000000e+00" cType="1" res="7.0832474157214165e-03" rms="4.9528324604034424e-01" purity="5.6851637363433838e-01" nType="-99"/>
        <Node pos="r" depth="1" NCoef="0" IVar="0" Cut="5.5421315133571625e-02" cType="0" res="-9.8484292626380920e-02" rms="4.5916655659675598e-01" purity="3.3269432187080383e-01" nType="0">
          <Node pos="l" depth="2" NCoef="0" IVar="-1" Cut="0.0000000000000000e+00" cType="1" res="-6.1755473725497723e-03" rms="4.8548287153244019e-01" purity="3.9945772290229797e-01" nType="-99"/>
          <Node pos="r" depth="2" NCoef="0" IVar="-1" Cut="0.0000000000000000e+00" cType="1" res="-2.2339029237627983e-02" rms="3.7075534462928772e-01" purity="1.6667845845222473e-01" nType="-99"/>
        </Node>
      </Node>
    </BinaryTree>
    <BinaryTree type="DecisionTree" boostWeight="1.0000000000000000e+00" itree="12">
      <Node pos="s" depth="0" NCoef="0" IVar="0" Cut="6.6528402268886566e-02" cType="0" res="-4.2258970439434052e-02" rms="4.7557312250137329e-01" purity="4.1389372944831848e-01" nType="0">
        <Node pos="l" depth="1" NCoef="0" IVar="-1" Cut="0.0000000000000000e+00" cType="1" res="7.1089998527895659e-05" rms="4.9408823251724243e-01" purity="4.8865309357643127e-01" nType="-99"/>
        <Node pos="r" depth="1" NCoef="0" IVar="4" Cut="8.2861977815628052e-01" cType="0" res="-1.7413483560085297e-01" rms="3.8463631272315979e-01" purity="1.8414281308650970e-01" nType="0">
          <Node pos="l" depth="2" NCoef="0" IVar="-1" Cut="0.0000000000000000e+00" cType="1" res="-3.9941654540598392e-03" rms="4.6545150876045227e-01" purity="3.3233183622360229e-01" nType="-99"/>
          <Node pos="r" depth="2" NCoef="0" IVar="-1" Cut="0.0000000000000000e+00" cType="1" res="-2.3583205416798592e-02" rms="3.7181103229522705e-01" purity="1.6851116716861725e-01" nType="-99"/>
        </Node>
      </Node>
    </BinaryTree>
    <BinaryTree type="DecisionTree" boostWeight="1.0000000000000000e+00" itree="13">
      <Node pos="s" depth="0" NCoef="0" IVar="0" Cut="1.3955004513263702e-01" cType="0" res="-4.3812055140733719e-02" rms="4.7519952058792114e-01" purity="4.1062477231025696e-01" nType="0">
        <Node pos="l" depth="1" NCoef="0" IVar="-1" Cut="0.0000000000000000e+00" cType="1" res="2.2919506300240755e-03" rms="4.9840804934501648e-01" purity="5.3737443685531616e-01" nType="-99"/>
        <Node pos="r" depth="1" NCoef="0" IVar="3" Cut="6.8908011913299561e-01" cType="1" res="-1.1412955820560455e-01" rms="4.3839532136917114e-01" purity="2.7583092451095581e-01" nType="0">
          <Node pos="l" depth="2" NCoef="0" IVar="-1" Cut="0.0000000000000000e+00" cType="1" res="-1.1617025360465050e-02" rms="4.4836083054542542e-01" purity="2.9510083794593811e-01" nType="-99"/>
          <Node pos="r" depth="2" NCoef="0" IVar="-1" Cut="0.0000000000000000e+00" cType="1" res="-2.7413232252001762e-02" rms="3.2558444142341614e-01" purity="1.2986227869987488e-01" nType="-99"/>
        </Node>
      </Node>
    </BinaryTree>
    <BinaryTree type="DecisionTree" boostWeight="1.0000000000000000e+00" itree="14">
      <Node pos="s" depth="0" NCoef="0" IVar="0" Cut="2.5215506553649902e-01" cType="0" res="-4.1923921555280685e-02" rms="4.7463616728782654e-01" purity="4.1032895445823669e-01" nType="0">
        <Node pos="l" depth="1" NCoef="0" IVar="-1" Cut="0.0000000000000000e+00" cType="1" res="7.5959409587085247e-03" rms="4.9375069141387939e-01" purity="5.7880520820617676e-01" nType="-99"/>
        <Node pos="r" depth="1" NCoef="0" IVar="0" Cut="6.6577270627021790e-02" cType="0" res="-8.4270618855953217e-02" rms="4.5987850427627563e-01" purity="3.4051117300987244e-01" nType="0">
          <Node pos="l" depth="2" NCoef="0" IVar="-1" Cut="0.0000000000000000e+00" cType="1" res="-4.8707188107073307e-03" rms="4.8852676153182983e-01" purity="4.1721674799919128e-01" nType="-99"/>
          <Node pos="r" depth="2" NCoef="0" IVar="-1" Cut="0.0000000000000000e+00" cType="1" res="-1.9154688343405724e-02" rms="3.8897728919982910e-01" purity="1.9051776826381683e-01" nType="-99"/>
        </Node>
      </Node>
    </BinaryTree>
    <BinaryTree type="DecisionTree" boostWeight="1.0000000000000000e+00" itree="15">
      <Node pos="s" depth="0" NCoef="0" IVar="3" Cut="-7.3975008726119995e-01" cType="0" res="-3.6807850003242493e-02" rms="4.7378733754158020e-01" purity="4.1246682405471802e-01" nType="0">
        <Node pos="l" depth="1" NCoef="0" IVar="-1" Cut="0.0000000000000000e+00" cType="1" res="-1.6437611775472760e-03" rms="4.7625747323036194e-01" purity="4.3497839570045471e-01" nType="-99"/>
        <Node pos="r" depth="1" NCoef="0" IVar="3" Cut="-8.2650679349899292e-01" cType="0" res="-2.4857434630393982e-01" rms="3.9042228460311890e-01" purity="1.9636061787605286e-01" nType="0">
          <Node pos="l" depth="2" NCoef="0" IVar="-1" Cut="0.0000000000000000e+00" cType="1" res="-2.0371316000819206e-02" rms="4.3448749184608459e-01" purity="2.7720564603805542e-01" nType="-99"/>
          <Node pos="r" depth="2" NCoef="0" IVar="-1" Cut="0.0000000000000000e+00" cType="1" res="-4.2052593082189560e-02" rms="3.0628907680511475e-01" purity="1.0527248680591583e-01" nType="-99"/>
        </Node>
      </Node>
    </BinaryTree>
    <BinaryTree type="DecisionTree" boostWeight="1.0000000000000000e+00" itree="16">
      <Node pos="s" depth="0" NCoef="0" IVar="0" Cut="5.8961611986160278e-01" cType="0" res="-3.4044124186038971e-02" rms="4.7422957420349121e-01" purity="4.1430321335792542e-01" nType="0">
        <Node pos="l" depth="1" NCoef="0" IVar="-1" Cut="0.0000000000000000e+00" cType="1" res="2.3843960836529732e-02" rms="4.5895376801490784e-01" purity="6.9481348991394043e-01" nType="-99"/>
        <Node pos="r" depth="1" NCoef="0" IVar="0" Cut="6.6939175128936768e-02" cType="0" res="-5.1229752600193024e-02" rms="4.7136738896369934e-01" purity="3.9119622111320496e-01" nType="0">
          <Node pos="l" depth="2" NCoef="0" IVar="-1" Cut="0.0000000000000000e+00" cType="1" res="-2.0778377074748278e-03" rms="4.9305284023284912e-01" purity="4.6124130487442017e-01" nType="-99"/>
          <Node pos="r" depth="2" NCoef="0" IVar="-1" Cut="0.0000000000000000e+00" cType="1" res="-1.7640016973018646e-02" rms="3.9009153842926025e-01" purity="1.9274817407131195e-01" nType="-99"/>
        </Node>
      </Node>
    </BinaryTree>
    <BinaryTree type="DecisionTree" boostWeight="1.0000000000000000e+00" itree="17">
      <Node pos="s" depth="0" NCoef="0" IVar="3" Cut="-7.5051814317703247e-01" cType="0" res="-3.7349708378314972e-02" rms="4.7165071964263916e-01" purity="4.0908142924308777e-01" nType="0">
        <Node pos="l" depth="1" NCoef="0" IVar="-1" Cut="0.0000000000000000e+00" cType="1" res="-1.9231307087466121e-03" rms="4.7497624158859253e-01" purity="4.3282073736190796e-01" nType="-99"/>
        <Node pos="r" depth="1" NCoef="0" IVar="3" Cut="-8.3934038877487183e-01" cType="0" res="-2.5812959671020508e-01" rms="3.7062314152717590e-01" purity="1.7173814773559570e-01" nType="0">
          <Node pos="l" depth="2" NCoef="0" IVar="-1" Cut="0.0000000000000000e+00" cType="1" res="-2.4127090349793434e-02" rms="4.2423242330551147e-01" purity="2.5182044506072998e-01" nType="-99"/>
          <Node pos="r" depth="2" NCoef="0" IVar="-1" Cut="0.0000000000000000e+00" cType="1" res="-3.9021790027618408e-02" rms="2.8204664587974548e-01" purity="8.7503224611282349e-02" nType="-99"/>
        </Node>
      </Node>
    </BinaryTree>
    <BinaryTree type="DecisionTree" boostWeight="1.0000000000000000e+00" itree="18">
      <Node pos="s" depth="0" NCoef="0" IVar="0" Cut="1.2163785099983215e-01" cType="0" res="-2.6422077789902687e-02" rms="4.7321048378944397e-01" purity="4.1889798641204834e-01" nType="0">
        <Node pos="l" depth="1" NCoef="0" IVar="-1" Cut="0.0000000000000000e+00" cType="1" res="2.8732516802847385e-03" rms="4.9608093500137329e-01" purity="5.3863167762756348e-01" nType="-99"/>
        <Node pos="r" depth="1" NCoef="0" IVar="3" Cut="5.9849792718887329e-01" cType="1" res="-9.7356185317039490e-02" rms="4.3094849586486816e-01" purity="2.6019048690795898e-01" nType="0">
          <Node pos="l" depth="2" NCoef="0" IVar="-1" Cut="0.0000000000000000e+00" cType="1" res="-9.6037117764353752e-03" rms="4.4419807195663452e-01" purity="2.8473830223083496e-01" nType="-99"/>
          <Node pos="r" depth="2" NCoef="0" IVar="-1" Cut="0.0000000000000000e+00" cType="1" res="-2.5216158479452133e-02" rms="3.3387187123298645e-01" purity="1.3303229212760925e-01" nType="-99"/>
        </Node>
      </Node>
    </BinaryTree>
    <BinaryTree type="DecisionTree" boostWeight="1.0000000000000000e+00" itree="19">
      <Node pos="s" depth="0" NCoef="0" IVar="3" Cut="-7.4946993589401245e-01" cType="0" res="-4.1835371404886246e-02" rms="4.6959692239761353e-01" purity="3.9998766779899597e-01" nType="0">
        <Node pos="l" depth="1" NCoef="0" IVar="-1" Cut="0.0000000000000000e+00" cType="1" res="-2.8992316219955683e-03" rms="4.7403597831726074e-01" purity="4.2201504111289978e-01" nType="-99"/>
        <Node pos="r" depth="1" NCoef="0" IVar="3" Cut="-8.2479858398437500e-01" cType="0" res="-2.2719308733940125e-01" rms="3.7567469477653503e-01" purity="1.8138782680034637e-01" nType="0">
          <Node pos="l" depth="2" NCoef="0" IVar="-1" Cut="0.0000000000000000e+00" cType="1" res="-2.1089468151330948e-02" rms="4.1748070716857910e-01" purity="2.5379246473312378e-01" nType="-99"/>
          <Node pos="r" depth="2" NCoef="0" IVar="-1" Cut="0.0000000000000000e+00" cType="1" res="-3.5622540861368179e-02" rms="3.2653737068176270e-01" purity="1.2274347990751266e-01" nType="-99"/>
        </Node>
      </Node>
    </BinaryTree>
    <BinaryTree type="DecisionTree" boostWeight="1.0000000000000000e+00" itree="20">
      <Node pos="s" depth="0" NCoef="0" IVar="0" Cut="5.8269041776657104e-01" cType="0" res="-2.7403542771935463e-02" rms="4.7251906991004944e-01" purity="4.1413852572441101e-01" nType="0">
        <Node pos="l" depth="1" NCoef="0" IVar="-1" Cut="0.0000000000000000e+00" cType="1" res="2.5942638516426086e-02" rms="4.4941160082817078e-01" purity="7.1157276630401611e-01" nType="-99"/>
        <Node pos="r" depth="1" NCoef="0" IVar="3" Cut="-8.0004823207855225e-01" cType="0" res="-4.4439438730478287e-02" rms="4.7025507688522339e-01" purity="3.8998636603355408e-01" nType="0">
          <Node pos="l" depth="2" NCoef="0" IVar="-1" Cut="0.0000000000000000e+00" cType="1" res="-3.4823231399059296e-03" rms="4.7402155399322510e-01" purity="4.0558722615242004e-01" nType="-99"/>
          <Node pos="r" depth="2" NCoef="0" IVar="-1" Cut="0.0000000000000000e+00" cType="1" res="-3.3271130174398422e-02" rms="3.3958610892295837e-01" purity="1.3579151034355164e-01" nType="-99"/>
        </Node>
      </Node>
    </BinaryTree>
    <BinaryTree type="DecisionTree" boostWeight="1.0000000000000000e+00" itree="21">
      <Node pos="s" depth="0" NCoef="0" IVar="3" Cut="-7.5046402215957642e-01" cType="0" res="-2.7854658663272858e-02" rms="4.7070389986038208e-01" purity="4.1042324900627136e-01" nType="0">
        <Node pos="l" depth="1" NCoef="0" IVar="-1" Cut="0.0000000000000000e+00" cType="1" res="-1.0802471078932285e-03" rms="4.7510284185409546e-01" purity="4.3300950527191162e-01" nType="-99"/>
        <Node pos="r" depth="1" NCoef="0" IVar="5" Cut="-1.2413514852523804e+00" cType="0" res="-2.2045959532260895e-01" rms="3.7038114666938782e-01" purity="1.7288653552532196e-01" nType="0">
          <Node pos="l" depth="2" NCoef="0" IVar="-1" Cut="0.0000000000000000e+00" cType="1" res="-2.5800475850701332e-02" rms="3.9437001943588257e-01" purity="2.0689861476421356e-01" nType="-99"/>
          <Node pos="r" depth="2" NCoef="0" IVar="-1" Cut="0.0000000000000000e+00" cType="1" res="-3.9360392838716507e-02" rms="2.5934562087059021e-01" purity="6.8119101226329803e-02" nType="-99"/>
        </Node>
      </Node>
    </BinaryTree>
    <BinaryTree type="DecisionTree" boostWeight="1.0000000000000000e+00" itree="22">
      <Node pos="s" depth="0" NCoef="0" IVar="0" Cut="2.5189101696014404e-01" cType="0" res="-1.6017213463783264e-02" rms="4.7077655792236328e-01" purity="4.2227685451507568e-01" nType="0">
        <Node pos="l" depth="1" NCoef="0" IVar="-1" Cut="0.0000000000000000e+00" cType="1" res="1.0343662463128567e-02" rms="4.8514562845230103e-01" purity="5.9713071584701538e-01" nType="-99"/>
        <Node pos="r" depth="1" NCoef="0" IVar="0" Cut="3.7294372916221619e-02" cType="0" res="-5.6157998740673065e-02" rms="4.5868393778800964e-01" purity="3.4798642992973328e-01" nType="0">
          <Node pos="l" depth="2" NCoef="0" IVar="-1" Cut="0.0000000000000000e+00" cType="1" res="-3.9383731782436371e-03" rms="4.7624814510345459e-01" purity="3.8894006609916687e-01" nType="-99"/>
          <Node pos="r" depth="2" NCoef="0" IVar="-1" Cut="0.0000000000000000e+00" cType="1" res="-2.3585600778460503e-02" rms="3.2397612929344177e-01" purity="1.2157590687274933e-01" nType="-99"/>
        </Node>
      </Node>
    </BinaryTree>
    <BinaryTree type="DecisionTree" boostWeight="1.0000000000000000e+00" itree="23">
      <Node pos="s" depth="0" NCoef="0" IVar="3" Cut="-5.3483945131301880e-01" cType="0" res="-2.1534483879804611e-02" rms="4.7184786200523376e-01" purity="4.1644552350044250e-01" nType="0">
        <Node pos="l" depth="1" NCoef="0" IVar="-1" Cut="0.0000000000000000e+00" cType="1" res="6.8866874789819121e-04" rms="4.7687098383903503e-01" purity="4.5082440972328186e-01" nType="-99"/>
        <Node pos="r" depth="1" NCoef="0" IVar="3" Cut="-8.2660692930221558e-01" cType="0" res="-1.1962972581386566e-01" rms="4.3978655338287354e-01" purity="2.9459592700004578e-01" nType="0">
          <Node pos="l" depth="2" NCoef="0" IVar="-1" Cut="0.0000000000000000e+00" cType="1" res="-1.1629097163677216e-02" rms="4.5729035139083862e-01" purity="3.3696243166923523e-01" nType="-99"/>
          <Node pos="r" depth="2" NCoef="0" IVar="-1" Cut="0.0000000000000000e+00" cType="1" res="-3.1461078673601151e-02" rms="3.3939653635025024e-01" purity="1.3112169504165649e-01" nType="-99"/>
        </Node>
      </Node>
    </BinaryTree>
    <BinaryTree type="DecisionTree" boostWeight="1.0000000000000000e+00" itree="24">
      <Node pos="s" depth="0" NCoef="0" IVar="0" Cut="1.2029250711202621e-01" cType="0" res="-2.7602639049291611e-02" rms="4.6711167693138123e-01" purity="4.0619197487831116e-01" nType="0">
        <Node pos="l" depth="1" NCoef="0" IVar="-1" Cut="0.0000000000000000e+00" cType="1" res="2.4211367126554251e-03" rms="4.9341270327568054e-01" purity="5.2985721826553345e-01" nType="-99"/>
        <Node pos="r" depth="1" NCoef="0" IVar="3" Cut="4.9814793467521667e-01" cType="1" res="-9.1038174927234650e-02" rms="4.2305693030357361e-01" purity="2.4946436285972595e-01" nType="0">
          <Node pos="l" depth="2" NCoef="0" IVar="-1" Cut="0.0000000000000000e+00" cType="1" res="-8.6027150973677635e-03" rms="4.3730551004409790e-01" purity="2.7613136172294617e-01" nType="-99"/>
          <Node pos="r" depth="2" NCoef="0" IVar="-1" Cut="0.0000000000000000e+00" cType="1" res="-2.0764093846082687e-02" rms="3.5689675807952881e-01" purity="1.5627282857894897e-01" nType="-99"/>
        </Node>
      </Node>
    </BinaryTree>
    <BinaryTree type="DecisionTree" boostWeight="1.0000000000000000e+00" itree="25">
      <Node pos="s" depth="0" NCoef="0" IVar="0" Cut="2.5220188498497009e-01" cType="0" res="-2.6269761845469475e-02" rms="4.6802037954330444e-01" purity="4.0737345814704895e-01" nType="0">
        <Node pos="l" depth="1" NCoef="0" IVar="-1" Cut="0.0000000000000000e+00" cType="1" res="7.2354157455265522e-03" rms="4.8739242553710938e-01" purity="5.7851368188858032e-01" nType="-99"/>
        <Node pos="r" depth="1" NCoef="0" IVar="2" Cut="1.3889787197113037e+00" cType="1" res="-6.0599166899919510e-02" rms="4.5527523756027222e-01" purity="3.3535614609718323e-01" nType="0">
          <Node pos="l" depth="2" NCoef="0" IVar="-1" Cut="0.0000000000000000e+00" cType="1" res="-4.5157559216022491e-03" rms="4.6242961287498474e-01" purity="3.5765793919563293e-01" nType="-99"/>
          <Node pos="r" depth="2" NCoef="0" IVar="-1" Cut="0.0000000000000000e+00" cType="1" res="-1.8999274820089340e-02" rms="3.8984376192092896e-01" purity="2.0394161343574524e-01" nType="-99"/>
        </Node>
      </Node>
    </BinaryTree>
    <BinaryTree type="DecisionTree" boostWeight="1.0000000000000000e+00" itree="26">
      <Node pos="s" depth="0" NCoef="0" IVar="3" Cut="-4.9813681840896606e-01" cType="0" res="-2.1092209964990616e-02" rms="4.6694067120552063e-01" purity="4.1146042943000793e-01" nType="0">
        <Node pos="l" depth="1" NCoef="0" IVar="-1" Cut="0.0000000000000000e+00" cType="1" res="1.1503886198624969e-03" rms="4.7202932834625244e-01" purity="4.5002952218055725e-01" nType="-99"/>
        <Node pos="r" depth="1" NCoef="0" IVar="3" Cut="-8.1637185811996460e-01" cType="0" res="-1.2146856635808945e-01" rms="4.3535631895065308e-01" purity="2.8819572925567627e-01" nType="0">
          <Node pos="l" depth="2" NCoef="0" IVar="-1" Cut="0.0000000000000000e+00" cType="1" res="-1.2201891280710697e-02" rms="4.5484882593154907e-01" purity="3.3208927512168884e-01" nType="-99"/>
          <Node pos="r" depth="2" NCoef="0" IVar="-1" Cut="0.0000000000000000e+00" cType="1" res="-3.1178010627627373e-02" rms="3.3121332526206970e-01" purity="1.2415625154972076e-01" nType="-99"/>
        </Node>
      </Node>
    </BinaryTree>
    <BinaryTree type="DecisionTree" boostWeight="1.0000000000000000e+00" itree="27">
      <Node pos="s" depth="0" NCoef="0" IVar="0" Cut="9.6666049957275391e-01" cType="0" res="-1.4695078134536743e-02" rms="4.6826121211051941e-01" purity="4.1619184613227844e-01" nType="0">
        <Node pos="l" depth="1" NCoef="0" IVar="-1" Cut="0.0000000000000000e+00" cType="1" res="4.6685531735420227e-02" rms="3.3908805251121521e-01" purity="8.5999602079391479e-01" nType="-99"/>
        <Node pos="r" depth="1" NCoef="0" IVar="0" Cut="5.4695669561624527e-02" cType="0" res="-2.3134559392929077e-02" rms="4.6812418103218079e-01" purity="4.0471449494361877e-01" nType="0">
          <Node pos="l" depth="2" NCoef="0" IVar="-1" Cut="0.0000000000000000e+00" cType="1" res="-2.2284677834250033e-04" rms="4.8610982298851013e-01" purity="4.6102076768875122e-01" nType="-99"/>
          <Node pos="r" depth="2" NCoef="0" IVar="-1" Cut="0.0000000000000000e+00" cType="1" res="-1.4896219596266747e-02" rms="3.7129712104797363e-01" purity="1.7018817365169525e-01" nType="-99"/>
        </Node>
      </Node>
    </BinaryTree>
    <BinaryTree type="DecisionTree" boostWeight="1.0000000000000000e+00" itree="28">
      <Node pos="s" depth="0" NCoef="0" IVar="2" Cut="-1.6402701139450073e+00" cType="0" res="-9.6730748191475868e-03" rms="4.6932670474052429e-01" purity="4.2060184478759766e-01" nType="0">
        <Node pos="l" depth="1" NCoef="0" IVar="-1" Cut="0.0000000000000000e+00" cType="1" res="6.7208893597126007e-04" rms="4.7017982602119446e-01" purity="4.3575984239578247e-01" nType="-99"/>
        <Node pos="r" depth="1" NCoef="0" IVar="1" Cut="-1.6467680931091309e+00" cType="1" res="-1.6176196932792664e-01" rms="4.3232670426368713e-01" purity="2.7165246009826660e-01" nType="0">
          <Node pos="l" depth="2" NCoef="0" IVar="-1" Cut="0.0000000000000000e+00" cType="1" res="-5.7534924708306789e-03" rms="4.7368064522743225e-01" purity="3.9005842804908752e-01" nType="-99"/>
          <Node pos="r" depth="2" NCoef="0" IVar="-1" Cut="0.0000000000000000e+00" cType="1" res="-2.6242256164550781e-02" rms="3.9478927850723267e-01" purity="2.0541912317276001e-01" nType="-99"/>
        </Node>
      </Node>
    </BinaryTree>
    <BinaryTree type="DecisionTree" boostWeight="1.0000000000000000e+00" itree="29">
      <Node pos="s" depth="0" NCoef="0" IVar="2" Cut="1.4220540523529053e+00" cType="1" res="-1.9816592335700989e-02" rms="4.6605134010314941e-01" purity="4.0914499759674072e-01" nType="0">
        <Node pos="l" depth="1" NCoef="0" IVar="-1" Cut="0.0000000000000000e+00" cType="1" res="-1.3791138189844787e-04" rms="4.6923199295997620e-01" purity="4.2984828352928162e-01" nType="-99"/>
        <Node pos="r" depth="1" NCoef="0" IVar="5" Cut="8.9608186483383179e-01" cType="0" res="-1.5650276839733124e-01" rms="4.1730257868766785e-01" purity="2.5719332695007324e-01" nType="0">
          <Node pos="l" depth="2" NCoef="0" IVar="-1" Cut="0.0000000000000000e+00" cType="1" res="-1.2173824012279510e-02" rms="4.3995228409767151e-01" purity="3.1228893995285034e-01" nType="-99"/>
          <Node pos="r" depth="2" NCoef="0" IVar="-1" Cut="0.0000000000000000e+00" cType="1" res="-2.6047375053167343e-02" rms="3.5592976212501526e-01" purity="1.5619514882564545e-01" nType="-99"/>
        </Node>
      </Node>
    </BinaryTree>
    <BinaryTree type="DecisionTree" boostWeight="1.0000000000000000e+00" itree="30">
      <Node pos="s" depth="0" NCoef="0" IVar="0" Cut="7.5125545263290405e-01" cType="0" res="-1.5900025144219398e-02" rms="4.6694117784500122e-01" purity="4.1311928629875183e-01" nType="0">
        <Node pos="l" depth="1" NCoef="0" IVar="-1" Cut="0.0000000000000000e+00" cType="1" res="3.1078763306140900e-02" rms="4.0819174051284790e-01" purity="7.7423375844955444e-01" nType="-99"/>
        <Node pos="r" depth="1" NCoef="0" IVar="2" Cut="1.4333688020706177e+00" cType="1" res="-2.6711784303188324e-02" rms="4.6673509478569031e-01" purity="3.9616370201110840e-01" nType="0">
          <Node pos="l" depth="2" NCoef="0" IVar="-1" Cut="0.0000000000000000e+00" cType="1" res="-1.0821780888363719e-03" rms="4.7095882892608643e-01" purity="4.1707852482795715e-01" nType="-99"/>
          <Node pos="r" depth="2" NCoef="0" IVar="-1" Cut="0.0000000000000000e+00" cType="1" res="-1.9264794886112213e-02" rms="4.0918353199958801e-01" purity="2.3542231321334839e-01" nType="-99"/>
        </Node>
      </Node>
    </BinaryTree>
    <BinaryTree type="DecisionTree" boostWeight="1.0000000000000000e+00" itree="31">
      <Node pos="s" depth="0" NCoef="0" IVar="3" Cut="-7.4707627296447754e-01" cType="0" res="-2.1286522969603539e-02" rms="4.6588319540023804e-01" purity="4.0736892819404602e-01" nType="0">
        <Node pos="l" depth="1" NCoef="0" IVar="-1" Cut="0.0000000000000000e+00" cType="1" res="-7.6798733789473772e-04" rms="4.7114089131355286e-01" purity="4.2934718728065491e-01" nType="-99"/>
        <Node pos="r" depth="1" NCoef="0" IVar="1" Cut="1.0398596525192261e+00" cType="1" res="-1.6717809438705444e-01" rms="3.8002783060073853e-01" purity="1.8783088028430939e-01" nType="0">
          <Node pos="l" depth="2" NCoef="0" IVar="-1" Cut="0.0000000000000000e+00" cType="1" res="-1.8094079568982124e-02" rms="4.0434345602989197e-01" purity="2.2280669212341309e-01" nType="-99"/>
          <Node pos="r" depth="2" NCoef="0" IVar="-1" Cut="0.0000000000000000e+00" cType="1" res="-3.6684531718492508e-02" rms="2.6463639736175537e-01" purity="8.1967316567897797e-02" nType="-99"/>
        </Node>
      </Node>
    </BinaryTree>
    <BinaryTree type="DecisionTree" boostWeight="1.0000000000000000e+00" itree="32">
      <Node pos="s" depth="0" NCoef="0" IVar="2" Cut="1.4260237216949463e+00" cType="1" res="-1.1713703162968159e-02" rms="4.6692922711372375e-01" purity="4.1567945480346680e-01" nType="0">
        <Node pos="l" depth="1" NCoef="0" IVar="-1" Cut="0.0000000000000000e+00" cType="1" res="6.4046867191791534e-04" rms="4.6985003352165222e-01" purity="4.3619403243064880e-01" nType="-99"/>
        <Node pos="r" depth="1" NCoef="0" IVar="5" Cut="1.2785227298736572e+00" cType="0" res="-1.3730911910533905e-01" rms="4.2446199059486389e-01" purity="2.6637822389602661e-01" nType="0">
          <Node pos="l" depth="2" NCoef="0" IVar="-1" Cut="0.0000000000000000e+00" cType="1" res="-8.5405800491571426e-03" rms="4.5577865839004517e-01" purity="3.4485340118408203e-01" nType="-99"/>
          <Node pos="r" depth="2" NCoef="0" IVar="-1" Cut="0.0000000000000000e+00" cType="1" res="-1.9656846299767494e-02" rms="3.8565307855606079e-01" purity="1.9846436381340027e-01" nType="-99"/>
        </Node>
      </Node>
    </BinaryTree>
    <BinaryTree type="DecisionTree" boostWeight="1.0000000000000000e+00" itree="33">
      <Node pos="s" depth="0" NCoef="0" IVar="0" Cut="1.2175085395574570e-01" cType="0" res="-1.6471480950713158e-02" rms="4.6516072750091553e-01" purity="4.0901175141334534e-01" nType="0">
        <Node pos="l" depth="1" NCoef="0" IVar="-1" Cut="0.0000000000000000e+00" cType="1" res="2.8008772060275078e-03" rms="4.9027737975120544e-01" purity="5.3248971700668335e-01" nType="-99"/>
        <Node pos="r" depth="1" NCoef="0" IVar="3" Cut="7.0979851484298706e-01" cType="1" res="-6.8743690848350525e-02" rms="4.2618304491043091e-01" purity="2.5562235713005066e-01" nType="0">
          <Node pos="l" depth="2" NCoef="0" IVar="-1" Cut="0.0000000000000000e+00" cType="1" res="-6.9784475490450859e-03" rms="4.3665927648544312e-01" purity="2.7319490909576416e-01" nType="-99"/>
          <Node pos="r" depth="2" NCoef="0" IVar="-1" Cut="0.0000000000000000e+00" cType="1" res="-2.4620680138468742e-02" rms="2.9704385995864868e-01" purity="1.0530553758144379e-01" nType="-99"/>
        </Node>
      </Node>
    </BinaryTree>
    <BinaryTree type="DecisionTree" boostWeight="1.0000000000000000e+00" itree="34">
      <Node pos="s" depth="0" NCoef="0" IVar="3" Cut="-7.3975008726119995e-01" cType="0" res="-2.1614326164126396e-02" rms="4.6426665782928467e-01" purity="4.0435153245925903e-01" nType="0">
        <Node pos="l" depth="1" NCoef="0" IVar="-1" Cut="0.0000000000000000e+00" cType="1" res="-7.0343847619369626e-04" rms="4.7007197141647339e-01" purity="4.2845946550369263e-01" nType="-99"/>
        <Node pos="r" depth="1" NCoef="0" IVar="0" Cut="3.8770025968551636e-01" cType="1" res="-1.6114686429500580e-01" rms="3.8045549392700195e-01" purity="1.8576523661613464e-01" nType="0">
          <Node pos="l" depth="2" NCoef="0" IVar="-1" Cut="0.0000000000000000e+00" cType="1" res="-1.8061360344290733e-02" rms="3.8008251786231995e-01" purity="1.9444532692432404e-01" nType="-99"/>
          <Node pos="r" depth="2" NCoef="0" IVar="-1" Cut="0.0000000000000000e+00" cType="1" res="-3.2974760979413986e-02" rms="3.4599021077156067e-01" purity="1.4432735741138458e-01" nType="-99"/>
        </Node>
      </Node>
    </BinaryTree>
    <BinaryTree type="DecisionTree" boostWeight="1.0000000000000000e+00" itree="35">
      <Node pos="s" depth="0" NCoef="0" IVar="0" Cut="5.5407159030437469e-02" cType="0" res="-1.0191026143729687e-02" rms="4.6732461452484131e-01" purity="4.1428658366203308e-01" nType="0">
        <Node pos="l" depth="1" NCoef="0" IVar="-1" Cut="0.0000000000000000e+00" cType="1" res="1.1751705314964056e-03" rms="4.8498263955116272e-01" purity="4.7209161520004272e-01" nType="-99"/>
        <Node pos="r" depth="1" NCoef="0" IVar="0" Cut="2.3994056507945061e-02" cType="0" res="-9.6319302916526794e-02" rms="3.7280139327049255e-01" purity="1.7291392385959625e-01" nType="0">
          <Node pos="l" depth="2" NCoef="0" IVar="-1" Cut="0.0000000000000000e+00" cType="1" res="-8.9394990354776382e-03" rms="4.0181216597557068e-01" purity="2.0830883085727692e-01" nType="-99"/>
          <Node pos="r" depth="2" NCoef="0" IVar="-1" Cut="0.0000000000000000e+00" cType="1" res="-2.4457784369587898e-02" rms="2.7568808197975159e-01" purity="8.5315436124801636e-02" nType="-99"/>
        </Node>
      </Node>
    </BinaryTree>
    <BinaryTree type="DecisionTree" boostWeight="1.0000000000000000e+00" itree="36">
      <Node pos="s" depth="0" NCoef="0" IVar="3" Cut="-4.9813681840896606e-01" cType="0" res="-9.9217537790536880e-03" rms="4.6500468254089355e-01" purity="4.1428908705711365e-01" nType="0">
        <Node pos="l" depth="1" NCoef="0" IVar="-1" Cut="0.0000000000000000e+00" cType="1" res="2.0261665340512991e-03" rms="4.6990296244621277e-01" purity="4.5241552591323853e-01" nType="-99"/>
        <Node pos="r" depth="1" NCoef="0" IVar="2" Cut="5.6571429967880249e-01" cType="1" res="-9.5596581697463989e-02" rms="4.3874147534370422e-01" purity="2.9779016971588135e-01" nType="0">
          <Node pos="l" depth="2" NCoef="0" IVar="-1" Cut="0.0000000000000000e+00" cType="1" res="-1.0227706283330917e-02" rms="4.4602301716804504e-01" purity="3.1741833686828613e-01" nType="-99"/>
          <Node pos="r" depth="2" NCoef="0" IVar="-1" Cut="0.0000000000000000e+00" cType="1" res="-2.3576324805617332e-02" rms="3.8422870635986328e-01" purity="1.9900837540626526e-01" nType="-99"/>
        </Node>
      </Node>
    </BinaryTree>
    <BinaryTree type="DecisionTree" boostWeight="1.0000000000000000e+00" itree="37">
      <Node pos="s" depth="0" NCoef="0" IVar="0" Cut="4.8989661037921906e-02" cType="0" res="-8.0022802576422691e-03" rms="4.6583691239356995e-01" purity="4.1632425785064697e-01" nType="0">
        <Node pos="l" depth="1" NCoef="0" IVar="-1" Cut="0.0000000000000000e+00" cType="1" res="1.2580225011333823e-03" rms="4.8220479488372803e-01" purity="4.6705448627471924e-01" nType="-99"/>
        <Node pos="r" depth="1" NCoef="0" IVar="0" Cut="2.3614553734660149e-02" cType="0" res="-1.0903845727443695e-01" rms="3.5024115443229675e-01" purity="1.4759351313114166e-01" nType="0">
          <Node pos="l" depth="2" NCoef="0" IVar="-1" Cut="0.0000000000000000e+00" cType="1" res="-1.3405466452240944e-02" rms="3.7768861651420593e-01" purity="1.7670489847660065e-01" nType="-99"/>
          <Node pos="r" depth="2" NCoef="0" IVar="-1" Cut="0.0000000000000000e+00" cType="1" res="-2.7159459888935089e-02" rms="2.6880025863647461e-01" purity="8.0486088991165161e-02" nType="-99"/>
        </Node>
      </Node>
    </BinaryTree>
    <BinaryTree type="DecisionTree" boostWeight="1.0000000000000000e+00" itree="38">
      <Node pos="s" depth="0" NCoef="0" IVar="0" Cut="2.2129990160465240e-01" cType="0" res="-1.5548151917755604e-02" rms="4.6416491270065308e-01" purity="4.0729120373725891e-01" nType="0">
        <Node pos="l" depth="1" NCoef="0" IVar="-1" Cut="0.0000000000000000e+00" cType="1" res="6.4579364843666553e-03" rms="4.8535060882568359e-01" purity="5.7105743885040283e-01" nType="-99"/>
        <Node pos="r" depth="1" NCoef="0" IVar="2" Cut="1.4359444379806519e+00" cType="1" res="-4.9468483775854111e-02" rms="4.4899740815162659e-01" purity="3.2185685634613037e-01" nType="0">
          <Node pos="l" depth="2" NCoef="0" IVar="-1" Cut="0.0000000000000000e+00" cType="1" res="-4.5718834735453129e-03" rms="4.5618233084678650e-01" purity="3.4151005744934082e-01" nType="-99"/>
          <Node pos="r" depth="2" NCoef="0" IVar="-1" Cut="0.0000000000000000e+00" cType="1" res="-1.7284492030739784e-02" rms="3.8242241740226746e-01" purity="1.9190570712089539e-01" nType="-99"/>
        </Node>
      </Node>
    </BinaryTree>
    <BinaryTree type="DecisionTree" boostWeight="1.0000000000000000e+00" itree="39">
      <Node pos="s" depth="0" NCoef="0" IVar="0" Cut="2.3444475233554840e-01" cType="0" res="-6.8660611286759377e-03" rms="4.6351736783981323e-01" purity="4.1622999310493469e-01" nType="0">
        <Node pos="l" depth="1" NCoef="0" IVar="-1" Cut="0.0000000000000000e+00" cType="1" res="7.9109380021691322e-03" rms="4.8094952106475830e-01" purity="5.8626526594161987e-01" nType="-99"/>
        <Node pos="r" depth="1" NCoef="0" IVar="3" Cut="6.8934309482574463e-01" cType="1" res="-4.0105190128087997e-02" rms="4.5103111863136292e-01" purity="3.3302396535873413e-01" nType="0">
          <Node pos="l" depth="2" NCoef="0" IVar="-1" Cut="0.0000000000000000e+00" cType="1" res="-2.8192244935780764e-03" rms="4.5782324671745300e-01" purity="3.5016468167304993e-01" nType="-99"/>
          <Node pos="r" depth="2" NCoef="0" IVar="-1" Cut="0.0000000000000000e+00" cType="1" res="-2.1833965554833412e-02" rms="3.7173792719841003e-01" purity="1.9502648711204529e-01" nType="-99"/>
        </Node>
      </Node>
    </BinaryTree>
    <BinaryTree type="DecisionTree" boostWeight="1.0000000000000000e+00" itree="40">
      <Node pos="s" depth="0" NCoef="0" IVar="3" Cut="-8.2646560668945312e-01" cType="0" res="-7.0327799767255783e-03" rms="4.6441155672073364e-01" purity="4.1448330879211426e-01" nType="0">
        <Node pos="l" depth="1" NCoef="0" IVar="-1" Cut="0.0000000000000000e+00" cType="1" res="4.0404329774901271e-04" rms="4.6859535574913025e-01" purity="4.2988595366477966e-01" nType="-99"/>
        <Node pos="r" depth="1" NCoef="0" IVar="0" Cut="1.8898001313209534e-01" cType="0" res="-2.0900709927082062e-01" rms="3.0771619081497192e-01" purity="1.0608445852994919e-01" nType="0">
          <Node pos="l" depth="2" NCoef="0" IVar="-1" Cut="0.0000000000000000e+00" cType="1" res="-2.9582023620605469e-02" rms="3.2502579689025879e-01" purity="1.1935620009899139e-01" nType="-99"/>
          <Node pos="r" depth="2" NCoef="0" IVar="-1" Cut="0.0000000000000000e+00" cType="1" res="-2.5671944022178650e-02" rms="2.7810615301132202e-01" purity="9.4140402972698212e-02" nType="-99"/>
        </Node>
      </Node>
    </BinaryTree>
    <BinaryTree type="DecisionTree" boostWeight="1.0000000000000000e+00" itree="41">
      <Node pos="s" depth="0" NCoef="0" IVar="2" Cut="-1.9418394565582275e+00" cType="0" res="-9.1772004961967468e-03" rms="4.6402227878570557e-01" purity="4.1258731484413147e-01" nType="0">
        <Node pos="l" depth="1" NCoef="0" IVar="-1" Cut="0.0000000000000000e+00" cType="1" res="3.6238812754163519e-05" rms="4.6466979384422302e-01" purity="4.2209982872009277e-01" nType="-99"/>
        <Node pos="r" depth="1" NCoef="0" IVar="1" Cut="-1.7950013875961304e+00" cType="1" res="-2.0059934258460999e-01" rms="4.0586698055267334e-01" purity="2.2070965170860291e-01" nType="0">
          <Node pos="l" depth="2" NCoef="0" IVar="-1" Cut="0.0000000000000000e+00" cType="1" res="-4.5087267644703388e-03" rms="4.6581509709358215e-01" purity="4.1195830702781677e-01" nType="-99"/>
          <Node pos="r" depth="2" NCoef="0" IVar="-1" Cut="0.0000000000000000e+00" cType="1" res="-3.1431492418050766e-02" rms="3.5572350025177002e-01" purity="1.4170530438423157e-01" nType="-99"/>
        </Node>
      </Node>
    </BinaryTree>
    <BinaryTree type="DecisionTree" boostWeight="1.0000000000000000e+00" itree="42">
      <Node pos="s" depth="0" NCoef="0" IVar="2" Cut="1.3920607566833496e+00" cType="1" res="-8.0499574542045593e-03" rms="4.6444877982139587e-01" purity="4.1309103369712830e-01" nType="0">
        <Node pos="l" depth="1" NCoef="0" IVar="-1" Cut="0.0000000000000000e+00" cType="1" res="9.0640026610344648e-04" rms="4.6887758374214172e-01" purity="4.3485471606254578e-01" nType="-99"/>
        <Node pos="r" depth="1" NCoef="0" IVar="5" Cut="8.3346360921859741e-01" cType="0" res="-1.1531652510166168e-01" rms="4.1772809624671936e-01" purity="2.6560288667678833e-01" nType="0">
          <Node pos="l" depth="2" NCoef="0" IVar="-1" Cut="0.0000000000000000e+00" cType="1" res="-8.6258593946695328e-03" rms="4.4470313191413879e-01" purity="3.2278263568878174e-01" nType="-99"/>
          <Node pos="r" depth="2" NCoef="0" IVar="-1" Cut="0.0000000000000000e+00" cType="1" res="-2.3517701774835587e-02" rms="3.4182357788085938e-01" purity="1.5063925087451935e-01" nType="-99"/>
        </Node>
      </Node>
    </BinaryTree>
    <BinaryTree type="DecisionTree" boostWeight="1.0000000000000000e+00" itree="43">
      <Node pos="s" depth="0" NCoef="0" IVar="3" Cut="-7.5355470180511475e-01" cType="0" res="-8.7133012712001801e-03" rms="4.6269544959068298e-01" purity="4.1026106476783752e-01" nType="0">
        <Node pos="l" depth="1" NCoef="0" IVar="-1" Cut="0.0000000000000000e+00" cType="1" res="4.9984693760052323e-04" rms="4.6826836466789246e-01" purity="4.3244659900665283e-01" nType="-99"/>
        <Node pos="r" depth="1" NCoef="0" IVar="0" Cut="3.9887225627899170e-01" cType="1" res="-1.4410154521465302e-01" rms="3.7433272600173950e-01" purity="1.7991866171360016e-01" nType="0">
          <Node pos="l" depth="2" NCoef="0" IVar="-1" Cut="0.0000000000000000e+00" cType="1" res="-1.6461359336972237e-02" rms="3.7631487846374512e-01" purity="1.9364236295223236e-01" nType="-99"/>
          <Node pos="r" depth="2" NCoef="0" IVar="-1" Cut="0.0000000000000000e+00" cType="1" res="-3.4419909119606018e-02" rms="3.1725746393203735e-01" purity="1.1678398400545120e-01" nType="-99"/>
        </Node>
      </Node>
    </BinaryTree>
    <BinaryTree type="DecisionTree" boostWeight="1.0000000000000000e+00" itree="44">
      <Node pos="s" depth="0" NCoef="0" IVar="0" Cut="7.5662219524383545e-01" cType="0" res="-8.9620901271700859e-03" rms="4.6138003468513489e-01" purity="4.1080334782600403e-01" nType="0">
        <Node pos="l" depth="1" NCoef="0" IVar="-1" Cut="0.0000000000000000e+00" cType="1" res="2.9558362439274788e-02" rms="3.9763936400413513e-01" purity="7.7989768981933594e-01" nType="-99"/>
        <Node pos="r" depth="1" NCoef="0" IVar="0" Cut="6.6387467086315155e-02" cType="0" res="-1.8905939534306526e-02" rms="4.6184229850769043e-01" purity="3.9324694871902466e-01" nType="0">
          <Node pos="l" depth="2" NCoef="0" IVar="-1" Cut="0.0000000000000000e+00" cType="1" res="4.3104181531816721e-04" rms="4.8534429073333740e-01" purity="4.6538490056991577e-01" nType="-99"/>
          <Node pos="r" depth="2" NCoef="0" IVar="-1" Cut="0.0000000000000000e+00" cType="1" res="-1.2718637473881245e-02" rms="3.7791049480438232e-01" purity="1.8323673307895660e-01" nType="-99"/>
        </Node>
      </Node>
    </BinaryTree>
    <BinaryTree type="DecisionTree" boostWeight="1.0000000000000000e+00" itree="45">
      <Node pos="s" depth="0" NCoef="0" IVar="5" Cut="-1.7972254753112793e+00" cType="0" res="-5.9216162189841270e-03" rms="4.6302679181098938e-01" purity="4.1419145464897156e-01" nType="0">
        <Node pos="l" depth="1" NCoef="0" IVar="-1" Cut="0.0000000000000000e+00" cType="1" res="7.5524538988247514e-04" rms="4.6440637111663818e-01" purity="4.2653393745422363e-01" nType="-99"/>
        <Node pos="r" depth="1" NCoef="0" IVar="4" Cut="3.1686192750930786e-01" cType="0" res="-1.4892195165157318e-01" rms="4.1999310255050659e-01" purity="2.6075777411460876e-01" nType="0">
          <Node pos="l" depth="2" NCoef="0" IVar="-1" Cut="0.0000000000000000e+00" cType="1" res="-8.4999138489365578e-03" rms="4.5994722843170166e-01" purity="3.3813679218292236e-01" nType="-99"/>
          <Node pos="r" depth="2" NCoef="0" IVar="-1" Cut="0.0000000000000000e+00" cType="1" res="-2.1640142425894737e-02" rms="3.8929522037506104e-01" purity="2.1581760048866272e-01" nType="-99"/>
        </Node>
      </Node>
    </BinaryTree>
    <BinaryTree type="DecisionTree" boostWeight="1.0000000000000000e+00" itree="46">
      <Node pos="s" depth="0" NCoef="0" IVar="2" Cut="2.1937489509582520e+00" cType="1" res="-1.8089095829054713e-03" rms="4.6296522021293640e-01" purity="4.1881847381591797e-01" nType="0">
        <Node pos="l" depth="1" NCoef="0" IVar="-1" Cut="0.0000000000000000e+00" cType="1" res="6.7109492374584079e-04" rms="4.6435347199440002e-01" purity="4.2779931426048279e-01" nType="-99"/>
        <Node pos="r" depth="1" NCoef="0" IVar="0" Cut="1.2162127345800400e-01" cType="0" res="-2.3947851359844208e-01" rms="3.3943262696266174e-01" purity="1.3379959762096405e-01" nType="0">
          <Node pos="l" depth="2" NCoef="0" IVar="-1" Cut="0.0000000000000000e+00" cType="1" res="-3.2352909445762634e-02" rms="3.8711184263229370e-01" purity="1.8540988862514496e-01" nType="-99"/>
          <Node pos="r" depth="2" NCoef="0" IVar="-1" Cut="0.0000000000000000e+00" cType="1" res="-2.4768697097897530e-02" rms="2.7372401952743530e-01" purity="8.3989515900611877e-02" nType="-99"/>
        </Node>
      </Node>
    </BinaryTree>
    <BinaryTree type="DecisionTree" boostWeight="1.0000000000000000e+00" itree="47">
      <Node pos="s" depth="0" NCoef="0" IVar="3" Cut="-3.3669269084930420e-01" cType="0" res="-1.3551715761423111e-02" rms="4.6111229062080383e-01" purity="4.0526485443115234e-01" nType="0">
        <Node pos="l" depth="1" NCoef="0" IVar="-1" Cut="0.0000000000000000e+00" cType="1" res="1.6634860076010227e-03" rms="4.6582901477813721e-01" purity="4.4516846537590027e-01" nType="-99"/>
        <Node pos="r" depth="1" NCoef="0" IVar="3" Cut="-8.2280844449996948e-01" cType="0" res="-7.1404576301574707e-02" rms="4.4583603739738464e-01" purity="3.2444396615028381e-01" nType="0">
          <Node pos="l" depth="2" NCoef="0" IVar="-1" Cut="0.0000000000000000e+00" cType="1" res="-6.8797250278294086e-03" rms="4.6261629462242126e-01" purity="3.6155503988265991e-01" nType="-99"/>
          <Node pos="r" depth="2" NCoef="0" IVar="-1" Cut="0.0000000000000000e+00" cType="1" res="-2.7115408331155777e-02" rms="3.0514845252037048e-01" purity="1.0538211464881897e-01" nType="-99"/>
        </Node>
      </Node>
    </BinaryTree>
    <BinaryTree type="DecisionTree" boostWeight="1.0000000000000000e+00" itree="48">
      <Node pos="s" depth="0" NCoef="0" IVar="0" Cut="2.3464614152908325e-01" cType="0" res="-4.3823597952723503e-03" rms="4.6170154213905334e-01" purity="4.1496101021766663e-01" nType="0">
        <Node pos="l" depth="1" NCoef="0" IVar="-1" Cut="0.0000000000000000e+00" cType="1" res="7.3126940988004208e-03" rms="4.7919198870658875e-01" purity="5.8461314439773560e-01" nType="-99"/>
        <Node pos="r" depth="1" NCoef="0" IVar="3" Cut="6.8974173069000244e-01" cType="1" res="-3.2735537737607956e-02" rms="4.5046058297157288e-01" purity="3.3516332507133484e-01" nType="0">
          <Node pos="l" depth="2" NCoef="0" IVar="-1" Cut="0.0000000000000000e+00" cType="1" res="-2.2823121398687363e-03" rms="4.5687758922576904e-01" purity="3.5131564736366272e-01" nType="-99"/>
          <Node pos="r" depth="2" NCoef="0" IVar="-1" Cut="0.0000000000000000e+00" cType="1" res="-1.6361201182007790e-02" rms="3.8641494512557983e-01" purity="2.1225754916667938e-01" nType="-99"/>
        </Node>
      </Node>
    </BinaryTree>
    <BinaryTree type="DecisionTree" boostWeight="1.0000000000000000e+00" itree="49">
      <Node pos="s" depth="0" NCoef="0" IVar="2" Cut="-1.7906732559204102e+00" cType="0" res="-1.0050275363028049e-02" rms="4.5991903543472290e-01" purity="4.0805202722549438e-01" nType="0">
        <Node pos="l" depth="1" NCoef="0" IVar="-1" Cut="0.0000000000000000e+00" cType="1" res="1.9858320592902601e-04" rms="4.6182870864868164e-01" purity="4.2038866877555847e-01" nType="-99"/>
        <Node pos="r" depth="1" NCoef="0" IVar="1" Cut="-1.9628760814666748e+00" cType="1" res="-1.6878265142440796e-01" rms="4.0031975507736206e-01" purity="2.3813568055629730e-01" nType="0">
          <Node pos="l" depth="2" NCoef="0" IVar="-1" Cut="0.0000000000000000e+00" cType="1" res="4.5908428728580475e-04" rms="4.6356147527694702e-01" purity="4.4436517357826233e-01" nType="-99"/>
          <Node pos="r" depth="2" NCoef="0" IVar="-1" Cut="0.0000000000000000e+00" cType="1" res="-2.5919262319803238e-02" rms="3.6734995245933533e-01" purity="1.8160031735897064e-01" nType="-99"/>
        </Node>
      </Node>
    </BinaryTree>
    <BinaryTree type="DecisionTree" boostWeight="1.0000000000000000e+00" itree="50">
      <Node pos="s" depth="0" NCoef="0" IVar="2" Cut="-1.9136734008789062e+00" cType="0" res="-2.8619673103094101e-03" rms="4.6194911003112793e-01" purity="4.1571635007858276e-01" nType="0">
        <Node pos="l" depth="1" NCoef="0" IVar="-1" Cut="0.0000000000000000e+00" cType="1" res="7.3380389949306846e-04" rms="4.6299180388450623e-01" purity="4.2570766806602478e-01" nType="-99"/>
        <Node pos="r" depth="1" NCoef="0" IVar="1" Cut="-1.8993778228759766e+00" cType="1" res="-1.6810569167137146e-01" rms="4.0885496139526367e-01" purity="2.3527888953685760e-01" nType="0">
          <Node pos="l" depth="2" NCoef="0" IVar="-1" Cut="0.0000000000000000e+00" cType="1" res="5.4515916417585686e-05" rms="4.6453031897544861e-01" purity="4.4770631194114685e-01" nType="-99"/>
          <Node pos="r" depth="2" NCoef="0" IVar="-1" Cut="0.0000000000000000e+00" cType="1" res="-2.5433385744690895e-02" rms="3.7048316001892090e-01" purity="1.6209208965301514e-01" nType="-99"/>
        </Node>
      </Node>
    </BinaryTree>
    <BinaryTree type="DecisionTree" boostWeight="1.0000000000000000e+00" itree="51">
      <Node pos="s" depth="0" NCoef="0" IVar="0" Cut="6.1077475547790527e-01" cType="0" res="-3.1836938578635454e-03" rms="4.6221378445625305e-01" purity="4.1635146737098694e-01" nType="0">
        <Node pos="l" depth="1" NCoef="0" IVar="-1" Cut="0.0000000000000000e+00" cType="1" res="2.0744573324918747e-02" rms="4.2578196525573730e-01" purity="7.2284561395645142e-01" nType="-99"/>
        <Node pos="r" depth="1" NCoef="0" IVar="5" Cut="-1.8070212602615356e+00" cType="0" res="-1.4334753155708313e-02" rms="4.6290600299835205e-01" purity="3.9338514208793640e-01" nType="0">
          <Node pos="l" depth="2" NCoef="0" IVar="-1" Cut="0.0000000000000000e+00" cType="1" res="-5.7801324874162674e-04" rms="4.6515139937400818e-01" purity="4.0504944324493408e-01" nType="-99"/>
          <Node pos="r" depth="2" NCoef="0" IVar="-1" Cut="0.0000000000000000e+00" cType="1" res="-1.7428077757358551e-02" rms="4.1105535626411438e-01" purity="2.4119715392589569e-01" nType="-99"/>
        </Node>
      </Node>
    </BinaryTree>
    <BinaryTree type="DecisionTree" boostWeight="1.0000000000000000e+00" itree="52">
      <Node pos="s" depth="0" NCoef="0" IVar="2" Cut="1.4263161420822144e+00" cType="1" res="-1.0024096816778183e-02" rms="4.6060678362846375e-01" purity="4.0855705738067627e-01" nType="0">
        <Node pos="l" depth="1" NCoef="0" IVar="-1" Cut="0.0000000000000000e+00" cType="1" res="4.5149755897000432e-04" rms="4.6447715163230896e-01" purity="4.2816758155822754e-01" nType="-99"/>
        <Node pos="r" depth="1" NCoef="0" IVar="1" Cut="9.2181664705276489e-01" cType="0" res="-1.0916663706302643e-01" rms="4.1787233948707581e-01" purity="2.6407989859580994e-01" nType="0">
          <Node pos="l" depth="2" NCoef="0" IVar="-1" Cut="0.0000000000000000e+00" cType="1" res="-7.9495217651128769e-03" rms="4.4486960768699646e-01" purity="3.1508034467697144e-01" nType="-99"/>
          <Node pos="r" depth="2" NCoef="0" IVar="-1" Cut="0.0000000000000000e+00" cType="1" res="-2.0888509228825569e-02" rms="3.5911610722541809e-01" purity="1.8084922432899475e-01" nType="-99"/>
        </Node>
      </Node>
    </BinaryTree>
    <BinaryTree type="DecisionTree" boostWeight="1.0000000000000000e+00" itree="53">
      <Node pos="s" depth="0" NCoef="0" IVar="3" Cut="-8.2646560668945312e-01" cType="0" res="-5.6263683363795280e-03" rms="4.5938789844512939e-01" purity="4.1162887215614319e-01" nType="0">
        <Node pos="l" depth="1" NCoef="0" IVar="-1" Cut="0.0000000000000000e+00" cType="1" res="4.3183617526665330e-04" rms="4.6433544158935547e-01" purity="4.2765432596206665e-01" nType="-99"/>
        <Node pos="r" depth="1" NCoef="0" IVar="0" Cut="1.8882395327091217e-01" cType="0" res="-1.7674706876277924e-01" rms="3.0496457219123840e-01" purity="1.0579970479011536e-01" nType="0">
          <Node pos="l" depth="2" NCoef="0" IVar="-1" Cut="0.0000000000000000e+00" cType="1" res="-2.7879206463694572e-02" rms="3.1704071164131165e-01" purity="1.1252113431692123e-01" nType="-99"/>
          <Node pos="r" depth="2" NCoef="0" IVar="-1" Cut="0.0000000000000000e+00" cType="1" res="-2.2481614723801613e-02" rms="2.8297936916351318e-01" purity="1.0078898072242737e-01" nType="-99"/>
        </Node>
      </Node>
    </BinaryTree>
    <BinaryTree type="DecisionTree" boostWeight="1.0000000000000000e+00" itree="54">
      <Node pos="s" depth="0" NCoef="0" IVar="3" Cut="-4.9813681840896606e-01" cType="0" res="6.3984328880906105e-03" rms="4.6018561720848083e-01" purity="4.2197814583778381e-01" nType="0">
        <Node pos="l" depth="1" NCoef="0" IVar="-1" Cut="0.0000000000000000e+00" cType="1" res="3.3151747193187475e-03" rms="4.6517586708068848e-01" purity="4.5874023437500000e-01" nType="-99"/>
        <Node pos="r" depth="1" NCoef="0" IVar="5" Cut="1.3608857393264771e+00" cType="1" res="-6.4728893339633942e-02" rms="4.3672487139701843e-01" purity="3.0769267678260803e-01" nType="0">
          <Node pos="l" depth="2" NCoef="0" IVar="-1" Cut="0.0000000000000000e+00" cType="1" res="-6.0163387097418308e-03" rms="4.4479992985725403e-01" purity="3.3284634351730347e-01" nType="-99"/>
          <Node pos="r" depth="2" NCoef="0" IVar="-1" Cut="0.0000000000000000e+00" cType="1" res="-2.2454109042882919e-02" rms="3.8090106844902039e-01" purity="1.9364556670188904e-01" nType="-99"/>
        </Node>
      </Node>
    </BinaryTree>
    <BinaryTree type="DecisionTree" boostWeight="1.0000000000000000e+00" itree="55">
      <Node pos="s" depth="0" NCoef="0" IVar="2" Cut="-1.6709306240081787e+00" cType="0" res="-4.4688433408737183e-03" rms="4.6098935604095459e-01" purity="4.1436159610748291e-01" nType="0">
        <Node pos="l" depth="1" NCoef="0" IVar="-1" Cut="0.0000000000000000e+00" cType="1" res="8.9651584858074784e-04" rms="4.6240937709808350e-01" purity="4.2785483598709106e-01" nType="-99"/>
        <Node pos="r" depth="1" NCoef="0" IVar="1" Cut="-1.9637416601181030e+00" cType="1" res="-1.3192926347255707e-01" rms="4.2529597878456116e-01" purity="2.7183726429939270e-01" nType="0">
          <Node pos="l" depth="2" NCoef="0" IVar="-1" Cut="0.0000000000000000e+00" cType="1" res="1.7389970598742366e-03" rms="4.7593384981155396e-01" purity="4.5306062698364258e-01" nType="-99"/>
          <Node pos="r" depth="2" NCoef="0" IVar="-1" Cut="0.0000000000000000e+00" cType="1" res="-2.1018017083406448e-02" rms="4.0149584412574768e-01" purity="2.2212769091129303e-01" nType="-99"/>
        </Node>
      </Node>
    </BinaryTree>
    <BinaryTree type="DecisionTree" boostWeight="1.0000000000000000e+00" itree="56">
      <Node pos="s" depth="0" NCoef="0" IVar="2" Cut="1.4194723367691040e+00" cType="1" res="3.7898218724876642e-03" rms="4.6179109811782837e-01" purity="4.2037987709045410e-01" nType="0">
        <Node pos="l" depth="1" NCoef="0" IVar="-1" Cut="0.0000000000000000e+00" cType="1" res="2.4032178334891796e-03" rms="4.6585631370544434e-01" purity="4.4083321094512939e-01" nType="-99"/>
        <Node pos="r" depth="1" NCoef="0" IVar="2" Cut="2.2482693195343018e+00" cType="1" res="-1.0093169659376144e-01" rms="4.1537532210350037e-01" purity="2.6696574687957764e-01" nType="0">
          <Node pos="l" depth="2" NCoef="0" IVar="-1" Cut="0.0000000000000000e+00" cType="1" res="-8.4850173443555832e-03" rms="4.2781487107276917e-01" purity="3.0060526728630066e-01" nType="-99"/>
          <Node pos="r" depth="2" NCoef="0" IVar="-1" Cut="0.0000000000000000e+00" cType="1" res="-2.8968600556254387e-02" rms="3.1798386573791504e-01" purity="1.0812688618898392e-01" nType="-99"/>
        </Node>
      </Node>
    </BinaryTree>
    <BinaryTree type="DecisionTree" boostWeight="1.0000000000000000e+00" itree="57">
      <Node pos="s" depth="0" NCoef="0" IVar="2" Cut="-1.6025903224945068e+00" cType="0" res="-6.1299568042159081e-03" rms="4.6140295267105103e-01" purity="4.1095033288002014e-01" nType="0">
        <Node pos="l" depth="1" NCoef="0" IVar="-1" Cut="0.0000000000000000e+00" cType="1" res="8.2888832548633218e-04" rms="4.6231395006179810e-01" purity="4.2462593317031860e-01" nType="-99"/>
        <Node pos="r" depth="1" NCoef="0" IVar="1" Cut="-3.1600579619407654e-01" cType="1" res="-1.1904578655958176e-01" rms="4.3710890412330627e-01" purity="2.8611257672309875e-01" nType="0">
          <Node pos="l" depth="2" NCoef="0" IVar="-1" Cut="0.0000000000000000e+00" cType="1" res="-1.0327774100005627e-02" rms="4.5225036144256592e-01" purity="3.2120418548583984e-01" nType="-99"/>
          <Node pos="r" depth="2" NCoef="0" IVar="-1" Cut="0.0000000000000000e+00" cType="1" res="-3.4935865551233292e-02" rms="3.4283953905105591e-01" purity="1.4195762574672699e-01" nType="-99"/>
        </Node>
      </Node>
    </BinaryTree>
    <BinaryTree type="DecisionTree" boostWeight="1.0000000000000000e+00" itree="58">
      <Node pos="s" depth="0" NCoef="0" IVar="3" Cut="-8.3945429325103760e-01" cType="0" res="1.0533076419960707e-04" rms="4.6130138635635376e-01" purity="4.1926825046539307e-01" nType="0">
        <Node pos="l" depth="1" NCoef="0" IVar="-1" Cut="0.0000000000000000e+00" cType="1" res="9.2984951334074140e-04" rms="4.6574050188064575e-01" purity="4.3344965577125549e-01" nType="-99"/>
        <Node pos="r" depth="1" NCoef="0" IVar="3" Cut="-9.0306633710861206e-01" cType="1" res="-1.7896454036235809e-01" rms="2.9138815402984619e-01" purity="9.3861721456050873e-02" nType="0">
          <Node pos="l" depth="2" NCoef="0" IVar="-1" Cut="0.0000000000000000e+00" cType="1" res="-1.3342868536710739e-02" rms="3.9815801382064819e-01" purity="1.9939242303371429e-01" nType="-99"/>
          <Node pos="r" depth="2" NCoef="0" IVar="-1" Cut="0.0000000000000000e+00" cType="1" res="-3.3760908991098404e-02" rms="1.9169908761978149e-01" purity="3.3183157444000244e-02" nType="-99"/>
        </Node>
      </Node>
    </BinaryTree>
    <BinaryTree type="DecisionTree" boostWeight="1.0000000000000000e+00" itree="59">
      <Node pos="s" depth="0" NCoef="0" IVar="2" Cut="-1.6402701139450073e+00" cType="0" res="-7.5331893749535084e-03" rms="4.5854532718658447e-01" purity="4.0975815057754517e-01" nType="0">
        <Node pos="l" depth="1" NCoef="0" IVar="-1" Cut="0.0000000000000000e+00" cType="1" res="6.0133147053420544e-04" rms="4.6019071340560913e-01" purity="4.2508968710899353e-01" nType="-99"/>
        <Node pos="r" depth="1" NCoef="0" IVar="2" Cut="-2.2476034164428711e+00" cType="0" res="-1.3054847717285156e-01" rms="4.2282566428184509e-01" purity="2.5961309671401978e-01" nType="0">
          <Node pos="l" depth="2" NCoef="0" IVar="-1" Cut="0.0000000000000000e+00" cType="1" res="-1.2078378349542618e-02" rms="4.4039767980575562e-01" purity="2.9502624273300171e-01" nType="-99"/>
          <Node pos="r" depth="2" NCoef="0" IVar="-1" Cut="0.0000000000000000e+00" cType="1" res="-2.6790635660290718e-02" rms="3.1411468982696533e-01" purity="1.2040074169635773e-01" nType="-99"/>
        </Node>
      </Node>
    </BinaryTree>
    <BinaryTree type="DecisionTree" boostWeight="1.0000000000000000e+00" itree="60">
      <Node pos="s" depth="0" NCoef="0" IVar="3" Cut="-5.3382468223571777e-01" cType="0" res="-6.2091774307191372e-03" rms="4.6013280749320984e-01" purity="4.1188505291938782e-01" nType="0">
        <Node pos="l" depth="1" NCoef="0" IVar="-1" Cut="0.0000000000000000e+00" cType="1" res="1.8136281287297606e-03" rms="4.6617302298545837e-01" purity="4.4782963395118713e-01" nType="-99"/>
        <Node pos="r" depth="1" NCoef="0" IVar="2" Cut="-6.6915857791900635e-01" cType="0" res="-8.2500331103801727e-02" rms="4.2976209521293640e-01" purity="2.8635516762733459e-01" nType="0">
          <Node pos="l" depth="2" NCoef="0" IVar="-1" Cut="0.0000000000000000e+00" cType="1" res="-8.6887497454881668e-03" rms="4.3636530637741089e-01" purity="3.0589476227760315e-01" nType="-99"/>
          <Node pos="r" depth="2" NCoef="0" IVar="-1" Cut="0.0000000000000000e+00" cType="1" res="-3.2348643988370895e-02" rms="3.4630376100540161e-01" purity="1.4286369085311890e-01" nType="-99"/>
        </Node>
      </Node>
    </BinaryTree>
    <BinaryTree type="DecisionTree" boostWeight="1.0000000000000000e+00" itree="61">
      <Node pos="s" depth="0" NCoef="0" IVar="5" Cut="-1.1937299966812134e+00" cType="0" res="6.5281352726742625e-04" rms="4.5979183912277222e-01" purity="4.1783750057220459e-01" nType="0">
        <Node pos="l" depth="1" NCoef="0" IVar="-1" Cut="0.0000000000000000e+00" cType="1" res="2.0965391304343939e-03" rms="4.6371975541114807e-01" purity="4.3967124819755554e-01" nType="-99"/>
        <Node pos="r" depth="1" NCoef="0" IVar="4" Cut="6.4934682846069336e-01" cType="0" res="-8.2446783781051636e-02" rms="4.3044757843017578e-01" purity="3.1063038110733032e-01" nType="0">
          <Node pos="l" depth="2" NCoef="0" IVar="-1" Cut="0.0000000000000000e+00" cType="1" res="9.0240370482206345e-03" rms="4.6217355132102966e-01" purity="4.6112990379333496e-01" nType="-99"/>
          <Node pos="r" depth="2" NCoef="0" IVar="-1" Cut="0.0000000000000000e+00" cType="1" res="-1.2919603846967220e-02" rms="4.1542598605155945e-01" purity="2.7602252364158630e-01" nType="-99"/>
        </Node>
      </Node>
    </BinaryTree>
    <BinaryTree type="DecisionTree" boostWeight="1.0000000000000000e+00" itree="62">
      <Node pos="s" depth="0" NCoef="0" IVar="0" Cut="7.5321263074874878e-01" cType="0" res="-6.6996072418987751e-03" rms="4.5937612652778625e-01" purity="4.0846228599548340e-01" nType="0">
        <Node pos="l" depth="1" NCoef="0" IVar="-1" Cut="0.0000000000000000e+00" cType="1" res="2.2389577701687813e-02" rms="4.0667790174484253e-01" purity="7.5421983003616333e-01" nType="-99"/>
        <Node pos="r" depth="1" NCoef="0" IVar="2" Cut="-1.9637323617935181e+00" cType="0" res="-1.4428193680942059e-02" rms="4.6037009358406067e-01" purity="3.9173212647438049e-01" nType="0">
          <Node pos="l" depth="2" NCoef="0" IVar="-1" Cut="0.0000000000000000e+00" cType="1" res="-9.5660419901832938e-04" rms="4.6287602186203003e-01" purity="4.0124076604843140e-01" nType="-99"/>
          <Node pos="r" depth="2" NCoef="0" IVar="-1" Cut="0.0000000000000000e+00" cType="1" res="-1.9624343141913414e-02" rms="3.8043850660324097e-01" purity="2.0428407192230225e-01" nType="-99"/>
        </Node>
      </Node>
    </BinaryTree>
    <BinaryTree type="DecisionTree" boostWeight="1.0000000000000000e+00" itree="63">
      <Node pos="s" depth="0" NCoef="0" IVar="2" Cut="1.7718932628631592e+00" cType="1" res="6.8349530920386314e-04" rms="4.5784872770309448e-01" purity="4.1788896918296814e-01" nType="0">
        <Node pos="l" depth="1" NCoef="0" IVar="-1" Cut="0.0000000000000000e+00" cType="1" res="1.6128908609971404e-03" rms="4.6116787195205688e-01" purity="4.3529042601585388e-01" nType="-99"/>
        <Node pos="r" depth="1" NCoef="0" IVar="5" Cut="9.8180466890335083e-01" cType="0" res="-1.3572174310684204e-01" rms="3.9554885029792786e-01" purity="2.3059278726577759e-01" nType="0">
          <Node pos="l" depth="2" NCoef="0" IVar="-1" Cut="0.0000000000000000e+00" cType="1" res="-1.0149459354579449e-02" rms="4.3224385380744934e-01" purity="3.0726903676986694e-01" nType="-99"/>
          <Node pos="r" depth="2" NCoef="0" IVar="-1" Cut="0.0000000000000000e+00" cType="1" res="-2.4678820744156837e-02" rms="3.0394676327705383e-01" purity="1.0572846978902817e-01" nType="-99"/>
        </Node>
      </Node>
    </BinaryTree>
    <BinaryTree type="DecisionTree" boostWeight="1.0000000000000000e+00" itree="64">
      <Node pos="s" depth="0" NCoef="0" IVar="2" Cut="1.4219999313354492e+00" cType="1" res="-7.2912564501166344e-03" rms="4.5914733409881592e-01" purity="4.0902331471443176e-01" nType="0">
        <Node pos="l" depth="1" NCoef="0" IVar="-1" Cut="0.0000000000000000e+00" cType="1" res="9.1606337809935212e-04" rms="4.6414852142333984e-01" purity="4.3224039673805237e-01" nType="-99"/>
        <Node pos="r" depth="1" NCoef="0" IVar="1" Cut="9.2127478122711182e-01" cType="0" res="-1.1129688471555710e-01" rms="4.0808701515197754e-01" purity="2.4864025413990021e-01" nType="0">
          <Node pos="l" depth="2" NCoef="0" IVar="-1" Cut="0.0000000000000000e+00" cType="1" res="-7.9122912138700485e-03" rms="4.3672144412994385e-01" purity="3.0293369293212891e-01" nType="-99"/>
          <Node pos="r" depth="2" NCoef="0" IVar="-1" Cut="0.0000000000000000e+00" cType="1" res="-2.0397482439875603e-02" rms="3.5077917575836182e-01" purity="1.6759182512760162e-01" nType="-99"/>
        </Node>
      </Node>
    </BinaryTree>
    <BinaryTree type="DecisionTree" boostWeight="1.0000000000000000e+00" itree="65">
      <Node pos="s" depth="0" NCoef="0" IVar="3" Cut="-1.5504717826843262e-01" cType="0" res="3.7319688126444817e-03" rms="4.6046361327171326e-01" purity="4.2109382152557373e-01" nType="0">
        <Node pos="l" depth="1" NCoef="0" IVar="-1" Cut="0.0000000000000000e+00" cType="1" res="4.0489286184310913e-03" rms="4.5965415239334106e-01" purity="4.6321171522140503e-01" nType="-99"/>
        <Node pos="r" depth="1" NCoef="0" IVar="5" Cut="1.3811380863189697e+00" cType="1" res="-3.9002031087875366e-02" rms="4.5797094702720642e-01" purity="3.6695116758346558e-01" nType="0">
          <Node pos="l" depth="2" NCoef="0" IVar="-1" Cut="0.0000000000000000e+00" cType="1" res="-2.6313581038266420e-03" rms="4.6446099877357483e-01" purity="3.9205038547515869e-01" nType="-99"/>
          <Node pos="r" depth="2" NCoef="0" IVar="-1" Cut="0.0000000000000000e+00" cType="1" res="-1.6963167116045952e-02" rms="4.1049724817276001e-01" purity="2.4288505315780640e-01" nType="-99"/>
        </Node>
      </Node>
    </BinaryTree>
    <BinaryTree type="DecisionTree" boostWeight="1.0000000000000000e+00" itree="66">
      <Node pos="s" depth="0" NCoef="0" IVar="0" Cut="3.9847414940595627e-02" cType="0" res="-1.3494479935616255e-03" rms="4.5915472507476807e-01" purity="4.1396626830101013e-01" nType="0">
        <Node pos="l" depth="1" NCoef="0" IVar="-1" Cut="0.0000000000000000e+00" cType="1" res="1.3606640277430415e-03" rms="4.7216424345970154e-01" purity="4.5200392603874207e-01" nType="-99"/>
        <Node pos="r" depth="1" NCoef="0" IVar="4" Cut="4.1760873794555664e-01" cType="0" res="-9.9513880908489227e-02" rms="3.3047664165496826e-01" purity="1.2926629185676575e-01" nType="0">
          <Node pos="l" depth="2" NCoef="0" IVar="-1" Cut="0.0000000000000000e+00" cType="1" res="-5.8022509329020977e-03" rms="3.9353486895561218e-01" purity="1.9937898218631744e-01" nType="-99"/>
          <Node pos="r" depth="2" NCoef="0" IVar="-1" Cut="0.0000000000000000e+00" cType="1" res="-2.1391345188021660e-02" rms="2.9217293858528137e-01" purity="9.6912279725074768e-02" nType="-99"/>
        </Node>
      </Node>
    </BinaryTree>
    <BinaryTree type="DecisionTree" boostWeight="1.0000000000000000e+00" itree="67">
      <Node pos="s" depth="0" NCoef="0" IVar="0" Cut="6.6528402268886566e-02" cType="0" res="3.7191912997514009e-03" rms="4.5896598696708679e-01" purity="4.1993331909179688e-01" nType="0">
        <Node pos="l" depth="1" NCoef="0" IVar="-1" Cut="0.0000000000000000e+00" cType="1" res="3.0555075500160456e-03" rms="4.7899159789085388e-01" purity="4.9471330642700195e-01" nType="-99"/>
        <Node pos="r" depth="1" NCoef="0" IVar="4" Cut="7.9207402467727661e-01" cType="0" res="-6.7655295133590698e-02" rms="3.8158655166625977e-01" purity="1.8780401349067688e-01" nType="0">
          <Node pos="l" depth="2" NCoef="0" IVar="-1" Cut="0.0000000000000000e+00" cType="1" res="2.1102612372487783e-03" rms="4.3629199266433716e-01" purity="2.8045347332954407e-01" nType="-99"/>
          <Node pos="r" depth="2" NCoef="0" IVar="-1" Cut="0.0000000000000000e+00" cType="1" res="-1.1312865652143955e-02" rms="3.7233579158782959e-01" purity="1.7540682852268219e-01" nType="-99"/>
        </Node>
      </Node>
    </BinaryTree>
    <BinaryTree type="DecisionTree" boostWeight="1.0000000000000000e+00" itree="68">
      <Node pos="s" depth="0" NCoef="0" IVar="3" Cut="-3.8081508874893188e-01" cType="0" res="-7.7077624155208468e-04" rms="4.5884796977043152e-01" purity="4.1559875011444092e-01" nType="0">
        <Node pos="l" depth="1" NCoef="0" IVar="-1" Cut="0.0000000000000000e+00" cType="1" res="2.6326526422053576e-03" rms="4.6317416429519653e-01" purity="4.5358484983444214e-01" nType="-99"/>
        <Node pos="r" depth="1" NCoef="0" IVar="5" Cut="1.6120564937591553e+00" cType="1" res="-5.2491664886474609e-02" rms="4.4489336013793945e-01" purity="3.3263841271400452e-01" nType="0">
          <Node pos="l" depth="2" NCoef="0" IVar="-1" Cut="0.0000000000000000e+00" cType="1" res="-4.2572882957756519e-03" rms="4.5293468236923218e-01" purity="3.5990166664123535e-01" nType="-99"/>
          <Node pos="r" depth="2" NCoef="0" IVar="-1" Cut="0.0000000000000000e+00" cType="1" res="-2.2175561636686325e-02" rms="3.7024334073066711e-01" purity="1.7619575560092926e-01" nType="-99"/>
        </Node>
      </Node>
    </BinaryTree>
    <BinaryTree type="DecisionTree" boostWeight="1.0000000000000000e+00" itree="69">
      <Node pos="s" depth="0" NCoef="0" IVar="3" Cut="-3.7286919355392456e-01" cType="0" res="-6.3982079154811800e-05" rms="4.5676365494728088e-01" purity="4.1658583283424377e-01" nType="0">
        <Node pos="l" depth="1" NCoef="0" IVar="-1" Cut="0.0000000000000000e+00" cType="1" res="3.2410488929599524e-03" rms="4.6150434017181396e-01" purity="4.6029996871948242e-01" nType="-99"/>
        <Node pos="r" depth="1" NCoef="0" IVar="2" Cut="-7.8779232501983643e-01" cType="0" res="-6.0841705650091171e-02" rms="4.4022870063781738e-01" purity="3.2186111807823181e-01" nType="0">
          <Node pos="l" depth="2" NCoef="0" IVar="-1" Cut="0.0000000000000000e+00" cType="1" res="-6.6182198934257030e-03" rms="4.4277018308639526e-01" purity="3.3352857828140259e-01" nType="-99"/>
          <Node pos="r" depth="2" NCoef="0" IVar="-1" Cut="0.0000000000000000e+00" cType="1" res="-2.2705035284161568e-02" rms="3.9986434578895569e-01" purity="2.2154358029365540e-01" nType="-99"/>
        </Node>
      </Node>
    </BinaryTree>
    <BinaryTree type="DecisionTree" boostWeight="1.0000000000000000e+00" itree="70">
      <Node pos="s" depth="0" NCoef="0" IVar="0" Cut="1.3979989290237427e-01" cType="0" res="4.6353830839507282e-04" rms="4.5609983801841736e-01" purity="4.1576963663101196e-01" nType="0">
        <Node pos="l" depth="1" NCoef="0" IVar="-1" Cut="0.0000000000000000e+00" cType="1" res="3.8851578719913960e-03" rms="4.7879809141159058e-01" purity="5.5012392997741699e-01" nType="-99"/>
        <Node pos="r" depth="1" NCoef="0" IVar="5" Cut="-1.7975070476531982e+00" cType="0" res="-3.7126466631889343e-02" rms="4.2768570780754089e-01" purity="2.7421450614929199e-01" nType="0">
          <Node pos="l" depth="2" NCoef="0" IVar="-1" Cut="0.0000000000000000e+00" cType="1" res="-3.6993508692830801e-03" rms="4.3329766392707825e-01" purity="2.8731507062911987e-01" nType="-99"/>
          <Node pos="r" depth="2" NCoef="0" IVar="-1" Cut="0.0000000000000000e+00" cType="1" res="-1.8892258405685425e-02" rms="3.3610469102859497e-01" purity="1.2628020346164703e-01" nType="-99"/>
        </Node>
      </Node>
    </BinaryTree>
    <BinaryTree type="DecisionTree" boostWeight="1.0000000000000000e+00" itree="71">
      <Node pos="s" depth="0" NCoef="0" IVar="2" Cut="1.4333688020706177e+00" cType="1" res="2.2956344764679670e-03" rms="4.5897108316421509e-01" purity="4.1928446292877197e-01" nType="0">
        <Node pos="l" depth="1" NCoef="0" IVar="-1" Cut="0.0000000000000000e+00" cType="1" res="1.8829675391316414e-03" rms="4.6336919069290161e-01" purity="4.4020825624465942e-01" nType="-99"/>
        <Node pos="r" depth="1" NCoef="0" IVar="5" Cut="9.6180540323257446e-01" cType="0" res="-9.7641378641128540e-02" rms="4.1074967384338379e-01" purity="2.6129919290542603e-01" nType="0">
          <Node pos="l" depth="2" NCoef="0" IVar="-1" Cut="0.0000000000000000e+00" cType="1" res="-7.1218395605683327e-03" rms="4.3922421336174011e-01" purity="3.2441353797912598e-01" nType="-99"/>
          <Node pos="r" depth="2" NCoef="0" IVar="-1" Cut="0.0000000000000000e+00" cType="1" res="-1.9229626283049583e-02" rms="3.5099902749061584e-01" purity="1.6416625678539276e-01" nType="-99"/>
        </Node>
      </Node>
    </BinaryTree>
    <BinaryTree type="DecisionTree" boostWeight="1.0000000000000000e+00" itree="72">
      <Node pos="s" depth="0" NCoef="0" IVar="0" Cut="8.0716989934444427e-02" cType="0" res="-1.1222588364034891e-03" rms="4.5776191353797913e-01" purity="4.1824802756309509e-01" nType="0">
        <Node pos="l" depth="1" NCoef="0" IVar="-1" Cut="0.0000000000000000e+00" cType="1" res="2.3531818296760321e-03" rms="4.7889244556427002e-01" purity="5.0267732143402100e-01" nType="-99"/>
        <Node pos="r" depth="1" NCoef="0" IVar="3" Cut="6.8930941820144653e-01" cType="1" res="-5.4705932736396790e-02" rms="3.9672917127609253e-01" purity="2.1306474506855011e-01" nType="0">
          <Node pos="l" depth="2" NCoef="0" IVar="-1" Cut="0.0000000000000000e+00" cType="1" res="-6.5181115642189980e-03" rms="4.1080302000045776e-01" purity="2.3164011538028717e-01" nType="-99"/>
          <Node pos="r" depth="2" NCoef="0" IVar="-1" Cut="0.0000000000000000e+00" cType="1" res="-2.4885321035981178e-02" rms="2.4205948412418365e-01" purity="6.8161770701408386e-02" nType="-99"/>
        </Node>
      </Node>
    </BinaryTree>
    <BinaryTree type="DecisionTree" boostWeight="1.0000000000000000e+00" itree="73">
      <Node pos="s" depth="0" NCoef="0" IVar="0" Cut="5.3890038281679153e-02" cType="0" res="-3.0810508178547025e-04" rms="4.5647913217544556e-01" purity="4.1522833704948425e-01" nType="0">
        <Node pos="l" depth="1" NCoef="0" IVar="-1" Cut="0.0000000000000000e+00" cType="1" res="1.8076120177283883e-03" rms="4.7519019246101379e-01" purity="4.7432455420494080e-01" nType="-99"/>
        <Node pos="r" depth="1" NCoef="0" IVar="3" Cut="5.8294284343719482e-01" cType="1" res="-7.1296706795692444e-02" rms="3.5468253493309021e-01" purity="1.5628656744956970e-01" nType="0">
          <Node pos="l" depth="2" NCoef="0" IVar="-1" Cut="0.0000000000000000e+00" cType="1" res="-9.1429520398378372e-03" rms="3.7757480144500732e-01" purity="1.8015362322330475e-01" nType="-99"/>
          <Node pos="r" depth="2" NCoef="0" IVar="-1" Cut="0.0000000000000000e+00" cType="1" res="-2.8867987915873528e-02" rms="1.7420268058776855e-01" purity="3.1614098697900772e-02" nType="-99"/>
        </Node>
      </Node>
    </BinaryTree>
    <BinaryTree type="DecisionTree" boostWeight="1.0000000000000000e+00" itree="74">
      <Node pos="s" depth="0" NCoef="0" IVar="3" Cut="-1.5504717826843262e-01" cType="0" res="-5.4491199553012848e-03" rms="4.5777839422225952e-01" purity="4.1061931848526001e-01" nType="0">
        <Node pos="l" depth="1" NCoef="0" IVar="-1" Cut="0.0000000000000000e+00" cType="1" res="2.2437961306422949e-03" rms="4.5889571309089661e-01" purity="4.4964441657066345e-01" nType="-99"/>
        <Node pos="r" depth="1" NCoef="0" IVar="5" Cut="-1.7968326807022095e+00" cType="0" res="-3.9137490093708038e-02" rms="4.5411199331283569e-01" purity="3.5945051908493042e-01" nType="0">
          <Node pos="l" depth="2" NCoef="0" IVar="-1" Cut="0.0000000000000000e+00" cType="1" res="-3.6046353634446859e-03" rms="4.5830622315406799e-01" purity="3.7622600793838501e-01" nType="-99"/>
          <Node pos="r" depth="2" NCoef="0" IVar="-1" Cut="0.0000000000000000e+00" cType="1" res="-1.6613008454442024e-02" rms="3.9748534560203552e-01" purity="2.1300838887691498e-01" nType="-99"/>
        </Node>
      </Node>
    </BinaryTree>
    <BinaryTree type="DecisionTree" boostWeight="1.0000000000000000e+00" itree="75">
      <Node pos="s" depth="0" NCoef="0" IVar="0" Cut="1.2140533328056335e-01" cType="0" res="-3.4417777787894011e-03" rms="4.5522436499595642e-01" purity="4.1228395700454712e-01" nType="0">
        <Node pos="l" depth="1" NCoef="0" IVar="-1" Cut="0.0000000000000000e+00" cType="1" res="2.7281714137643576e-03" rms="4.8062583804130554e-01" purity="5.3691041469573975e-01" nType="-99"/>
        <Node pos="r" depth="1" NCoef="0" IVar="3" Cut="5.7078492641448975e-01" cType="1" res="-4.0242329239845276e-02" rms="4.1713628172874451e-01" purity="2.5066596269607544e-01" nType="0">
          <Node pos="l" depth="2" NCoef="0" IVar="-1" Cut="0.0000000000000000e+00" cType="1" res="-3.3189158421009779e-03" rms="4.3313381075859070e-01" purity="2.7642050385475159e-01" nType="-99"/>
          <Node pos="r" depth="2" NCoef="0" IVar="-1" Cut="0.0000000000000000e+00" cType="1" res="-1.7272129654884338e-02" rms="3.2066518068313599e-01" purity="1.2951545417308807e-01" nType="-99"/>
        </Node>
      </Node>
    </BinaryTree>
    <BinaryTree type="DecisionTree" boostWeight="1.0000000000000000e+00" itree="76">
      <Node pos="s" depth="0" NCoef="0" IVar="0" Cut="9.1400068998336792e-01" cType="0" res="-8.7728518992662430e-03" rms="4.5624408125877380e-01" purity="4.0623182058334351e-01" nType="0">
        <Node pos="l" depth="1" NCoef="0" IVar="-1" Cut="0.0000000000000000e+00" cType="1" res="3.1947225332260132e-02" rms="3.6201709508895874e-01" purity="8.2890099287033081e-01" nType="-99"/>
        <Node pos="r" depth="1" NCoef="0" IVar="2" Cut="1.4253087043762207e+00" cType="1" res="-1.4642445370554924e-02" rms="4.5730680227279663e-01" purity="3.9412647485733032e-01" nType="0">
          <Node pos="l" depth="2" NCoef="0" IVar="-1" Cut="0.0000000000000000e+00" cType="1" res="-2.9365171212702990e-04" rms="4.6235716342926025e-01" purity="4.1514930129051208e-01" nType="-99"/>
          <Node pos="r" depth="2" NCoef="0" IVar="-1" Cut="0.0000000000000000e+00" cType="1" res="-1.2328314594924450e-02" rms="4.0874487161636353e-01" purity="2.4458961188793182e-01" nType="-99"/>
        </Node>
      </Node>
    </BinaryTree>
    <BinaryTree type="DecisionTree" boostWeight="1.0000000000000000e+00" itree="77">
      <Node pos="s" depth="0" NCoef="0" IVar="2" Cut="-1.2849017381668091e+00" cType="0" res="-3.2426300458610058e-03" rms="4.5766165852546692e-01" purity="4.1354125738143921e-01" nType="0">
        <Node pos="l" depth="1" NCoef="0" IVar="-1" Cut="0.0000000000000000e+00" cType="1" res="1.2539743911474943e-03" rms="4.5918551087379456e-01" purity="4.2776396870613098e-01" nType="-99"/>
        <Node pos="r" depth="1" NCoef="0" IVar="1" Cut="3.4472182393074036e-02" cType="1" res="-8.7248869240283966e-02" rms="4.3810594081878662e-01" purity="3.1772044301033020e-01" nType="0">
          <Node pos="l" depth="2" NCoef="0" IVar="-1" Cut="0.0000000000000000e+00" cType="1" res="-8.3383368328213692e-03" rms="4.4715562462806702e-01" purity="3.4554719924926758e-01" nType="-99"/>
          <Node pos="r" depth="2" NCoef="0" IVar="-1" Cut="0.0000000000000000e+00" cType="1" res="-3.5056814551353455e-02" rms="3.4075489640235901e-01" purity="1.4097602665424347e-01" nType="-99"/>
        </Node>
      </Node>
    </BinaryTree>
    <BinaryTree type="DecisionTree" boostWeight="1.0000000000000000e+00" itree="78">
      <Node pos="s" depth="0" NCoef="0" IVar="3" Cut="-3.8087680935859680e-01" cType="0" res="-3.0704122036695480e-03" rms="4.5700302720069885e-01" purity="4.1040718555450439e-01" nType="0">
        <Node pos="l" depth="1" NCoef="0" IVar="-1" Cut="0.0000000000000000e+00" cType="1" res="2.6910090819001198e-03" rms="4.5994970202445984e-01" purity="4.4848611950874329e-01" nType="-99"/>
        <Node pos="r" depth="1" NCoef="0" IVar="5" Cut="1.0177587270736694e+00" cType="1" res="-5.4198913276195526e-02" rms="4.4606909155845642e-01" purity="3.2440254092216492e-01" nType="0">
          <Node pos="l" depth="2" NCoef="0" IVar="-1" Cut="0.0000000000000000e+00" cType="1" res="-3.7790273781865835e-03" rms="4.5546606183052063e-01" purity="3.5647159814834595e-01" nType="-99"/>
          <Node pos="r" depth="2" NCoef="0" IVar="-1" Cut="0.0000000000000000e+00" cType="1" res="-1.7288492992520332e-02" rms="4.0891274809837341e-01" purity="2.3532593250274658e-01" nType="-99"/>
        </Node>
      </Node>
    </BinaryTree>
    <BinaryTree type="DecisionTree" boostWeight="1.0000000000000000e+00" itree="79">
      <Node pos="s" depth="0" NCoef="0" IVar="2" Cut="-1.9226574897766113e+00" cType="0" res="-2.4233618751168251e-03" rms="4.5627033710479736e-01" purity="4.1241911053657532e-01" nType="0">
        <Node pos="l" depth="1" NCoef="0" IVar="-1" Cut="0.0000000000000000e+00" cType="1" res="7.8483787365257740e-04" rms="4.5819711685180664e-01" purity="4.2321804165840149e-01" nType="-99"/>
        <Node pos="r" depth="1" NCoef="0" IVar="1" Cut="-1.6014169454574585e+00" cType="1" res="-1.5832538902759552e-01" rms="3.8644200563430786e-01" purity="2.0862472057342529e-01" nType="0">
          <Node pos="l" depth="2" NCoef="0" IVar="-1" Cut="0.0000000000000000e+00" cType="1" res="-1.0780571959912777e-02" rms="4.3182113766670227e-01" purity="3.2460743188858032e-01" nType="-99"/>
          <Node pos="r" depth="2" NCoef="0" IVar="-1" Cut="0.0000000000000000e+00" cType="1" res="-2.4774063378572464e-02" rms="3.4459114074707031e-01" purity="1.3275985419750214e-01" nType="-99"/>
        </Node>
      </Node>
    </BinaryTree>
    <BinaryTree type="DecisionTree" boostWeight="1.0000000000000000e+00" itree="80">
      <Node pos="s" depth="0" NCoef="0" IVar="2" Cut="1.4220540523529053e+00" cType="1" res="-4.1946433484554291e-03" rms="4.5513299107551575e-01" purity="4.0851187705993652e-01" nType="0">
        <Node pos="l" depth="1" NCoef="0" IVar="-1" Cut="0.0000000000000000e+00" cType="1" res="1.1059448588639498e-03" rms="4.5991823077201843e-01" purity="4.2980450391769409e-01" nType="-99"/>
        <Node pos="r" depth="1" NCoef="0" IVar="4" Cut="-7.8177428245544434e-01" cType="1" res="-8.9303590357303619e-02" rms="4.1047471761703491e-01" purity="2.6083827018737793e-01" nType="0">
          <Node pos="l" depth="2" NCoef="0" IVar="-1" Cut="0.0000000000000000e+00" cType="1" res="4.3031643144786358e-03" rms="4.4397786259651184e-01" purity="3.8526764512062073e-01" nType="-99"/>
          <Node pos="r" depth="2" NCoef="0" IVar="-1" Cut="0.0000000000000000e+00" cType="1" res="-1.2761469930410385e-02" rms="4.0111631155014038e-01" purity="2.4041281640529633e-01" nType="-99"/>
        </Node>
      </Node>
    </BinaryTree>
    <BinaryTree type="DecisionTree" boostWeight="1.0000000000000000e+00" itree="81">
      <Node pos="s" depth="0" NCoef="0" IVar="2" Cut="1.4263161420822144e+00" cType="1" res="-1.2675253674387932e-03" rms="4.5544245839118958e-01" purity="4.1304275393486023e-01" nType="0">
        <Node pos="l" depth="1" NCoef="0" IVar="-1" Cut="0.0000000000000000e+00" cType="1" res="1.4542683493345976e-03" rms="4.6085482835769653e-01" purity="4.3632736802101135e-01" nType="-99"/>
        <Node pos="r" depth="1" NCoef="0" IVar="0" Cut="3.5103443264961243e-01" cType="0" res="-9.5840834081172943e-02" rms="4.0203669667243958e-01" purity="2.4587613344192505e-01" nType="0">
          <Node pos="l" depth="2" NCoef="0" IVar="-1" Cut="0.0000000000000000e+00" cType="1" res="3.7701646797358990e-03" rms="4.8135882616043091e-01" purity="5.4697757959365845e-01" nType="-99"/>
          <Node pos="r" depth="2" NCoef="0" IVar="-1" Cut="0.0000000000000000e+00" cType="1" res="-1.4320908114314079e-02" rms="3.8321012258529663e-01" purity="1.9562964141368866e-01" nType="-99"/>
        </Node>
      </Node>
    </BinaryTree>
    <BinaryTree type="DecisionTree" boostWeight="1.0000000000000000e+00" itree="82">
      <Node pos="s" depth="0" NCoef="0" IVar="2" Cut="-1.1723008155822754e+00" cType="0" res="4.4141691178083420e-03" rms="4.5683500170707703e-01" purity="4.2003896832466125e-01" nType="0">
        <Node pos="l" depth="1" NCoef="0" IVar="-1" Cut="0.0000000000000000e+00" cType="1" res="2.4180628824979067e-03" rms="4.5904311537742615e-01" purity="4.3848302960395813e-01" nType="-99"/>
        <Node pos="r" depth="1" NCoef="0" IVar="1" Cut="1.1665326356887817e-01" cType="1" res="-7.4503175914287567e-02" rms="4.3679895997047424e-01" purity="3.2451063394546509e-01" nType="0">
          <Node pos="l" depth="2" NCoef="0" IVar="-1" Cut="0.0000000000000000e+00" cType="1" res="-6.4486055634915829e-03" rms="4.4464537501335144e-01" purity="3.5456737875938416e-01" nType="-99"/>
          <Node pos="r" depth="2" NCoef="0" IVar="-1" Cut="0.0000000000000000e+00" cType="1" res="-3.2045178115367889e-02" rms="3.4320363402366638e-01" purity="1.3418801128864288e-01" nType="-99"/>
        </Node>
      </Node>
    </BinaryTree>
    <BinaryTree type="DecisionTree" boostWeight="1.0000000000000000e+00" itree="83">
      <Node pos="s" depth="0" NCoef="0" IVar="3" Cut="-7.9449683427810669e-01" cType="0" res="-4.4028558768332005e-03" rms="4.5618537068367004e-01" purity="4.1173213720321655e-01" nType="0">
        <Node pos="l" depth="1" NCoef="0" IVar="-1" Cut="0.0000000000000000e+00" cType="1" res="3.5361011396162212e-04" rms="4.6095946431159973e-01" purity="4.2781507968902588e-01" nType="-99"/>
        <Node pos="r" depth="1" NCoef="0" IVar="0" Cut="2.5496336817741394e-01" cType="1" res="-1.3045240938663483e-01" rms="3.4089213609695435e-01" purity="1.3594284653663635e-01" nType="0">
          <Node pos="l" depth="2" NCoef="0" IVar="-1" Cut="0.0000000000000000e+00" cType="1" res="-1.5077564865350723e-02" rms="3.3261877298355103e-01" purity="1.3922537863254547e-01" nType="-99"/>
          <Node pos="r" depth="2" NCoef="0" IVar="-1" Cut="0.0000000000000000e+00" cType="1" res="-3.0145542696118355e-02" rms="3.3253026008605957e-01" purity="1.2863530218601227e-01" nType="-99"/>
        </Node>
      </Node>
    </BinaryTree>
    <BinaryTree type="DecisionTree" boostWeight="1.0000000000000000e+00" itree="84">
      <Node pos="s" depth="0" NCoef="0" IVar="4" Cut="7.7176320552825928e-01" cType="0" res="2.1952954120934010e-03" rms="4.5756259560585022e-01" purity="4.1569945216178894e-01" nType="0">
        <Node pos="l" depth="1" NCoef="0" IVar="-1" Cut="0.0000000000000000e+00" cType="1" res="1.1357351206243038e-02" rms="4.6583220362663269e-01" purity="5.1110637187957764e-01" nType="-99"/>
        <Node pos="r" depth="1" NCoef="0" IVar="0" Cut="7.5330275297164917e-01" cType="0" res="-9.3868989497423172e-03" rms="4.5518782734870911e-01" purity="4.0178945660591125e-01" nType="0">
          <Node pos="l" depth="2" NCoef="0" IVar="-1" Cut="0.0000000000000000e+00" cType="1" res="2.1014628931879997e-02" rms="3.9813607931137085e-01" purity="7.6608741283416748e-01" nType="-99"/>
          <Node pos="r" depth="2" NCoef="0" IVar="-1" Cut="0.0000000000000000e+00" cType="1" res="-2.1107732318341732e-03" rms="4.5648294687271118e-01" purity="3.8569298386573792e-01" nType="-99"/>
        </Node>
      </Node>
    </BinaryTree>
    <BinaryTree type="DecisionTree" boostWeight="1.0000000000000000e+00" itree="85">
      <Node pos="s" depth="0" NCoef="0" IVar="2" Cut="-1.6022683382034302e+00" cType="0" res="-3.9886711165308952e-03" rms="4.5457309484481812e-01" purity="4.1100296378135681e-01" nType="0">
        <Node pos="l" depth="1" NCoef="0" IVar="-1" Cut="0.0000000000000000e+00" cType="1" res="9.2951109400019050e-04" rms="4.5634087920188904e-01" purity="4.2607262730598450e-01" nType="-99"/>
        <Node pos="r" depth="1" NCoef="0" IVar="3" Cut="1.4410324394702911e-01" cType="0" res="-1.0054825246334076e-01" rms="4.2647978663444519e-01" purity="2.7639272809028625e-01" nType="0">
          <Node pos="l" depth="2" NCoef="0" IVar="-1" Cut="0.0000000000000000e+00" cType="1" res="-9.2634018510580063e-03" rms="4.2656049132347107e-01" purity="2.9387524724006653e-01" nType="-99"/>
          <Node pos="r" depth="2" NCoef="0" IVar="-1" Cut="0.0000000000000000e+00" cType="1" res="-2.0485708490014076e-02" rms="4.0508079528808594e-01" purity="2.1284678578376770e-01" nType="-99"/>
        </Node>
      </Node>
    </BinaryTree>
    <BinaryTree type="DecisionTree" boostWeight="1.0000000000000000e+00" itree="86">
      <Node pos="s" depth="0" NCoef="0" IVar="2" Cut="-1.6022683382034302e+00" cType="0" res="-3.9826068095862865e-03" rms="4.5638743042945862e-01" purity="4.1163045167922974e-01" nType="0">
