<?xml version="1.0"?>
<MethodSetup Method="BDT::BDTG">
  <GeneralInfo>
    <Info name="TMVA Release" value="4.1.2 [262402]"/>
    <Info name="ROOT Release" value="5.32/04 [335876]"/>
    <Info name="Creator" value="brianpollack"/>
    <Info name="Date" value="Wed Nov 13 12:08:07 2013"/>
    <Info name="Host" value="Darwin pb-d-128-141-108-211.cern.ch 11.4.2 Darwin Kernel Version 11.4.2: Thu Aug 23 16:25:48 PDT 2012; root:xnu-1699.32.7~1/RELEASE_X86_64 x86_64"/>
    <Info name="Dir" value="/Users/brianpollack/HZG_Analyzer/mva"/>
    <Info name="Training events" value="15120"/>
    <Info name="TrainingTime" value="1.30538080e+01"/>
    <Info name="AnalysisType" value="Classification"/>
  </GeneralInfo>
  <Options>
    <Option name="V" modified="Yes">False</Option>
    <Option name="VerbosityLevel" modified="No">Default</Option>
    <Option name="VarTransform" modified="No">None</Option>
    <Option name="H" modified="Yes">False</Option>
    <Option name="CreateMVAPdfs" modified="No">False</Option>
    <Option name="IgnoreNegWeightsInTraining" modified="No">False</Option>
    <Option name="NTrees" modified="Yes">1000</Option>
    <Option name="RenormByClass" modified="No">False</Option>
    <Option name="BoostType" modified="Yes">Grad</Option>
    <Option name="AdaBoostR2Loss" modified="No">quadratic</Option>
    <Option name="UseBaggedGrad" modified="Yes">True</Option>
    <Option name="GradBaggingFraction" modified="Yes">5.000000e-01</Option>
    <Option name="Shrinkage" modified="Yes">1.000000e-01</Option>
    <Option name="AdaBoostBeta" modified="No">1.000000e+00</Option>
    <Option name="UseRandomisedTrees" modified="No">False</Option>
    <Option name="UseNvars" modified="No">3</Option>
    <Option name="UsePoissonNvars" modified="No">True</Option>
    <Option name="UseNTrainEvents" modified="No">15120</Option>
    <Option name="UseWeightedTrees" modified="No">True</Option>
    <Option name="UseYesNoLeaf" modified="No">True</Option>
    <Option name="NodePurityLimit" modified="No">5.000000e-01</Option>
    <Option name="SeparationType" modified="No">giniindex</Option>
    <Option name="nEventsMin" modified="Yes">12</Option>
    <Option name="nCuts" modified="Yes">20</Option>
    <Option name="UseFisherCuts" modified="No">False</Option>
    <Option name="MinLinCorrForFisher" modified="No">8.000000e-01</Option>
    <Option name="UseExclusiveVars" modified="No">False</Option>
    <Option name="PruneStrength" modified="No">0.000000e+00</Option>
    <Option name="PruneMethod" modified="No">nopruning</Option>
    <Option name="PruneBeforeBoost" modified="No">False</Option>
    <Option name="PruningValFraction" modified="No">5.000000e-01</Option>
    <Option name="NNodesMax" modified="Yes">8</Option>
    <Option name="MaxDepth" modified="No">3</Option>
    <Option name="DoBoostMonitor" modified="No">False</Option>
    <Option name="NegWeightTreatment" modified="No">ignorenegweights</Option>
  </Options>
  <Variables NVar="8">
    <Variable VarIndex="0" Expression="medisc" Label="medisc" Title="-log(Pb/(Ps+Pb))" Unit="" Internal="medisc" Type="F" Min="-0.00000000e+00" Max="2.15531349e-01"/>
    <Variable VarIndex="1" Expression="smallTheta" Label="smallTheta" Title="cos(#theta)" Unit="" Internal="smallTheta" Type="F" Min="-9.88485515e-01" Max="9.85404670e-01"/>
    <Variable VarIndex="2" Expression="bigTheta" Label="bigTheta" Title="cos(#Theta)" Unit="" Internal="bigTheta" Type="F" Min="-9.99703705e-01" Max="9.99862432e-01"/>
    <Variable VarIndex="3" Expression="comPhi" Label="comPhi" Title="#phi" Unit="rad" Internal="comPhi" Type="F" Min="-3.14131355e+00" Max="3.14112186e+00"/>
    <Variable VarIndex="4" Expression="GPtOM" Label="GPtOM" Title="#pT_{#gamma}/m_{ll#gamma}" Unit="" Internal="GPtOM" Type="F" Min="1.36367142e-01" Max="1.45451248e+00"/>
    <Variable VarIndex="5" Expression="diffZGvectorOM" Label="diffZGvectorOM" Title="(#pT_{#gamma}-pT_{ll})/m_{ll#gamma}" Unit="" Internal="diffZGvectorOM" Type="F" Min="1.67611835e-03" Max="3.01243019e+00"/>
    <Variable VarIndex="6" Expression="threeBodyPtOM" Label="threeBodyPtOM" Title="#pT_{ll#gamma}/m_{ll#gamma}" Unit="" Internal="threeBodyPtOM" Type="F" Min="1.10865303e-03" Max="4.17393541e+00"/>
    <Variable VarIndex="7" Expression="ZPtOM" Label="ZPtOM" Title="#pT_{ll}/m_{ll#gamma}" Unit="" Internal="ZPtOM" Type="F" Min="1.58683863e-03" Max="3.55387020e+00"/>
  </Variables>
  <Spectators NSpec="0"/>
  <Classes NClass="2">
    <Class Name="Signal" Index="0"/>
    <Class Name="Background" Index="1"/>
  </Classes>
  <Transformations NTransformations="0"/>
  <MVAPdfs/>
  <Weights NTrees="1000" AnalysisType="1">
    <BinaryTree type="DecisionTree" boostWeight="1.0000000000000000e+00" itree="0">
      <Node pos="s" depth="0" NCoef="0" IVar="0" Cut="2.8470059856772423e-02" cType="0" res="-1.4568454027175903e-01" rms="4.7830536961555481e-01" purity="3.5431545972824097e-01" nType="0">
        <Node pos="l" depth="1" NCoef="0" IVar="-1" Cut="0.0000000000000000e+00" cType="1" res="5.0229616463184357e-03" rms="4.9694022536277771e-01" purity="5.5523055791854858e-01" nType="-99"/>
        <Node pos="r" depth="1" NCoef="0" IVar="6" Cut="6.6458719968795776e-01" cType="0" res="-3.5695034265518188e-01" rms="3.5012346506118774e-01" purity="1.4304964244365692e-01" nType="0">
          <Node pos="l" depth="2" NCoef="0" IVar="4" Cut="2.6352152228355408e-01" cType="0" res="6.1596300452947617e-02" rms="4.9619138240814209e-01" purity="5.6159627437591553e-01" nType="0">
            <Node pos="l" depth="3" NCoef="0" IVar="-1" Cut="0.0000000000000000e+00" cType="1" res="5.6594759225845337e-02" rms="3.5776814818382263e-01" purity="8.4928774833679199e-01" nType="-99"/>
            <Node pos="r" depth="3" NCoef="0" IVar="-1" Cut="0.0000000000000000e+00" cType="1" res="-1.0354792699217796e-02" rms="4.8211890459060669e-01" purity="3.6748066544532776e-01" nType="-99"/>
          </Node>
          <Node pos="r" depth="2" NCoef="0" IVar="0" Cut="1.6265831887722015e-02" cType="0" res="-3.8254320621490479e-01" rms="3.2196381688117981e-01" purity="1.1745678633451462e-01" nType="0">
            <Node pos="l" depth="3" NCoef="0" IVar="-1" Cut="0.0000000000000000e+00" cType="1" res="-1.7244104295969009e-02" rms="4.3433162569999695e-01" purity="2.5229850411415100e-01" nType="-99"/>
            <Node pos="r" depth="3" NCoef="0" IVar="-1" Cut="0.0000000000000000e+00" cType="1" res="-2.1986393257975578e-02" rms="2.4441453814506531e-01" purity="6.3810206949710846e-02" nType="-99"/>
          </Node>
        </Node>
      </Node>
    </BinaryTree>
    <BinaryTree type="DecisionTree" boostWeight="1.0000000000000000e+00" itree="1">
      <Node pos="s" depth="0" NCoef="0" IVar="0" Cut="3.0790345743298531e-02" cType="0" res="-1.4795005321502686e-01" rms="4.7331130504608154e-01" purity="3.4876421093940735e-01" nType="0">
        <Node pos="l" depth="1" NCoef="0" IVar="-1" Cut="0.0000000000000000e+00" cType="1" res="5.1285964436829090e-03" rms="4.9655660986900330e-01" purity="5.5857920646667480e-01" nType="-99"/>
        <Node pos="r" depth="1" NCoef="0" IVar="6" Cut="5.9725362062454224e-01" cType="0" res="-3.3884346485137939e-01" rms="3.5713177919387817e-01" purity="1.5244653820991516e-01" nType="0">
          <Node pos="l" depth="2" NCoef="0" IVar="0" Cut="8.7719736620783806e-03" cType="0" res="5.6475725024938583e-02" rms="4.8953977227210999e-01" purity="5.6242465972900391e-01" nType="0">
            <Node pos="l" depth="3" NCoef="0" IVar="-1" Cut="0.0000000000000000e+00" cType="1" res="3.8458328694105148e-02" rms="3.9554935693740845e-01" purity="8.0052804946899414e-01" nType="-99"/>
            <Node pos="r" depth="3" NCoef="0" IVar="-1" Cut="0.0000000000000000e+00" cType="1" res="-1.6028344631195068e-02" rms="4.6582716703414917e-01" purity="3.3496153354644775e-01" nType="-99"/>
          </Node>
          <Node pos="r" depth="2" NCoef="0" IVar="0" Cut="1.6125448048114777e-02" cType="0" res="-3.6725312471389771e-01" rms="3.2779350876808167e-01" purity="1.2298338860273361e-01" nType="0">
            <Node pos="l" depth="3" NCoef="0" IVar="-1" Cut="0.0000000000000000e+00" cType="1" res="-1.5797505155205727e-02" rms="4.3667721748352051e-01" purity="2.5702169537544250e-01" nType="-99"/>
            <Node pos="r" depth="3" NCoef="0" IVar="-1" Cut="0.0000000000000000e+00" cType="1" res="-1.9245602190494537e-02" rms="2.4434447288513184e-01" purity="6.3770957291126251e-02" nType="-99"/>
          </Node>
        </Node>
      </Node>
    </BinaryTree>
    <BinaryTree type="DecisionTree" boostWeight="1.0000000000000000e+00" itree="2">
      <Node pos="s" depth="0" NCoef="0" IVar="0" Cut="2.7271892875432968e-02" cType="0" res="-1.3239005208015442e-01" rms="4.7418013215065002e-01" purity="3.6134877800941467e-01" nType="0">
        <Node pos="l" depth="1" NCoef="0" IVar="-1" Cut="0.0000000000000000e+00" cType="1" res="5.5546988733112812e-03" rms="4.9555018544197083e-01" purity="5.6245362758636475e-01" nType="-99"/>
        <Node pos="r" depth="1" NCoef="0" IVar="6" Cut="4.0108102560043335e-01" cType="0" res="-3.4054213762283325e-01" rms="3.4525531530380249e-01" purity="1.4189104735851288e-01" nType="0">
          <Node pos="l" depth="2" NCoef="0" IVar="0" Cut="7.7392323873937130e-03" cType="0" res="-1.0595958679914474e-01" rms="4.7801890969276428e-01" purity="3.8719946146011353e-01" nType="0">
            <Node pos="l" depth="3" NCoef="0" IVar="-1" Cut="0.0000000000000000e+00" cType="1" res="1.5634756535291672e-02" rms="4.7404789924621582e-01" purity="6.3544225692749023e-01" nType="-99"/>
            <Node pos="r" depth="3" NCoef="0" IVar="-1" Cut="0.0000000000000000e+00" cType="1" res="-1.5692817047238350e-02" rms="3.8922896981239319e-01" purity="1.9065649807453156e-01" nType="-99"/>
          </Node>
          <Node pos="r" depth="2" NCoef="0" IVar="0" Cut="1.8169881775975227e-02" cType="0" res="-3.8350555300712585e-01" rms="2.9539573192596436e-01" purity="9.6963219344615936e-02" nType="0">
            <Node pos="l" depth="3" NCoef="0" IVar="-1" Cut="0.0000000000000000e+00" cType="1" res="-1.6307894140481949e-02" rms="4.4147431850433350e-01" purity="2.6526522636413574e-01" nType="-99"/>
            <Node pos="r" depth="3" NCoef="0" IVar="-1" Cut="0.0000000000000000e+00" cType="1" res="-2.1123155951499939e-02" rms="2.2392025589942932e-01" purity="5.2999489009380341e-02" nType="-99"/>
          </Node>
        </Node>
      </Node>
    </BinaryTree>
    <BinaryTree type="DecisionTree" boostWeight="1.0000000000000000e+00" itree="3">
      <Node pos="s" depth="0" NCoef="0" IVar="0" Cut="2.0526902750134468e-02" cType="0" res="-1.3323338329792023e-01" rms="4.7048059105873108e-01" purity="3.5806170105934143e-01" nType="0">
        <Node pos="l" depth="1" NCoef="0" IVar="-1" Cut="0.0000000000000000e+00" cType="1" res="2.3283553309738636e-03" rms="4.9732965230941772e-01" purity="5.2922344207763672e-01" nType="-99"/>
        <Node pos="r" depth="1" NCoef="0" IVar="6" Cut="3.9854905009269714e-01" cType="0" res="-3.6153531074523926e-01" rms="3.0921640992164612e-01" purity="1.1127022653818130e-01" nType="0">
          <Node pos="l" depth="2" NCoef="0" IVar="0" Cut="7.8072659671306610e-03" cType="0" res="-1.4855203032493591e-01" rms="4.6281754970550537e-01" purity="3.4266909956932068e-01" nType="0">
            <Node pos="l" depth="3" NCoef="0" IVar="-1" Cut="0.0000000000000000e+00" cType="1" res="6.4136586152017117e-03" rms="4.8553282022476196e-01" purity="5.8006364107131958e-01" nType="-99"/>
            <Node pos="r" depth="3" NCoef="0" IVar="-1" Cut="0.0000000000000000e+00" cType="1" res="-1.6687491908669472e-02" rms="3.8217282295227051e-01" purity="1.8189324438571930e-01" nType="-99"/>
          </Node>
          <Node pos="r" depth="2" NCoef="0" IVar="0" Cut="9.7629660740494728e-03" cType="0" res="-3.9954116940498352e-01" rms="2.5478374958038330e-01" purity="6.9978192448616028e-02" nType="0">
            <Node pos="l" depth="3" NCoef="0" IVar="-1" Cut="0.0000000000000000e+00" cType="1" res="-1.8771365284919739e-02" rms="3.3942660689353943e-01" purity="1.3317523896694183e-01" nType="-99"/>
            <Node pos="r" depth="3" NCoef="0" IVar="-1" Cut="0.0000000000000000e+00" cType="1" res="-1.8239280208945274e-02" rms="1.7925760149955750e-01" purity="3.3238057047128677e-02" nType="-99"/>
          </Node>
        </Node>
      </Node>
    </BinaryTree>
    <BinaryTree type="DecisionTree" boostWeight="1.0000000000000000e+00" itree="4">
      <Node pos="s" depth="0" NCoef="0" IVar="0" Cut="2.8470059856772423e-02" cType="0" res="-1.3645711541175842e-01" rms="4.6665784716606140e-01" purity="3.5198134183883667e-01" nType="0">
        <Node pos="l" depth="1" NCoef="0" IVar="-1" Cut="0.0000000000000000e+00" cType="1" res="3.6263288930058479e-03" rms="4.9741667509078979e-01" purity="5.4933381080627441e-01" nType="-99"/>
        <Node pos="r" depth="1" NCoef="0" IVar="6" Cut="5.9722673892974854e-01" cType="0" res="-3.1887581944465637e-01" rms="3.4877213835716248e-01" purity="1.4872926473617554e-01" nType="0">
          <Node pos="l" depth="2" NCoef="0" IVar="0" Cut="1.0818238370120525e-02" cType="0" res="3.2210409641265869e-02" rms="4.8078939318656921e-01" purity="5.3991168737411499e-01" nType="0">
            <Node pos="l" depth="3" NCoef="0" IVar="-1" Cut="0.0000000000000000e+00" cType="1" res="4.0137887001037598e-02" rms="3.8594073057174683e-01" purity="8.1165969371795654e-01" nType="-99"/>
            <Node pos="r" depth="3" NCoef="0" IVar="-1" Cut="0.0000000000000000e+00" cType="1" res="-1.2810198590159416e-02" rms="4.6869081258773804e-01" purity="3.4946003556251526e-01" nType="-99"/>
          </Node>
          <Node pos="r" depth="2" NCoef="0" IVar="0" Cut="1.6255373135209084e-02" cType="0" res="-3.4433755278587341e-01" rms="3.2266396284103394e-01" purity="1.2035966664552689e-01" nType="0">
            <Node pos="l" depth="3" NCoef="0" IVar="-1" Cut="0.0000000000000000e+00" cType="1" res="-1.5469732694327831e-02" rms="4.3528896570205688e-01" purity="2.5653564929962158e-01" nType="-99"/>
            <Node pos="r" depth="3" NCoef="0" IVar="-1" Cut="0.0000000000000000e+00" cType="1" res="-1.8939727917313576e-02" rms="2.4980373680591583e-01" purity="6.7486084997653961e-02" nType="-99"/>
          </Node>
        </Node>
      </Node>
    </BinaryTree>
    <BinaryTree type="DecisionTree" boostWeight="1.0000000000000000e+00" itree="5">
      <Node pos="s" depth="0" NCoef="0" IVar="0" Cut="2.7436325326561928e-02" cType="0" res="-1.3594520092010498e-01" rms="4.6350586414337158e-01" purity="3.4989136457443237e-01" nType="0">
        <Node pos="l" depth="1" NCoef="0" IVar="-1" Cut="0.0000000000000000e+00" cType="1" res="2.8777285479009151e-03" rms="4.9759104847908020e-01" purity="5.4296994209289551e-01" nType="-99"/>
        <Node pos="r" depth="1" NCoef="0" IVar="6" Cut="5.9725362062454224e-01" cType="0" res="-3.2587012648582458e-01" rms="3.3144825696945190e-01" purity="1.3310730457305908e-01" nType="0">
          <Node pos="l" depth="2" NCoef="0" IVar="0" Cut="7.7455118298530579e-03" cType="0" res="-2.1335983183234930e-03" rms="4.7849103808403015e-01" purity="5.0968384742736816e-01" nType="0">
            <Node pos="l" depth="3" NCoef="0" IVar="-1" Cut="0.0000000000000000e+00" cType="1" res="2.2790051996707916e-02" rms="4.3716162443161011e-01" purity="7.3423206806182861e-01" nType="-99"/>
            <Node pos="r" depth="3" NCoef="0" IVar="-1" Cut="0.0000000000000000e+00" cType="1" res="-2.0781571045517921e-02" rms="4.4478231668472290e-01" purity="2.7874529361724854e-01" nType="-99"/>
          </Node>
          <Node pos="r" depth="2" NCoef="0" IVar="0" Cut="1.5664439648389816e-02" cType="0" res="-3.4834006428718567e-01" rms="3.0628830194473267e-01" purity="1.0696986317634583e-01" nType="0">
            <Node pos="l" depth="3" NCoef="0" IVar="-1" Cut="0.0000000000000000e+00" cType="1" res="-1.4961153268814087e-02" rms="4.2537558078765869e-01" purity="2.4002636969089508e-01" nType="-99"/>
            <Node pos="r" depth="3" NCoef="0" IVar="-1" Cut="0.0000000000000000e+00" cType="1" res="-2.0291753113269806e-02" rms="2.2925169765949249e-01" purity="5.6212376803159714e-02" nType="-99"/>
          </Node>
        </Node>
      </Node>
    </BinaryTree>
    <BinaryTree type="DecisionTree" boostWeight="1.0000000000000000e+00" itree="6">
      <Node pos="s" depth="0" NCoef="0" IVar="0" Cut="1.8980041146278381e-02" cType="0" res="-1.2144885212182999e-01" rms="4.6435740590095520e-01" purity="3.6102616786956787e-01" nType="0">
        <Node pos="l" depth="1" NCoef="0" IVar="-1" Cut="0.0000000000000000e+00" cType="1" res="1.6532526351511478e-03" rms="4.9598869681358337e-01" purity="5.2394872903823853e-01" nType="-99"/>
        <Node pos="r" depth="1" NCoef="0" IVar="6" Cut="5.9776514768600464e-01" cType="0" res="-3.4442079067230225e-01" rms="2.9377475380897522e-01" purity="1.0137248784303665e-01" nType="0">
          <Node pos="l" depth="2" NCoef="0" IVar="4" Cut="2.6230555772781372e-01" cType="0" res="1.2020729482173920e-02" rms="4.7749435901641846e-01" purity="5.0890845060348511e-01" nType="0">
            <Node pos="l" depth="3" NCoef="0" IVar="-1" Cut="0.0000000000000000e+00" cType="1" res="3.8575682789087296e-02" rms="4.1155058145523071e-01" purity="7.6475101709365845e-01" nType="-99"/>
            <Node pos="r" depth="3" NCoef="0" IVar="-1" Cut="0.0000000000000000e+00" cType="1" res="-9.4733238220214844e-03" rms="4.7083103656768799e-01" purity="3.7736877799034119e-01" nType="-99"/>
          </Node>
          <Node pos="r" depth="2" NCoef="0" IVar="0" Cut="1.5355015173554420e-02" cType="0" res="-3.6860248446464539e-01" rms="2.5978156924247742e-01" purity="7.3724441230297089e-02" nType="0">
            <Node pos="l" depth="3" NCoef="0" IVar="-1" Cut="0.0000000000000000e+00" cType="1" res="-1.6842968761920929e-02" rms="3.9708134531974792e-01" purity="1.9803525507450104e-01" nType="-99"/>
            <Node pos="r" depth="3" NCoef="0" IVar="-1" Cut="0.0000000000000000e+00" cType="1" res="-1.7534578219056129e-02" rms="2.3217749595642090e-01" purity="5.7764649391174316e-02" nType="-99"/>
          </Node>
        </Node>
      </Node>
    </BinaryTree>
    <BinaryTree type="DecisionTree" boostWeight="1.0000000000000000e+00" itree="7">
      <Node pos="s" depth="0" NCoef="0" IVar="0" Cut="1.8065888434648514e-02" cType="0" res="-1.2495291233062744e-01" rms="4.6105325222015381e-01" purity="3.5487616062164307e-01" nType="0">
        <Node pos="l" depth="1" NCoef="0" IVar="-1" Cut="0.0000000000000000e+00" cType="1" res="4.6445516636595130e-04" rms="4.9558916687965393e-01" purity="5.1068258285522461e-01" nType="-99"/>
        <Node pos="r" depth="1" NCoef="0" IVar="6" Cut="6.4322787523269653e-01" cType="0" res="-3.4045600891113281e-01" rms="2.8880512714385986e-01" purity="9.7211189568042755e-02" nType="0">
          <Node pos="l" depth="2" NCoef="0" IVar="4" Cut="2.6352152228355408e-01" cType="0" res="-1.8174039199948311e-02" rms="4.7622802853584290e-01" purity="4.8022714257240295e-01" nType="0">
            <Node pos="l" depth="3" NCoef="0" IVar="-1" Cut="0.0000000000000000e+00" cType="1" res="3.3439952880144119e-02" rms="4.2607423663139343e-01" purity="7.5333452224731445e-01" nType="-99"/>
            <Node pos="r" depth="3" NCoef="0" IVar="-1" Cut="0.0000000000000000e+00" cType="1" res="-1.5986071899533272e-02" rms="4.5297482609748840e-01" purity="3.1018278002738953e-01" nType="-99"/>
          </Node>
          <Node pos="r" depth="2" NCoef="0" IVar="6" Cut="3.9703372120857239e-01" cType="0" res="-3.5901859402656555e-01" rms="2.6234114170074463e-01" purity="7.5150482356548309e-02" nType="0">
            <Node pos="l" depth="3" NCoef="0" IVar="-1" Cut="0.0000000000000000e+00" cType="1" res="-1.3456924818456173e-02" rms="3.9538604021072388e-01" purity="1.9694961607456207e-01" nType="-99"/>
            <Node pos="r" depth="3" NCoef="0" IVar="-1" Cut="0.0000000000000000e+00" cType="1" res="-1.7551021650433540e-02" rms="2.3877134919166565e-01" purity="6.0771059244871140e-02" nType="-99"/>
          </Node>
        </Node>
      </Node>
    </BinaryTree>
    <BinaryTree type="DecisionTree" boostWeight="1.0000000000000000e+00" itree="8">
      <Node pos="s" depth="0" NCoef="0" IVar="0" Cut="2.0526794716715813e-02" cType="0" res="-1.1431488394737244e-01" rms="4.6126174926757812e-01" purity="3.6325001716613770e-01" nType="0">
        <Node pos="l" depth="1" NCoef="0" IVar="-1" Cut="0.0000000000000000e+00" cType="1" res="2.7985898777842522e-03" rms="4.9588182568550110e-01" purity="5.3779482841491699e-01" nType="-99"/>
        <Node pos="r" depth="1" NCoef="0" IVar="6" Cut="5.9722673892974854e-01" cType="0" res="-3.3402988314628601e-01" rms="2.8690940141677856e-01" purity="9.7320184111595154e-02" nType="0">
          <Node pos="l" depth="2" NCoef="0" IVar="4" Cut="1.9955781102180481e-01" cType="0" res="-2.6055339723825455e-02" rms="4.7529211640357971e-01" purity="4.7806391119956970e-01" nType="0">
            <Node pos="l" depth="3" NCoef="0" IVar="-1" Cut="0.0000000000000000e+00" cType="1" res="2.0062291994690895e-02" rms="4.5528319478034973e-01" purity="6.4186471700668335e-01" nType="-99"/>
            <Node pos="r" depth="3" NCoef="0" IVar="-1" Cut="0.0000000000000000e+00" cType="1" res="-1.4207904227077961e-02" rms="4.4476020336151123e-01" purity="2.8577995300292969e-01" nType="-99"/>
          </Node>
          <Node pos="r" depth="2" NCoef="0" IVar="0" Cut="9.7731063142418861e-03" cType="0" res="-3.5256448388099670e-01" rms="2.6004612445831299e-01" purity="7.4406169354915619e-02" nType="0">
            <Node pos="l" depth="3" NCoef="0" IVar="-1" Cut="0.0000000000000000e+00" cType="1" res="-1.6981093212962151e-02" rms="3.4193629026412964e-01" purity="1.3826969265937805e-01" nType="-99"/>
            <Node pos="r" depth="3" NCoef="0" IVar="-1" Cut="0.0000000000000000e+00" cType="1" res="-1.9584059715270996e-02" rms="1.8887218832969666e-01" purity="3.7162259221076965e-02" nType="-99"/>
          </Node>
        </Node>
      </Node>
    </BinaryTree>
    <BinaryTree type="DecisionTree" boostWeight="1.0000000000000000e+00" itree="9">
      <Node pos="s" depth="0" NCoef="0" IVar="0" Cut="2.7436325326561928e-02" cType="0" res="-1.2029086798429489e-01" rms="4.5542946457862854e-01" purity="3.5285171866416931e-01" nType="0">
        <Node pos="l" depth="1" NCoef="0" IVar="-1" Cut="0.0000000000000000e+00" cType="1" res="4.7578336670994759e-03" rms="4.9549624323844910e-01" purity="5.6133180856704712e-01" nType="-99"/>
        <Node pos="r" depth="1" NCoef="0" IVar="6" Cut="6.4320397377014160e-01" cType="0" res="-2.9377341270446777e-01" rms="3.2988396286964417e-01" purity="1.3741222023963928e-01" nType="0">
          <Node pos="l" depth="2" NCoef="0" IVar="0" Cut="6.5122609958052635e-03" cType="0" res="4.5742016285657883e-02" rms="4.6566063165664673e-01" purity="5.6151807308197021e-01" nType="0">
            <Node pos="l" depth="3" NCoef="0" IVar="-1" Cut="0.0000000000000000e+00" cType="1" res="2.5376591831445694e-02" rms="4.1257143020629883e-01" purity="7.6906293630599976e-01" nType="-99"/>
            <Node pos="r" depth="3" NCoef="0" IVar="-1" Cut="0.0000000000000000e+00" cType="1" res="-1.1723877862095833e-02" rms="4.6219453215599060e-01" purity="3.3044204115867615e-01" nType="-99"/>
          </Node>
          <Node pos="r" depth="2" NCoef="0" IVar="0" Cut="1.5665059909224510e-02" cType="0" res="-3.1735223531723022e-01" rms="3.0456608533859253e-01" purity="1.0795868933200836e-01" nType="0">
            <Node pos="l" depth="3" NCoef="0" IVar="-1" Cut="0.0000000000000000e+00" cType="1" res="-1.5763161703944206e-02" rms="4.2780628800392151e-01" purity="2.4561490118503571e-01" nType="-99"/>
            <Node pos="r" depth="3" NCoef="0" IVar="-1" Cut="0.0000000000000000e+00" cType="1" res="-1.8032999709248543e-02" rms="2.3427850008010864e-01" purity="5.9248771518468857e-02" nType="-99"/>
          </Node>
        </Node>
      </Node>
    </BinaryTree>
    <BinaryTree type="DecisionTree" boostWeight="1.0000000000000000e+00" itree="10">
      <Node pos="s" depth="0" NCoef="0" IVar="0" Cut="1.8290814012289047e-02" cType="0" res="-1.1491649597883224e-01" rms="4.5521721243858337e-01" purity="3.5712268948554993e-01" nType="0">
        <Node pos="l" depth="1" NCoef="0" IVar="-1" Cut="0.0000000000000000e+00" cType="1" res="1.0663819266483188e-03" rms="4.9453493952751160e-01" purity="5.1984977722167969e-01" nType="-99"/>
        <Node pos="r" depth="1" NCoef="0" IVar="6" Cut="3.9908900856971741e-01" cType="0" res="-3.2116258144378662e-01" rms="2.7891775965690613e-01" purity="9.2443130910396576e-02" nType="0">
          <Node pos="l" depth="2" NCoef="0" IVar="0" Cut="9.5571335405111313e-03" cType="0" res="-1.8380290269851685e-01" rms="4.1768977046012878e-01" purity="2.6901754736900330e-01" nType="0">
            <Node pos="l" depth="3" NCoef="0" IVar="-1" Cut="0.0000000000000000e+00" cType="1" res="4.8519703559577465e-03" rms="4.7383460402488708e-01" purity="5.5979269742965698e-01" nType="-99"/>
            <Node pos="r" depth="3" NCoef="0" IVar="-1" Cut="0.0000000000000000e+00" cType="1" res="-1.4937724918127060e-02" rms="3.6550864577293396e-01" purity="1.7243330180644989e-01" nType="-99"/>
          </Node>
          <Node pos="r" depth="2" NCoef="0" IVar="0" Cut="1.2193650938570499e-02" cType="0" res="-3.4779331088066101e-01" rms="2.3385038971900940e-01" purity="5.8209594339132309e-02" nType="0">
            <Node pos="l" depth="3" NCoef="0" IVar="-1" Cut="0.0000000000000000e+00" cType="1" res="-1.6988797113299370e-02" rms="3.3000496029853821e-01" purity="1.2441051006317139e-01" nType="-99"/>
            <Node pos="r" depth="3" NCoef="0" IVar="-1" Cut="0.0000000000000000e+00" cType="1" res="-1.8871931359171867e-02" rms="1.9392736256122589e-01" purity="3.9151970297098160e-02" nType="-99"/>
          </Node>
        </Node>
      </Node>
    </BinaryTree>
    <BinaryTree type="DecisionTree" boostWeight="1.0000000000000000e+00" itree="11">
      <Node pos="s" depth="0" NCoef="0" IVar="0" Cut="1.8290814012289047e-02" cType="0" res="-1.1995547264814377e-01" rms="4.5183113217353821e-01" purity="3.4921789169311523e-01" nType="0">
        <Node pos="l" depth="1" NCoef="0" IVar="-1" Cut="0.0000000000000000e+00" cType="1" res="-3.8403738290071487e-04" rms="4.9498751759529114e-01" purity="5.0343579053878784e-01" nType="-99"/>
        <Node pos="r" depth="1" NCoef="0" IVar="6" Cut="3.9852073788642883e-01" cType="0" res="-3.1078746914863586e-01" rms="2.7968505024909973e-01" purity="9.4652481377124786e-02" nType="0">
          <Node pos="l" depth="2" NCoef="0" IVar="0" Cut="2.6124399155378342e-03" cType="0" res="-1.0093909502029419e-01" rms="4.5200482010841370e-01" purity="3.5491934418678284e-01" nType="0">
            <Node pos="l" depth="3" NCoef="0" IVar="-1" Cut="0.0000000000000000e+00" cType="1" res="-1.0068150004372001e-03" rms="4.7434324026107788e-01" purity="4.6147289872169495e-01" nType="-99"/>
            <Node pos="r" depth="3" NCoef="0" IVar="-1" Cut="0.0000000000000000e+00" cType="1" res="-2.0653884857892990e-02" rms="3.5413622856140137e-01" purity="1.6018129885196686e-01" nType="-99"/>
          </Node>
          <Node pos="r" depth="2" NCoef="0" IVar="0" Cut="1.1322706937789917e-02" cType="0" res="-3.4504774212837219e-01" rms="2.2198119759559631e-01" purity="5.2160780876874924e-02" nType="0">
            <Node pos="l" depth="3" NCoef="0" IVar="-1" Cut="0.0000000000000000e+00" cType="1" res="-1.7474632710218430e-02" rms="3.0152219533920288e-01" purity="1.0133892297744751e-01" nType="-99"/>
            <Node pos="r" depth="3" NCoef="0" IVar="-1" Cut="0.0000000000000000e+00" cType="1" res="-1.7910527065396309e-02" rms="1.8315155804157257e-01" purity="3.4759785979986191e-02" nType="-99"/>
          </Node>
        </Node>
      </Node>
    </BinaryTree>
    <BinaryTree type="DecisionTree" boostWeight="1.0000000000000000e+00" itree="12">
      <Node pos="s" depth="0" NCoef="0" IVar="0" Cut="3.0790295451879501e-02" cType="0" res="-9.9739052355289459e-02" rms="4.5428472757339478e-01" purity="3.6562669277191162e-01" nType="0">
        <Node pos="l" depth="1" NCoef="0" IVar="-1" Cut="0.0000000000000000e+00" cType="1" res="7.5897308997809887e-03" rms="4.9169701337814331e-01" purity="5.9074175357818604e-01" nType="-99"/>
        <Node pos="r" depth="1" NCoef="0" IVar="6" Cut="4.0110784769058228e-01" cType="0" res="-2.5906425714492798e-01" rms="3.4761208295822144e-01" purity="1.5835416316986084e-01" nType="0">
          <Node pos="l" depth="2" NCoef="0" IVar="0" Cut="8.7877288460731506e-03" cType="0" res="-6.3865005970001221e-02" rms="4.6151778101921082e-01" purity="4.0394952893257141e-01" nType="0">
            <Node pos="l" depth="3" NCoef="0" IVar="-1" Cut="0.0000000000000000e+00" cType="1" res="6.6994722001254559e-03" rms="4.7644457221031189e-01" purity="5.8494406938552856e-01" nType="-99"/>
            <Node pos="r" depth="3" NCoef="0" IVar="-1" Cut="0.0000000000000000e+00" cType="1" res="-1.4783700928092003e-02" rms="3.9945322275161743e-01" purity="2.1137350797653198e-01" nType="-99"/>
          </Node>
          <Node pos="r" depth="2" NCoef="0" IVar="0" Cut="1.3193613849580288e-02" cType="0" res="-2.9169350862503052e-01" rms="3.1304022669792175e-01" purity="1.1730076372623444e-01" nType="0">
            <Node pos="l" depth="3" NCoef="0" IVar="-1" Cut="0.0000000000000000e+00" cType="1" res="-1.5576530247926712e-02" rms="4.1241851449012756e-01" purity="2.2467894852161407e-01" nType="-99"/>
            <Node pos="r" depth="3" NCoef="0" IVar="-1" Cut="0.0000000000000000e+00" cType="1" res="-1.8086994066834450e-02" rms="2.1050371229648590e-01" purity="4.6490091830492020e-02" nType="-99"/>
          </Node>
        </Node>
      </Node>
    </BinaryTree>
    <BinaryTree type="DecisionTree" boostWeight="1.0000000000000000e+00" itree="13">
      <Node pos="s" depth="0" NCoef="0" IVar="0" Cut="2.7436325326561928e-02" cType="0" res="-9.6089497208595276e-02" rms="4.5442321896553040e-01" purity="3.6940604448318481e-01" nType="0">
        <Node pos="l" depth="1" NCoef="0" IVar="-1" Cut="0.0000000000000000e+00" cType="1" res="3.9881612174212933e-03" rms="4.9519667029380798e-01" purity="5.6105619668960571e-01" nType="-99"/>
        <Node pos="r" depth="1" NCoef="0" IVar="6" Cut="3.9999693632125854e-01" cType="0" res="-2.5156766176223755e-01" rms="3.4236064553260803e-01" purity="1.5312272310256958e-01" nType="0">
          <Node pos="l" depth="2" NCoef="0" IVar="0" Cut="9.1251833364367485e-03" cType="0" res="-6.1442136764526367e-02" rms="4.5429044961929321e-01" purity="3.9905908703804016e-01" nType="0">
            <Node pos="l" depth="3" NCoef="0" IVar="-1" Cut="0.0000000000000000e+00" cType="1" res="1.7754251137375832e-02" rms="4.5748817920684814e-01" purity="6.7255705595016479e-01" nType="-99"/>
            <Node pos="r" depth="3" NCoef="0" IVar="-1" Cut="0.0000000000000000e+00" cType="1" res="-1.1957637965679169e-02" rms="3.9891341328620911e-01" purity="2.2322976589202881e-01" nType="-99"/>
          </Node>
          <Node pos="r" depth="2" NCoef="0" IVar="0" Cut="1.5677742660045624e-02" cType="0" res="-2.8551754355430603e-01" rms="3.0607342720031738e-01" purity="1.0920693725347519e-01" nType="0">
            <Node pos="l" depth="3" NCoef="0" IVar="-1" Cut="0.0000000000000000e+00" cType="1" res="-1.3536849059164524e-02" rms="4.1420421004295349e-01" purity="2.2359143197536469e-01" nType="-99"/>
            <Node pos="r" depth="3" NCoef="0" IVar="-1" Cut="0.0000000000000000e+00" cType="1" res="-1.8771959468722343e-02" rms="2.3712144792079926e-01" purity="5.9854827821254730e-02" nType="-99"/>
          </Node>
        </Node>
      </Node>
    </BinaryTree>
    <BinaryTree type="DecisionTree" boostWeight="1.0000000000000000e+00" itree="14">
      <Node pos="s" depth="0" NCoef="0" IVar="0" Cut="3.0790295451879501e-02" cType="0" res="-1.1143819987773895e-01" rms="4.4597738981246948e-01" purity="3.4964135289192200e-01" nType="0">
        <Node pos="l" depth="1" NCoef="0" IVar="-1" Cut="0.0000000000000000e+00" cType="1" res="3.9226035587489605e-03" rms="4.9574118852615356e-01" purity="5.6512051820755005e-01" nType="-99"/>
        <Node pos="r" depth="1" NCoef="0" IVar="6" Cut="5.9722673892974854e-01" cType="0" res="-2.5160330533981323e-01" rms="3.3899778127670288e-01" purity="1.5267466008663177e-01" nType="0">
          <Node pos="l" depth="2" NCoef="0" IVar="4" Cut="2.0800371468067169e-01" cType="0" res="1.1495571583509445e-02" rms="4.6080982685089111e-01" purity="5.2959007024765015e-01" nType="0">
            <Node pos="l" depth="3" NCoef="0" IVar="-1" Cut="0.0000000000000000e+00" cType="1" res="2.2218076512217522e-02" rms="4.2619815468788147e-01" purity="7.1392166614532471e-01" nType="-99"/>
            <Node pos="r" depth="3" NCoef="0" IVar="-1" Cut="0.0000000000000000e+00" cType="1" res="-1.3194184750318527e-02" rms="4.2976519465446472e-01" purity="2.8472521901130676e-01" nType="-99"/>
          </Node>
          <Node pos="r" depth="2" NCoef="0" IVar="0" Cut="1.6127057373523712e-02" cType="0" res="-2.7004435658454895e-01" rms="3.2077848911285400e-01" purity="1.2625600397586823e-01" nType="0">
            <Node pos="l" depth="3" NCoef="0" IVar="-1" Cut="0.0000000000000000e+00" cType="1" res="-1.2411782518029213e-02" rms="4.3557661771774292e-01" purity="2.6395002007484436e-01" nType="-99"/>
            <Node pos="r" depth="3" NCoef="0" IVar="-1" Cut="0.0000000000000000e+00" cType="1" res="-1.5226048417389393e-02" rms="2.3804044723510742e-01" purity="6.1861082911491394e-02" nType="-99"/>
          </Node>
        </Node>
      </Node>
    </BinaryTree>
    <BinaryTree type="DecisionTree" boostWeight="1.0000000000000000e+00" itree="15">
      <Node pos="s" depth="0" NCoef="0" IVar="0" Cut="2.0526794716715813e-02" cType="0" res="-1.0328344255685806e-01" rms="4.4595450162887573e-01" purity="3.5594400763511658e-01" nType="0">
        <Node pos="l" depth="1" NCoef="0" IVar="-1" Cut="0.0000000000000000e+00" cType="1" res="1.4406758127734065e-03" rms="4.9437865614891052e-01" purity="5.2964347600936890e-01" nType="-99"/>
        <Node pos="r" depth="1" NCoef="0" IVar="6" Cut="6.6458719968795776e-01" cType="0" res="-2.7744469046592712e-01" rms="2.8476405143737793e-01" purity="1.0125502198934555e-01" nType="0">
          <Node pos="l" depth="2" NCoef="0" IVar="0" Cut="1.9110044231638312e-03" cType="0" res="2.5370102375745773e-02" rms="4.5611068606376648e-01" purity="5.2583545446395874e-01" nType="0">
            <Node pos="l" depth="3" NCoef="0" IVar="-1" Cut="0.0000000000000000e+00" cType="1" res="1.9873289391398430e-02" rms="4.4118383526802063e-01" purity="6.6567176580429077e-01" nType="-99"/>
            <Node pos="r" depth="3" NCoef="0" IVar="-1" Cut="0.0000000000000000e+00" cType="1" res="-2.3535640910267830e-02" rms="3.6692297458648682e-01" purity="1.8140588700771332e-01" nType="-99"/>
          </Node>
          <Node pos="r" depth="2" NCoef="0" IVar="0" Cut="9.7623560577630997e-03" cType="0" res="-2.9406261444091797e-01" rms="2.6232740283012390e-01" purity="7.7954798936843872e-02" nType="0">
            <Node pos="l" depth="3" NCoef="0" IVar="-1" Cut="0.0000000000000000e+00" cType="1" res="-1.3572754338383675e-02" rms="3.4334576129913330e-01" purity="1.4375536143779755e-01" nType="-99"/>
            <Node pos="r" depth="3" NCoef="0" IVar="-1" Cut="0.0000000000000000e+00" cType="1" res="-1.5233290381729603e-02" rms="1.9640336930751801e-01" purity="4.0827095508575439e-02" nType="-99"/>
          </Node>
        </Node>
      </Node>
    </BinaryTree>
    <BinaryTree type="DecisionTree" boostWeight="1.0000000000000000e+00" itree="16">
      <Node pos="s" depth="0" NCoef="0" IVar="0" Cut="3.0790193006396294e-02" cType="0" res="-1.0623721033334732e-01" rms="4.4375178217887878e-01" purity="3.5026499629020691e-01" nType="0">
        <Node pos="l" depth="1" NCoef="0" IVar="-1" Cut="0.0000000000000000e+00" cType="1" res="3.3689076080918312e-03" rms="4.9615100026130676e-01" purity="5.6192064285278320e-01" nType="-99"/>
        <Node pos="r" depth="1" NCoef="0" IVar="6" Cut="7.9593276977539062e-01" cType="0" res="-2.3782734572887421e-01" rms="3.3959376811981201e-01" purity="1.5448802709579468e-01" nType="0">
          <Node pos="l" depth="2" NCoef="0" IVar="0" Cut="8.6431642994284630e-03" cType="0" res="1.2107681483030319e-01" rms="4.2693692445755005e-01" purity="6.5433138608932495e-01" nType="0">
            <Node pos="l" depth="3" NCoef="0" IVar="-1" Cut="0.0000000000000000e+00" cType="1" res="4.9023117870092392e-02" rms="3.2461094856262207e-01" purity="8.8058573007583618e-01" nType="-99"/>
            <Node pos="r" depth="3" NCoef="0" IVar="-1" Cut="0.0000000000000000e+00" cType="1" res="-3.1360760331153870e-03" rms="4.6682783961296082e-01" purity="4.0776601433753967e-01" nType="-99"/>
          </Node>
          <Node pos="r" depth="2" NCoef="0" IVar="0" Cut="1.0260156355798244e-02" cType="0" res="-2.5028964877128601e-01" rms="3.2919761538505554e-01" purity="1.3713185489177704e-01" nType="0">
            <Node pos="l" depth="3" NCoef="0" IVar="-1" Cut="0.0000000000000000e+00" cType="1" res="-1.1976856738328934e-02" rms="4.0847435593605042e-01" purity="2.3020221292972565e-01" nType="-99"/>
            <Node pos="r" depth="3" NCoef="0" IVar="-1" Cut="0.0000000000000000e+00" cType="1" res="-1.7787152901291847e-02" rms="2.0680105686187744e-01" purity="4.5745022594928741e-02" nType="-99"/>
          </Node>
        </Node>
      </Node>
    </BinaryTree>
    <BinaryTree type="DecisionTree" boostWeight="1.0000000000000000e+00" itree="17">
      <Node pos="s" depth="0" NCoef="0" IVar="0" Cut="2.7098773047327995e-02" cType="0" res="-9.1336689889431000e-02" rms="4.4501414895057678e-01" purity="3.6382964253425598e-01" nType="0">
        <Node pos="l" depth="1" NCoef="0" IVar="-1" Cut="0.0000000000000000e+00" cType="1" res="3.9641731418669224e-03" rms="4.9435463547706604e-01" purity="5.6582140922546387e-01" nType="-99"/>
        <Node pos="r" depth="1" NCoef="0" IVar="6" Cut="5.9725362062454224e-01" cType="0" res="-2.3559725284576416e-01" rms="3.2809481024742126e-01" purity="1.4388853311538696e-01" nType="0">
          <Node pos="l" depth="2" NCoef="0" IVar="4" Cut="2.2438889741897583e-01" cType="0" res="4.0139332413673401e-02" rms="4.5083907246589661e-01" purity="5.7106870412826538e-01" nType="0">
            <Node pos="l" depth="3" NCoef="0" IVar="-1" Cut="0.0000000000000000e+00" cType="1" res="3.5325422883033752e-02" rms="3.7941980361938477e-01" purity="7.9667448997497559e-01" nType="-99"/>
            <Node pos="r" depth="3" NCoef="0" IVar="-1" Cut="0.0000000000000000e+00" cType="1" res="-8.1101870164275169e-03" rms="4.5833402872085571e-01" purity="3.5026732087135315e-01" nType="-99"/>
          </Node>
          <Node pos="r" depth="2" NCoef="0" IVar="0" Cut="1.6771225258708000e-02" cType="0" res="-2.5586876273155212e-01" rms="3.0759823322296143e-01" purity="1.1248323321342468e-01" nType="0">
            <Node pos="l" depth="3" NCoef="0" IVar="-1" Cut="0.0000000000000000e+00" cType="1" res="-1.1664553545415401e-02" rms="4.3030759692192078e-01" purity="2.5311824679374695e-01" nType="-99"/>
            <Node pos="r" depth="3" NCoef="0" IVar="-1" Cut="0.0000000000000000e+00" cType="1" res="-1.4440526254475117e-02" rms="2.5322499871253967e-01" purity="7.0151381194591522e-02" nType="-99"/>
          </Node>
        </Node>
      </Node>
    </BinaryTree>
    <BinaryTree type="DecisionTree" boostWeight="1.0000000000000000e+00" itree="18">
      <Node pos="s" depth="0" NCoef="0" IVar="0" Cut="2.7436222881078720e-02" cType="0" res="-9.4514615833759308e-02" rms="4.4486889243125916e-01" purity="3.6063587665557861e-01" nType="0">
        <Node pos="l" depth="1" NCoef="0" IVar="-1" Cut="0.0000000000000000e+00" cType="1" res="2.1385087165981531e-03" rms="4.9579051136970520e-01" purity="5.5121129751205444e-01" nType="-99"/>
        <Node pos="r" depth="1" NCoef="0" IVar="6" Cut="2.6775690913200378e-01" cType="0" res="-2.2951504588127136e-01" rms="3.3070591092109680e-01" purity="1.4493747055530548e-01" nType="0">
          <Node pos="l" depth="2" NCoef="0" IVar="0" Cut="1.3035861775279045e-02" cType="0" res="-1.3937070965766907e-01" rms="4.1011792421340942e-01" purity="2.7029770612716675e-01" nType="0">
            <Node pos="l" depth="3" NCoef="0" IVar="-1" Cut="0.0000000000000000e+00" cType="1" res="-1.1334733244439121e-05" rms="4.7760480642318726e-01" purity="4.7339391708374023e-01" nType="-99"/>
            <Node pos="r" depth="3" NCoef="0" IVar="-1" Cut="0.0000000000000000e+00" cType="1" res="-1.1578602716326714e-02" rms="3.5861724615097046e-01" purity="1.7894470691680908e-01" nType="-99"/>
          </Node>
          <Node pos="r" depth="2" NCoef="0" IVar="0" Cut="1.1754038743674755e-02" cType="0" res="-2.6853695511817932e-01" rms="2.8081932663917542e-01" purity="9.0671226382255554e-02" nType="0">
            <Node pos="l" depth="3" NCoef="0" IVar="-1" Cut="0.0000000000000000e+00" cType="1" res="-1.4256901107728481e-02" rms="3.6922553181648254e-01" purity="1.6748043894767761e-01" nType="-99"/>
            <Node pos="r" depth="3" NCoef="0" IVar="-1" Cut="0.0000000000000000e+00" cType="1" res="-1.4803207479417324e-02" rms="1.8211540579795837e-01" purity="3.4371536225080490e-02" nType="-99"/>
          </Node>
        </Node>
      </Node>
    </BinaryTree>
    <BinaryTree type="DecisionTree" boostWeight="1.0000000000000000e+00" itree="19">
      <Node pos="s" depth="0" NCoef="0" IVar="0" Cut="2.0526794716715813e-02" cType="0" res="-9.2292279005050659e-02" rms="4.4249817728996277e-01" purity="3.6027386784553528e-01" nType="0">
        <Node pos="l" depth="1" NCoef="0" IVar="-1" Cut="0.0000000000000000e+00" cType="1" res="7.8104797285050154e-04" rms="4.9390468001365662e-01" purity="5.2656179666519165e-01" nType="-99"/>
        <Node pos="r" depth="1" NCoef="0" IVar="6" Cut="5.9722673892974854e-01" cType="0" res="-2.4265061318874359e-01" rms="2.9377645254135132e-01" purity="1.1252631992101669e-01" nType="0">
          <Node pos="l" depth="2" NCoef="0" IVar="0" Cut="1.9341217121109366e-03" cType="0" res="2.8696438297629356e-02" rms="4.4234138727188110e-01" purity="5.2727705240249634e-01" nType="0">
            <Node pos="l" depth="3" NCoef="0" IVar="-1" Cut="0.0000000000000000e+00" cType="1" res="1.4223529025912285e-02" rms="4.3151652812957764e-01" purity="6.4853197336196899e-01" nType="-99"/>
            <Node pos="r" depth="3" NCoef="0" IVar="-1" Cut="0.0000000000000000e+00" cType="1" res="-1.7977377399802208e-02" rms="3.9745292067527771e-01" purity="2.1527761220932007e-01" nType="-99"/>
          </Node>
          <Node pos="r" depth="2" NCoef="0" IVar="0" Cut="1.1727691628038883e-02" cType="0" res="-2.6264339685440063e-01" rms="2.6911371946334839e-01" purity="8.1967577338218689e-02" nType="0">
            <Node pos="l" depth="3" NCoef="0" IVar="-1" Cut="0.0000000000000000e+00" cType="1" res="-1.3555430807173252e-02" rms="3.6764916777610779e-01" purity="1.6734845936298370e-01" nType="-99"/>
            <Node pos="r" depth="3" NCoef="0" IVar="-1" Cut="0.0000000000000000e+00" cType="1" res="-1.6091503202915192e-02" rms="2.1183365583419800e-01" purity="4.8051796853542328e-02" nType="-99"/>
          </Node>
        </Node>
      </Node>
    </BinaryTree>
    <BinaryTree type="DecisionTree" boostWeight="1.0000000000000000e+00" itree="20">
      <Node pos="s" depth="0" NCoef="0" IVar="0" Cut="3.0790295451879501e-02" cType="0" res="-9.8752088844776154e-02" rms="4.3925681710243225e-01" purity="3.5038667917251587e-01" nType="0">
        <Node pos="l" depth="1" NCoef="0" IVar="-1" Cut="0.0000000000000000e+00" cType="1" res="2.1011508069932461e-03" rms="4.9700683355331421e-01" purity="5.5462795495986938e-01" nType="-99"/>
        <Node pos="r" depth="1" NCoef="0" IVar="6" Cut="3.9908900856971741e-01" cType="0" res="-2.1503365039825439e-01" rms="3.3736974000930786e-01" purity="1.5631578862667084e-01" nType="0">
          <Node pos="l" depth="2" NCoef="0" IVar="0" Cut="7.3311198502779007e-03" cType="0" res="-6.3452132046222687e-02" rms="4.4478306174278259e-01" purity="3.9146602153778076e-01" nType="0">
            <Node pos="l" depth="3" NCoef="0" IVar="-1" Cut="0.0000000000000000e+00" cType="1" res="3.7869438529014587e-03" rms="4.7183287143707275e-01" purity="5.5695509910583496e-01" nType="-99"/>
            <Node pos="r" depth="3" NCoef="0" IVar="-1" Cut="0.0000000000000000e+00" cType="1" res="-1.2227118015289307e-02" rms="3.6831545829772949e-01" purity="1.7865084111690521e-01" nType="-99"/>
          </Node>
          <Node pos="r" depth="2" NCoef="0" IVar="0" Cut="1.6127029433846474e-02" cType="0" res="-2.4278447031974792e-01" rms="3.0571377277374268e-01" purity="1.1326563358306885e-01" nType="0">
            <Node pos="l" depth="3" NCoef="0" IVar="-1" Cut="0.0000000000000000e+00" cType="1" res="-1.1546980589628220e-02" rms="4.2327332496643066e-01" purity="2.4276334047317505e-01" nType="-99"/>
            <Node pos="r" depth="3" NCoef="0" IVar="-1" Cut="0.0000000000000000e+00" cType="1" res="-1.5702517703175545e-02" rms="2.2393020987510681e-01" purity="5.3189106285572052e-02" nType="-99"/>
          </Node>
        </Node>
      </Node>
    </BinaryTree>
    <BinaryTree type="DecisionTree" boostWeight="1.0000000000000000e+00" itree="21">
      <Node pos="s" depth="0" NCoef="0" IVar="0" Cut="2.0526794716715813e-02" cType="0" res="-9.2638209462165833e-02" rms="4.3561175465583801e-01" purity="3.5287085175514221e-01" nType="0">
        <Node pos="l" depth="1" NCoef="0" IVar="-1" Cut="0.0000000000000000e+00" cType="1" res="1.2160072801634669e-03" rms="4.9260431528091431e-01" purity="5.3106558322906494e-01" nType="-99"/>
        <Node pos="r" depth="1" NCoef="0" IVar="6" Cut="6.6190743446350098e-01" cType="0" res="-2.4399998784065247e-01" rms="2.7404680848121643e-01" purity="9.7730651497840881e-02" nType="0">
          <Node pos="l" depth="2" NCoef="0" IVar="0" Cut="4.8353043384850025e-03" cType="0" res="1.0357546061277390e-01" rms="4.2305079102516174e-01" purity="6.4099138975143433e-01" nType="0">
            <Node pos="l" depth="3" NCoef="0" IVar="-1" Cut="0.0000000000000000e+00" cType="1" res="4.2900133877992630e-02" rms="3.5253986716270447e-01" purity="8.2989519834518433e-01" nType="-99"/>
            <Node pos="r" depth="3" NCoef="0" IVar="-1" Cut="0.0000000000000000e+00" cType="1" res="-9.5089981332421303e-03" rms="4.6384459733963013e-01" purity="3.4227624535560608e-01" nType="-99"/>
          </Node>
          <Node pos="r" depth="2" NCoef="0" IVar="6" Cut="4.4114974141120911e-01" cType="0" res="-2.6020631194114685e-01" rms="2.5369855761528015e-01" purity="7.2400167584419250e-02" nType="0">
            <Node pos="l" depth="3" NCoef="0" IVar="-1" Cut="0.0000000000000000e+00" cType="1" res="-9.6604395657777786e-03" rms="4.0538439154624939e-01" purity="2.3468148708343506e-01" nType="-99"/>
            <Node pos="r" depth="3" NCoef="0" IVar="-1" Cut="0.0000000000000000e+00" cType="1" res="-1.4024452306330204e-02" rms="2.3665709793567657e-01" purity="6.0578752309083939e-02" nType="-99"/>
          </Node>
        </Node>
      </Node>
    </BinaryTree>
    <BinaryTree type="DecisionTree" boostWeight="1.0000000000000000e+00" itree="22">
      <Node pos="s" depth="0" NCoef="0" IVar="0" Cut="3.0790295451879501e-02" cType="0" res="-8.5264787077903748e-02" rms="4.3860721588134766e-01" purity="3.5966292023658752e-01" nType="0">
        <Node pos="l" depth="1" NCoef="0" IVar="-1" Cut="0.0000000000000000e+00" cType="1" res="4.1186623275279999e-03" rms="4.9406695365905762e-01" purity="5.7679742574691772e-01" nType="-99"/>
        <Node pos="r" depth="1" NCoef="0" IVar="6" Cut="3.9745661616325378e-01" cType="0" res="-2.0485229790210724e-01" rms="3.3881920576095581e-01" purity="1.5900273621082306e-01" nType="0">
          <Node pos="l" depth="2" NCoef="0" IVar="0" Cut="4.3939240276813507e-03" cType="0" res="-5.7365678250789642e-02" rms="4.4047531485557556e-01" purity="3.9491280913352966e-01" nType="0">
            <Node pos="l" depth="3" NCoef="0" IVar="-1" Cut="0.0000000000000000e+00" cType="1" res="3.0774325132369995e-03" rms="4.6633639931678772e-01" purity="5.4805499315261841e-01" nType="-99"/>
            <Node pos="r" depth="3" NCoef="0" IVar="-1" Cut="0.0000000000000000e+00" cType="1" res="-1.3286615721881390e-02" rms="3.4402957558631897e-01" purity="1.4608202874660492e-01" nType="-99"/>
          </Node>
          <Node pos="r" depth="2" NCoef="0" IVar="0" Cut="1.1727609671652317e-02" cType="0" res="-2.3246951401233673e-01" rms="3.0842900276184082e-01" purity="1.1482802778482437e-01" nType="0">
            <Node pos="l" depth="3" NCoef="0" IVar="-1" Cut="0.0000000000000000e+00" cType="1" res="-1.2102870270609856e-02" rms="3.9572536945343018e-01" purity="2.0234832167625427e-01" nType="-99"/>
            <Node pos="r" depth="3" NCoef="0" IVar="-1" Cut="0.0000000000000000e+00" cType="1" res="-1.3897902332246304e-02" rms="2.0492212474346161e-01" purity="4.3969202786684036e-02" nType="-99"/>
          </Node>
        </Node>
      </Node>
    </BinaryTree>
    <BinaryTree type="DecisionTree" boostWeight="1.0000000000000000e+00" itree="23">
      <Node pos="s" depth="0" NCoef="0" IVar="0" Cut="3.0790295451879501e-02" cType="0" res="-7.9803094267845154e-02" rms="4.3788909912109375e-01" purity="3.6407956480979919e-01" nType="0">
        <Node pos="l" depth="1" NCoef="0" IVar="-1" Cut="0.0000000000000000e+00" cType="1" res="4.9678874202072620e-03" rms="4.9306917190551758e-01" purity="5.8296263217926025e-01" nType="-99"/>
        <Node pos="r" depth="1" NCoef="0" IVar="6" Cut="2.6778522133827209e-01" cType="0" res="-2.0312657952308655e-01" rms="3.3357885479927063e-01" purity="1.5329106152057648e-01" nType="0">
          <Node pos="l" depth="2" NCoef="0" IVar="0" Cut="1.4635453000664711e-02" cType="0" res="-1.1743889749050140e-01" rms="4.0311187505722046e-01" purity="2.7377247810363770e-01" nType="0">
            <Node pos="l" depth="3" NCoef="0" IVar="-1" Cut="0.0000000000000000e+00" cType="1" res="2.8856338467448950e-03" rms="4.7456932067871094e-01" purity="5.0320011377334595e-01" nType="-99"/>
            <Node pos="r" depth="3" NCoef="0" IVar="-1" Cut="0.0000000000000000e+00" cType="1" res="-1.0874872095882893e-02" rms="3.4283697605133057e-01" purity="1.6614268720149994e-01" nType="-99"/>
          </Node>
          <Node pos="r" depth="2" NCoef="0" IVar="0" Cut="1.6124099493026733e-02" cType="0" res="-2.3966903984546661e-01" rms="2.9148423671722412e-01" purity="1.0191041231155396e-01" nType="0">
            <Node pos="l" depth="3" NCoef="0" IVar="-1" Cut="0.0000000000000000e+00" cType="1" res="-1.2025073170661926e-02" rms="4.0811765193939209e-01" purity="2.1723942458629608e-01" nType="-99"/>
            <Node pos="r" depth="3" NCoef="0" IVar="-1" Cut="0.0000000000000000e+00" cType="1" res="-1.6415916383266449e-02" rms="1.9958725571632385e-01" purity="4.1659276932477951e-02" nType="-99"/>
          </Node>
        </Node>
      </Node>
    </BinaryTree>
    <BinaryTree type="DecisionTree" boostWeight="1.0000000000000000e+00" itree="24">
      <Node pos="s" depth="0" NCoef="0" IVar="0" Cut="3.0790295451879501e-02" cType="0" res="-9.2144750058650970e-02" rms="4.3195316195487976e-01" purity="3.4800457954406738e-01" nType="0">
        <Node pos="l" depth="1" NCoef="0" IVar="-1" Cut="0.0000000000000000e+00" cType="1" res="3.2029263675212860e-03" rms="4.9509319663047791e-01" purity="5.6987643241882324e-01" nType="-99"/>
        <Node pos="r" depth="1" NCoef="0" IVar="6" Cut="3.9758792519569397e-01" cType="0" res="-2.0641323924064636e-01" rms="3.2509237527847290e-01" purity="1.4492681622505188e-01" nType="0">
          <Node pos="l" depth="2" NCoef="0" IVar="0" Cut="1.0253244079649448e-02" cType="0" res="-6.8054288625717163e-02" rms="4.3560060858726501e-01" purity="3.7241935729980469e-01" nType="0">
            <Node pos="l" depth="3" NCoef="0" IVar="-1" Cut="0.0000000000000000e+00" cType="1" res="6.7948042415082455e-03" rms="4.7279742360115051e-01" purity="6.0244119167327881e-01" nType="-99"/>
            <Node pos="r" depth="3" NCoef="0" IVar="-1" Cut="0.0000000000000000e+00" cType="1" res="-1.0871186852455139e-02" rms="3.6769032478332520e-01" purity="1.8846499919891357e-01" nType="-99"/>
          </Node>
          <Node pos="r" depth="2" NCoef="0" IVar="0" Cut="1.6127029433846474e-02" cType="0" res="-2.3313798010349274e-01" rms="2.9160946607589722e-01" purity="1.0098547488451004e-01" nType="0">
            <Node pos="l" depth="3" NCoef="0" IVar="-1" Cut="0.0000000000000000e+00" cType="1" res="-1.3144453987479210e-02" rms="4.1092035174369812e-01" purity="2.1861520409584045e-01" nType="-99"/>
            <Node pos="r" depth="3" NCoef="0" IVar="-1" Cut="0.0000000000000000e+00" cType="1" res="-1.4997168444097042e-02" rms="2.1332131326198578e-01" purity="4.7961350530385971e-02" nType="-99"/>
          </Node>
        </Node>
      </Node>
    </BinaryTree>
    <BinaryTree type="DecisionTree" boostWeight="1.0000000000000000e+00" itree="25">
      <Node pos="s" depth="0" NCoef="0" IVar="0" Cut="2.0526902750134468e-02" cType="0" res="-8.5779756307601929e-02" rms="4.3536013364791870e-01" purity="3.5574215650558472e-01" nType="0">
        <Node pos="l" depth="1" NCoef="0" IVar="-1" Cut="0.0000000000000000e+00" cType="1" res="5.0466205721022561e-05" rms="4.9325528740882874e-01" purity="5.2203857898712158e-01" nType="-99"/>
        <Node pos="r" depth="1" NCoef="0" IVar="6" Cut="6.6772925853729248e-01" cType="0" res="-2.1602612733840942e-01" rms="2.8323152661323547e-01" purity="1.0485512763261795e-01" nType="0">
          <Node pos="l" depth="2" NCoef="0" IVar="0" Cut="9.6444636583328247e-03" cType="0" res="5.4067928344011307e-02" rms="4.4257703423500061e-01" purity="5.7573664188385010e-01" nType="0">
            <Node pos="l" depth="3" NCoef="0" IVar="-1" Cut="0.0000000000000000e+00" cType="1" res="3.9068140089511871e-02" rms="3.3271837234497070e-01" purity="8.6824756860733032e-01" nType="-99"/>
            <Node pos="r" depth="3" NCoef="0" IVar="-1" Cut="0.0000000000000000e+00" cType="1" res="-1.7628910718485713e-03" rms="4.7442233562469482e-01" purity="4.2943951487541199e-01" nType="-99"/>
          </Node>
          <Node pos="r" depth="2" NCoef="0" IVar="0" Cut="9.7730746492743492e-03" cType="0" res="-2.2975267469882965e-01" rms="2.6541763544082642e-01" purity="8.0924317240715027e-02" nType="0">
            <Node pos="l" depth="3" NCoef="0" IVar="-1" Cut="0.0000000000000000e+00" cType="1" res="-1.1696691624820232e-02" rms="3.4397733211517334e-01" purity="1.4530356228351593e-01" nType="-99"/>
            <Node pos="r" depth="3" NCoef="0" IVar="-1" Cut="0.0000000000000000e+00" cType="1" res="-1.3631338253617287e-02" rms="1.9432072341442108e-01" purity="4.0212914347648621e-02" nType="-99"/>
          </Node>
        </Node>
      </Node>
    </BinaryTree>
    <BinaryTree type="DecisionTree" boostWeight="1.0000000000000000e+00" itree="26">
      <Node pos="s" depth="0" NCoef="0" IVar="0" Cut="1.8290922045707703e-02" cType="0" res="-8.3164341747760773e-02" rms="4.3436747789382935e-01" purity="3.5488522052764893e-01" nType="0">
        <Node pos="l" depth="1" NCoef="0" IVar="-1" Cut="0.0000000000000000e+00" cType="1" res="-2.1693434973713011e-04" rms="4.9172589182853699e-01" purity="5.1313096284866333e-01" nType="-99"/>
        <Node pos="r" depth="1" NCoef="0" IVar="6" Cut="3.9758792519569397e-01" cType="0" res="-2.1630209684371948e-01" rms="2.6938334107398987e-01" purity="9.3805328011512756e-02" nType="0">
          <Node pos="l" depth="2" NCoef="0" IVar="0" Cut="1.7417344497516751e-03" cType="0" res="-7.8879393637180328e-02" rms="4.2058789730072021e-01" purity="3.1802514195442200e-01" nType="0">
            <Node pos="l" depth="3" NCoef="0" IVar="-1" Cut="0.0000000000000000e+00" cType="1" res="-1.1228021467104554e-03" rms="4.4608655571937561e-01" purity="4.0327307581901550e-01" nType="-99"/>
            <Node pos="r" depth="3" NCoef="0" IVar="-1" Cut="0.0000000000000000e+00" cType="1" res="-2.1988701075315475e-02" rms="2.6528087258338928e-01" purity="7.5536847114562988e-02" nType="-99"/>
          </Node>
          <Node pos="r" depth="2" NCoef="0" IVar="0" Cut="1.0449177585542202e-02" cType="0" res="-2.4139218032360077e-01" rms="2.2235639393329620e-01" purity="5.2868183702230453e-02" nType="0">
            <Node pos="l" depth="3" NCoef="0" IVar="-1" Cut="0.0000000000000000e+00" cType="1" res="-1.2439190410077572e-02" rms="3.1318208575248718e-01" purity="1.1123938858509064e-01" nType="-99"/>
            <Node pos="r" depth="3" NCoef="0" IVar="-1" Cut="0.0000000000000000e+00" cType="1" res="-1.5617560595273972e-02" rms="1.6741365194320679e-01" purity="2.8874028474092484e-02" nType="-99"/>
          </Node>
        </Node>
      </Node>
    </BinaryTree>
    <BinaryTree type="DecisionTree" boostWeight="1.0000000000000000e+00" itree="27">
      <Node pos="s" depth="0" NCoef="0" IVar="0" Cut="2.8470162302255630e-02" cType="0" res="-8.0779872834682465e-02" rms="4.3246230483055115e-01" purity="3.5528481006622314e-01" nType="0">
        <Node pos="l" depth="1" NCoef="0" IVar="-1" Cut="0.0000000000000000e+00" cType="1" res="2.5850133970379829e-03" rms="4.9532824754714966e-01" purity="5.6249874830245972e-01" nType="-99"/>
        <Node pos="r" depth="1" NCoef="0" IVar="6" Cut="2.6778522133827209e-01" cType="0" res="-1.9085383415222168e-01" rms="3.2119840383529663e-01" purity="1.4229923486709595e-01" nType="0">
          <Node pos="l" depth="2" NCoef="0" IVar="0" Cut="1.4875135384500027e-02" cType="0" res="-1.1551494896411896e-01" rms="3.9210939407348633e-01" purity="2.5944796204566956e-01" nType="0">
            <Node pos="l" depth="3" NCoef="0" IVar="-1" Cut="0.0000000000000000e+00" cType="1" res="2.7127505745738745e-03" rms="4.7912073135375977e-01" purity="5.0880616903305054e-01" nType="-99"/>
            <Node pos="r" depth="3" NCoef="0" IVar="-1" Cut="0.0000000000000000e+00" cType="1" res="-9.5151802524924278e-03" rms="3.4009110927581787e-01" purity="1.6872638463973999e-01" nType="-99"/>
          </Node>
          <Node pos="r" depth="2" NCoef="0" IVar="0" Cut="9.4885407015681267e-03" cType="0" res="-2.2618304193019867e-01" rms="2.7484381198883057e-01" purity="8.7363854050636292e-02" nType="0">
            <Node pos="l" depth="3" NCoef="0" IVar="-1" Cut="0.0000000000000000e+00" cType="1" res="-1.3084618374705315e-02" rms="3.4496662020683289e-01" purity="1.4241591095924377e-01" nType="-99"/>
            <Node pos="r" depth="3" NCoef="0" IVar="-1" Cut="0.0000000000000000e+00" cType="1" res="-1.6490440815687180e-02" rms="1.5526914596557617e-01" purity="2.4719569832086563e-02" nType="-99"/>
          </Node>
        </Node>
      </Node>
    </BinaryTree>
    <BinaryTree type="DecisionTree" boostWeight="1.0000000000000000e+00" itree="28">
      <Node pos="s" depth="0" NCoef="0" IVar="0" Cut="4.1053589433431625e-02" cType="0" res="-7.7613487839698792e-02" rms="4.3142712116241455e-01" purity="3.5468694567680359e-01" nType="0">
        <Node pos="l" depth="1" NCoef="0" IVar="-1" Cut="0.0000000000000000e+00" cType="1" res="5.1132105290889740e-03" rms="4.9134987592697144e-01" purity="5.9260290861129761e-01" nType="-99"/>
        <Node pos="r" depth="1" NCoef="0" IVar="6" Cut="2.7908074855804443e-01" cType="0" res="-1.5760836005210876e-01" rms="3.6789876222610474e-01" purity="2.0856167376041412e-01" nType="0">
          <Node pos="l" depth="2" NCoef="0" IVar="0" Cut="1.7586668953299522e-02" cType="0" res="-3.4077849239110947e-02" rms="4.2711415886878967e-01" purity="3.7623360753059387e-01" nType="0">
            <Node pos="l" depth="3" NCoef="0" IVar="-1" Cut="0.0000000000000000e+00" cType="1" res="1.5006689354777336e-02" rms="4.6216881275177002e-01" purity="6.5728670358657837e-01" nType="-99"/>
            <Node pos="r" depth="3" NCoef="0" IVar="-1" Cut="0.0000000000000000e+00" cType="1" res="-9.3333059921860695e-03" rms="3.6539444327354431e-01" purity="2.0476160943508148e-01" nType="-99"/>
          </Node>
          <Node pos="r" depth="2" NCoef="0" IVar="0" Cut="1.3684601522982121e-02" cType="0" res="-2.0075258612632751e-01" rms="3.3423998951911926e-01" purity="1.5000063180923462e-01" nType="0">
            <Node pos="l" depth="3" NCoef="0" IVar="-1" Cut="0.0000000000000000e+00" cType="1" res="-1.1068608611822128e-02" rms="4.3325179815292358e-01" purity="2.6781651377677917e-01" nType="-99"/>
            <Node pos="r" depth="3" NCoef="0" IVar="-1" Cut="0.0000000000000000e+00" cType="1" res="-1.3593768700957298e-02" rms="1.8625737726688385e-01" purity="3.6106191575527191e-02" nType="-99"/>
          </Node>
        </Node>
      </Node>
    </BinaryTree>
    <BinaryTree type="DecisionTree" boostWeight="1.0000000000000000e+00" itree="29">
      <Node pos="s" depth="0" NCoef="0" IVar="0" Cut="3.0790295451879501e-02" cType="0" res="-7.9597584903240204e-02" rms="4.2890080809593201e-01" purity="3.5291105508804321e-01" nType="0">
        <Node pos="l" depth="1" NCoef="0" IVar="-1" Cut="0.0000000000000000e+00" cType="1" res="2.2866141516715288e-03" rms="4.9516755342483521e-01" purity="5.6573903560638428e-01" nType="-99"/>
        <Node pos="r" depth="1" NCoef="0" IVar="6" Cut="6.6461104154586792e-01" cType="0" res="-1.7779244482517242e-01" rms="3.2577657699584961e-01" purity="1.5131291747093201e-01" nType="0">
          <Node pos="l" depth="2" NCoef="0" IVar="0" Cut="1.4632457168772817e-03" cType="0" res="6.2729552388191223e-02" rms="4.1481149196624756e-01" purity="6.0617691278457642e-01" nType="0">
            <Node pos="l" depth="3" NCoef="0" IVar="-1" Cut="0.0000000000000000e+00" cType="1" res="2.5620484724640846e-02" rms="3.9757114648818970e-01" purity="7.4775093793869019e-01" nType="-99"/>
            <Node pos="r" depth="3" NCoef="0" IVar="-1" Cut="0.0000000000000000e+00" cType="1" res="-1.3245760463178158e-02" rms="3.5872590541839600e-01" purity="1.5008503198623657e-01" nType="-99"/>
          </Node>
          <Node pos="r" depth="2" NCoef="0" IVar="0" Cut="1.3194863684475422e-02" cType="0" res="-1.9171071052551270e-01" rms="3.1428232789039612e-01" purity="1.2499134242534637e-01" nType="0">
            <Node pos="l" depth="3" NCoef="0" IVar="-1" Cut="0.0000000000000000e+00" cType="1" res="-9.7055518999695778e-03" rms="4.0901628136634827e-01" purity="2.2902888059616089e-01" nType="-99"/>
            <Node pos="r" depth="3" NCoef="0" IVar="-1" Cut="0.0000000000000000e+00" cType="1" res="-1.3410022482275963e-02" rms="2.2521489858627319e-01" purity="5.6084293872117996e-02" nType="-99"/>
          </Node>
        </Node>
      </Node>
    </BinaryTree>
    <BinaryTree type="DecisionTree" boostWeight="1.0000000000000000e+00" itree="30">
      <Node pos="s" depth="0" NCoef="0" IVar="0" Cut="2.0526794716715813e-02" cType="0" res="-7.3106452822685242e-02" rms="4.3181988596916199e-01" purity="3.5775575041770935e-01" nType="0">
        <Node pos="l" depth="1" NCoef="0" IVar="-1" Cut="0.0000000000000000e+00" cType="1" res="3.7633019383065403e-04" rms="4.9213466048240662e-01" purity="5.2645790576934814e-01" nType="-99"/>
        <Node pos="r" depth="1" NCoef="0" IVar="6" Cut="7.9749381542205811e-01" cType="0" res="-1.8598896265029907e-01" rms="2.8897392749786377e-01" purity="1.1101228743791580e-01" nType="0">
          <Node pos="l" depth="2" NCoef="0" IVar="3" Cut="-6.9174081087112427e-01" cType="0" res="1.2016833573579788e-01" rms="4.1682443022727966e-01" purity="6.5402227640151978e-01" nType="0">
            <Node pos="l" depth="3" NCoef="0" IVar="-1" Cut="0.0000000000000000e+00" cType="1" res="4.9062218517065048e-02" rms="3.5149624943733215e-01" purity="8.1178790330886841e-01" nType="-99"/>
            <Node pos="r" depth="3" NCoef="0" IVar="-1" Cut="0.0000000000000000e+00" cType="1" res="-1.0214381851255894e-02" rms="4.1933262348175049e-01" purity="4.5390015840530396e-01" nType="-99"/>
          </Node>
          <Node pos="r" depth="2" NCoef="0" IVar="6" Cut="2.6750883460044861e-01" cType="0" res="-1.9671204686164856e-01" rms="2.7739411592483521e-01" purity="9.1993488371372223e-02" nType="0">
            <Node pos="l" depth="3" NCoef="0" IVar="-1" Cut="0.0000000000000000e+00" cType="1" res="-9.2824324965476990e-03" rms="3.6240616440773010e-01" purity="1.7573587596416473e-01" nType="-99"/>
            <Node pos="r" depth="3" NCoef="0" IVar="-1" Cut="0.0000000000000000e+00" cType="1" res="-1.4593516476452351e-02" rms="2.3058056831359863e-01" purity="5.7783257216215134e-02" nType="-99"/>
          </Node>
        </Node>
      </Node>
    </BinaryTree>
    <BinaryTree type="DecisionTree" boostWeight="1.0000000000000000e+00" itree="31">
      <Node pos="s" depth="0" NCoef="0" IVar="0" Cut="1.8980041146278381e-02" cType="0" res="-7.8008182346820831e-02" rms="4.2776280641555786e-01" purity="3.4958487749099731e-01" nType="0">
        <Node pos="l" depth="1" NCoef="0" IVar="-1" Cut="0.0000000000000000e+00" cType="1" res="-3.9026222657412291e-04" rms="4.9099633097648621e-01" purity="5.1642167568206787e-01" nType="-99"/>
        <Node pos="r" depth="1" NCoef="0" IVar="6" Cut="4.0108102560043335e-01" cType="0" res="-1.8759362399578094e-01" rms="2.7655684947967529e-01" purity="1.0142559558153152e-01" nType="0">
          <Node pos="l" depth="2" NCoef="0" IVar="4" Cut="1.9955781102180481e-01" cType="0" res="-7.9014651477336884e-02" rms="4.1068729758262634e-01" purity="3.1372335553169250e-01" nType="0">
            <Node pos="l" depth="3" NCoef="0" IVar="-1" Cut="0.0000000000000000e+00" cType="1" res="1.2047246098518372e-02" rms="4.6639475226402283e-01" purity="5.6888836622238159e-01" nType="-99"/>
            <Node pos="r" depth="3" NCoef="0" IVar="-1" Cut="0.0000000000000000e+00" cType="1" res="-1.0417378507554531e-02" rms="3.1210014224052429e-01" purity="1.3334697484970093e-01" nType="-99"/>
          </Node>
          <Node pos="r" depth="2" NCoef="0" IVar="0" Cut="7.2259893640875816e-03" cType="0" res="-2.0825447142124176e-01" rms="2.3721937835216522e-01" purity="6.1028726398944855e-02" nType="0">
            <Node pos="l" depth="3" NCoef="0" IVar="-1" Cut="0.0000000000000000e+00" cType="1" res="-1.1089716106653214e-02" rms="2.8433123230934143e-01" purity="9.0211145579814911e-02" nType="-99"/>
            <Node pos="r" depth="3" NCoef="0" IVar="-1" Cut="0.0000000000000000e+00" cType="1" res="-1.6450222581624985e-02" rms="1.6906662285327911e-01" purity="2.9538447037339211e-02" nType="-99"/>
          </Node>
        </Node>
      </Node>
    </BinaryTree>
    <BinaryTree type="DecisionTree" boostWeight="1.0000000000000000e+00" itree="32">
      <Node pos="s" depth="0" NCoef="0" IVar="0" Cut="2.0526794716715813e-02" cType="0" res="-7.2471871972084045e-02" rms="4.2679840326309204e-01" purity="3.5197049379348755e-01" nType="0">
        <Node pos="l" depth="1" NCoef="0" IVar="-1" Cut="0.0000000000000000e+00" cType="1" res="6.9555547088384628e-04" rms="4.9182391166687012e-01" purity="5.3122192621231079e-01" nType="-99"/>
        <Node pos="r" depth="1" NCoef="0" IVar="6" Cut="3.9919579029083252e-01" cType="0" res="-1.8233723938465118e-01" rms="2.8145426511764526e-01" purity="1.0564284026622772e-01" nType="0">
          <Node pos="l" depth="2" NCoef="0" IVar="4" Cut="2.2449211776256561e-01" cType="0" res="-7.4345953762531281e-02" rms="4.2128983139991760e-01" purity="3.3545210957527161e-01" nType="0">
            <Node pos="l" depth="3" NCoef="0" IVar="-1" Cut="0.0000000000000000e+00" cType="1" res="8.5925273597240448e-03" rms="4.3455967307090759e-01" purity="5.7313883304595947e-01" nType="-99"/>
            <Node pos="r" depth="3" NCoef="0" IVar="-1" Cut="0.0000000000000000e+00" cType="1" res="-8.5927573963999748e-03" rms="3.9867261052131653e-01" purity="2.2601041197776794e-01" nType="-99"/>
          </Node>
          <Node pos="r" depth="2" NCoef="0" IVar="0" Cut="1.2691779993474483e-02" cType="0" res="-2.0115289092063904e-01" rms="2.4435406923294067e-01" purity="6.5602451562881470e-02" nType="0">
            <Node pos="l" depth="3" NCoef="0" IVar="-1" Cut="0.0000000000000000e+00" cType="1" res="-9.2851668596267700e-03" rms="3.4822183847427368e-01" purity="1.4288100600242615e-01" nType="-99"/>
            <Node pos="r" depth="3" NCoef="0" IVar="-1" Cut="0.0000000000000000e+00" cType="1" res="-1.2368579395115376e-02" rms="1.8963649868965149e-01" purity="3.7546947598457336e-02" nType="-99"/>
          </Node>
        </Node>
      </Node>
    </BinaryTree>
    <BinaryTree type="DecisionTree" boostWeight="1.0000000000000000e+00" itree="33">
      <Node pos="s" depth="0" NCoef="0" IVar="0" Cut="2.8470162302255630e-02" cType="0" res="-6.4947836101055145e-02" rms="4.3013092875480652e-01" purity="3.6048015952110291e-01" nType="0">
        <Node pos="l" depth="1" NCoef="0" IVar="-1" Cut="0.0000000000000000e+00" cType="1" res="2.5824571494013071e-03" rms="4.9426636099815369e-01" purity="5.6627094745635986e-01" nType="-99"/>
        <Node pos="r" depth="1" NCoef="0" IVar="6" Cut="2.6650005578994751e-01" cType="0" res="-1.6003996133804321e-01" rms="3.2462152838706970e-01" purity="1.4549604058265686e-01" nType="0">
          <Node pos="l" depth="2" NCoef="0" IVar="0" Cut="1.6257230192422867e-02" cType="0" res="-8.5630789399147034e-02" rms="3.9999198913574219e-01" purity="2.7343937754631042e-01" nType="0">
            <Node pos="l" depth="3" NCoef="0" IVar="-1" Cut="0.0000000000000000e+00" cType="1" res="9.3301795423030853e-03" rms="4.8580166697502136e-01" purity="5.7071065902709961e-01" nType="-99"/>
            <Node pos="r" depth="3" NCoef="0" IVar="-1" Cut="0.0000000000000000e+00" cType="1" res="-9.6150375902652740e-03" rms="3.4953841567039490e-01" purity="1.7632716894149780e-01" nType="-99"/>
          </Node>
          <Node pos="r" depth="2" NCoef="0" IVar="0" Cut="9.4885407015681267e-03" cType="0" res="-1.8998602032661438e-01" rms="2.8332746028900146e-01" purity="9.4005085527896881e-02" nType="0">
            <Node pos="l" depth="3" NCoef="0" IVar="-1" Cut="0.0000000000000000e+00" cType="1" res="-1.1940064840018749e-02" rms="3.5311639308929443e-01" purity="1.5124717354774475e-01" nType="-99"/>
            <Node pos="r" depth="3" NCoef="0" IVar="-1" Cut="0.0000000000000000e+00" cType="1" res="-1.2602814473211765e-02" rms="1.6352072358131409e-01" purity="2.7507940307259560e-02" nType="-99"/>
          </Node>
        </Node>
      </Node>
    </BinaryTree>
    <BinaryTree type="DecisionTree" boostWeight="1.0000000000000000e+00" itree="34">
      <Node pos="s" depth="0" NCoef="0" IVar="0" Cut="3.0790295451879501e-02" cType="0" res="-7.3643974959850311e-02" rms="4.2410430312156677e-01" purity="3.5019779205322266e-01" nType="0">
        <Node pos="l" depth="1" NCoef="0" IVar="-1" Cut="0.0000000000000000e+00" cType="1" res="2.0601814612746239e-03" rms="4.9500101804733276e-01" purity="5.6623810529708862e-01" nType="-99"/>
        <Node pos="r" depth="1" NCoef="0" IVar="0" Cut="1.6127029433846474e-02" cType="0" res="-1.6469746828079224e-01" rms="3.1749805808067322e-01" purity="1.4442655444145203e-01" nType="0">
          <Node pos="l" depth="2" NCoef="0" IVar="6" Cut="3.1556361913681030e-01" cType="0" res="-1.0041901469230652e-01" rms="4.3593278527259827e-01" purity="2.9708689451217651e-01" nType="0">
            <Node pos="l" depth="3" NCoef="0" IVar="-1" Cut="0.0000000000000000e+00" cType="1" res="3.4821513108909130e-03" rms="4.8963171243667603e-01" purity="5.5257683992385864e-01" nType="-99"/>
            <Node pos="r" depth="3" NCoef="0" IVar="-1" Cut="0.0000000000000000e+00" cType="1" res="-1.0791867971420288e-02" rms="4.0988603234291077e-01" purity="2.2119267284870148e-01" nType="-99"/>
          </Node>
          <Node pos="r" depth="2" NCoef="0" IVar="6" Cut="6.6772925853729248e-01" cType="0" res="-1.9300414621829987e-01" rms="2.4266940355300903e-01" purity="7.7198602259159088e-02" nType="0">
            <Node pos="l" depth="3" NCoef="0" IVar="-1" Cut="0.0000000000000000e+00" cType="1" res="-4.2860655230470002e-04" rms="4.2984241247177124e-01" purity="4.9900093674659729e-01" nType="-99"/>
            <Node pos="r" depth="3" NCoef="0" IVar="-1" Cut="0.0000000000000000e+00" cType="1" res="-1.3039041310548782e-02" rms="2.2591750323772430e-01" purity="5.6933190673589706e-02" nType="-99"/>
          </Node>
        </Node>
      </Node>
    </BinaryTree>
    <BinaryTree type="DecisionTree" boostWeight="1.0000000000000000e+00" itree="35">
      <Node pos="s" depth="0" NCoef="0" IVar="0" Cut="2.0526794716715813e-02" cType="0" res="-5.8918230235576630e-02" rms="4.2936435341835022e-01" purity="3.6500573158264160e-01" nType="0">
        <Node pos="l" depth="1" NCoef="0" IVar="-1" Cut="0.0000000000000000e+00" cType="1" res="1.2829405022785068e-03" rms="4.9110695719718933e-01" purity="5.3848469257354736e-01" nType="-99"/>
        <Node pos="r" depth="1" NCoef="0" IVar="6" Cut="7.9593276977539062e-01" cType="0" res="-1.6604040563106537e-01" rms="2.8460031747817993e-01" purity="1.0820328444242477e-01" nType="0">
          <Node pos="l" depth="2" NCoef="0" IVar="0" Cut="1.9068864639848471e-03" cType="0" res="7.3902286589145660e-02" rms="4.2689225077629089e-01" purity="6.2373995780944824e-01" nType="0">
            <Node pos="l" depth="3" NCoef="0" IVar="-1" Cut="0.0000000000000000e+00" cType="1" res="3.3774279057979584e-02" rms="3.9887174963951111e-01" purity="8.0978554487228394e-01" nType="-99"/>
            <Node pos="r" depth="3" NCoef="0" IVar="-1" Cut="0.0000000000000000e+00" cType="1" res="-3.1331013888120651e-02" rms="3.6331760883331299e-01" purity="1.5715005993843079e-01" nType="-99"/>
          </Node>
          <Node pos="r" depth="2" NCoef="0" IVar="6" Cut="4.5524811744689941e-01" cType="0" res="-1.7425179481506348e-01" rms="2.7476352453231812e-01" purity="9.0560428798198700e-02" nType="0">
            <Node pos="l" depth="3" NCoef="0" IVar="-1" Cut="0.0000000000000000e+00" cType="1" res="-4.6651056036353111e-03" rms="4.3712359666824341e-01" purity="3.1560534238815308e-01" nType="-99"/>
            <Node pos="r" depth="3" NCoef="0" IVar="-1" Cut="0.0000000000000000e+00" cType="1" res="-1.2222043238580227e-02" rms="2.5489196181297302e-01" purity="7.2623603045940399e-02" nType="-99"/>
          </Node>
        </Node>
      </Node>
    </BinaryTree>
    <BinaryTree type="DecisionTree" boostWeight="1.0000000000000000e+00" itree="36">
      <Node pos="s" depth="0" NCoef="0" IVar="0" Cut="3.0790193006396294e-02" cType="0" res="-6.3394375145435333e-02" rms="4.2755454778671265e-01" purity="3.5903638601303101e-01" nType="0">
        <Node pos="l" depth="1" NCoef="0" IVar="-1" Cut="0.0000000000000000e+00" cType="1" res="2.1902434527873993e-03" rms="4.9472805857658386e-01" purity="5.6877219676971436e-01" nType="-99"/>
        <Node pos="r" depth="1" NCoef="0" IVar="0" Cut="1.1728707700967789e-02" cType="0" res="-1.4552295207977295e-01" rms="3.3154958486557007e-01" purity="1.5910536050796509e-01" nType="0">
          <Node pos="l" depth="2" NCoef="0" IVar="6" Cut="2.6824477314949036e-01" cType="0" res="-9.1039814054965973e-02" rms="4.1749611496925354e-01" purity="2.7221962809562683e-01" nType="0">
            <Node pos="l" depth="3" NCoef="0" IVar="-1" Cut="0.0000000000000000e+00" cType="1" res="1.3315457617864013e-03" rms="4.7246569395065308e-01" purity="4.8848962783813477e-01" nType="-99"/>
            <Node pos="r" depth="3" NCoef="0" IVar="-1" Cut="0.0000000000000000e+00" cType="1" res="-9.3268789350986481e-03" rms="3.8949215412139893e-01" purity="1.9651104509830475e-01" nType="-99"/>
          </Node>
          <Node pos="r" depth="2" NCoef="0" IVar="6" Cut="7.9644125699996948e-01" cType="0" res="-1.8938113749027252e-01" rms="2.3192398250102997e-01" purity="6.8049915134906769e-02" nType="0">
            <Node pos="l" depth="3" NCoef="0" IVar="-1" Cut="0.0000000000000000e+00" cType="1" res="9.6189958276227117e-04" rms="4.7388479113578796e-01" purity="4.9340850114822388e-01" nType="-99"/>
            <Node pos="r" depth="3" NCoef="0" IVar="-1" Cut="0.0000000000000000e+00" cType="1" res="-1.4436155557632446e-02" rms="2.1301145851612091e-01" purity="5.1094729453325272e-02" nType="-99"/>
          </Node>
        </Node>
      </Node>
    </BinaryTree>
    <BinaryTree type="DecisionTree" boostWeight="1.0000000000000000e+00" itree="37">
      <Node pos="s" depth="0" NCoef="0" IVar="6" Cut="4.6440979838371277e-01" cType="0" res="-5.9676434844732285e-02" rms="4.2699888348579407e-01" purity="3.6220446228981018e-01" nType="0">
        <Node pos="l" depth="1" NCoef="0" IVar="-1" Cut="0.0000000000000000e+00" cType="1" res="1.7121044918894768e-02" rms="4.3169689178466797e-01" purity="6.5807706117630005e-01" nType="-99"/>
        <Node pos="r" depth="1" NCoef="0" IVar="0" Cut="4.1053686290979385e-02" cType="0" res="-9.3843743205070496e-02" rms="4.1636621952056885e-01" purity="3.1383028626441956e-01" nType="0">
          <Node pos="l" depth="2" NCoef="0" IVar="5" Cut="5.2244955301284790e-01" cType="1" res="1.7878697253763676e-03" rms="4.9751424789428711e-01" purity="5.4979526996612549e-01" nType="0">
            <Node pos="l" depth="3" NCoef="0" IVar="-1" Cut="0.0000000000000000e+00" cType="1" res="8.5215931758284569e-03" rms="4.8328998684883118e-01" purity="6.2818264961242676e-01" nType="-99"/>
            <Node pos="r" depth="3" NCoef="0" IVar="-1" Cut="0.0000000000000000e+00" cType="1" res="-1.3395520858466625e-02" rms="4.8348721861839294e-01" purity="3.7256330251693726e-01" nType="-99"/>
          </Node>
          <Node pos="r" depth="2" NCoef="0" IVar="0" Cut="1.5639482066035271e-02" cType="0" res="-1.5317301452159882e-01" rms="3.4374257922172546e-01" purity="1.6743908822536469e-01" nType="0">
            <Node pos="l" depth="3" NCoef="0" IVar="-1" Cut="0.0000000000000000e+00" cType="1" res="-8.5141686722636223e-03" rms="4.5679119229316711e-01" purity="3.2300397753715515e-01" nType="-99"/>
            <Node pos="r" depth="3" NCoef="0" IVar="-1" Cut="0.0000000000000000e+00" cType="1" res="-1.1838848702609539e-02" rms="2.1861101686954498e-01" purity="5.1406688988208771e-02" nType="-99"/>
          </Node>
        </Node>
      </Node>
    </BinaryTree>
    <BinaryTree type="DecisionTree" boostWeight="1.0000000000000000e+00" itree="38">
      <Node pos="s" depth="0" NCoef="0" IVar="0" Cut="2.0526794716715813e-02" cType="0" res="-6.2537871301174164e-02" rms="4.2202559113502502e-01" purity="3.5498154163360596e-01" nType="0">
        <Node pos="l" depth="1" NCoef="0" IVar="-1" Cut="0.0000000000000000e+00" cType="1" res="5.5061030434444547e-04" rms="4.8892286419868469e-01" purity="5.3143936395645142e-01" nType="-99"/>
        <Node pos="r" depth="1" NCoef="0" IVar="6" Cut="4.0083754062652588e-01" cType="0" res="-1.6123810410499573e-01" rms="2.7186793088912964e-01" purity="1.0109235346317291e-01" nType="0">
          <Node pos="l" depth="2" NCoef="0" IVar="0" Cut="7.8071923926472664e-03" cType="0" res="-6.6076092422008514e-02" rms="4.0895622968673706e-01" purity="3.3326846361160278e-01" nType="0">
            <Node pos="l" depth="3" NCoef="0" IVar="-1" Cut="0.0000000000000000e+00" cType="1" res="5.7575902901589870e-03" rms="4.6612581610679626e-01" purity="5.7495439052581787e-01" nType="-99"/>
            <Node pos="r" depth="3" NCoef="0" IVar="-1" Cut="0.0000000000000000e+00" cType="1" res="-1.0429671965539455e-02" rms="3.4481382369995117e-01" purity="1.7507608234882355e-01" nType="-99"/>
          </Node>
          <Node pos="r" depth="2" NCoef="0" IVar="0" Cut="9.7731370478868484e-03" cType="0" res="-1.7760558426380157e-01" rms="2.3671466112136841e-01" purity="6.1159029603004456e-02" nType="0">
            <Node pos="l" depth="3" NCoef="0" IVar="-1" Cut="0.0000000000000000e+00" cType="1" res="-9.4340015202760696e-03" rms="3.1677639484405518e-01" purity="1.1454022675752640e-01" nType="-99"/>
            <Node pos="r" depth="3" NCoef="0" IVar="-1" Cut="0.0000000000000000e+00" cType="1" res="-1.2010567821562290e-02" rms="1.6559189558029175e-01" purity="2.8303382918238640e-02" nType="-99"/>
          </Node>
        </Node>
      </Node>
    </BinaryTree>
    <BinaryTree type="DecisionTree" boostWeight="1.0000000000000000e+00" itree="39">
      <Node pos="s" depth="0" NCoef="0" IVar="0" Cut="4.1053686290979385e-02" cType="0" res="-5.5881727486848831e-02" rms="4.2675065994262695e-01" purity="3.6375787854194641e-01" nType="0">
        <Node pos="l" depth="1" NCoef="0" IVar="-1" Cut="0.0000000000000000e+00" cType="1" res="3.9968555793166161e-03" rms="4.9027684330940247e-01" purity="5.9153139591217041e-01" nType="-99"/>
        <Node pos="r" depth="1" NCoef="0" IVar="6" Cut="3.9852073788642883e-01" cType="0" res="-1.1911422014236450e-01" rms="3.6607524752616882e-01" purity="2.1528759598731995e-01" nType="0">
          <Node pos="l" depth="2" NCoef="0" IVar="0" Cut="3.1216247007250786e-02" cType="0" res="1.4440063387155533e-02" rms="4.4480395317077637e-01" purity="4.7059333324432373e-01" nType="0">
            <Node pos="l" depth="3" NCoef="0" IVar="-1" Cut="0.0000000000000000e+00" cType="1" res="4.7225724905729294e-02" rms="3.5380557179450989e-01" purity="8.5316097736358643e-01" nType="-99"/>
            <Node pos="r" depth="3" NCoef="0" IVar="-1" Cut="0.0000000000000000e+00" cType="1" res="-3.7076692096889019e-03" rms="4.3959721922874451e-01" purity="3.9171245694160461e-01" nType="-99"/>
          </Node>
          <Node pos="r" depth="2" NCoef="0" IVar="6" Cut="1.1462768912315369e-01" cType="0" res="-1.4642144739627838e-01" rms="3.4141680598258972e-01" purity="1.6308639943599701e-01" nType="0">
            <Node pos="l" depth="3" NCoef="0" IVar="-1" Cut="0.0000000000000000e+00" cType="1" res="-7.2892908938229084e-03" rms="3.5113021731376648e-01" purity="1.8576420843601227e-01" nType="-99"/>
            <Node pos="r" depth="3" NCoef="0" IVar="-1" Cut="0.0000000000000000e+00" cType="1" res="-1.7722258344292641e-02" rms="3.2009485363960266e-01" purity="1.2797713279724121e-01" nType="-99"/>
          </Node>
        </Node>
      </Node>
    </BinaryTree>
    <BinaryTree type="DecisionTree" boostWeight="1.0000000000000000e+00" itree="40">
      <Node pos="s" depth="0" NCoef="0" IVar="0" Cut="4.1053686290979385e-02" cType="0" res="-5.9855837374925613e-02" rms="4.2077824473381042e-01" purity="3.5464635491371155e-01" nType="0">
        <Node pos="l" depth="1" NCoef="0" IVar="-1" Cut="0.0000000000000000e+00" cType="1" res="4.5418543741106987e-03" rms="4.8858377337455750e-01" purity="5.9928405284881592e-01" nType="-99"/>
        <Node pos="r" depth="1" NCoef="0" IVar="6" Cut="2.6948988437652588e-01" cType="0" res="-1.2518778443336487e-01" rms="3.5789927840232849e-01" purity="2.0500552654266357e-01" nType="0">
          <Node pos="l" depth="2" NCoef="0" IVar="0" Cut="9.7704632207751274e-03" cType="0" res="-4.2633604258298874e-02" rms="4.1009566187858582e-01" purity="3.5067412257194519e-01" nType="0">
            <Node pos="l" depth="3" NCoef="0" IVar="-1" Cut="0.0000000000000000e+00" cType="1" res="4.6028257347643375e-03" rms="4.6317452192306519e-01" purity="5.4651999473571777e-01" nType="-99"/>
            <Node pos="r" depth="3" NCoef="0" IVar="-1" Cut="0.0000000000000000e+00" cType="1" res="-9.6199987456202507e-03" rms="3.0564236640930176e-01" purity="1.2774883210659027e-01" nType="-99"/>
          </Node>
          <Node pos="r" depth="2" NCoef="0" IVar="5" Cut="4.7633516788482666e-01" cType="1" res="-1.5987390279769897e-01" rms="3.2738730311393738e-01" purity="1.4380115270614624e-01" nType="0">
            <Node pos="l" depth="3" NCoef="0" IVar="-1" Cut="0.0000000000000000e+00" cType="1" res="-9.6824215725064278e-03" rms="3.3605501055717468e-01" purity="1.5524187684059143e-01" nType="-99"/>
            <Node pos="r" depth="3" NCoef="0" IVar="-1" Cut="0.0000000000000000e+00" cType="1" res="-2.0686436444520950e-02" rms="2.4842351675033569e-01" purity="6.5741941332817078e-02" nType="-99"/>
          </Node>
        </Node>
      </Node>
    </BinaryTree>
    <BinaryTree type="DecisionTree" boostWeight="1.0000000000000000e+00" itree="41">
      <Node pos="s" depth="0" NCoef="0" IVar="0" Cut="4.1053686290979385e-02" cType="0" res="-5.8264564722776413e-02" rms="4.1915497183799744e-01" purity="3.5230270028114319e-01" nType="0">
        <Node pos="l" depth="1" NCoef="0" IVar="-1" Cut="0.0000000000000000e+00" cType="1" res="4.3689697049558163e-03" rms="4.8887175321578979e-01" purity="5.9852904081344604e-01" nType="-99"/>
        <Node pos="r" depth="1" NCoef="0" IVar="6" Cut="4.1875129938125610e-01" cType="0" res="-1.1984590440988541e-01" rms="3.5695216059684753e-01" purity="2.0372557640075684e-01" nType="0">
          <Node pos="l" depth="2" NCoef="0" IVar="4" Cut="2.1615748107433319e-01" cType="0" res="3.4288607537746429e-02" rms="4.4646236300468445e-01" purity="5.0615656375885010e-01" nType="0">
            <Node pos="l" depth="3" NCoef="0" IVar="-1" Cut="0.0000000000000000e+00" cType="1" res="2.8246583417057991e-02" rms="4.1655454039573669e-01" purity="7.2239303588867188e-01" nType="-99"/>
            <Node pos="r" depth="3" NCoef="0" IVar="-1" Cut="0.0000000000000000e+00" cType="1" res="-6.3890209421515465e-03" rms="4.3335083127021790e-01" purity="3.2239308953285217e-01" nType="-99"/>
          </Node>
          <Node pos="r" depth="2" NCoef="0" IVar="0" Cut="1.5639778226613998e-02" cType="0" res="-1.4593745768070221e-01" rms="3.3247417211532593e-01" purity="1.5253074467182159e-01" nType="0">
            <Node pos="l" depth="3" NCoef="0" IVar="-1" Cut="0.0000000000000000e+00" cType="1" res="-8.5398778319358826e-03" rms="4.4810330867767334e-01" purity="3.0141031742095947e-01" nType="-99"/>
            <Node pos="r" depth="3" NCoef="0" IVar="-1" Cut="0.0000000000000000e+00" cType="1" res="-1.0859844274818897e-02" rms="2.1472805738449097e-01" purity="4.9038846045732498e-02" nType="-99"/>
          </Node>
        </Node>
      </Node>
    </BinaryTree>
    <BinaryTree type="DecisionTree" boostWeight="1.0000000000000000e+00" itree="42">
      <Node pos="s" depth="0" NCoef="0" IVar="0" Cut="1.8290814012289047e-02" cType="0" res="-5.5985219776630402e-02" rms="4.1923087835311890e-01" purity="3.5767900943756104e-01" nType="0">
        <Node pos="l" depth="1" NCoef="0" IVar="-1" Cut="0.0000000000000000e+00" cType="1" res="4.1283530299551785e-04" rms="4.8330292105674744e-01" purity="5.2329355478286743e-01" nType="-99"/>
        <Node pos="r" depth="1" NCoef="0" IVar="6" Cut="9.1307485103607178e-01" cType="0" res="-1.5368655323982239e-01" rms="2.5894024968147278e-01" purity="9.0647339820861816e-02" nType="0">
          <Node pos="l" depth="2" NCoef="0" IVar="3" Cut="1.9967965781688690e-01" cType="0" res="1.5884156525135040e-01" rms="3.8885065913200378e-01" purity="7.4600595235824585e-01" nType="0">
            <Node pos="l" depth="3" NCoef="0" IVar="-1" Cut="0.0000000000000000e+00" cType="1" res="4.2613137513399124e-02" rms="3.8244605064392090e-01" purity="8.4054869413375854e-01" nType="-99"/>
            <Node pos="r" depth="3" NCoef="0" IVar="-1" Cut="0.0000000000000000e+00" cType="1" res="6.3808416016399860e-03" rms="3.6074861884117126e-01" purity="6.1858052015304565e-01" nType="-99"/>
          </Node>
          <Node pos="r" depth="2" NCoef="0" IVar="6" Cut="4.3504357337951660e-01" cType="0" res="-1.6017472743988037e-01" rms="2.5146201252937317e-01" purity="7.7041931450366974e-02" nType="0">
            <Node pos="l" depth="3" NCoef="0" IVar="-1" Cut="0.0000000000000000e+00" cType="1" res="-6.2351692467927933e-03" rms="4.2695078253746033e-01" purity="2.9123285412788391e-01" nType="-99"/>
            <Node pos="r" depth="3" NCoef="0" IVar="-1" Cut="0.0000000000000000e+00" cType="1" res="-1.0994520038366318e-02" rms="2.1997441351413727e-01" purity="5.1869418472051620e-02" nType="-99"/>
          </Node>
        </Node>
      </Node>
    </BinaryTree>
    <BinaryTree type="DecisionTree" boostWeight="1.0000000000000000e+00" itree="43">
      <Node pos="s" depth="0" NCoef="0" IVar="0" Cut="3.0790193006396294e-02" cType="0" res="-5.4542604833841324e-02" rms="4.2233279347419739e-01" purity="3.5888507962226868e-01" nType="0">
        <Node pos="l" depth="1" NCoef="0" IVar="-1" Cut="0.0000000000000000e+00" cType="1" res="1.6375751001760364e-03" rms="4.9159607291221619e-01" purity="5.6846988201141357e-01" nType="-99"/>
        <Node pos="r" depth="1" NCoef="0" IVar="0" Cut="8.7949316948652267e-03" cType="0" res="-1.2158439308404922e-01" rms="3.3067929744720459e-01" purity="1.6102419793605804e-01" nType="0">
          <Node pos="l" depth="2" NCoef="0" IVar="6" Cut="2.6534062623977661e-01" cType="0" res="-8.6781941354274750e-02" rms="3.9004421234130859e-01" purity="2.3815983533859253e-01" nType="0">
            <Node pos="l" depth="3" NCoef="0" IVar="-1" Cut="0.0000000000000000e+00" cType="1" res="-2.2218858066480607e-04" rms="4.5191991329193115e-01" purity="4.4471901655197144e-01" nType="-99"/>
            <Node pos="r" depth="3" NCoef="0" IVar="-1" Cut="0.0000000000000000e+00" cType="1" res="-8.5005508735775948e-03" rms="3.6176767945289612e-01" purity="1.6692800819873810e-01" nType="-99"/>
          </Node>
          <Node pos="r" depth="2" NCoef="0" IVar="6" Cut="1.1947129964828491e+00" cType="0" res="-1.6461364924907684e-01" rms="2.3043461143970490e-01" purity="6.5654754638671875e-02" nType="0">
            <Node pos="l" depth="3" NCoef="0" IVar="-1" Cut="0.0000000000000000e+00" cType="1" res="2.0501049235463142e-02" rms="3.9905446767807007e-01" purity="5.9281718730926514e-01" nType="-99"/>
            <Node pos="r" depth="3" NCoef="0" IVar="-1" Cut="0.0000000000000000e+00" cType="1" res="-1.3303542509675026e-02" rms="2.2472862899303436e-01" purity="5.8461222797632217e-02" nType="-99"/>
          </Node>
        </Node>
      </Node>
    </BinaryTree>
    <BinaryTree type="DecisionTree" boostWeight="1.0000000000000000e+00" itree="44">
      <Node pos="s" depth="0" NCoef="0" IVar="0" Cut="3.7960082292556763e-02" cType="0" res="-5.7285450398921967e-02" rms="4.2245548963546753e-01" purity="3.5673978924751282e-01" nType="0">
        <Node pos="l" depth="1" NCoef="0" IVar="-1" Cut="0.0000000000000000e+00" cType="1" res="2.2656321525573730e-03" rms="4.9185499548912048e-01" purity="5.7974064350128174e-01" nType="-99"/>
        <Node pos="r" depth="1" NCoef="0" IVar="6" Cut="4.1805115342140198e-01" cType="0" res="-1.1687029898166656e-01" rms="3.5101959109306335e-01" purity="1.9191201031208038e-01" nType="0">
          <Node pos="l" depth="2" NCoef="0" IVar="0" Cut="9.0000089257955551e-03" cType="0" res="-9.9839670583605766e-03" rms="4.3551310896873474e-01" purity="4.4307917356491089e-01" nType="0">
            <Node pos="l" depth="3" NCoef="0" IVar="-1" Cut="0.0000000000000000e+00" cType="1" res="1.0563182644546032e-02" rms="4.6227458119392395e-01" purity="6.5346097946166992e-01" nType="-99"/>
            <Node pos="r" depth="3" NCoef="0" IVar="-1" Cut="0.0000000000000000e+00" cType="1" res="-8.8919084519147873e-03" rms="3.6988827586174011e-01" purity="1.9569838047027588e-01" nType="-99"/>
          </Node>
          <Node pos="r" depth="2" NCoef="0" IVar="5" Cut="4.6495905518531799e-01" cType="1" res="-1.3502973318099976e-01" rms="3.3113941550254822e-01" purity="1.4924001693725586e-01" nType="0">
            <Node pos="l" depth="3" NCoef="0" IVar="-1" Cut="0.0000000000000000e+00" cType="1" res="-8.5897715762257576e-03" rms="3.3966255187988281e-01" purity="1.6009737551212311e-01" nType="-99"/>
            <Node pos="r" depth="3" NCoef="0" IVar="-1" Cut="0.0000000000000000e+00" cType="1" res="-1.8170129507780075e-02" rms="2.6941317319869995e-01" purity="8.8269189000129700e-02" nType="-99"/>
          </Node>
        </Node>
      </Node>
    </BinaryTree>
    <BinaryTree type="DecisionTree" boostWeight="1.0000000000000000e+00" itree="45">
      <Node pos="s" depth="0" NCoef="0" IVar="0" Cut="3.6131657660007477e-02" cType="0" res="-4.4458683580160141e-02" rms="4.2070886492729187e-01" purity="3.6392447352409363e-01" nType="0">
        <Node pos="l" depth="1" NCoef="0" IVar="-1" Cut="0.0000000000000000e+00" cType="1" res="4.4458047486841679e-03" rms="4.8764449357986450e-01" purity="5.9870475530624390e-01" nType="-99"/>
        <Node pos="r" depth="1" NCoef="0" IVar="6" Cut="3.9852073788642883e-01" cType="0" res="-1.0761054605245590e-01" rms="3.5102558135986328e-01" purity="1.9279587268829346e-01" nType="0">
          <Node pos="l" depth="2" NCoef="0" IVar="0" Cut="2.5767387822270393e-02" cType="0" res="-5.4316259920597076e-03" rms="4.3640929460525513e-01" purity="4.4604146480560303e-01" nType="0">
            <Node pos="l" depth="3" NCoef="0" IVar="-1" Cut="0.0000000000000000e+00" cType="1" res="2.7602264657616615e-02" rms="4.0987533330917358e-01" purity="7.7048051357269287e-01" nType="-99"/>
            <Node pos="r" depth="3" NCoef="0" IVar="-1" Cut="0.0000000000000000e+00" cType="1" res="-4.2389291338622570e-03" rms="4.3058279156684875e-01" purity="3.6817127466201782e-01" nType="-99"/>
          </Node>
          <Node pos="r" depth="2" NCoef="0" IVar="0" Cut="1.3760842382907867e-02" cType="0" res="-1.2634126842021942e-01" rms="3.2958966493606567e-01" purity="1.4637266099452972e-01" nType="0">
            <Node pos="l" depth="3" NCoef="0" IVar="-1" Cut="0.0000000000000000e+00" cType="1" res="-6.4568533562123775e-03" rms="4.3411102890968323e-01" purity="2.7421271800994873e-01" nType="-99"/>
            <Node pos="r" depth="3" NCoef="0" IVar="-1" Cut="0.0000000000000000e+00" cType="1" res="-1.0418345220386982e-02" rms="2.0987097918987274e-01" purity="4.6636350452899933e-02" nType="-99"/>
          </Node>
        </Node>
      </Node>
    </BinaryTree>
    <BinaryTree type="DecisionTree" boostWeight="1.0000000000000000e+00" itree="46">
      <Node pos="s" depth="0" NCoef="0" IVar="6" Cut="5.9795373678207397e-01" cType="0" res="-4.9243029206991196e-02" rms="4.2502909898757935e-01" purity="3.6482772231101990e-01" nType="0">
        <Node pos="l" depth="1" NCoef="0" IVar="-1" Cut="0.0000000000000000e+00" cType="1" res="2.3154050111770630e-02" rms="4.1529399156570435e-01" purity="7.3140901327133179e-01" nType="-99"/>
        <Node pos="r" depth="1" NCoef="0" IVar="0" Cut="2.0526902750134468e-02" cType="0" res="-6.8836115300655365e-02" rms="4.2043757438659668e-01" purity="3.3162924647331238e-01" nType="0">
          <Node pos="l" depth="2" NCoef="0" IVar="5" Cut="5.4982674121856689e-01" cType="1" res="-2.6627998799085617e-02" rms="4.9007382988929749e-01" purity="4.9629607796669006e-01" nType="0">
            <Node pos="l" depth="3" NCoef="0" IVar="-1" Cut="0.0000000000000000e+00" cType="1" res="7.4752036016434431e-04" rms="4.8670631647109985e-01" purity="5.2672785520553589e-01" nType="-99"/>
            <Node pos="r" depth="3" NCoef="0" IVar="-1" Cut="0.0000000000000000e+00" cType="1" res="-1.3562928885221481e-02" rms="4.7587385773658752e-01" purity="3.6430332064628601e-01" nType="-99"/>
          </Node>
          <Node pos="r" depth="2" NCoef="0" IVar="6" Cut="4.5548138022422791e-01" cType="0" res="-1.3098254799842834e-01" rms="2.7735677361488342e-01" purity="8.9176908135414124e-02" nType="0">
            <Node pos="l" depth="3" NCoef="0" IVar="-1" Cut="0.0000000000000000e+00" cType="1" res="2.2500336635857821e-03" rms="4.5924556255340576e-01" purity="3.3934682607650757e-01" nType="-99"/>
            <Node pos="r" depth="3" NCoef="0" IVar="-1" Cut="0.0000000000000000e+00" cType="1" res="-1.0854576714336872e-02" rms="2.6276972889900208e-01" purity="7.6932311058044434e-02" nType="-99"/>
          </Node>
        </Node>
      </Node>
    </BinaryTree>
    <BinaryTree type="DecisionTree" boostWeight="1.0000000000000000e+00" itree="47">
      <Node pos="s" depth="0" NCoef="0" IVar="4" Cut="1.9913597404956818e-01" cType="0" res="-5.7399634271860123e-02" rms="4.1790249943733215e-01" purity="3.5173961520195007e-01" nType="0">
        <Node pos="l" depth="1" NCoef="0" IVar="6" Cut="4.0023311972618103e-01" cType="0" res="1.7415460199117661e-02" rms="4.5438718795776367e-01" purity="5.1253139972686768e-01" nType="0">
          <Node pos="l" depth="2" NCoef="0" IVar="-1" Cut="0.0000000000000000e+00" cType="1" res="2.5759331881999969e-02" rms="4.0345740318298340e-01" purity="7.5268441438674927e-01" nType="-99"/>
          <Node pos="r" depth="2" NCoef="0" IVar="-1" Cut="0.0000000000000000e+00" cType="1" res="-3.8457817863672972e-03" rms="4.5583498477935791e-01" purity="4.3881300091743469e-01" nType="-99"/>
        </Node>
        <Node pos="r" depth="1" NCoef="0" IVar="0" Cut="1.3437271118164062e-01" cType="1" res="-1.1983038485050201e-01" rms="3.7351977825164795e-01" purity="2.1756416559219360e-01" nType="0">
          <Node pos="l" depth="2" NCoef="0" IVar="6" Cut="9.9976547062397003e-02" cType="0" res="-1.1685896664857864e-01" rms="3.7298780679702759e-01" purity="2.1895690262317657e-01" nType="0">
            <Node pos="l" depth="3" NCoef="0" IVar="-1" Cut="0.0000000000000000e+00" cType="1" res="-6.8974099121987820e-03" rms="3.8560676574707031e-01" purity="2.4588939547538757e-01" nType="-99"/>
            <Node pos="r" depth="3" NCoef="0" IVar="-1" Cut="0.0000000000000000e+00" cType="1" res="-1.4764726161956787e-02" rms="3.3427330851554871e-01" purity="1.5324392914772034e-01" nType="-99"/>
          </Node>
          <Node pos="r" depth="2" NCoef="0" IVar="-1" Cut="0.0000000000000000e+00" cType="1" res="-2.1500863134860992e-02" rms="1.6132274270057678e-01" purity="2.6096399873495102e-02" nType="-99"/>
        </Node>
      </Node>
    </BinaryTree>
    <BinaryTree type="DecisionTree" boostWeight="1.0000000000000000e+00" itree="48">
      <Node pos="s" depth="0" NCoef="0" IVar="0" Cut="2.0526794716715813e-02" cType="0" res="-4.6829946339130402e-02" rms="4.1340249776840210e-01" purity="3.5592308640480042e-01" nType="0">
        <Node pos="l" depth="1" NCoef="0" IVar="-1" Cut="0.0000000000000000e+00" cType="1" res="1.4935821527615190e-03" rms="4.8334553837776184e-01" purity="5.4506015777587891e-01" nType="-99"/>
        <Node pos="r" depth="1" NCoef="0" IVar="0" Cut="1.0738108307123184e-02" cType="0" res="-1.2867836654186249e-01" rms="2.7518627047538757e-01" purity="1.0431087017059326e-01" nType="0">
          <Node pos="l" depth="2" NCoef="0" IVar="6" Cut="2.6650005578994751e-01" cType="0" res="-7.9503461718559265e-02" rms="3.5178992152214050e-01" purity="1.8489624559879303e-01" nType="0">
            <Node pos="l" depth="3" NCoef="0" IVar="-1" Cut="0.0000000000000000e+00" cType="1" res="1.9564731046557426e-03" rms="4.5036596059799194e-01" purity="4.3431907892227173e-01" nType="-99"/>
            <Node pos="r" depth="3" NCoef="0" IVar="-1" Cut="0.0000000000000000e+00" cType="1" res="-8.5507016628980637e-03" rms="3.0848622322082520e-01" purity="1.0825529694557190e-01" nType="-99"/>
          </Node>
          <Node pos="r" depth="2" NCoef="0" IVar="6" Cut="1.1933672428131104e+00" cType="0" res="-1.5360693633556366e-01" rms="2.2255946695804596e-01" purity="6.3459195196628571e-02" nType="0">
            <Node pos="l" depth="3" NCoef="0" IVar="-1" Cut="0.0000000000000000e+00" cType="1" res="2.5190938264131546e-02" rms="4.4118827581405640e-01" purity="6.4063781499862671e-01" nType="-99"/>
            <Node pos="r" depth="3" NCoef="0" IVar="-1" Cut="0.0000000000000000e+00" cType="1" res="-1.0926738381385803e-02" rms="2.1703338623046875e-01" purity="5.7173628360033035e-02" nType="-99"/>
          </Node>
        </Node>
      </Node>
    </BinaryTree>
    <BinaryTree type="DecisionTree" boostWeight="1.0000000000000000e+00" itree="49">
      <Node pos="s" depth="0" NCoef="0" IVar="0" Cut="3.7960082292556763e-02" cType="0" res="-4.5217294245958328e-02" rms="4.1812828183174133e-01" purity="3.6269786953926086e-01" nType="0">
        <Node pos="l" depth="1" NCoef="0" IVar="-1" Cut="0.0000000000000000e+00" cType="1" res="3.5661382135003805e-03" rms="4.8674955964088440e-01" purity="5.9616255760192871e-01" nType="-99"/>
        <Node pos="r" depth="1" NCoef="0" IVar="6" Cut="1.9984450936317444e-01" cType="0" res="-1.0288723558187485e-01" rms="3.5078623890876770e-01" purity="1.9827054440975189e-01" nType="0">
