<?xml version="1.0"?>
<MethodSetup Method="MLP::MLPBNN">
  <GeneralInfo>
    <Info name="TMVA Release" value="4.1.2 [262402]"/>
    <Info name="ROOT Release" value="5.32/04 [335876]"/>
    <Info name="Creator" value="brianpollack"/>
    <Info name="Date" value="Wed Nov 13 12:07:51 2013"/>
    <Info name="Host" value="Darwin pb-d-128-141-108-211.cern.ch 11.4.2 Darwin Kernel Version 11.4.2: Thu Aug 23 16:25:48 PDT 2012; root:xnu-1699.32.7~1/RELEASE_X86_64 x86_64"/>
    <Info name="Dir" value="/Users/brianpollack/HZG_Analyzer/mva"/>
    <Info name="Training events" value="15120"/>
    <Info name="TrainingTime" value="6.48248403e+02"/>
    <Info name="AnalysisType" value="Classification"/>
  </GeneralInfo>
  <Options>
    <Option name="NCycles" modified="Yes">600</Option>
    <Option name="HiddenLayers" modified="Yes">N+5</Option>
    <Option name="NeuronType" modified="Yes">tanh</Option>
    <Option name="RandomSeed" modified="No">1</Option>
    <Option name="EstimatorType" modified="No">MSE</Option>
    <Option name="NeuronInputType" modified="No">sum</Option>
    <Option name="V" modified="Yes">False</Option>
    <Option name="VerbosityLevel" modified="No">Default</Option>
    <Option name="VarTransform" modified="Yes">N</Option>
    <Option name="H" modified="Yes">True</Option>
    <Option name="CreateMVAPdfs" modified="No">False</Option>
    <Option name="IgnoreNegWeightsInTraining" modified="No">False</Option>
    <Option name="TrainingMethod" modified="Yes">BFGS</Option>
    <Option name="LearningRate" modified="No">2.000000e-02</Option>
    <Option name="DecayRate" modified="No">1.000000e-02</Option>
    <Option name="TestRate" modified="Yes">5</Option>
    <Option name="EpochMonitoring" modified="No">False</Option>
    <Option name="Sampling" modified="No">1.000000e+00</Option>
    <Option name="SamplingEpoch" modified="No">1.000000e+00</Option>
    <Option name="SamplingImportance" modified="No">1.000000e+00</Option>
    <Option name="SamplingTraining" modified="No">True</Option>
    <Option name="SamplingTesting" modified="No">False</Option>
    <Option name="ResetStep" modified="No">50</Option>
    <Option name="Tau" modified="No">3.000000e+00</Option>
    <Option name="BPMode" modified="No">sequential</Option>
    <Option name="BatchSize" modified="No">-1</Option>
    <Option name="ConvergenceImprove" modified="No">1.000000e-30</Option>
    <Option name="ConvergenceTests" modified="No">-1</Option>
    <Option name="UseRegulator" modified="Yes">True</Option>
    <Option name="UpdateLimit" modified="No">10000</Option>
    <Option name="CalculateErrors" modified="No">False</Option>
    <Option name="WeightRange" modified="No">1.000000e+00</Option>
  </Options>
  <Variables NVar="8">
    <Variable VarIndex="0" Expression="medisc" Label="medisc" Title="-log(Pb/(Ps+Pb))" Unit="" Internal="medisc" Type="F" Min="-0.00000000e+00" Max="2.15531349e-01"/>
    <Variable VarIndex="1" Expression="smallTheta" Label="smallTheta" Title="cos(#theta)" Unit="" Internal="smallTheta" Type="F" Min="-9.88485515e-01" Max="9.85404670e-01"/>
    <Variable VarIndex="2" Expression="bigTheta" Label="bigTheta" Title="cos(#Theta)" Unit="" Internal="bigTheta" Type="F" Min="-9.99703705e-01" Max="9.99862432e-01"/>
    <Variable VarIndex="3" Expression="comPhi" Label="comPhi" Title="#phi" Unit="rad" Internal="comPhi" Type="F" Min="-3.14131355e+00" Max="3.14112186e+00"/>
    <Variable VarIndex="4" Expression="GPtOM" Label="GPtOM" Title="#pT_{#gamma}/m_{ll#gamma}" Unit="" Internal="GPtOM" Type="F" Min="1.36367142e-01" Max="1.45451248e+00"/>
    <Variable VarIndex="5" Expression="diffZGvectorOM" Label="diffZGvectorOM" Title="(#pT_{#gamma}-pT_{ll})/m_{ll#gamma}" Unit="" Internal="diffZGvectorOM" Type="F" Min="1.67611835e-03" Max="3.01243019e+00"/>
    <Variable VarIndex="6" Expression="threeBodyPtOM" Label="threeBodyPtOM" Title="#pT_{ll#gamma}/m_{ll#gamma}" Unit="" Internal="threeBodyPtOM" Type="F" Min="1.10865303e-03" Max="4.17393541e+00"/>
    <Variable VarIndex="7" Expression="ZPtOM" Label="ZPtOM" Title="#pT_{ll}/m_{ll#gamma}" Unit="" Internal="ZPtOM" Type="F" Min="1.58683863e-03" Max="3.55387020e+00"/>
  </Variables>
  <Spectators NSpec="0"/>
  <Classes NClass="2">
    <Class Name="Signal" Index="0"/>
    <Class Name="Background" Index="1"/>
  </Classes>
  <Transformations NTransformations="1">
    <Transform Name="Normalize">
      <Selection>
        <Input NInputs="8">
          <Input Type="Variable" Label="medisc" Expression="medisc"/>
          <Input Type="Variable" Label="smallTheta" Expression="smallTheta"/>
          <Input Type="Variable" Label="bigTheta" Expression="bigTheta"/>
          <Input Type="Variable" Label="comPhi" Expression="comPhi"/>
          <Input Type="Variable" Label="GPtOM" Expression="GPtOM"/>
          <Input Type="Variable" Label="diffZGvectorOM" Expression="diffZGvectorOM"/>
          <Input Type="Variable" Label="threeBodyPtOM" Expression="threeBodyPtOM"/>
          <Input Type="Variable" Label="ZPtOM" Expression="ZPtOM"/>
        </Input>
        <Output NOutputs="8">
          <Output Type="Variable" Label="medisc" Expression="medisc"/>
          <Output Type="Variable" Label="smallTheta" Expression="smallTheta"/>
          <Output Type="Variable" Label="bigTheta" Expression="bigTheta"/>
          <Output Type="Variable" Label="comPhi" Expression="comPhi"/>
          <Output Type="Variable" Label="GPtOM" Expression="GPtOM"/>
          <Output Type="Variable" Label="diffZGvectorOM" Expression="diffZGvectorOM"/>
          <Output Type="Variable" Label="threeBodyPtOM" Expression="threeBodyPtOM"/>
          <Output Type="Variable" Label="ZPtOM" Expression="ZPtOM"/>
        </Output>
      </Selection>
      <Class ClassIndex="0">
        <Ranges>
          <Range Index="0" Min="5.4240372264757752e-06" Max="1.6322508454322815e-01"/>
          <Range Index="1" Min="-9.8181247711181641e-01" Max="9.8540467023849487e-01"/>
          <Range Index="2" Min="-9.9650317430496216e-01" Max="9.9850142002105713e-01"/>
          <Range Index="3" Min="-3.1413135528564453e+00" Max="3.1403920650482178e+00"/>
          <Range Index="4" Min="1.3636714220046997e-01" Max="1.0599957704544067e+00"/>
          <Range Index="5" Min="1.0852362029254436e-02" Max="3.0124301910400391e+00"/>
          <Range Index="6" Min="1.7367595573887229e-03" Max="4.1739354133605957e+00"/>
          <Range Index="7" Min="2.7940343134105206e-03" Max="3.5538702011108398e+00"/>
        </Ranges>
      </Class>
      <Class ClassIndex="1">
        <Ranges>
          <Range Index="0" Min="-0.0000000000000000e+00" Max="2.1553134918212891e-01"/>
          <Range Index="1" Min="-9.8848551511764526e-01" Max="9.8526060581207275e-01"/>
          <Range Index="2" Min="-9.9970370531082153e-01" Max="9.9986243247985840e-01"/>
          <Range Index="3" Min="-3.1401276588439941e+00" Max="3.1411218643188477e+00"/>
          <Range Index="4" Min="1.3637056946754456e-01" Max="1.4545124769210815e+00"/>
          <Range Index="5" Min="1.6761183505877852e-03" Max="2.6240503787994385e+00"/>
          <Range Index="6" Min="1.1086530284956098e-03" Max="2.9350819587707520e+00"/>
          <Range Index="7" Min="1.5868386253714561e-03" Max="2.7795662879943848e+00"/>
        </Ranges>
      </Class>
      <Class ClassIndex="2">
        <Ranges>
          <Range Index="0" Min="-0.0000000000000000e+00" Max="2.1553134918212891e-01"/>
          <Range Index="1" Min="-9.8848551511764526e-01" Max="9.8540467023849487e-01"/>
          <Range Index="2" Min="-9.9970370531082153e-01" Max="9.9986243247985840e-01"/>
          <Range Index="3" Min="-3.1413135528564453e+00" Max="3.1411218643188477e+00"/>
          <Range Index="4" Min="1.3636714220046997e-01" Max="1.4545124769210815e+00"/>
          <Range Index="5" Min="1.6761183505877852e-03" Max="3.0124301910400391e+00"/>
          <Range Index="6" Min="1.1086530284956098e-03" Max="4.1739354133605957e+00"/>
          <Range Index="7" Min="1.5868386253714561e-03" Max="3.5538702011108398e+00"/>
        </Ranges>
      </Class>
    </Transform>
  </Transformations>
  <MVAPdfs/>
  <Weights>
    <Layout NLayers="3">
      <Layer Index="0" NNeurons="9">
        <Neuron NSynapses="13">
          3.4279112191437500e-01 1.0228481222295811e+00 2.3440283754679565e+00 1.1284685786782014e+00 -1.5206283467849815e+00 -1.2355944040477018e+00 1.9226163772406432e-01 1.2693952317385035e+00 -1.5029721495213528e+00 -1.1599828458096597e+00 -9.1035653089528645e-01 -2.3912883376721563e-02 -1.0537173200677705e+00 
        </Neuron>
        <Neuron NSynapses="13">
          -3.9250933661272508e-01 -4.5642621431421754e-01 -3.0999996070083087e-02 8.0936655656504486e-02 1.1978659053446976e-01 1.7876741289446516e-03 -8.1220638268109741e-02 -1.2154692162164792e-01 -5.1710781535326544e-02 2.1161650303518534e-01 -3.8050164263654929e-02 -2.9067162922356443e-01 -4.0277188944266462e-02 
        </Neuron>
        <Neuron NSynapses="13">
          7.7680463587145987e-01 6.8226831633332541e-01 -2.6725691539895475e+00 -4.3731764240212467e-01 1.6964675863945438e+00 1.0873702146572628e+00 -2.4638349066707829e-01 3.3471373258771742e-01 9.9614059645662478e-01 -7.3391354634948747e-01 -5.4183066868556762e-01 9.0672482409709632e-01 -1.1336264301654315e+00 
        </Neuron>
        <Neuron NSynapses="13">
          2.6039925817045512e-01 4.2848597467781191e-01 1.4319655118525246e-01 9.2945058460112986e-02 3.3298175541651404e-02 -5.6817977448964896e-01 -1.1311880986994950e-01 1.8244331636267810e-01 -1.4035645669689550e-01 -1.3401377969544631e-01 1.1393326955622782e+00 1.0125630439293769e+00 -8.8302828698523267e-02 
        </Neuron>
        <Neuron NSynapses="13">
          -1.4778656818982774e+00 5.6835059621637629e-01 7.3050105806146870e-01 -8.1313559780949241e-01 -1.2785233651914647e+00 -1.5970406096882788e+00 2.1218922978176900e+00 9.3978543268773995e-01 -3.8427392527499293e+00 1.8592780154037578e+00 -7.5529868780427412e-01 7.0192628818772529e-01 2.4402919578787698e+00 
        </Neuron>
        <Neuron NSynapses="13">
          -2.2921960769594027e-01 1.4947746149610305e-01 -9.4416764359612471e-01 1.5849311427952242e+00 -1.2734022484454690e+00 -6.6157890415679432e-01 -1.8910394156646040e+00 2.2733872475922583e+00 2.7152073001666643e-01 1.8779953422208968e+00 -3.8402602464998137e-01 -1.0252183616815727e+00 -5.1262990186926833e+00 
        </Neuron>
        <Neuron NSynapses="13">
          1.5793867265598454e+00 5.7453304966974272e-01 1.6683946733655075e+00 2.4499559033034704e-01 4.5318073855477753e-01 -7.3463432093176173e-01 -4.2193821254419051e-01 -4.5540539026799165e-01 -2.9878740734846115e-02 -1.3869006341633376e+00 -8.6639172900659644e-01 -1.2075611054730702e+00 2.5318358533694933e+00 
        </Neuron>
        <Neuron NSynapses="13">
          -2.2837215072963726e-01 1.8109048992954111e+00 -2.1887507290203385e+00 -3.6391480025133094e-01 9.8052172839033835e-01 -8.0274488266164212e-01 -2.3026208846297860e+00 1.2067665635967801e+00 7.5630965811612105e-01 -2.0525772806039719e+00 -1.0052730208583986e+00 1.1230848809522924e+00 1.6922981445673623e-02 
        </Neuron>
        <Neuron NSynapses="13">
          -5.0086358237840389e-01 1.3950989580481259e+00 2.8284835996736160e-02 -6.3006999287740284e-01 -3.5229555230541321e-01 2.5432369531595911e-01 -1.3733468740552726e+00 4.5933612269085069e+00 -2.1554984450731109e+00 -6.2821136705885072e-01 -1.9009848790160988e+00 1.8372404756403924e+00 1.6532044828574015e+00 
        </Neuron>
      </Layer>
      <Layer Index="1" NNeurons="14">
        <Neuron NSynapses="1">
          -9.6256207178696473e-01 
        </Neuron>
        <Neuron NSynapses="1">
          6.3668936812167887e-01 
        </Neuron>
        <Neuron NSynapses="1">
          3.4055883114431662e-01 
        </Neuron>
        <Neuron NSynapses="1">
          7.0764088652838975e-01 
        </Neuron>
        <Neuron NSynapses="1">
          5.9836782893853557e-01 
        </Neuron>
        <Neuron NSynapses="1">
          1.0014217722920277e-01 
        </Neuron>
        <Neuron NSynapses="1">
          4.7233953950741764e-01 
        </Neuron>
        <Neuron NSynapses="1">
          7.8599181110192795e-01 
        </Neuron>
        <Neuron NSynapses="1">
          7.0972850881542771e-01 
        </Neuron>
        <Neuron NSynapses="1">
          -1.0187099889605196e+00 
        </Neuron>
        <Neuron NSynapses="1">
          1.1690460431386709e-01 
        </Neuron>
        <Neuron NSynapses="1">
          -3.3393860998423175e-01 
        </Neuron>
        <Neuron NSynapses="1">
          9.5911601590117768e-01 
        </Neuron>
        <Neuron NSynapses="1">
          -7.1087112586329115e-01 
        </Neuron>
      </Layer>
      <Layer Index="2" NNeurons="1">
        <Neuron NSynapses="0"/>
      </Layer>
    </Layout>
    <InverseHessian NElements="17161" NRows="131" NCols="131">
      <Row Index="0">
        2.3236094193382922e-01 1.0963644072527048e-01 -3.0433425581886987e-02 -7.3617157601002722e-02 -1.8001360228048283e-03 1.6213759548340256e+00 -6.8410881864501422e-03 3.2367976471673582e-02 1.0848450294169691e-02 6.1478423791723434e-02 5.3724658683444587e-02 6.3132260893877801e-02 -9.1538542546301116e-03 1.8260163045082652e-02 6.7389812504945995e-02 -2.0886591121868142e-03 -2.1371120046966556e-02 -1.1909752051766908e-02 5.4724619034876687e-02 1.2242747179497858e-02 1.0744068102614173e-02 3.1105604165281475e-03 2.2816362130689532e-02 4.3623837674749422e-03 -3.9663581080751006e-03 7.0191679175075541e-03 -9.8641250282685451e-03 -7.6313038695315971e-02 3.7729356802972784e-03 1.7057529407815415e-02 7.2975027030717414e-03 9.9026594467427032e-01 4.3022117230877635e-04 -2.0757849172472666e-02 -4.7428297690316635e-03 3.1991267652762903e-03 -4.4953149399368147e-02 -3.6514142375751235e-02 -8.1091620874327620e-03 -2.2381195755894739e-03 -6.1173312137655929e-02 2.5382542239510836e-03 4.3380818124653248e-03 -2.4417445724226917e-03 9.6128285816568182e-02 -6.3295254391423552e-03 -7.8109095717667529e-04 6.8026115758918768e-03 -2.0535989983277790e-02 -1.5854447411932665e-01 -5.6249303759948119e-02 -9.6257090364906470e-03 -5.7171503224904191e-02 -8.0499271252522098e-02 -1.4478670143036110e-02 -1.6351520459804478e-01 3.8169513709907996e-02 4.7758985481738137e-01 -8.8635119801286466e-02 1.7662813407992178e-02 1.3472655818031415e-02 -4.7333756344404454e-02 1.3555637642016849e-01 -2.3697057263029897e-03 6.3885240429636586e-02 -3.2959239140804297e-01 -2.4290591047826393e-01 8.7465367021589996e-02 3.8814486041715301e-01 -2.6300071556034366e-02 4.3682410663671334e-01 8.7947262107757607e-03 -1.1543803568291920e-01 3.7130728613342136e-02 -1.8599436976504408e-01 5.6929800932945529e-03 -2.3695086831117013e-01 -1.9372522007802082e-01 -1.0623629493759446e-02 -1.3427183679715846e-01 3.8333543206208423e-02 1.4373638057692634e-01 -3.2276735434146608e-03 -1.0292514035496083e+00 -1.7260630966226584e-02 -6.8653452873163337e-02 -2.5759143629711989e-02 -6.2574252703544053e-02 2.3704623948796000e-01 -3.2237424002033957e-02 -6.1774199731911485e-02 3.8587979452221866e-01 1.8731870295410591e-01 -7.8224881139473734e-02 -5.4164674226751153e-01 2.0765448761240896e-03 7.3240127648659836e-01 1.2779483469287620e-01 1.7596247530304487e-01 4.8589914212406535e-02 3.2813630159999740e-01 -2.3452314642215227e-01 2.8606518163973993e-01 2.0503198398778244e-01 2.4057533591240243e-01 -3.8389295783399946e-02 -5.5450120990231389e-03 -1.4230791067674387e-01 6.5205430186542259e-03 1.3747370744038709e+00 6.8047468744681094e-03 3.5287088392100499e-02 7.3624506212492308e-02 1.2503263574925028e-01 1.3598569480075695e-01 3.5420599975819041e-02 3.8663267891889369e-02 -2.0680279319152750e-01 7.4700034286019998e-02 3.7398383900773377e-03 -2.6830817048978051e-02 1.3025117264912702e-02 2.1636761920946622e-02 2.7492948687364099e-02 1.0729923832633957e-02 1.5502474722534722e-02 -2.3753983750443741e-01 2.1103491224025522e-02 -2.5490610695317585e-02 -3.4022526514773666e-03 8.4414400182073364e-03 
      </Row>
      <Row Index="1">
        1.0963644072576431e-01 1.0154206924480775e+00 1.3734493189920267e-02 -1.8177806555433859e-01 -8.1326400791709302e-03 -5.6622763251490369e+00 3.7474959804243251e-03 6.7733262798606794e-02 -7.8884932316905576e-02 -4.6520757976781658e-02 -8.3545804514097446e-02 3.8568233599820798e-02 -2.4436875197895933e-03 -8.5982124161747536e-03 -3.0734276834231117e-01 -1.4865658620918125e-03 5.8242731652855984e-02 -1.8357150915817026e-02 -2.5024506665470283e+00 3.6345625460177853e-04 5.1641162568944306e-02 -1.1776628833649562e-02 3.1393382434920687e-02 4.9574949626314112e-02 5.8292899141685728e-02 1.6908935989337043e-02 8.2211759210057925e-02 6.5959924948225968e-01 -4.1268473613116897e-02 -2.6052915437118740e-02 4.6388191305819948e-02 1.0299216353921002e+01 -2.2553328303122320e-02 -5.4285862618526595e-02 4.7622103299838313e-02 -3.9423437520497442e-02 -7.0366328182893068e-02 -2.7210445200890485e-02 -2.9300048008903942e-02 -2.0032685133385908e-02 2.8823846651503626e-01 -4.0478353987835752e-03 -7.8979159060191179e-02 -6.0644936268853394e-03 -1.8872846165330457e+00 -1.4694581491093395e-02 -4.8646317508899785e-02 -2.8217361159032514e-03 -2.7152410963641908e-02 2.5202325932343818e-02 8.1057441226005056e-02 -1.5101349195014501e-02 -6.0100417823430874e-01 -3.8040493160816891e-01 -4.9911917258966820e-03 -2.0910421532323312e-01 5.2034087387265608e-02 -4.5013454645048299e+00 5.5564714841994545e-02 -7.4959013893067569e-02 -1.4025730598967720e-01 2.3516555636810557e-02 -8.3920959667055817e-02 2.2192292385872270e-01 3.7014468838307717e-02 -1.7027418084002502e-01 -5.3445857929824181e-01 1.0762220268668497e-01 1.0567289032450694e-01 -1.2237951611089981e-02 3.2756688424220258e+01 -1.1412136390800132e-01 8.5449739547711623e-03 1.6657787691821566e-01 4.2573255696992454e-02 6.2042986906567316e-02 -1.5329657110117495e-01 5.2138113178910872e-04 4.2917765606207875e-01 4.9106008127314577e-01 4.8740471775616634e-02 -2.2142884359770540e-01 -7.4679097269822858e-02 1.9571158382921169e+01 5.5412992226467339e-03 -1.5079789967418808e-01 -6.2189562366947282e-02 -2.0726790630303721e-01 -1.0725386363245537e-01 -8.6524844534714707e-01 -2.7515313187166109e-02 -3.0448694697540524e-01 1.7765091956876709e+00 -1.0760091131228142e-01 -5.7033735370525696e-02 1.2597800131144299e-01 -5.4410881048354469e+01 -1.1393043543895531e-02 2.0165501864930324e-02 9.6919706007791734e-02 1.2294482059605384e-01 -7.2556720171107481e-02 7.3881683156931977e-01 -2.4904712313922217e-02 -4.7300811556864258e-01 9.0988256973321280e-01 1.5473578721958425e-04 -3.0758172805889816e-01 6.5188633422356201e-02 4.2225020940308999e+00 -2.7512239698750829e-02 -1.5675419300862881e-01 1.0128091890960561e-02 -4.0104892383236279e-02 -1.8305624748841876e-01 7.1142647725506380e-02 1.5464856717013920e-02 1.7726799313887651e-01 -5.8991291977560900e-01 4.9998092138830996e-03 -1.8007329771134339e-02 1.4965688944107020e-02 -2.6334820774558348e-01 -2.0271539173983028e-02 -4.1757272317920993e-02 -7.9078159242706725e-02 -4.1361890310445106e-02 -8.8599615643921836e-03 4.4200478047789767e-02 1.5134915465819177e-02 -1.4816069724977776e-01 
      </Row>
      <Row Index="2">
        -3.0433425581542422e-02 1.3734493188428445e-02 1.6508967402928505e+00 6.6526046238890579e-04 -3.8271472541482376e-01 2.7760594377588177e+00 1.5771435905434752e-02 1.5622253804932412e-01 -6.2637004546410774e-02 3.9951645384162071e-02 -7.6855176763113708e-02 -1.8589505304720123e-02 -6.9653123957018434e-02 4.5949310133708995e-02 -4.2116890453138683e-02 6.8671944991674462e-03 1.0110659080219353e-02 1.1082199857046150e-01 -4.1831547783947465e-01 -8.3039596536429883e-03 -1.0790508308644683e-02 -2.3169761942744786e-03 -6.7902131051129182e-03 -2.6433926862108721e-02 -2.8134762035185064e-02 -5.7401648187917695e-03 -6.5597134540044899e-02 8.3906447257482752e-02 -1.6775135436901496e+00 4.9249113375701487e-01 3.0376000776633116e-01 -1.3142216852187030e+00 4.2662802233141561e-03 1.4803242843822300e-02 5.0239920757282772e-02 7.6427070170635908e-02 1.4337834333982008e-01 1.1188776655912744e-01 4.7846338246999826e-02 -1.9363235874658019e-02 6.4231962933283857e-02 1.5015422550563301e-01 1.2894320743134374e-02 8.3466912208414290e-02 1.2762183257605955e+00 6.1269506639961627e-03 3.5798716687298261e-02 7.2760762022667895e-04 -5.6107894661215569e-03 4.9797545081849554e-02 1.2676181118886334e-01 1.2636945859960669e-03 1.2879752752346036e-02 -2.0521884647303987e-01 -1.6063245115946903e-01 -8.5416299420187913e-01 -4.3009618555459439e-01 -3.5527053676060500e+00 9.1990254916559544e-02 5.9426858472120023e-02 -3.4574304303058334e-01 -9.4595942782412346e-02 -1.5821737717879553e-01 7.4790011042712684e-02 4.5973344362736451e-02 -1.4042124829658331e-01 -6.3974777376082578e-02 -1.7650656611021953e+00 8.9658586759590153e-01 -1.4395487390010238e+00 5.1766180336631091e+00 1.6646680937256636e-01 3.2246677008547864e-01 9.9459909619623033e-03 -2.8443402089491455e-02 9.9040198482688552e-02 -2.9003048866465153e-02 -2.1902193025826015e-02 -5.7003412678249529e-02 2.3761169927630524e-01 1.6963864694701047e+00 -2.7635943605689506e-01 8.1925082518520509e-01 2.2464064143091189e+01 2.8065905077176795e-01 1.2182516603769769e-01 2.4549254537931198e-01 1.9317238623046511e-02 -1.4497472656240201e-01 2.2192612663486783e-01 -2.5461100029514033e-01 9.9407229903389335e-02 -1.8884590466569234e-02 -1.3302061839391208e+00 9.3640520391817750e-02 3.4952337021930391e-01 -2.2829990279653078e+01 -5.4534792133874477e-01 -5.3002264861251966e-02 -1.1934787826861352e-01 6.4829903013112145e-02 4.4037780638869206e-02 -3.1391158984766498e-01 1.0206096229989570e-01 -5.8090008033884671e-02 -7.6143861101165194e-02 -3.1006499401897730e-01 -2.8491822192096855e-01 -1.3394170144810227e-01 -2.6286240393964468e+00 7.9711991080338232e-03 4.9905229485117286e-01 -1.5495177511540206e-01 -1.6166076937133692e-02 -1.4509558191984390e-01 1.4625639015626557e-01 -1.0407655993125958e-01 -1.3625531645040648e-01 -6.7501297679118777e-02 -4.8428361738923609e-01 -3.1563221408586972e-02 -6.5204171924243615e-01 5.4489025985334130e-02 -3.3268575495799216e-02 -1.6932778251607425e-01 -8.0558554101632623e-02 -1.0749671182515892e-01 -1.1752867084429606e-02 5.5286658158249069e-02 1.0709892567306799e-01 -2.4374878108532994e-02 
      </Row>
      <Row Index="3">
        -7.3617157599486810e-02 -1.8177806555488302e-01 6.6526046627445046e-04 1.7294795503297755e+00 -1.9164713485198293e-01 1.5015590085931763e-01 8.9067957544146356e-02 -2.0738934235992623e-01 6.6702699657299705e-02 4.9229043738403699e-02 2.2465402226666736e-01 -1.8787327972606505e-01 -8.2273850100357121e-02 4.8871816567963300e-02 1.0421707595451793e-01 2.9374407672430790e-02 1.2016139871072773e-01 6.3688367437161941e-02 6.8875917620845151e-01 -4.0104191471507225e-03 -1.9537128495990427e-02 1.2900294307940041e-02 -1.5219022547360010e-02 -4.0686048066711084e-03 -1.0154094536335867e-02 -1.4045161074690128e-02 -7.6914405621201581e-02 -2.6569822064035115e-01 1.9821307961366280e-01 -5.8036222522892400e-01 1.5696725120674923e-01 1.1283350150487106e+00 -1.2529608186750529e-01 3.4304165145045189e-02 -6.6689742168695079e-03 7.5313387482240299e-02 2.9658919025537592e-03 -1.0450252185710920e-01 -2.0055997130858266e-01 7.2545465534358915e-03 -1.1570690025314641e-01 1.5049824079903337e-02 1.6831239318699989e-01 4.0322110685241816e-02 -2.5868115591295009e+00 1.7871425814557241e-02 -1.6132855944830686e-03 1.5707016011849077e-04 -1.0923248000927732e-02 -2.5119109814718210e-01 -3.7653248936683326e-01 3.2077095211988649e-03 4.1836739406060541e-01 8.5161600243034305e-02 -6.3567471734879488e-01 -1.4613391796203374e+00 -1.3634763963706775e-01 -1.1326764054395166e+01 -1.3429981648794786e-02 1.3694702631763417e-01 6.9791840178731870e-02 -1.0214161466477527e-01 1.0789545154995370e-01 1.8811981639385136e-01 3.6192031468122887e-01 -1.6224847264333719e-01 1.9030748136240438e-01 4.8973767862357598e-01 9.8000969984830211e-01 3.3104344555034487e-01 1.0974528430981156e+01 -8.4082430964284860e-02 -6.6354641881199494e-01 -1.8248920466359472e-01 -2.1575201113269693e-01 -5.2061368273098640e-01 -8.3595989147432637e-01 -7.4793503536922434e-01 -6.3902138792134744e-01 -5.3659020246682509e-02 3.4360985934547683e-01 1.2455050864155721e+00 -1.2910587075445010e-01 1.8756316401477424e+01 5.5003365301620089e-01 -2.0471198369541627e-01 -5.7416464936234646e-02 2.3807634581474035e-01 3.3515299069300675e-01 -3.0296866851865376e-02 2.1461592288057846e-01 6.5376997403932890e-01 -6.1972934035218130e-01 -4.2263287319883563e-01 -3.1203312352608209e-01 -1.5469458881093745e-01 -3.3677645619104624e+01 -1.0181330014709824e+00 1.7380791049592620e-01 -2.6942431364067654e-02 2.4929917619559760e-02 1.9288846965720852e-01 9.2425137933188672e-01 1.9815964565784161e-01 2.3784952924392053e-01 -1.8651982772335346e-01 -1.6149576489695813e-01 -1.2112246980207286e-01 -1.3914584298081498e-01 -3.7876216027970084e+00 -3.2071772917043795e-01 -5.9693255951489288e-01 -1.1643722220175112e-01 -1.6252130245889035e-02 1.8827146662586799e-01 -1.2225452154900540e-01 1.6490789783386700e-01 -2.7283547395897090e-01 2.4303911613990359e-01 1.2907402007015768e-02 -1.7308950449952580e+00 -2.1859274753886093e-01 -6.0414948299445292e-01 -1.0696095002834302e-01 1.5861951095329110e-01 4.3092793434694562e-02 -1.1199909596362435e-01 3.7701287386790877e-02 -1.5660758641035127e-01 -2.9919997997639525e-01 -2.9763633620135421e-01 
      </Row>
      <Row Index="4">
        -1.8001360232908063e-03 -8.1326400774253127e-03 -3.8271472541607787e-01 -1.9164713484991780e-01 6.8279010628911885e-01 -2.5226705146535551e+00 -5.0325017701994441e-02 -4.3512032332319706e-02 -6.4736087299572379e-02 -3.3376321637835063e-02 9.4007867614967988e-02 1.1679385761612263e-01 4.9519570917323806e-02 -3.1983514017151785e-02 -6.8943333923963124e-03 9.6640565592272590e-04 -9.8574094704666354e-02 -9.6406782491282331e-02 1.9371995816084819e-01 -1.5608471428400085e-02 1.5042385159547201e-03 -1.5235334810117393e-02 1.3515783266690520e-02 -1.4862550678583756e-02 6.1877613274232121e-02 1.6226725278744865e-02 9.2930829906355365e-03 2.4333020458409273e-02 3.9255219033136379e-01 -4.7883413470459246e-01 -8.3152860445412458e-01 2.7177396386075374e+00 -1.6658075967847359e-02 -1.3717577788144066e-02 1.7835020773286730e-02 -4.5847729387775260e-02 5.7256473458784513e-02 -8.4142881568008282e-02 4.4183183245363050e-05 5.0410092203966479e-03 -1.2654660935984186e-02 -2.3731146269460268e-02 -8.2451908689860048e-02 -2.1579803027986566e-02 -2.7564853606732953e-01 -6.9426790190789131e-03 2.4458852017071120e-04 -1.5488304142275613e-02 9.6180086864827777e-03 -7.5963792888721918e-02 -1.4996272775082431e-01 2.9953831229684313e-03 4.3363284822588014e-02 9.3249804542860526e-02 -4.4111669186252755e-02 1.2456412851732641e+00 6.8721072818668349e-01 -1.4040759395743052e-01 2.1309682015247969e-03 -1.1365321449892782e-01 4.9336787758647895e-03 5.1431875658812513e-02 1.4832734174629358e-01 -4.3888654375163877e-01 -1.2910352615829385e-01 6.9628447368312266e-02 9.1090497333474685e-02 5.6504530707824974e-01 -6.4923324296815099e-01 9.1787904413821814e-02 -2.5976048268668239e+00 -3.2064242289106881e-01 -1.1789969379247187e-01 -4.3874555258954812e-02 -2.8107721043588788e-03 -3.9786396556504988e-01 1.9342525302918775e-01 9.1873357604835629e-02 7.5976640136983381e-02 -2.8089503276994199e-01 -3.4192420794570150e-01 -2.2196569620475995e-01 -7.2412521191763779e-02 -1.1043738298695938e+01 -5.1135967673633331e-01 1.6865633269432390e-01 -2.7570483852690941e-01 -3.2767697312767921e-02 -6.0758641516942757e-01 5.6870224764932920e-01 3.1720898837405326e-01 -1.3742554333096102e-01 2.0309405984733947e-01 1.7943609052986209e-01 -1.5339457752762786e-01 -4.8412507995640119e-01 1.1077078633931634e+01 9.6175441818840424e-01 -1.9626385362976420e-01 2.8966477609520830e-01 3.3490878301647917e-03 1.0073131674725397e+00 -5.1795913456332809e-01 -2.3505088003831517e-01 3.2540720520504905e-02 7.1444816481069068e-02 1.7621366196944649e-01 4.8275259637921297e-01 2.1742747447903893e-01 6.2666707535876898e-01 6.5129846958610488e-02 -2.5818745214559818e-01 -2.9281896012420018e-02 4.9220583014540076e-03 1.5493291202918358e-01 -3.1518343511353863e-01 1.6572640424876037e-02 5.9248654226187691e-02 -8.7512070216068522e-03 7.9769523600790621e-02 4.6312338123998498e-01 5.3498777728089397e-01 -8.9607783174559877e-03 3.1800171906511833e-02 7.5613705666594144e-02 -3.4018111669699397e-02 7.8366514355253547e-02 1.6073314991448973e-02 -7.1415697911454940e-02 -3.5643515740098927e-02 1.3165429241794391e-01 
      </Row>
      <Row Index="5">
        1.6213759548008095e+00 -5.6622763251761512e+00 2.7760594377425978e+00 1.5015590072801022e-01 -2.5226705145546364e+00 8.5446716722412384e+02 3.7191428598361975e-01 -1.6955219111886137e+00 2.8120624481122412e+00 1.8509264387789197e+00 1.3438069195910192e+00 -9.5976148909743586e-01 -4.7971774197864586e-01 5.4849252182707353e-01 4.5604806593079701e+00 2.5330064034757216e-01 3.1911514380014838e-01 3.5100029881041472e-01 -2.9166989071000376e+01 3.4091276878980592e-01 -3.5653472575082507e-01 3.1810538943775535e-01 8.6095851257867909e-02 -4.6019301531738421e-01 -2.9763745479234274e+00 -1.8884947924528978e-01 -1.3566414640429891e+00 -8.3492190743978121e+00 -2.3182781618037360e+00 -4.1502551650117212e+00 3.0017917965792127e+00 -9.3010291240967661e+02 9.9736156560346789e-01 6.1196115172705690e-01 -3.4683635544615221e+00 9.9090084951907409e-01 -2.6250114204333741e+00 2.5199465167136519e+00 -9.5255730370089098e-01 -2.0264445661789005e-01 -2.4806076138949291e+00 3.0511829134557283e-01 4.7580091571705720e+00 -1.4116378396138518e-01 3.8545727087490690e+02 2.5786150260358125e-02 4.9732830540762613e-01 1.0105996598650618e-01 -1.8249984473195605e-01 -2.8263853242586205e+00 3.5762017434910200e+00 -5.2928245836429721e-01 6.6419469706545531e+00 6.4034161237245888e+00 1.0115919929670780e+00 2.4239368573595616e+01 -6.3758961894157835e+00 9.1006808050493692e+02 -8.9820231107024178e+00 -2.9368109305411432e+00 1.0078150612152738e+01 -3.9665576361202004e+00 -1.0565968170958262e+01 1.3168357811089773e+00 -2.3939794643941106e+00 -1.0602081012253926e+01 -1.8612459991709946e+00 -8.7302749926111467e+00 1.1125229499906558e+01 -4.2417812125199745e+00 -1.3311131259442232e+03 1.1433666242027314e+01 -2.5466435356961394e+00 -3.0911243226941192e+00 6.0112531761232624e-01 -6.2188198782343829e-02 -1.1588111610823788e+01 -1.2470950514912449e-01 -7.8274139853041040e+00 -7.2650657770662086e+00 -3.7118504952921183e-01 1.0681373952453630e+01 5.8478667305241263e+00 2.2001588369771383e+01 6.9826789928911728e+00 -3.9385990748154232e-01 5.3510275877461932e-03 2.0634702819368607e+00 2.8439639859467746e+01 8.0425570360358130e+00 -2.8693460849224337e+00 1.2134428770852546e+01 -8.5315465005025679e+00 2.4183262819542044e+00 -5.9840470018106569e+00 1.2198049425847884e-01 2.2345122100598419e+03 -3.8919912728189257e+00 7.1308128581120434e+00 -3.2504722752661293e+00 1.5328661013862930e+00 -2.5147311643419386e+01 -1.7163317461280148e+00 -2.9446941448485875e+00 4.1078533150120116e+00 -6.3883859597669659e+00 -2.2622152865878276e+00 2.8192031662658238e+01 -2.1969282763550697e+00 8.0852835326311165e+01 2.7472413669659224e+00 8.0334946815767694e-03 3.8549159462386413e+00 1.8444472210928577e+00 -5.1279683012959465e+00 9.8209578868807768e-01 -7.1200728410132479e+00 -5.7262185883738335e+00 8.9861504900606093e+00 -1.0937205654764646e+00 2.7526697210584086e+00 -3.0212379349924356e+00 3.2212103951887038e+01 2.6701240457589548e+00 8.1964106456506935e-01 3.5750962234759611e+00 -4.0659008386610616e+00 2.0917135742541998e-01 2.1286542932555479e+00 -1.1864815147787267e+00 -2.4426618130765256e+01 
      </Row>
      <Row Index="6">
        -6.8410881864055962e-03 3.7474959806259719e-03 1.5771435905200887e-02 8.9067957543534110e-02 -5.0325017701926815e-02 3.7191428600383070e-01 2.6842601240724850e-01 -3.3457942011811036e-02 -7.5126957033271932e-03 -6.8763342584059389e-02 1.6557425713410817e-02 -3.9681543788106108e-02 -9.8475998093231036e-03 -1.2785655381126859e-02 -6.9927716200035642e-03 -4.2126893946457713e-04 1.9255953287384938e-02 1.3739377009393493e-02 4.3600231351489871e-01 -9.8962644281924035e-03 1.3991732061052189e-04 5.2320772239898995e-03 1.0030438050132793e-02 -8.0300899106434745e-03 -1.7782058926758510e-02 -1.4464957475136464e-03 4.5476717885730381e-03 -1.2125764699611491e-02 4.2021765368724078e-03 9.7228588642567726e-02 6.9999227184332255e-02 -1.8076274940162556e+00 -5.5897793485933100e-03 2.2073586325934477e-02 -1.8081964556806952e-03 -1.4973040222394060e-02 -4.1603154127573191e-02 -4.9585518515482888e-04 1.2776311625577503e-02 6.1146971174951895e-03 9.0784201349709565e-04 -4.1120335946724235e-03 1.7041200241808468e-02 4.9012962934475365e-03 -3.1033744068429847e-01 4.3497797743233795e-03 -1.9607108641897962e-03 7.2881058243714895e-04 -4.4412556748231070e-03 7.1879180184606720e-02 5.1728561731618675e-02 7.5450735461370100e-05 -5.1235812783766266e-02 4.3403832484316535e-03 -5.9525120926143690e-02 -3.7662420237777122e-01 -7.0398193906154566e-02 -2.8633737003625508e+00 7.4827501203327443e-02 -1.7463915426783883e-03 9.2613239368168343e-03 6.8492073428844030e-02 -7.6354425172834944e-02 6.7705508676104725e-02 -1.0033052294671982e-02 -2.0338924839635258e-02 -4.6906711299922119e-02 4.8624256528947203e-02 6.1225089539072475e-01 -9.5433083474227853e-03 -3.9402108862275624e+00 -3.0209946939869325e-01 4.2261763248602313e-02 -3.1750412361620017e-02 2.0026256897983744e-01 -1.0227882316839951e-01 -2.6518636777758675e-02 2.1972770947400116e-01 3.2161347020036417e-02 7.2654058062743040e-02 1.0645594875396819e-01 4.3565983583121320e-01 -2.0523399547961695e-03 6.5695813370638394e+00 -1.0944481681691484e-01 -5.7967354402474892e-02 2.5570528288976394e-02 -6.0873664444360376e-02 3.5361351301699470e-03 -1.3381387159986535e-01 -6.2818376811438773e-02 -1.4197225525301369e-02 -7.0817373565216613e-02 -9.1364586023872374e-02 -6.1442454872538377e-01 3.4762879503892480e-02 -2.7347093708682451e+00 8.8705207507559711e-02 1.2660758792743940e-01 -2.1922209107017487e-02 -1.1095818406923501e-01 -2.0657549483759752e-02 9.4287331413282410e-02 -1.4969487029724995e-01 -5.4223421056275763e-02 -2.0081372611894244e-02 1.0574468889560651e-02 -1.3199304513838223e-01 -5.7629881123689657e-02 -2.1254109121980873e+00 -1.4708528311638130e-03 7.7925730712825880e-02 -2.2079136890050859e-02 6.6844090665335587e-03 -1.1168074672862058e-01 3.1163291519784031e-02 -4.3455331644357401e-02 6.6402581323983439e-02 4.3251731337570071e-04 1.3168937140938201e-03 -9.9588243190986414e-02 -7.4379115811200644e-02 -3.1240901414631823e-02 -6.0080439567736940e-02 -1.3934790407995109e-02 7.3686036840650924e-03 1.0903723704222139e-01 -1.2226433860217259e-02 2.0500428964366997e-02 3.6567711479137177e-02 -2.6212140753933879e-03 
      </Row>
      <Row Index="7">
        3.2367976472184715e-02 6.7733262797325333e-02 1.5622253804894312e-01 -2.0738934235967982e-01 -4.3512032332638971e-02 -1.6955219111671340e+00 -3.3457942011716896e-02 4.7634569136179106e-01 -8.9084190384686304e-02 -5.0177577148552595e-02 -6.7980259138945426e-02 -5.0290496450338763e-02 7.6852650442096101e-04 7.8141227343828563e-03 -4.8567307321419381e-02 -8.2837484471292872e-03 1.1128234421974779e-02 5.4176316814432942e-03 -8.7164429359554596e-02 -4.7681695267235910e-03 -2.4682406043840723e-02 -1.1589778987091076e-02 1.4265183587194891e-02 1.6937532344089609e-02 2.8771122084350842e-02 -8.2018753284318693e-03 2.4587441013515328e-03 1.3529331342727630e-01 -2.3179258181272960e-01 1.6899601169384604e-01 6.2137504502028817e-02 1.5049100657886125e+00 -1.1067054131329404e-02 6.0934476949974357e-02 1.1854389797553179e-01 -3.5082242073252057e-02 -1.4659660022874543e-01 -8.7237218639341675e-03 1.5256890869105285e-02 -1.7365048593463918e-02 2.5308308327644146e-02 1.3748663998637809e-02 -1.9609939714634660e-02 -3.4819607744242557e-03 -3.7111489931110220e-01 -1.4369416989282199e-02 1.8360350255449461e-02 -2.9681445751142807e-03 -1.3786559808702656e-02 2.3145307873083040e-01 1.2444281535709682e-01 -1.1864862979958403e-03 -1.3994044033524319e-01 -5.1450691462229337e-01 1.2060879416674489e-01 -3.0220024841128923e-01 -3.1553312680113618e-02 1.6556049594712077e+00 3.2776979229728759e-01 1.1705958407610953e-01 -3.4002891102391314e-01 1.0872243854644387e-02 1.5210458806848234e-02 -7.8583564707472658e-02 6.0329609576016963e-03 -4.2761794042505637e-02 -2.2877018228988902e-01 -2.4405638782531283e-01 -2.0856606510764639e-01 -1.5597993984439465e-01 1.0981943401117842e+01 1.8801457267273863e-02 4.9019133832836637e-01 1.0901547854441246e-01 -2.7667978123322168e-02 3.6499181911819883e-01 1.9275420171395524e-01 -2.9070310669855201e-02 1.7871843836576529e-01 5.9094572413561086e-01 3.8746622028755326e-02 -1.1692704735715299e-01 1.2484487234338901e-01 -1.8286537386139798e+00 -1.6769153350479918e-02 8.1129270865723163e-02 -3.4156672938064514e-02 -3.9076868659735003e-02 1.4121374123561664e-01 3.6267934810366542e-01 -5.5172520203890241e-02 -3.2665373063857403e-02 -2.1400854774282507e-01 5.2777534584750929e-02 1.9564807080079527e-01 1.3826399029837172e-02 -1.0247930572530322e+01 -3.8859378653267773e-01 1.2516387120920924e-01 8.1808012422464327e-02 -1.0017511251009430e-01 -6.4434367746574861e-01 -8.6531688456692879e-01 4.6760264047190844e-02 -4.7864321583393439e-02 -2.6529332470686784e-01 4.5049466770193336e-02 -1.8659300594803452e-01 -5.2554958890194351e-03 1.7526851005196298e+00 -1.5890540226640715e-03 1.0470236722747173e+00 -1.5350332061759450e-01 -1.3542868196436000e-01 -3.2252830427597259e-02 -1.5263367062540745e-01 -2.1732875706591687e-03 -1.1065339164839216e-02 -4.6958902087234085e-02 -5.9359311123254627e-02 7.4765347144362948e-02 -7.3661384137898633e-02 -1.9037513978618373e-02 -7.8677406031719757e-02 -2.8624106339651262e-01 -1.0960654936704078e-01 1.5300246813298965e-02 -3.4215086207027574e-02 4.1522957728253956e-02 3.5574468801938652e-02 1.8141570567873577e-01 
      </Row>
      <Row Index="8">
        1.0848450294098614e-02 -7.8884932316214906e-02 -6.2637004546576142e-02 6.6702699657228595e-02 -6.4736087299069628e-02 2.8120624481171035e+00 -7.5126957034116247e-03 -8.9084190385292916e-02 2.4981289680428306e-01 -7.8439507583555231e-03 -6.7807454116826413e-02 -3.7665774302239573e-02 1.1003925754724309e-02 4.6628697944838988e-03 9.6484332908965492e-02 9.8129179177294037e-03 3.2633349147769431e-04 -6.0879256518901444e-04 2.2184948737745036e-01 7.1948965039516340e-03 6.1320638695273200e-03 1.2117904416509829e-02 4.9928180118607619e-03 -1.9265677408317489e-03 -4.6847910269054216e-02 -3.3198505976938662e-03 -1.1454284791969024e-03 -1.5862422799769227e-01 9.9688559515929837e-02 -1.1020805497666608e-01 3.3651776655274392e-03 -1.1504368877085360e+00 1.7544462930015912e-02 -5.8013120769528047e-04 -1.7872213009042112e-01 -1.2147959747966440e-02 -1.1125219878572229e-01 8.9619120098439642e-02 -1.2342240490449321e-02 3.2764201268358703e-03 -5.4768022926648639e-02 1.2230359414114322e-03 1.2609460749505245e-02 -8.5479724089262948e-03 7.9794059695963782e-01 1.0028641557643459e-02 -5.4659643328550493e-03 2.2428428489648544e-02 -7.1625622452165718e-03 3.3286748684682392e-02 8.1768948985457446e-02 -3.1045291275584534e-03 7.4668266927698179e-02 2.0516376750997156e-01 5.3532313002749472e-02 2.1215699137021105e-01 -6.0102687990252063e-03 4.4589261071431112e+00 -1.5886396275762768e-01 -1.2418659626604903e-01 6.0550378539414407e-01 1.2732911983745814e-02 -1.5810250967307657e-01 -2.2141160545181976e-02 1.7352336574088800e-03 1.6799432231114509e-03 2.4401465610324555e-02 -5.4486134902198266e-02 3.8383013482337081e-01 -6.9809246803644406e-02 -9.9888189482637220e+00 1.1515546863960968e-01 -1.6334332489706735e-01 -6.9914025985975958e-02 6.1411992570233366e-02 9.6955358957280996e-02 -3.3123042680514941e-02 -1.7781520370109399e-01 -1.2607429631064954e-01 -1.7533072212562983e-01 -8.0767499972743864e-02 4.3829483602100028e-01 -2.0493950539983499e-02 -1.4685175962632044e+01 8.1883706779138254e-02 4.7816679908073735e-02 2.8824654295939472e-02 2.9319555709372939e-02 4.1682330233246540e-01 -1.1711099554351123e-01 -3.4422086249425582e-02 1.0882449274594137e-01 -1.7711904161280512e-01 1.2934614967725949e-01 -8.9998120296707707e-01 1.2499754127976193e-01 2.5823825581250716e+01 8.3184674853328089e-02 1.4720593863258621e-02 -1.9800416548542166e-01 -9.6815261300776223e-02 -5.4252959572017778e-01 1.3976490821581844e-01 2.1933950263163288e-01 8.9605486984194765e-02 -9.0479964803152867e-03 4.2139208774158360e-02 1.0991092578023900e-01 2.9963482856382305e-02 1.8075673850846106e+00 4.5733924202252293e-02 -2.6021616332287190e-01 3.4950015577058358e-01 -9.2963926903196509e-03 -1.6879483917775129e-01 5.0674460712580083e-02 2.9343919114452582e-02 -5.1565161684471700e-02 1.4314761574393639e-01 1.4858870212816049e-02 -2.3994523499704545e-02 5.0048174571450735e-03 8.2056842946416408e-02 5.9699667234272662e-02 9.0800544042602363e-02 1.7282040020026707e-01 1.0923132866778866e-02 -7.8723412975896280e-03 4.5903374503800901e-02 -3.9729464257702206e-02 -1.4484261251416236e-01 
      </Row>
      <Row Index="9">
        6.1478423792107412e-02 -4.6520757977928262e-02 3.9951645384190569e-02 4.9229043736347969e-02 -3.3376321637001521e-02 1.8509264388151223e+00 -6.8763342584348311e-02 -5.0177577148809660e-02 -7.8439507585984503e-03 3.4802090364750754e-01 -1.2141244463775444e-02 3.5386915104239844e-02 -4.2364555193728504e-02 9.9148532379819174e-02 -1.5007709783379786e-02 -6.8162785087251231e-03 -1.2748047941032348e-02 9.1673153219656578e-03 -3.3664354874128388e-01 -1.4306988502993266e-02 -8.6472024027834018e-03 -4.7516726099720939e-03 -1.1885467249632020e-02 2.0718504200831246e-02 -5.5629668376299568e-02 -5.8420463586719698e-03 -1.1431287896009558e-01 1.7851958974427706e-02 -6.9253904133594696e-02 -7.4233955055799897e-02 6.6588883719516004e-02 1.4095223139260016e+00 -4.1470233883092395e-03 -1.6376847381967784e-03 -6.5840122425772918e-03 9.7519254320091495e-02 4.6453639536495700e-02 1.3818986891006929e-01 -4.0339468425246425e-02 -5.4838898009641548e-02 -1.0527984599675941e-03 1.4924714529979222e-02 2.3140626307592050e-02 -4.0677742224416412e-03 2.5562004807127270e-01 1.5001070215745196e-02 1.3964540497681038e-02 9.7439509538004409e-03 7.2421633375750853e-03 -3.5381716597765478e-01 4.4476621453744515e-02 3.1476127959289956e-03 1.7761333701256449e-01 2.1548142224717390e-02 -4.9249368015291804e-02 -1.1778496637280533e-03 -7.7839220679424004e-02 -1.1320717267765321e+00 1.2706210371249485e-03 6.1240709777515133e-02 4.6240126921302388e-02 -3.2563780572703144e-01 2.3343526879849186e-01 -5.0682852579242293e-02 1.9374001555399997e-01 -3.3219681506056870e-01 2.2433605674433449e-01 6.6922696156622469e-02 2.0091491966916070e-01 -2.1658879125176944e-02 1.0701755691752087e+01 3.1744607177646472e-01 -1.7278369803910842e-02 7.9965591505032338e-02 -5.6760112281269492e-01 2.6272452896507137e-01 -2.8574837877291592e-01 -3.6336357471700226e-01 -3.1898014734513913e-01 2.2609298984186324e-01 1.6729243001703853e-01 -2.6679376944169120e-01 8.6505697434921452e-02 1.4443466686426333e+01 1.9249446692819572e-01 -7.0351138297262306e-02 2.7379856658883553e-02 1.4178748929223306e-01 3.8852959051378511e-01 1.9776263892415866e-01 -4.1683794400896118e-02 5.0218990731696245e-01 -3.1017561734416421e-01 -2.2190282303134271e-01 1.7663442607057983e-01 -1.0215671753167851e-01 -2.3188307335921458e+01 -3.9119479994850098e-01 4.6705380189157840e-02 -8.5850653482543143e-02 7.1260904028334759e-01 -3.8529113279862226e-01 1.2511056811132226e-01 2.7382607832810058e-01 2.0641500939098500e-01 8.5844523807290102e-03 -3.2748807990330531e-02 2.0038669207368714e-02 -5.8529761829194879e-02 -2.0089999496756938e-02 2.8068861395688170e-02 -2.3355800942728072e-02 4.7497274243048060e-02 3.0706470202344976e-01 2.7545291626084728e-01 1.2268921361125165e-01 1.0600508995759747e-01 -5.4198056019247443e-01 3.9852907215607927e-03 -1.9835835816360177e-02 -1.4825654282255596e-01 -4.3065354294150905e-02 -1.6707639680423714e-02 2.4791394322235517e-02 3.8217807509924023e-03 1.0460097559656170e-02 -5.6107456087085528e-01 4.4648448118510015e-02 3.3748196361468787e-02 -5.9419989455122946e-02 -1.6713659177158102e-01 
      </Row>
      <Row Index="10">
        5.3724658683221072e-02 -8.3545804514009475e-02 -7.6855176762815308e-02 2.2465402226583736e-01 9.4007867615469656e-02 1.3438069195644573e+00 1.6557425713812423e-02 -6.7980259138886334e-02 -6.7807454116936325e-02 -1.2141244465034244e-02 2.7970710964474028e+00 4.9321051898524482e-02 -1.9245790868632567e-02 -8.9194181757139834e-03 1.0010284078851202e-01 -5.2535714935466335e-05 -4.4981277034219520e-03 -1.8515503860495639e-02 -6.8817982528086352e-01 -3.8850596704112558e-03 1.0696867952541718e-03 8.6571026062420104e-04 8.7664472653529030e-03 7.4532714892902266e-02 1.0805844376776449e-01 8.8240005616347025e-03 -1.7749689266170796e-02 -1.4455685881804176e-01 2.0595513364317108e-01 -2.4954714053010701e-01 -1.2049796136477657e-01 -6.4565298514520419e-01 -7.8179379720435434e-03 2.7616148016424220e-02 6.3842592061464684e-02 7.3654411108838493e-03 1.3085496473877782e+00 -5.6705932222222111e-01 -4.4189373862593043e-02 5.4928460824541253e-02 -1.8622905872132595e-01 2.1136682759617054e-02 8.4580377905308202e-02 8.2646945630464718e-03 1.7679759877954333e+00 -4.4032327337327787e-02 -4.1278269281079465e-02 -1.4181657774430069e-02 -5.3317161101329811e-03 -1.7225370186940974e+00 -1.8822340712793428e-01 2.6099116532429495e-02 1.0436679092229956e-01 4.4223365143405205e-02 -1.5413611779412081e-01 -2.1371104166295379e-01 2.0208361028812397e-01 1.3020545986247756e+00 -1.0585306969147842e-01 5.2600155563081064e-02 -1.5707404938459474e-01 -5.2799541134692762e-02 9.4211943366348527e-01 -7.2025600009537305e-01 7.5708153253823171e-02 -3.5714677936012358e-02 -6.7310418040678471e-02 8.5694920534273286e-02 -6.6986329802359623e-01 3.4932975255590876e-01 -9.1125275379467041e-01 -2.8406247439611049e-01 -1.3407664094402191e-01 1.5187504258892615e-01 -2.0117550360311015e-02 1.7196897634534752e-01 -9.5006444128058198e-01 -2.3321209399549403e-03 -1.7913160396718972e-01 -3.2145184093511303e-01 -2.5215694823349721e-01 -1.5006137659736131e-02 -1.3529963044296492e-01 1.8534558067101727e+00 -9.1714590865492648e-02 2.8092177007078944e-02 7.7584257590705474e-02 1.8090047534150444e-02 -2.5825611218636252e-01 -2.8600220109158825e-01 1.5310300016925268e-01 1.7962037893969368e-01 8.3864109146791876e-02 3.8807581199230379e-01 6.1547765469750404e-01 -2.5073031708854010e-01 2.3224664389594025e+00 3.7450923680686332e-01 -1.4329851869207044e-02 -8.5364981175127030e-02 2.2900357343384303e-02 3.7872150266649713e+00 1.1559648367466790e+00 -1.1172824451064173e-01 1.0571357512594790e-01 -4.5792898039814595e-02 1.6953562318109808e-02 -2.7609352918212343e-01 3.7569914462246348e-02 9.0958320245103724e-02 -6.1122455250319702e-02 -8.9877843949059288e-02 -6.2019582228936651e-02 -4.4984102167823711e-02 4.2100316173471830e+00 -1.2169034079507668e+00 1.1103010119556507e-01 -3.8308831434133231e-02 1.7458668057103122e-01 6.6304141873572836e-02 -2.0275684503581251e-01 1.0771918483911880e-01 5.8459764042850360e-02 5.9675015738439854e-03 9.0107257250930647e-02 -3.5280692607382924e-02 2.0590331040503335e-03 2.4887576551082236e-01 -2.2961788623408305e-01 -4.6976163179204035e-02 -5.1855336793612927e-02 
      </Row>
      <Row Index="11">
        6.3132260893376368e-02 3.8568233598806567e-02 -1.8589505305820542e-02 -1.8787327972518836e-01 1.1679385761733427e-01 -9.5976148909903714e-01 -3.9681543788677019e-02 -5.0290496450603239e-02 -3.7665774302099497e-02 3.5386915104445381e-02 4.9321051899336416e-02 1.4977100283315052e+00 -6.9539757733989571e-03 -1.7742950977197762e-03 2.4312705486951310e-02 1.5086555685515602e-03 2.8519761577689970e-02 -2.5120949601152395e-02 -3.9650400011116549e-01 8.4544222524267545e-03 -1.2678304225607106e-03 2.1423248368433456e-02 -1.8300540062811621e-02 -1.1779355700346004e-01 -1.3449867675133176e-01 1.4364606118995803e-02 -1.4530159109486816e-02 -8.8628639492754901e-02 5.1304578770645759e-02 -3.4007422198180598e-01 -6.0696756051183076e-02 -3.3701617900083964e+00 -1.7539502201997861e-03 -2.7757953378678705e-02 -1.7479798498865384e-02 5.0156044233533488e-02 2.2544809711707547e-01 2.4113979831952431e-01 -6.7552234649738585e-02 -2.0177439958057042e-02 7.8568629111159555e-02 3.9552256301443878e-02 -2.7710771346579888e-01 1.4635098339036342e-02 3.2198715764213404e-02 -1.2524769385017027e-02 2.2146371335273356e-02 -4.2729187840538078e-02 4.8931151602567252e-02 1.5084228695011748e-02 6.2133420128467154e-01 2.0317404650849517e-02 1.9877924509140256e-02 3.4465320718673087e-01 -8.2152158853011303e-02 4.4926536899931857e-01 1.4252009474628730e-01 7.5208134385426337e+00 -6.8926140147332809e-02 9.2431124895746786e-02 3.6226509574448812e-02 -4.6317506561206458e-02 -3.1946978070243409e-01 2.6676657191655029e-01 -1.1440664070809034e-02 -9.0692676423127408e-02 3.5880462148348002e-02 1.0438703761538742e-01 -7.9908642590630430e-01 -1.5339394678521107e-01 -6.4308290415093552e+00 6.7112476740288557e-02 -1.8421798423682612e-01 1.7237588410872820e-01 -7.3052041031579952e-03 -7.0127563075900090e-01 -1.2335134456278627e+00 1.3293445062675865e-02 2.9083129112578033e-02 -4.8522097302304801e-01 5.7313118787268677e-02 4.5171042626563662e-01 -1.4205421152858905e-01 -1.7259758409655365e+01 -8.3260380229732020e-02 -1.0269680555959543e-01 4.3674738569732807e-02 -3.3265291913569250e-03 -1.8274017955044730e-01 -5.1273494326626035e-01 1.9575022485611190e-01 -3.0889652047558516e-02 2.4249900653124701e-01 2.0325523879010415e-02 -9.0883169090901661e-02 1.3578077331138172e-01 2.5738862224299169e+01 2.1170828241375658e-01 -3.5297462146409664e-02 -1.4535215539357949e-01 1.7167571740556758e-01 7.6563252317877462e-01 1.6189399393575821e+00 -2.0727072660551726e-01 1.2858742756257438e-03 1.7103561496726430e-01 8.8176456791569671e-02 -1.2996151275993184e-02 2.7874533746242932e-02 1.8230497938459234e+00 6.5103380412985010e-02 -2.0917099282861629e-01 6.1285764575876124e-02 1.1227072369312063e-01 -4.9799875162331964e-01 1.4784532588639461e+00 6.2900201113765541e-03 7.0584475169404269e-03 -2.8725538782540484e-03 1.4249373102740329e-02 3.4796266080629085e-01 5.7074768015270214e-02 2.1097597879751756e-01 2.6350355475141946e-02 6.7667642266930228e-02 1.9924199013325886e-02 -6.2683143075681777e-02 -1.7373201507457466e-02 3.3890208827247464e-01 -6.5779284257629064e-02 -2.2303854802009770e-01 
      </Row>
      <Row Index="12">
        -9.1538542550736544e-03 -2.4436875186896190e-03 -6.9653123958301241e-02 -8.2273850100403612e-02 4.9519570917837707e-02 -4.7971774202478912e-01 -9.8475998091647719e-03 7.6852650430587338e-04 1.1003925754714428e-02 -4.2364555194604955e-02 -1.9245790869149418e-02 -6.9539757734009243e-03 1.4226987962420456e-01 -1.9083814238502486e-02 2.0024041577479734e-02 -6.0612316334002804e-03 1.7542389914401864e-03 -6.5774524043938588e-03 4.8658266554877372e-02 7.4586430911274841e-03 3.9242518623814216e-03 -1.9659539942933880e-03 2.1669298223552019e-03 1.9719252518303407e-03 8.0479799238317579e-03 1.9622339477407416e-03 2.9986417483556300e-02 -1.5879403134552390e-02 6.7889388567548559e-02 5.5731940739187261e-02 -4.7215933951282152e-02 2.2755134720694636e-01 2.0192811187930260e-02 -1.0430740490388158e-02 4.7293679131690802e-04 -3.8822160346070569e-02 1.0655307022509022e-02 -1.8089074140491018e-02 1.3828501084002093e-01 1.0904068898864278e-02 -1.1106808299152129e-02 -1.2563115360242561e-02 -1.1264756560997125e-02 -3.2159490308329652e-03 1.0955507240803097e-01 -4.1344120655666316e-03 -7.0256681982458448e-03 -1.4424844533647099e-03 -2.1210817547460642e-03 4.2895200530633587e-02 -1.5277439623280270e-03 8.3346160566946902e-03 3.1421649102941051e-03 6.2581881375957993e-02 6.0562011275223482e-02 -9.2046681899869448e-02 3.5329552347428059e-02 8.8188046598226721e-01 5.7681260038706252e-02 -2.6285886757000235e-02 2.3392749393396063e-02 5.6716534921092882e-02 6.9427182518392458e-02 7.8619912039625511e-02 -3.4358629648197248e-01 1.8128862253195072e-02 -2.7655559591888423e-03 -2.1405627875672746e-02 2.9701089588013929e-01 -2.9315907903137067e-02 -2.4701697575087671e+00 -8.1412236629543749e-02 -6.9513707585316747e-02 -5.7116355912080065e-02 7.4517100010873069e-02 -9.6445665845866745e-03 -1.4848068488269625e-02 5.8026198708041510e-01 2.4792081277336304e-02 -1.8748749590415786e-01 -1.3245747517162987e-01 2.9776179216086746e-02 1.9806340965373075e-02 -7.0244066251686332e+00 -3.7357522170293311e-01 9.2300850808654855e-02 -4.4418555884776924e-02 5.2554210455617707e-02 -4.2616068990426853e-01 -1.3287465274538843e-01 -6.9828088263582264e-02 -1.6162896439778501e-03 1.7622259420970229e-01 1.7236341189268337e-01 -3.9043600638072695e-01 4.7659827053051107e-02 9.6344242060261678e+00 4.6311789227540789e-01 -8.4218520009429657e-02 7.2088735063657428e-02 -1.7867046969015890e-01 3.7508291221918016e-01 9.8739423165161322e-02 -2.1884430280471723e-01 2.5580350094372210e-02 4.8500323633454016e-02 4.0201223307392675e-02 -1.7687622795954228e-01 4.5783011024045833e-02 3.8922319441908393e-01 4.4419150482380744e-02 -8.3769106407063296e-02 1.6947574953301314e-03 -4.0653907346848137e-02 8.9367687401344723e-03 1.0441855277642353e-02 -1.3180379986943322e-01 9.9182244827579327e-02 1.5259665536619699e-02 2.6912317479096136e-02 1.0669218531302502e-01 4.3175215925986755e-02 -3.2983007717722168e-02 -2.3865925321119551e-03 2.3019422049497092e-02 -2.3625041557697587e-03 8.9061260865027900e-02 -4.6652187087311055e-03 9.8506013046576781e-05 1.5785188557671984e-01 2.1223281031129523e-02 
      </Row>
      <Row Index="13">
        1.8260163045244714e-02 -8.5982124165610574e-03 4.5949310133608944e-02 4.8871816566831497e-02 -3.1983514016700923e-02 5.4849252184163788e-01 -1.2785655381214530e-02 7.8141227341324837e-03 4.6628697944894604e-03 9.9148532379637278e-02 -8.9194181751871167e-03 -1.7742950978184456e-03 -1.9083814238035512e-02 8.1737016801284756e-02 7.2637944939038333e-03 -4.7818106726171539e-03 -1.3784763338508522e-02 1.0853804955201213e-02 -1.0090210175718972e-01 -8.6640367436211837e-03 -1.0477281148711128e-02 -4.0406163323370541e-03 -9.7632966218723569e-03 2.2336197747193885e-02 -5.7278984576150660e-03 -4.5142255342879769e-03 -8.1767636040226771e-02 5.5448346463768505e-02 -4.3167041789139667e-02 3.3611646998783939e-02 2.9966466960156358e-02 5.6783062843280208e-01 1.0074456335160508e-02 2.8401103742421736e-02 -9.5550820121544922e-03 3.1728344555136956e-02 -8.8358424818327716e-03 7.7406941175250377e-02 -2.3591233007809074e-03 -3.3969736593383142e-02 3.1661107447228110e-03 6.6386883265525934e-03 1.9421819373519535e-02 -5.3798893361400868e-04 9.5508777957093116e-02 8.9650083563713161e-03 1.1362701261769869e-02 5.0635002903294812e-03 -4.2480440861075337e-03 -1.2382454679460965e-01 4.2935867478490979e-02 2.4690619054679244e-03 1.0471909282317157e-01 -1.8304050015394036e-01 -6.3204353760734078e-03 -1.4355071158281954e-01 -1.1428694133259323e-02 -3.5577679901819403e-01 1.7195804759782711e-02 -5.8930777767490249e-02 3.1898150082283000e-02 -1.1558792897366407e-01 5.4164576670137562e-02 -2.9156870902382476e-02 7.2078907653896337e-02 -1.2837242143921707e-01 3.0125570597441507e-02 -1.8718389481572173e-02 6.4639181517205505e-02 -3.9328684788710461e-02 5.4351566383421641e+00 1.0587697487789458e-01 1.5037627514809512e-02 4.1774101506869388e-02 -2.2356320565119242e-01 8.8286017941977310e-02 -1.9304656326585599e-02 -1.5820089004033117e-01 -1.7279475900497443e-01 2.8914888719967602e-01 4.3721779313040068e-02 -7.0228042030793053e-02 -8.5821825320794888e-03 5.3388728309058084e+00 1.0164037966484707e-01 8.1937195898701576e-02 5.3634251817671744e-02 3.5223899887862585e-02 2.4315264509985782e-01 2.3308166806121169e-01 4.0423992459849376e-03 2.0778936613498925e-01 -2.6745016270212912e-01 -4.1047284413523052e-02 1.1745129146215906e-01 3.7492632782671051e-02 -1.0153364206561131e+01 -2.2827476125519536e-01 -4.7886986874385168e-02 -9.4436488318794143e-02 2.5665297700276118e-01 -2.6131125035654978e-01 -2.3474508252839865e-01 1.1713403713801443e-01 7.6615149375446417e-02 -1.2116682590120366e-01 4.0001143959702279e-03 -6.7753314789226485e-02 -1.3220378006692938e-02 2.5739710896039492e-02 -1.4935982470286850e-02 8.2163448811875227e-03 2.0008157351888045e-02 6.8730195248185327e-02 6.0151049479810675e-02 4.9423107403592376e-02 5.1813698591276498e-02 -3.1372880995998548e-01 2.3050753118579521e-02 -1.3516208853415122e-02 -6.6489221464935355e-02 -4.1413566367883861e-02 -7.6220267952835392e-03 -5.2076557639327593e-03 -1.3565554820847479e-02 1.1158738979647451e-02 -2.1784309643655220e-01 1.4348475889216259e-02 2.0753233816940379e-02 -2.0169226157992572e-02 -8.4754144894829062e-02 
      </Row>
      <Row Index="14">
        6.7389812504540958e-02 -3.0734276834223162e-01 -4.2116890454096542e-02 1.0421707595334709e-01 -6.8943333909430781e-03 4.5604806593181166e+00 -6.9927716198857261e-03 -4.8567307322686618e-02 9.6484332909492154e-02 -1.5007709784243244e-02 1.0010284078858861e-01 2.4312705486872931e-02 2.0024041578252313e-02 7.2637944935164608e-03 3.2613681266532318e-01 6.7073323857914161e-03 1.1765369203318006e-02 -1.6162929936834429e-04 8.4909711659878173e-01 1.1917008251249601e-02 -5.4121190055543226e-03 7.7587615934356230e-03 -6.0031285321585125e-03 -1.0267584577864863e-02 -1.1195202122947570e-02 2.6268388978904975e-03 2.7075917333133212e-03 -4.6880214405389220e-01 5.9771212612459317e-02 -1.0671598771398148e-01 -1.7776549565759869e-02 -8.6242407433049273e+00 2.0021842444035719e-02 1.0072126373672531e-02 -8.4812424090573019e-02 -1.4323773149148853e-02 2.2836699615950223e-02 -2.5208271701647411e-02 2.3280647742435129e-02 3.1899060841197042e-02 -2.0224017261484184e-01 -2.3668537338918326e-03 1.0400484606884891e-02 7.0996597224810779e-03 1.7043972604788911e+00 1.6709053519965620e-03 1.5281765172094204e-02 -3.7428522035030422e-04 -8.7832406186618764e-03 -1.0377681192988830e-01 -1.4140181628913289e-02 -3.8586697118271063e-03 2.6849932995357773e-01 1.6423441643239867e-01 -6.3257957481922630e-02 -8.1486969795777131e-02 3.4220072010530678e-02 7.8752318621098709e+00 -1.5655618087170972e-01 1.5489414001518794e-02 2.7088380007336643e-01 6.3885512480348350e-03 -3.6604556593061131e-03 -5.0542507420812149e-02 -5.1525201917337546e-02 -1.2495649403948371e-01 -8.6282368924184033e-02 -3.6075995606611608e-02 5.0298889733757968e-01 -7.6295079436733651e-02 -2.7318424482436171e+01 5.7940504583000568e-02 -2.2167671240824099e-01 -6.3152791070861247e-02 2.1467589867786390e-02 -1.7286332086722439e-01 -1.0257830848656006e-01 -4.9395985272626501e-02 -1.8352687850605715e-01 -6.0474869022624345e-01 -1.0183824054206406e-01 3.9669676200112391e-01 3.7362307119504806e-02 -2.7514421529162565e+01 -1.2416424444285049e-02 2.5842818231431031e-02 2.2500940316234792e-02 3.3928299164096967e-02 2.9049536830383305e-01 2.8374257415341020e-01 -7.2487085366195733e-02 3.6705102935732942e-01 -4.3423815534273602e-01 1.1291778397716071e-01 -8.8963994580100325e-01 5.9229734618638993e-02 5.7349676293790871e+01 1.5154260791027238e-01 1.9542378326659277e-01 -1.1781816975497286e-01 -6.2399059650249902e-02 1.7387213459616541e-02 -6.0762376655004904e-02 1.8468050926287499e-01 3.8262833802041513e-01 -4.1096990588884369e-01 -7.4239380293680698e-02 -1.1626040163944149e-01 5.5460340788179865e-02 -3.7567660176763273e-02 -4.7787473872047334e-03 -1.5003884249769062e-03 1.3020544334393389e-01 -2.1835523570808403e-02 1.3849646781104774e-01 2.7680306478728378e-02 1.0393422132287876e-02 -7.2085353853957757e-02 4.4088924995105538e-01 8.4158871772974514e-03 -1.0386916087552703e-01 -9.5955996148619493e-04 1.6858982963909669e-01 4.5695210860622983e-02 6.6156795888649159e-02 1.0617404621745184e-01 1.0318304143042167e-02 1.7077590598656826e-02 -1.2037754833091737e-02 2.1014940004269740e-02 -1.7315539355458341e-02 
      </Row>
      <Row Index="15">
        -2.0886591121407026e-03 -1.4865658621544819e-03 6.8671944993741654e-03 2.9374407672425232e-02 9.6640565587085246e-04 2.5330064035122746e-01 -4.2126893949353574e-04 -8.2837484471243727e-03 9.8129179177285364e-03 -6.8162785085447257e-03 -5.2535714909089648e-05 1.5086555685001474e-03 -6.0612316334380176e-03 -4.7818106725416153e-03 6.7073323857981711e-03 3.9124088221418593e-02 1.6977401062111430e-02 -1.3636608229819592e-02 -4.9282108391701662e-02 2.3663064033826882e-03 -4.4320015045905086e-04 1.5601010783399395e-04 -9.5051464728769346e-04 5.1298054869890371e-03 8.9544644258095565e-03 -9.4421002369342918e-04 8.3328203277630124e-03 -2.0195813973031052e-02 -1.1561776860487885e-02 -9.6229459820182037e-02 4.2552493231978860e-03 -2.8401553485139663e-01 -6.0435580545269152e-04 1.4781865449569206e-03 -1.3320209850756104e-02 -3.4880319215803727e-04 -6.1501878659439360e-03 -2.9678614432254030e-03 -2.1291881949110320e-02 1.0636431754425255e-03 -6.2239983638996766e-03 6.0136878076653411e-03 -8.1604300926412521e-03 2.8235384658548386e-03 1.4914705052983246e-01 5.7761410792993512e-05 -1.6203500063079819e-03 -4.0088832124342906e-04 1.5026896478857244e-03 1.1884463897249394e-02 -5.3759601675144753e-03 2.8950859445334501e-04 1.3664751846750742e-02 -1.6380081329822729e-02 -5.3980273325880943e-02 1.0422043386790826e-01 -3.0638133934161385e-03 2.0963001191861252e-01 -2.0049359720349866e-02 3.3861685927735856e-03 3.8854407410854094e-02 -2.4932043127733200e-03 -1.6488950001340832e-02 3.7443774086797499e-03 3.9027111386227331e-02 2.9490044985891585e-03 -2.0519957447870101e-02 -2.5861109776189630e-02 -1.4318041869014336e-03 -7.8592462669153179e-02 -3.8554153039906325e-01 3.4793670977158020e-02 -2.2286985003808348e-02 -4.4007204965057500e-04 2.3216440195212389e-02 2.5542718731311882e-02 3.3174909827740004e-03 -9.2301139740392973e-02 -1.1563357712392447e-02 2.2593280604874220e-03 1.0354943081391556e-01 -6.3429039839690837e-03 -1.9658027004814102e-02 5.4601440985438288e-02 4.3585989081334001e-02 -2.9094971027934721e-02 1.3473879122109832e-02 6.4312248609892358e-04 1.2963651296808570e-02 -4.9465825384485587e-02 2.7247453545715852e-02 5.1286820586776156e-03 -2.6398111475577697e-02 -1.0087591854464346e-01 -3.6099821773127608e-02 6.4368162117445199e-02 7.2632370157531712e-01 -5.2271943428675312e-02 4.3123779935972731e-02 -2.7103362615791052e-02 -2.4556571418142326e-02 -2.7776569492798095e-02 5.8700003102131151e-02 4.1499994572832821e-02 -6.4883645578711364e-03 -2.9574552904799406e-02 -5.1745666965116024e-02 2.9409428430276715e-02 2.0669171612978827e-02 -1.1501828451390678e-01 1.2779332489225650e-04 -9.1753221220898171e-03 1.8234611353163812e-02 -9.8310235462201259e-03 -6.7576500080268262e-03 9.3176788554978664e-03 3.2860446015507791e-02 1.8283071843227517e-02 2.2531364724616042e-02 -1.4002680635539411e-02 -3.0462845434959644e-02 -5.2919996952706799e-03 1.4048959440129519e-02 5.4980518119497560e-03 5.7504087026693127e-03 1.0257712710093722e-02 1.7227250230829907e-02 -2.1213890786629824e-03 -2.7406021379971215e-03 -2.9555192303565899e-02 -1.5183055779328098e-02 
      </Row>
      <Row Index="16">
        -2.1371120046801629e-02 5.8242731652368929e-02 1.0110659080889813e-02 1.2016139871008241e-01 -9.8574094704783038e-02 3.1911514383671147e-01 1.9255953287482988e-02 1.1128234421915822e-02 3.2633349158581182e-04 -1.2748047940800198e-02 -4.4981277032143403e-03 2.8519761577828304e-02 1.7542389915717882e-03 -1.3784763338353850e-02 1.1765369203762779e-02 1.6977401062105067e-02 1.4839327917558878e-01 3.4129674601868932e-03 -6.4138903497628519e-01 1.5581930719376334e-03 2.6146863559175556e-03 2.8364306659695040e-03 2.8167196265215938e-03 1.5275480410141887e-04 2.1113633139985488e-02 -1.7998244303206616e-02 3.8095898682943274e-02 -1.0168952184716926e-01 -2.6947566518466443e-02 -8.3923115325761813e-02 1.8277440958763652e-01 -1.6623128462440442e+00 -8.5880979004426729e-03 1.0402056419655144e-02 4.1107944382048206e-03 -1.2629980978146649e-02 1.5675689534756232e-02 -4.7549373848920773e-04 -2.8253412118159987e-02 -2.2195789637127735e-03 -9.8234005184111781e-03 -9.6662120854981229e-03 -2.0354455311769076e-02 1.6915712198387330e-02 -3.2350115414181646e-02 -3.3685530222320181e-03 -6.5684997440611393e-03 -3.9690916400503019e-03 1.2413643979833138e-04 7.8134496120190383e-02 5.9868699345307017e-02 5.1562460644051658e-03 1.7166986464619359e-02 -4.2042679733424827e-02 -5.3339414874841937e-03 -3.0462859170917733e-01 -2.6804035177667029e-01 4.0574677452774388e+00 -1.2953404991167761e-02 9.0970820495184984e-02 2.1721308629621423e-02 6.1153007765656631e-03 -7.5136476143656900e-02 1.2484003033787701e-01 8.2959943607488124e-02 -9.3547512478450459e-02 -1.3307484140267309e-01 6.0616170678640426e-02 1.8496621732565194e-01 6.3805164540447268e-02 -2.0468127868508077e+00 5.9640389919160014e-02 -1.2487764050635780e-01 9.5976956759129955e-04 6.1647127107301782e-02 -1.1895986926156014e-02 -1.9157342812956141e-01 -1.2161783609910547e-01 -3.1461353592905646e-02 1.2281004081528733e-01 -5.3051072872265827e-02 1.1952829966132099e-01 1.0730198001583646e-01 -1.1999317170230679e+01 1.3064470485369309e-01 -1.4171317004846232e-01 -1.8963988239801700e-02 -5.2852656721390015e-03 -1.1271958854051342e-02 -3.2125465283687449e-01 -2.9354619992217501e-02 1.1251789721649580e-01 -7.6982627039517443e-02 -2.9191523444936494e-02 -4.3614753340792012e-02 -1.3539653521410644e-02 1.4100405741688071e+01 -2.3569840092326427e-01 2.2701761694876721e-01 -1.2010147953219415e-02 -6.4054483025540426e-02 4.0910199938040348e-02 4.3644854217575946e-01 1.0657775271377409e-01 -1.6004506625494175e-02 -3.7632019241552947e-02 -3.9864347343531732e-02 -1.9810031897716518e-01 -1.2537360950500881e-01 1.7755341519996937e+00 -2.4935720498409829e-02 6.7028048988559075e-02 -5.2752221021792368e-03 -2.0699210037674165e-02 -3.1927240689837613e-02 9.6454052845293403e-02 6.5788411902020505e-02 4.8203446702129303e-02 5.8759464407737605e-02 5.1400615454033610e-03 -3.2407171175761429e-01 -1.2394154871919918e-01 -2.1160306447890478e-02 -1.6465265202574322e-02 -7.0027195392663930e-03 7.0234480037483851e-03 3.4069305081595322e-02 -1.0327198301406795e-02 3.1791063593960583e-02 -3.8944058934834207e-02 -8.9156844732136142e-02 
      </Row>
      <Row Index="17">
        -1.1909752051740722e-02 -1.8357150916280617e-02 1.1082199857066705e-01 6.3688367436432303e-02 -9.6406782491135462e-02 3.5100029882997319e-01 1.3739377009462013e-02 5.4176316814144448e-03 -6.0879256506687907e-04 9.1673153219230964e-03 -1.8515503860393585e-02 -2.5120949600887399e-02 -6.5774524041219695e-03 1.0853804955210255e-02 -1.6162929900032964e-04 -1.3636608229842346e-02 3.4129674601231352e-03 5.9494823380758462e-02 2.0794911653416293e-02 -1.2632146276420188e-03 -4.8219579931776408e-03 -8.0537059638445749e-03 -5.6519866179757603e-03 2.7794981304100266e-03 -5.5201173089062944e-03 -2.3585346951417491e-03 -8.0447871993219559e-03 6.3378616875090221e-03 -1.2280621449139167e-01 1.3117999776218733e-01 1.3602158133800854e-01 -1.2016969869411696e+00 -1.3889465562584625e-03 8.8843367639501319e-03 2.3626258524135316e-02 1.3627340345977393e-02 -1.3503868059052626e-02 2.2997869065071702e-02 -6.2159423126429943e-04 -5.0612923074317738e-03 4.9174977857142010e-03 1.1345902002837459e-02 2.3799711837243869e-02 1.4505328313416676e-02 1.0034255891562127e-01 9.2327836770680178e-04 1.0916857784804617e-03 4.1777543891261537e-03 -4.9220845455303004e-04 2.3790340040479484e-02 3.9459088514191533e-02 -1.1049688226603266e-05 6.2659468998089961e-03 -9.9691422441612262e-03 2.1346237822913589e-02 -3.3633771588116795e-01 -1.7245098486983995e-01 9.1203880737378207e-01 2.1093832508929423e-02 2.8469554027264258e-02 -3.0880343722123570e-02 -9.3483619806626079e-03 -2.5265168639894267e-02 5.3909956117559860e-02 2.0677434443669568e-02 -1.0078575854301866e-02 1.0865214189909447e-02 -1.2628938160081848e-01 1.6220681003834519e-01 -1.4296351588682030e-01 -6.7042405885445078e-01 4.8487874539294248e-02 2.3160378486017423e-02 9.4763573191200805e-03 -7.8125358521665671e-03 6.1144591522563616e-02 -5.1788298701177619e-02 -1.6465503019262796e-02 -1.6581850118524390e-02 2.7427534342202992e-02 1.4625334741539431e-01 3.3269595708120270e-02 1.1274291679767177e-01 -4.0319553715780465e-01 7.4382878553449022e-02 -4.3787450207727245e-03 5.3742338603158232e-02 3.2013712781177230e-03 5.8718776179990127e-02 1.3736221935967945e-03 -3.3018803206749041e-02 1.8790768173097275e-02 -3.4567608333186207e-02 -1.2495941704091458e-01 1.3776997088219853e-01 7.6554550070621508e-02 1.4539536732790097e+00 -1.8326478388092893e-01 -6.7163523410154261e-03 -5.0342835432745696e-02 1.0817804012947537e-02 -1.2983237058981029e-01 -8.6624132774567875e-03 9.4930731856201558e-03 -5.5355646049773857e-03 -2.4145982920688445e-02 5.3308338095529179e-05 -1.3750261229183500e-01 -6.9706782633396733e-02 -5.1095410599473978e-02 -1.6410456700407375e-02 3.9155088634983209e-02 -1.9812959355755493e-02 2.3520549674127395e-03 -2.9978987077903141e-02 3.9336014871479377e-02 -5.2340888944062188e-03 -3.1825800178935874e-02 2.1587939719018665e-04 -3.9559053831628881e-02 -1.1819482028521973e-01 -1.5634133304837300e-01 5.4682578618290845e-03 -1.5772788384402367e-02 -1.6856381696310020e-02 1.0129266556903730e-03 -2.2238117835266531e-02 -4.1252567938915114e-03 1.8292773028703857e-02 1.1355229539262815e-02 -2.9757485269057523e-02 
      </Row>
      <Row Index="18">
        5.4724619038381349e-02 -2.5024506665409154e+00 -4.1831547784398299e-01 6.8875917623358240e-01 1.9371995814933729e-01 -2.9166989071212811e+01 4.3600231351535029e-01 -8.7164429360171880e-02 2.2184948737981713e-01 -3.3664354873147734e-01 -6.8817982528687516e-01 -3.9650400011620446e-01 4.8658266547988660e-02 -1.0090210175316217e-01 8.4909711659664855e-01 -4.9282108391145218e-02 -6.4138903497187072e-01 2.0794911654965609e-02 5.3935691310364291e+01 1.2538230425025801e-01 -4.6529003412654452e-02 6.6284208461967448e-02 -1.4662156714019542e-01 8.0243264135271941e-02 1.7218599309496341e-01 -3.3774337204616478e-02 1.6320945827095529e-01 -2.3836709954133219e+00 5.7769559035431106e-01 5.2085286564277911e-01 -6.1043257281308339e-01 3.3495440025766392e+00 -4.2304110061203604e-01 -1.5033559972715321e-01 -1.2180795849380521e-01 -1.0923982818097634e-02 2.2476499365320279e-01 -2.4027716000502153e-01 3.4677830069467164e-01 2.1024336804527255e-01 -7.9100918611221205e-01 -7.2914629365615699e-02 1.4590223242436795e-01 -9.2109131386215681e-02 -3.7754859238923466e+01 2.5322006838480147e-04 -3.1886687422180149e-03 -4.5173250838653194e-02 8.1572292521617989e-02 2.0444452554147561e+00 3.9948108298104401e-01 1.1577794326343169e-01 5.6983071865780599e-01 2.5852223526489584e+00 -6.3415112030692178e-01 2.2562882359710379e-02 1.1697860157009152e+00 -1.7528132723471742e+02 1.5873115979955361e+00 9.6541355567810561e-01 9.2702198457669027e-01 -3.4699765782175512e-02 4.3161036558381560e-01 1.4506981125776788e+00 -5.2914933844236312e-01 8.8616789880814428e-01 1.7372124150184676e-01 1.9059968949468789e+00 4.1954915115270026e+00 -2.8388931548453089e-01 -6.0036442814362090e+00 -1.9075924381079223e+00 -3.0833890574522904e-02 -1.0177154486251860e+00 1.1537286940528588e+00 1.9266813774943714e+00 8.1078603731088261e-01 9.4732992385507320e-01 2.6761039765859845e-01 -1.9750420096729830e+00 1.3076602354863012e+00 8.7748696209168264e-01 -1.0588653085955215e+00 3.6702636700141994e+02 -5.5109326805540437e-01 2.0806383459104048e-02 -4.0090690854380728e-01 8.4936834500232439e-01 -3.6064798573754180e+00 -3.8570309771295042e-01 -1.9192008740689959e-01 4.9040068491665578e-01 -4.6388370392578508e+00 -1.1310896749779458e+00 -2.9115937126916478e+00 -4.4174371542840074e-01 -4.1122989852659748e+02 -6.3635318191676971e-01 -6.9133682198292523e-01 -5.1402858709489097e-01 -1.6244746153191969e+00 1.0766369724881919e+00 3.5322250750813877e-01 -4.0781251064578727e-01 1.8016829847234366e+00 -2.8389102177127890e+00 9.2896422687977509e-01 2.2894269068698314e+00 -7.6397401428108602e-01 -1.0395720578402513e+02 -4.0646726170223824e-01 1.5151214353090525e-01 -5.1215448647996342e-01 -9.2026504702885703e-02 -3.0680765681600253e-01 9.4346853248223894e-01 -6.3384340197059830e-01 8.5862038356239878e-01 1.5369977757490971e+00 1.6485320911901896e-01 -6.3360903385083711e-02 3.7768880522683523e-01 -2.3592719752354747e+00 -6.1967103183180927e-01 5.1483866085000912e-02 3.5141321532830272e-01 7.0282394401468518e-01 -2.1084453037942896e-01 2.0708892916886024e-01 1.9935626911699034e-01 3.2035562473353334e+00 
      </Row>
      <Row Index="19">
        1.2242747179431419e-02 3.6345625457894631e-04 -8.3039596535874685e-03 -4.0104191472778127e-03 -1.5608471428399537e-02 3.4091276879644283e-01 -9.8962644282353032e-03 -4.7681695268000247e-03 7.1948965040670755e-03 -1.4306988502943039e-02 -3.8850596705194765e-03 8.4544222526570824e-03 7.4586430910272075e-03 -8.6640367436528528e-03 1.1917008251219713e-02 2.3663064034188238e-03 1.5581930719387469e-03 -1.2632146276549230e-03 1.2538230425046226e-01 3.9725988587400271e-02 -6.0813490445034285e-03 -1.5218557377389445e-03 2.3328102185156663e-03 1.2285551850043999e-03 4.9081255783296682e-03 -1.5844562456780072e-03 1.5239090214708772e-02 -1.1795333073025254e-02 1.1566281064961466e-02 -1.0921024445792481e-02 2.2861284480775613e-02 -1.2225228473129568e-01 -3.6858685110558904e-03 -6.8070239154609793e-03 -5.3538856765989089e-03 -6.1458265766964736e-03 -1.8851225545601230e-03 -4.0741213366654733e-03 8.3850392419143778e-04 5.3222322278491663e-03 -4.5210158551250738e-03 -5.2285236438107292e-04 -2.9818288590051506e-03 1.9668252339244277e-04 1.8943110426656906e-01 -4.3598243878181647e-03 -2.7468433398426355e-03 4.0100301180778916e-04 -1.6647206556099498e-04 2.6451523446327001e-02 -2.1603242211956294e-03 -2.0082071930991163e-03 -2.4956859500040396e-02 2.4896909631152396e-02 -7.9959924840255492e-03 -3.2032951912804121e-02 2.6472953052552685e-02 5.7758625982197742e-01 -5.1026130935281563e-02 -1.3630786062943909e-02 -1.0730931523769978e-02 2.2477478588919988e-02 -1.5908156025497451e-02 3.5932928582087825e-02 -2.7147697938313030e-02 1.7304201112551647e-02 -6.0765356168280361e-02 1.3810097461092696e-02 7.3900250497551487e-02 -4.6558813950459549e-02 -1.3665259610816332e+00 2.1148671496575400e-02 -1.3140925996276195e-02 1.5231622598432245e-02 1.1820297419837691e-02 1.3401599137079521e-02 -4.9384291113428874e-02 2.6553009520119485e-02 8.9673916947455620e-02 -1.5096724280898335e-01 2.7811881521465864e-02 1.2929462218225046e-01 -1.2129188837368589e-01 -1.8771011004998606e+00 -2.2972417081441533e-02 2.1128751712260450e-02 5.6563889804380069e-02 -3.4427289970557794e-02 -3.2903798898426921e-02 -1.1201417623770626e-01 8.1929160197982340e-03 -9.8326595550387530e-02 1.5324241415131104e-01 -1.9486440370214880e-02 -1.9755383777767033e-01 1.6751868700682965e-01 3.4836262350210525e+00 8.4067562861539824e-02 -1.8668095567480097e-02 -5.2107147457426770e-02 -2.1550912641142305e-03 8.4397346134787998e-03 1.4033614428427904e-01 -2.4207369482747765e-02 -1.2978376189733980e-02 9.0537450824893471e-04 4.3574456694291941e-03 -3.6098596062298469e-02 2.3521558815322773e-02 2.2787010210459976e-01 9.1540869899235308e-03 -2.8373358276462240e-02 6.2706334763157710e-03 -1.4539010271995922e-02 -2.1524516340003574e-02 1.4092407035597776e-02 -1.6163459984590872e-02 5.1344973898602028e-02 8.8861456321311077e-03 4.1064730422416956e-03 1.9963468541343635e-03 -3.4331818187401386e-03 2.1303754987055890e-02 1.8821086342452623e-02 9.1687169218092612e-03 3.3096875634259200e-03 2.9557640950042801e-02 -3.9821173009052793e-03 1.9533832730682073e-03 8.8658934457633062e-03 -8.8075706983948340e-03 
      </Row>
      <Row Index="20">
        1.0744068102565250e-02 5.1641162569111165e-02 -1.0790508308613809e-02 -1.9537128495628098e-02 1.5042385158005483e-03 -3.5653472575757661e-01 1.3991732063324113e-04 -2.4682406043714231e-02 6.1320638694457481e-03 -8.6472024027502200e-03 1.0696867951224681e-03 -1.2678304225215847e-03 3.9242518622462849e-03 -1.0477281148726224e-02 -5.4121190057137662e-03 -4.4320015044593038e-04 2.6146863559872542e-03 -4.8219579931581226e-03 -4.6529003411832193e-02 -6.0813490445170183e-03 2.0662031334457615e-02 2.8761433615375389e-03 9.3659583689387335e-04 2.7524540723677191e-03 1.4816769125318804e-02 6.3295914890460232e-03 2.7487182936771517e-02 2.2477520245534073e-02 1.0559207847090130e-02 7.5078898455572685e-03 -1.7303047635532795e-02 3.8985602941064079e-01 2.0436554483823227e-03 -1.7215274216554201e-02 -1.0547176164544484e-03 -5.2466648995458977e-03 1.4213843450390250e-02 -1.5762428204071352e-02 7.3643509730404993e-04 7.9300374277442472e-03 1.5598519327187199e-02 -2.2184672258154757e-03 -6.0601488474142781e-03 -7.2471053071143827e-04 -1.7106950689326883e-01 -9.1498645806924617e-04 -8.0207206040260205e-03 2.9207910627716740e-05 -1.3912756348064887e-04 1.7368470344354108e-02 -6.8748483444456658e-03 -4.8149783929266835e-04 -5.7944916286624758e-02 5.8052914068208006e-02 4.3318269814486554e-03 3.3699714791187760e-02 1.6763538047240414e-02 -3.8097810804708221e-01 -2.2298593061873370e-02 1.1659734083405413e-03 1.0413328987504083e-02 1.7058067579915862e-02 1.6146871842503269e-03 3.2481708618693261e-02 -1.9133734148236877e-02 1.5320883762263164e-02 -1.9785951797430101e-03 2.7224027218914486e-03 7.6092928255707378e-03 1.1396802752509275e-02 7.8179893874505524e-02 -1.4286879293835292e-02 -2.4668805256812507e-02 6.1207546186732163e-04 3.9576426515633992e-02 -1.1212601093713193e-02 -2.0604916798261139e-02 4.3916923237956929e-02 4.9716097768579784e-02 -6.9735311294616728e-02 -9.7301195978424220e-03 -2.5147359932282464e-02 2.6739916349936506e-02 5.8117448641596958e-02 -2.7306306310544561e-02 -3.9841799041459125e-02 -2.7537855247536679e-02 -8.8321536664872982e-03 -1.1399335384540538e-01 -1.2291870856654598e-01 -6.2857166172501549e-03 -2.8671711394379226e-02 1.7258914906249145e-01 1.6623268229517263e-03 -2.0390708344282749e-02 -3.7337010502343476e-02 -4.8600616438296740e-01 1.0540747762003183e-01 1.0217457929315020e-02 4.3576480609092347e-02 -3.6948098719221133e-02 1.3367556726362251e-01 1.3952551569753885e-01 -2.7868715879504763e-02 -1.6662193835411145e-02 1.0319440425374790e-01 -5.4401271503529830e-03 1.9532070815326624e-02 9.6781771501748166e-03 1.0171223961765734e-01 2.3395354475067274e-02 -6.9446517834783589e-02 2.3680019840077341e-02 -3.3725623667668139e-03 6.1932989119359294e-03 4.6981179842536941e-03 -1.4859762209418231e-02 7.5183106270914471e-02 -4.0549748230776714e-02 3.2330892746506414e-03 2.0924102193773442e-02 1.3175914349816065e-02 -2.0942235877451018e-02 1.0724733886129923e-02 1.8433737390316139e-02 5.7965643367269065e-04 2.5973467271462818e-02 -1.2985102545169005e-03 -5.6242557211669377e-03 8.3538483799876408e-03 1.2160700214309915e-02 
      </Row>
      <Row Index="21">
        3.1105604164654772e-03 -1.1776628833648127e-02 -2.3169761942584393e-03 1.2900294307784223e-02 -1.5235334810019473e-02 3.1810538944166922e-01 5.2320772239840239e-03 -1.1589778987133176e-02 1.2117904416524591e-02 -4.7516726100320884e-03 8.6571026061592858e-04 2.1423248368467960e-02 -1.9659539942468024e-03 -4.0406163323683918e-03 7.7587615934068162e-03 1.5601010783412340e-04 2.8364306659377989e-03 -8.0537059638651175e-03 6.6284208461774519e-02 -1.5218557377482875e-03 2.8761433615491694e-03 2.3645402893288259e-02 2.6867124249317772e-03 -1.9654545494386236e-02 -1.5474199495649738e-02 2.4809100935777664e-03 3.1962853995685151e-03 -3.5932314292137099e-02 1.2370659961387603e-04 -2.5653169474802433e-03 3.3051046025196380e-02 -7.9262176604980938e-01 1.3080452391333207e-03 2.3474532291698552e-03 -2.2448909637199484e-02 -6.0712697165377170e-04 -1.5139590991095582e-02 6.1956629683201647e-03 -4.0440243501049401e-03 -7.5996842379076916e-05 -9.6175466186617375e-03 2.5275132997964068e-04 -2.3514603905994483e-04 3.8528012182336359e-03 6.2538230828239616e-02 -1.4244800857517777e-03 -8.6209601777524191e-04 -1.9647673289552173e-03 -5.6494525659873842e-04 -2.0040104270351890e-04 1.4116606507137523e-02 -1.0360066769046251e-03 -1.0956743882743498e-02 2.3347837868916962e-02 2.5302895411760942e-03 -8.4087615017926793e-03 -1.0329799143902639e-02 5.8739415614826651e-01 -9.1864929972053228e-03 -2.8728871267531771e-02 6.3350722138021856e-02 9.2365782024404711e-03 -2.7249709309295829e-02 4.8959424259481993e-02 -6.2722969533881429e-04 6.9720490881232024e-03 -7.8912185795562730e-03 -2.8928973119019576e-03 -1.0928124137926166e-02 -3.8714303606793826e-03 -1.7915007667428213e+00 1.1483108685452173e-02 -1.3136971214861647e-02 -1.3810062046459315e-02 -1.8827788649893348e-03 3.7522452879371754e-02 -2.0339386876642301e-03 -2.2850793026343980e-02 -7.1490387335706547e-03 -2.9868137845449033e-02 2.4077533431203467e-03 1.8440914097404948e-02 1.3757449978096851e-02 -1.4812068660863145e+00 -3.7316528788228984e-03 2.1271035003418070e-03 1.0291341809472542e-02 8.0343759841242784e-04 8.8447871543437681e-02 -3.1611436650843837e-02 4.6323118052717235e-03 1.4052748229592654e-02 -4.8648516995824294e-02 6.8491578824117771e-03 2.3471122752506346e-02 -1.2337637286239135e-02 3.4019354024017687e+00 2.4643826380325130e-02 2.4576356062819958e-02 -2.5604025392731211e-02 -1.3498328551582897e-03 -1.3016381489113066e-01 -2.8243910389361138e-03 1.7581590007773998e-02 2.5696284804467614e-03 -2.0102189946818005e-02 6.7457291344163173e-03 6.7100963693186126e-03 -7.6829786486764425e-03 -1.6653091317220703e-02 1.2854690949709712e-02 -2.0546953891693882e-02 2.9957986142514936e-02 2.7058540297887910e-03 -2.7795692577912909e-02 3.9713306736547882e-02 2.8980171929561954e-03 6.9398997704649829e-05 2.7378621040342721e-02 3.2208054453494316e-04 -2.0435885473874926e-02 -2.3452420643023136e-02 1.6905590806046186e-02 5.9661966092925947e-03 6.3426298498033499e-03 2.6052847239019607e-02 4.6328878190359914e-03 -1.4365742549159665e-03 1.0725055979111579e-02 -6.0148802065583210e-03 -1.8793253391314550e-02 
      </Row>
      <Row Index="22">
        2.2816362130676952e-02 3.1393382434943162e-02 -6.7902131051141472e-03 -1.5219022547585555e-02 1.3515783266720633e-02 8.6095851264236245e-02 1.0030438050115465e-02 1.4265183587099136e-02 4.9928180118723707e-03 -1.1885467249667301e-02 8.7664472653690775e-03 -1.8300540062708412e-02 2.1669298223493151e-03 -9.7632966218945422e-03 -6.0031285321699938e-03 -9.5051464728439737e-04 2.8167196264892863e-03 -5.6519866179738920e-03 -1.4662156714085939e-01 2.3328102185320686e-03 9.3659583690255087e-04 2.6867124249396780e-03 2.0327270704740861e-02 -3.2864705334154642e-03 -5.7630697760171455e-03 9.5381662127730154e-04 -2.2143874830806839e-03 4.3304879653831849e-03 1.9370127011297256e-03 -1.8108564913200644e-02 -2.1237726708474410e-02 6.3331179071382238e-01 3.2674724984298529e-03 3.6297423187457651e-03 -4.0235691017353938e-04 -1.4576139650385891e-02 -1.6533942043095138e-02 -4.4156950784433810e-03 6.7705926520884798e-04 -4.0864870574865509e-03 -1.2603175648229284e-02 -2.3339805502082091e-04 -4.3084434680912415e-03 -2.0602696654757977e-03 -5.6687540770768763e-02 -2.6414645903216072e-03 -2.5495414998372100e-03 1.5599137933065403e-03 -6.7206892970857746e-03 7.8593296143487038e-03 1.0720328413422815e-02 -2.2566158938403039e-03 -1.5908775637385377e-02 -7.7131294512854470e-02 1.5300947645459292e-03 -1.6364143678867307e-02 4.5774862569654504e-02 7.2790296695439682e-02 -3.5960867493174002e-02 -3.2583866314579768e-02 -6.1607088449473308e-03 2.6734987850200759e-02 -5.8950920967788839e-02 1.8553241104598359e-02 6.0130283397909559e-03 -4.4345035961965880e-02 -8.1280681394370363e-02 2.4469659740489529e-02 5.2049789762624907e-02 -4.9113382797343896e-03 -4.7556880879408681e-02 -3.0332217335349340e-02 -3.7939569563809290e-02 -9.1229205861550391e-03 1.3634710381476739e-02 -2.3785675792742468e-02 -3.1056684609580908e-02 -2.8894790652792851e-02 2.0808384909787869e-03 3.0531844621992862e-03 4.0478193091404869e-03 4.3616624928851599e-02 -2.8482764058153351e-02 -2.7453119634563783e+00 1.7591291387863781e-02 5.3955143183657250e-03 5.6509612076713761e-03 -3.6253202716274066e-02 8.6789984931307129e-02 -6.8305299023484936e-02 -2.4746245086167441e-02 4.4465007722811381e-02 7.4728047178563212e-02 -1.5846754395583876e-02 -1.3855084189078704e-01 7.9531134871795930e-03 2.5870741046120003e+00 2.6977403612960818e-02 5.1221340949791708e-02 1.2173941067746035e-02 1.5956838273973883e-03 -7.1988281830820344e-02 5.6269869982545795e-02 5.0967296611152353e-02 1.9336073062627530e-02 -2.7455448686527495e-02 5.5204370329361152e-03 -2.1611809744536581e-02 1.7063283439357264e-02 4.9275497559631798e-01 -1.1684142557739516e-02 1.8480564948101207e-03 5.7048087104155376e-03 -3.1564463342592499e-03 -2.5212223882462803e-02 -9.4551267313554149e-03 9.5231129839500467e-03 -2.3796182152249382e-02 1.4756191658365541e-02 1.3209455341745922e-03 -1.2922363860667120e-03 1.8432872010187996e-02 -1.1611116061578226e-02 3.7490962270359525e-03 2.4467533374701797e-03 1.7945439701123628e-03 3.5587128633045692e-03 -1.0779594316239842e-03 3.2435479926032585e-03 2.8840748403271099e-03 -2.9279039370863620e-03 
      </Row>
      <Row Index="23">
        4.3623837677130121e-03 4.9574949626454742e-02 -2.6433926861867872e-02 -4.0686048061787383e-03 -1.4862550679004008e-02 -4.6019301533215184e-01 -8.0300899105753623e-03 1.6937532344286965e-02 -1.9265677409413262e-03 2.0718504200971433e-02 7.4532714892901683e-02 -1.1779355700380523e-01 1.9719252517580721e-03 2.2336197747276458e-02 -1.0267584577845337e-02 5.1298054869588980e-03 1.5275480418533438e-04 2.7794981304991428e-03 8.0243264135461345e-02 1.2285551850011248e-03 2.7524540723595356e-03 -1.9654545494390486e-02 -3.2864705333848958e-03 3.9826767070130836e-01 9.7638041447556667e-02 -1.4338009825638060e-02 -2.8842332259434212e-02 4.9133270193988762e-02 2.9975480968265317e-02 6.0213723613317297e-02 1.5820613939470020e-02 1.7970787585382224e+00 -1.2674176045312827e-02 -4.5153419495312028e-03 3.3538336243442296e-03 1.8197901368630837e-02 -3.8063835233602628e-02 2.6288544814764836e-03 1.2496934986858995e-02 2.7590542444509879e-02 -4.5053546378637808e-02 -3.2180795164420753e-03 2.8461459481968168e-02 -2.0479212815878393e-02 1.5974699660992187e-01 9.2557303301035367e-03 1.0014147749874330e-02 1.3641988509412874e-02 -8.9197659619613540e-03 -5.1478204667755945e-01 -7.7962586854006394e-02 5.9343853529482925e-03 -8.0121108864580331e-03 -1.2835502235597684e-01 -1.3859903209414243e-02 -5.8095940490996492e-02 4.9311208339466686e-02 -2.0286638839058480e+00 4.0321868060657538e-02 -1.1180673649095519e-02 8.2829660611958185e-03 -6.9676069614626857e-02 4.8140118089792966e-01 -1.0908563382872327e-01 4.0069825694491280e-02 -7.8146006528036244e-02 -5.1287568871043243e-02 -3.3711315398739172e-02 -2.5668659083373496e-02 1.4801413323789728e-01 4.5538991545954417e+00 5.8736295149789196e-02 2.4007596447842894e-02 1.8742664470988730e-03 -6.5225833679912720e-02 8.7929338161604198e-03 1.9848706899978213e-01 4.0351478846798114e-03 1.1848268141612488e-02 3.3309420523779576e-01 -8.1906001444431331e-02 -1.8035144463000430e-01 7.2675827779910898e-03 7.0374400359077942e+00 9.5561047564087120e-02 -3.7853609057012023e-02 4.7407924457912431e-03 2.3733795435831009e-02 -8.5952524134738861e-02 2.0111246333042365e-01 -9.0156857899732892e-02 6.8928947892806319e-02 -1.0726491641934376e-01 1.2301677293463165e-01 1.7886309426710523e-01 -7.9722724037608744e-02 -1.1995114061588128e+01 -1.5548754311573876e-01 2.7926773657477852e-02 -2.2353316955927811e-02 3.8185420687162387e-03 3.0498249306875164e-01 -2.7388293919292822e-01 9.4679110658854482e-02 -5.3998488919405844e-03 3.4956112311781973e-04 -3.2881092845147092e-02 -4.7109535296312871e-02 7.1493374917243765e-02 -3.7671656206468213e-01 1.9794372153038003e-02 1.2674268951940328e-02 -2.3414191896890951e-03 -5.4849845011526933e-02 5.0357541534001371e-01 -9.3584065269256833e-02 3.3549966215893345e-02 -3.1690382290192470e-02 -9.5586712458072681e-04 1.3432991959368850e-02 1.3620485045477998e-02 1.7554508800656662e-02 -4.9938663919968089e-02 -9.4802779313301819e-04 -1.8951293359582524e-02 -2.2313491942834440e-03 -5.9754047248278118e-02 6.1726083654658342e-02 -4.7388981829239236e-02 1.2086701626789754e-02 5.9335024159472817e-02 
      </Row>
      <Row Index="24">
        -3.9663581078446808e-03 5.8292899142597387e-02 -2.8134762034662544e-02 -1.0154094535417088e-02 6.1877613272848117e-02 -2.9763745479344834e+00 -1.7782058926039276e-02 2.8771122084761958e-02 -4.6847910268879689e-02 -5.5629668376834689e-02 1.0805844376658831e-01 -1.3449867675150817e-01 8.0479799236921057e-03 -5.7278984578804371e-03 -1.1195202122946502e-02 8.9544644258223172e-03 2.1113633140416199e-02 -5.5201173086934091e-03 1.7218599309663318e-01 4.9081255784706977e-03 1.4816769125385834e-02 -1.5474199495611463e-02 -5.7630697759288377e-03 9.7638041447349902e-02 3.8524013383451128e-01 -4.0527210541725922e-03 4.6210765537656288e-02 4.5689511535982774e-02 2.5400600342653713e-02 5.5193501832800820e-02 -8.3366411115095712e-02 2.3950749944424157e+00 -1.0717783101378971e-02 4.4925320903029045e-03 2.9303511468421028e-02 -2.2913853899572196e-02 2.3645883861663841e-01 -5.9482864533838065e-01 1.6358395641040496e-02 4.7758598949294000e-03 -1.7605167268075449e-02 -4.0789813696237125e-03 7.6018534353223116e-03 2.3524129911955079e-02 -1.1847481655673064e-01 -5.8164846910543329e-03 3.6465050095094015e-03 -1.8741247495089548e-02 -9.2395927028731881e-04 1.2453394292378406e-02 -7.0984553588334387e-01 9.6839774657962382e-04 -1.0089594689701194e-01 -1.2333616071671294e-01 2.4905455526052719e-02 -3.1715109121490788e-02 8.7653809103794708e-02 -3.1494437193240548e+00 6.1691782492659254e-02 -1.5380695720944637e-02 -1.0828875069280826e-01 1.3319816531640606e-02 1.0440884118378416e-02 -5.1208509563631466e-01 -3.9353527376813129e-02 1.0467524069841339e-01 -6.6793317932150181e-02 -2.1801268844820219e-02 -2.1962383034524213e-01 1.2101301928342112e-01 4.0437097903852646e+00 -7.4733897976963309e-02 1.8175871485047776e-02 3.0921839044931791e-02 7.7855197153206726e-02 -3.4480382319831693e-03 8.3622626054745908e-01 1.3374303580692762e-01 1.9034929626863256e-01 1.2002855682901289e-01 -1.4087455188043366e-01 -2.6094759493415443e-01 -1.2794809292254709e-02 1.1168141731315799e+00 -4.6764673763985673e-02 1.2659411042816223e-02 -5.3156308353459733e-02 -2.0626784623338223e-02 -2.2777763414886262e-01 8.3445871313511899e-01 1.1555339454712793e-02 -1.5728950798027783e-01 6.6047954021008146e-02 1.2995192457276833e-01 3.3192802081914752e-01 -1.1270985501694054e-01 -9.0930794584660113e+00 6.8143134607705297e-02 -5.2962813941879572e-02 5.9836950604387942e-02 -1.3210271818604302e-01 4.1167630321368154e-01 -9.3551103827286330e-01 -8.4994872566372726e-02 -3.7087448272282116e-02 -8.8830557059380623e-03 -2.3347759534582346e-02 -3.4601820290247776e-02 3.4419764748528779e-02 -6.6545521025797050e-01 5.8128004221487950e-03 -8.3186034375695612e-03 -6.5374856674078774e-02 -9.3150089427659455e-02 1.9343561574089924e-01 -5.3855116611354559e-01 -2.3377266554011032e-03 1.3577609369752064e-01 -3.0080344393264270e-02 1.3001225116959673e-02 -6.0341296548639340e-03 7.2092129607280647e-02 -1.4132089598708772e-01 -1.4552164434513182e-02 -4.1086087426845143e-03 -4.5687948866572944e-02 9.3200076347450908e-02 1.8768581803480247e-02 -4.4847082865998572e-01 3.1235675651394380e-02 4.8029963693980016e-01 
      </Row>
      <Row Index="25">
        7.0191679174103575e-03 1.6908935989469669e-02 -5.7401648189479484e-03 -1.4045161074466760e-02 1.6226725278710850e-02 -1.8884947924617279e-01 -1.4464957474887702e-03 -8.2018753284925083e-03 -3.3198505975896297e-03 -5.8420463587236298e-03 8.8240005614496683e-03 1.4364606119107528e-02 1.9622339476481968e-03 -4.5142255343317587e-03 2.6268388977685065e-03 -9.4421002366087362e-04 -1.7998244303163661e-02 -2.3585346951625497e-03 -3.3774337203692717e-02 -1.5844562456691176e-03 6.3295914890558313e-03 2.4809100935795809e-03 9.5381662126887284e-04 -1.4338009825641158e-02 -4.0527210542822198e-03 2.0355140864901498e-02 4.1958223607848049e-04 3.1321766331953868e-02 4.4618811159810121e-03 -1.2573336752855364e-02 -1.5191717359296687e-02 4.6173937754042393e-01 -2.3169717829010714e-03 -9.4710960663055618e-03 2.1935627609826220e-03 -2.7478014414818262e-04 3.7739011947401160e-03 -3.8184177129282348e-03 -3.2770154240747205e-03 5.2348587405187785e-03 1.9264204469487142e-04 2.4678836432751369e-03 -6.5983822532676185e-03 -2.0424385989226707e-03 -1.1321656635984628e-01 -2.6254714770914695e-03 -8.8983361540427791e-04 1.0154675196768301e-03 -3.2932661533124344e-04 -2.1135979530112953e-02 1.0758907197796985e-02 -6.1821650913008513e-03 -1.6640115793061398e-02 3.5838203331986639e-02 5.5493864667102710e-04 4.7577061404458602e-03 2.1675091900078047e-02 -8.5897949864319134e-01 -2.2811177869223136e-02 -2.1333426455466147e-02 -2.0832305494239839e-02 -1.4506212057288840e-03 5.3714325195972537e-02 -1.3391164394756567e-02 -5.7484111736349250e-02 1.2018685244246300e-02 -4.5691541854371090e-03 1.5026821734511382e-02 4.5538084544016755e-03 -2.3732422554059357e-02 1.0032458304665433e+00 -4.6793759585129123e-02 3.6137623574818360e-02 4.2401613638639313e-03 3.5473829053804994e-02 -5.9018264549495013e-02 3.2601183209373845e-03 9.7827122163638564e-02 4.2800265348110648e-02 -2.8256488894211451e-01 2.7336270077811291e-02 8.3813902203334192e-02 -3.8825151171329973e-02 1.6414322863214235e+00 -7.2481557610226399e-02 3.4349602028289850e-02 9.1553210409390275e-03 -1.3130352437757307e-02 -7.7267973055848885e-02 -2.9666595462563297e-02 3.3761246863272185e-02 -4.4974312400808326e-02 2.9919135544420999e-01 -3.2637711599083602e-02 -9.5286208769467751e-02 4.2944634669977416e-02 -2.7167347415413126e+00 1.4781416226980593e-01 -7.6778250656801356e-02 7.7056963327198427e-03 -2.6933042898695775e-02 1.3671430410771770e-01 3.3210525871403510e-02 -1.2247962559012932e-01 -1.3256785514796643e-04 5.0294620762411375e-02 6.3437177533213233e-03 8.9898504250211786e-03 1.2898360298084721e-02 -2.4470591234311276e-01 -1.6245018225170575e-03 -3.8844133133451912e-02 -3.3538715644803570e-03 -1.6236494526567054e-02 4.4575942065678442e-02 -8.0268237564445899e-04 -5.2446911212293272e-02 3.1930497192112120e-02 -1.0405748987100501e-02 -3.1999761014094756e-04 2.5731123433961358e-02 1.6057114208181202e-02 -2.3785472141700362e-02 8.0788413643771775e-03 8.2392174867994324e-03 -7.6819471853997430e-03 1.5854909193683941e-02 3.5215586535484091e-03 4.6885094305398447e-03 1.8898728543744941e-02 1.2951274090833581e-02 
      </Row>
      <Row Index="26">
        -9.8641250283857847e-03 8.2211759210301744e-02 -6.5597134539848972e-02 -7.6914405619520454e-02 9.2930829899439942e-03 -1.3566414640557696e+00 4.5476717886542770e-03 2.4587441016548361e-03 -1.1454284792220548e-03 -1.1431287895973176e-01 -1.7749689266646190e-02 -1.4530159109427343e-02 2.9986417482937899e-02 -8.1767636040171440e-02 2.7075917330188770e-03 8.3328203278610208e-03 3.8095898683202477e-02 -8.0447871992729431e-03 1.6320945827524014e-01 1.5239090214656128e-02 2.7487182936728985e-02 3.1962853995393253e-03 -2.2143874830995204e-03 -2.8842332259337737e-02 4.6210765537339993e-02 4.1958223601086531e-04 1.8693887495216155e-01 4.4001060761971744e-03 7.4857034999710192e-02 -6.6679048059288856e-02 4.4314917936725054e-04 -4.1504543023132223e-01 -2.0368562323991764e-03 -3.5107421840898378e-02 6.4924706383694963e-03 -7.8702879810172766e-02 4.2827583907879607e-02 -8.4401017386559363e-02 1.2165558181941637e-02 4.1587417212179026e-02 2.3492922590609498e-02 -1.6726538098615906e-02 -2.4955506912243006e-02 -2.8480541921202390e-03 -1.8934500985630232e-01 -1.0319792416287919e-02 -2.3032543192365772e-02 -7.2287475573543586e-03 5.0341434739212491e-03 2.0961987915053407e-01 -8.9039596604154184e-02 -3.8591864904171519e-04 -2.0890578752991701e-01 2.6722475929358097e-01 -1.4186541594431445e-03 1.6642116045479399e-01 1.3001680179409267e-02 1.5838992472507316e+00 1.2022705661925592e-02 8.4222601006297998e-02 -2.2171585162695392e-02 1.4113685609440677e-01 -6.4935045297309729e-02 8.2919556732540395e-03 -7.7363928033419987e-02 1.8589508818786027e-01 1.7557052496249781e-02 1.7456624176661707e-02 -1.5950986805229380e-02 3.1257129287451876e-02 -4.5224812033412718e+00 -1.2793631709909115e-01 -5.4189872665104388e-02 -3.6380608347819407e-02 2.2491792425264306e-01 -1.2960237389237128e-02 1.4924837656703230e-01 1.1558760093483805e-01 1.9533341821393077e-01 -3.2931743766085819e-01 -1.2364514806560944e-01 5.8434819831944977e-02 -4.7899576274917491e-02 -7.8825821968151928e+00 -1.3933867320123050e-01 -1.2448895389041477e-01 -5.7435206088663621e-02 6.7442336695235222e-03 -3.5927083397944454e-01 -3.9062900211133955e-01 2.0783826598846512e-02 -1.7963182075965087e-01 4.2264483584992962e-01 1.4422477688041857e-01 -2.4120959282183882e-01 6.0061668608050012e-02 1.1611056518779410e+01 2.4708301363634722e-01 1.0446359587302423e-01 8.7253793854511236e-02 -3.4344350904705251e-01 2.9888486987251295e-01 3.0076279114932403e-01 -6.2864690855036404e-02 -1.0963420914460503e-01 2.6726535926113792e-01 -8.0557343866477504e-03 4.6225988115335542e-03 2.0018542196843098e-02 6.2579840594947622e-01 8.2445293830520905e-03 -3.6833210095029295e-03 -1.2528724367589464e-02 -7.7610135680134293e-02 -7.8328797254540894e-02 -1.2320100619532637e-01 -1.8138213304393747e-02 4.1700828084116426e-01 -6.5768085178023225e-02 2.8917417363788715e-02 4.7797595843641960e-02 3.5479730757678629e-02 -1.1411575350108717e-02 -4.6300957631429523e-04 1.5356443216415657e-02 -7.4026891890807481e-03 2.5498501373693983e-01 -2.3187865232182130e-02 -3.8310353282569001e-02 1.4516163331903899e-02 1.2480200704455981e-01 
      </Row>
      <Row Index="27">
