<?xml version="1.0"?>
<MethodSetup Method="MLP::MLPBNN">
  <GeneralInfo>
    <Info name="TMVA Release" value="4.1.2 [262402]"/>
    <Info name="ROOT Release" value="5.32/04 [335876]"/>
    <Info name="Creator" value="brianpollack"/>
    <Info name="Date" value="Tue Nov 12 14:07:21 2013"/>
    <Info name="Host" value="Darwin pb-d-128-141-108-211.cern.ch 11.4.2 Darwin Kernel Version 11.4.2: Thu Aug 23 16:25:48 PDT 2012; root:xnu-1699.32.7~1/RELEASE_X86_64 x86_64"/>
    <Info name="Dir" value="/Users/brianpollack/HZG_Analyzer/mva"/>
    <Info name="Training events" value="15120"/>
    <Info name="TrainingTime" value="4.19393417e+02"/>
    <Info name="AnalysisType" value="Classification"/>
  </GeneralInfo>
  <Options>
    <Option name="NCycles" modified="Yes">600</Option>
    <Option name="HiddenLayers" modified="Yes">N+5</Option>
    <Option name="NeuronType" modified="Yes">tanh</Option>
    <Option name="RandomSeed" modified="No">1</Option>
    <Option name="EstimatorType" modified="No">MSE</Option>
    <Option name="NeuronInputType" modified="No">sum</Option>
    <Option name="V" modified="Yes">False</Option>
    <Option name="VerbosityLevel" modified="No">Default</Option>
    <Option name="VarTransform" modified="Yes">N</Option>
    <Option name="H" modified="Yes">True</Option>
    <Option name="CreateMVAPdfs" modified="No">False</Option>
    <Option name="IgnoreNegWeightsInTraining" modified="No">False</Option>
    <Option name="TrainingMethod" modified="Yes">BFGS</Option>
    <Option name="LearningRate" modified="No">2.000000e-02</Option>
    <Option name="DecayRate" modified="No">1.000000e-02</Option>
    <Option name="TestRate" modified="Yes">5</Option>
    <Option name="EpochMonitoring" modified="No">False</Option>
    <Option name="Sampling" modified="No">1.000000e+00</Option>
    <Option name="SamplingEpoch" modified="No">1.000000e+00</Option>
    <Option name="SamplingImportance" modified="No">1.000000e+00</Option>
    <Option name="SamplingTraining" modified="No">True</Option>
    <Option name="SamplingTesting" modified="No">False</Option>
    <Option name="ResetStep" modified="No">50</Option>
    <Option name="Tau" modified="No">3.000000e+00</Option>
    <Option name="BPMode" modified="No">sequential</Option>
    <Option name="BatchSize" modified="No">-1</Option>
    <Option name="ConvergenceImprove" modified="No">1.000000e-30</Option>
    <Option name="ConvergenceTests" modified="No">-1</Option>
    <Option name="UseRegulator" modified="Yes">True</Option>
    <Option name="UpdateLimit" modified="No">10000</Option>
    <Option name="CalculateErrors" modified="No">False</Option>
    <Option name="WeightRange" modified="No">1.000000e+00</Option>
  </Options>
  <Variables NVar="4">
    <Variable VarIndex="0" Expression="medisc" Label="medisc" Title="-log(Pb/(Ps+Pb))" Unit="" Internal="medisc" Type="F" Min="-0.00000000e+00" Max="2.15531349e-01"/>
    <Variable VarIndex="1" Expression="smallTheta" Label="smallTheta" Title="cos(#theta)" Unit="" Internal="smallTheta" Type="F" Min="-9.88485515e-01" Max="9.85404670e-01"/>
    <Variable VarIndex="2" Expression="bigTheta" Label="bigTheta" Title="cos(#Theta)" Unit="" Internal="bigTheta" Type="F" Min="-9.99703705e-01" Max="9.99862432e-01"/>
    <Variable VarIndex="3" Expression="comPhi" Label="comPhi" Title="#phi" Unit="rad" Internal="comPhi" Type="F" Min="-3.14131355e+00" Max="3.14112186e+00"/>
  </Variables>
  <Spectators NSpec="0"/>
  <Classes NClass="2">
    <Class Name="Signal" Index="0"/>
    <Class Name="Background" Index="1"/>
  </Classes>
  <Transformations NTransformations="1">
    <Transform Name="Normalize">
      <Selection>
        <Input NInputs="4">
          <Input Type="Variable" Label="medisc" Expression="medisc"/>
          <Input Type="Variable" Label="smallTheta" Expression="smallTheta"/>
          <Input Type="Variable" Label="bigTheta" Expression="bigTheta"/>
          <Input Type="Variable" Label="comPhi" Expression="comPhi"/>
        </Input>
        <Output NOutputs="4">
          <Output Type="Variable" Label="medisc" Expression="medisc"/>
          <Output Type="Variable" Label="smallTheta" Expression="smallTheta"/>
          <Output Type="Variable" Label="bigTheta" Expression="bigTheta"/>
          <Output Type="Variable" Label="comPhi" Expression="comPhi"/>
        </Output>
      </Selection>
      <Class ClassIndex="0">
        <Ranges>
          <Range Index="0" Min="5.4240372264757752e-06" Max="1.6322508454322815e-01"/>
          <Range Index="1" Min="-9.8181247711181641e-01" Max="9.8540467023849487e-01"/>
          <Range Index="2" Min="-9.9650317430496216e-01" Max="9.9850142002105713e-01"/>
          <Range Index="3" Min="-3.1413135528564453e+00" Max="3.1403920650482178e+00"/>
        </Ranges>
      </Class>
      <Class ClassIndex="1">
        <Ranges>
          <Range Index="0" Min="-0.0000000000000000e+00" Max="2.1553134918212891e-01"/>
          <Range Index="1" Min="-9.8848551511764526e-01" Max="9.8526060581207275e-01"/>
          <Range Index="2" Min="-9.9970370531082153e-01" Max="9.9986243247985840e-01"/>
          <Range Index="3" Min="-3.1401276588439941e+00" Max="3.1411218643188477e+00"/>
        </Ranges>
      </Class>
      <Class ClassIndex="2">
        <Ranges>
          <Range Index="0" Min="-0.0000000000000000e+00" Max="2.1553134918212891e-01"/>
          <Range Index="1" Min="-9.8848551511764526e-01" Max="9.8540467023849487e-01"/>
          <Range Index="2" Min="-9.9970370531082153e-01" Max="9.9986243247985840e-01"/>
          <Range Index="3" Min="-3.1413135528564453e+00" Max="3.1411218643188477e+00"/>
        </Ranges>
      </Class>
    </Transform>
  </Transformations>
  <MVAPdfs/>
  <Weights>
    <Layout NLayers="3">
      <Layer Index="0" NNeurons="5">
        <Neuron NSynapses="9">
          -2.3437744456417993e+00 1.8183048921754938e+00 1.0862469721440169e+00 2.3643528653858792e+00 -2.3800703292870522e+00 -1.9390404763197551e+00 -9.7535485583534198e-01 -5.3046647076422815e-01 -3.0028044369037756e+00 
        </Neuron>
        <Neuron NSynapses="9">
          -5.3214770804977130e-01 -3.6930289223453699e-01 4.1875762443880754e-01 -1.3840330373702769e-01 -1.4876007331134222e+00 8.5393254760134263e-02 -4.7304444999669892e-01 -2.2093709418291912e-01 9.0444701752410994e-01 
        </Neuron>
        <Neuron NSynapses="9">
          -1.4944785743951289e-01 2.7758952581937291e-01 2.5208519721115252e-01 -2.5596561535899394e+00 -4.4266758790984384e-01 1.7822252880979790e+00 1.7887671450431280e-02 -3.0993237877901531e-01 -6.4345399216566690e-01 
        </Neuron>
        <Neuron NSynapses="9">
          -3.1053715963980960e-02 1.5232523653621560e-03 1.6948886750287360e-02 2.0807766615292281e-02 1.4254116802450343e-02 4.6092761544461241e-03 6.1756982179561673e-03 -5.0865314315899097e-03 -2.6835283182488161e-02 
        </Neuron>
        <Neuron NSynapses="9">
          -1.8388541936309886e+00 8.3610475026920594e-01 -6.5888330181256866e-02 3.3722838375822123e-01 9.2997680152742390e-01 -1.4860630446572740e-01 1.3586024674513333e+00 6.8696903268262965e-01 -1.0792975196053525e+00 
        </Neuron>
      </Layer>
      <Layer Index="1" NNeurons="10">
        <Neuron NSynapses="1">
          -7.5168634090450337e-01 
        </Neuron>
        <Neuron NSynapses="1">
          1.0547420565210623e+00 
        </Neuron>
        <Neuron NSynapses="1">
          -1.2212848118034580e+00 
        </Neuron>
        <Neuron NSynapses="1">
          8.5873898384506786e-01 
        </Neuron>
        <Neuron NSynapses="1">
          -7.5417125624168768e-01 
        </Neuron>
        <Neuron NSynapses="1">
          1.2702088135965575e+00 
        </Neuron>
        <Neuron NSynapses="1">
          4.0310803996580125e-01 
        </Neuron>
        <Neuron NSynapses="1">
          4.9810536556764234e-01 
        </Neuron>
        <Neuron NSynapses="1">
          5.8212777907443924e-01 
        </Neuron>
        <Neuron NSynapses="1">
          -8.6456953310626439e-01 
        </Neuron>
      </Layer>
      <Layer Index="2" NNeurons="1">
        <Neuron NSynapses="0"/>
      </Layer>
    </Layout>
    <InverseHessian NElements="3025" NRows="55" NCols="55">
      <Row Index="0">
        6.4860605753754461e+00 3.2118015689279873e+00 -9.3305388524703901e+00 3.4502861322157141e-01 -6.8135975487527134e-01 6.9756088303945163e-01 4.1527806617273491e+01 -9.1362276482660421e-01 2.4358166853106962e+00 1.0647086765374634e+00 -1.7868533334864720e+00 -3.2845783705596792e+00 -4.7396074806630238e-02 2.5375897709465606e-01 -8.9237912810454192e-02 1.5789160609769739e+01 -2.1195227589594134e-01 -1.0717498079300285e+00 -2.6157843600972286e-01 8.7677105136538491e-01 -2.5378334767210514e-01 -5.7662378122035074e-01 3.4356279241505566e-01 -1.2184036551095474e+00 7.7548672069906361e+00 3.6360507074627013e+00 7.5133455502067148e-01 1.3606767248070104e-01 -2.5955952632037635e-02 3.4978928005853353e-03 3.7647499059135905e-02 -1.5569238857753936e-02 9.7856355653534489e-03 3.0590099995091019e-01 3.8423649246140046e-01 1.4196529003364441e-01 4.8944482691279925e+00 6.6632496857888945e-01 -1.9537469065358664e+00 2.6629483008387200e-01 1.0911067196368049e-01 1.6743547572863096e-01 -4.6296031812523255e+00 1.3284316489723707e+01 4.4304349649437247e-01 -6.2227875778127970e+00 -2.1770241857725575e-01 -1.2351981825307895e+01 -1.9419720924969213e+00 -4.3044247878198583e-01 -1.4848607960981488e+00 1.1271489307321964e+01 4.7048750354519786e+00 2.7097569652801257e+00 -2.3076700314436884e+01 
      </Row>
      <Row Index="1">
        3.2118015689649866e+00 5.0256766617226596e+00 -6.0867721400944310e+00 3.0012530426119766e-01 5.1434428348499414e-02 1.5551327627521896e-01 5.1725305689578668e+01 1.5919458638380002e+00 5.4704848446543251e+00 9.3247185354820239e-01 -2.6614252570103312e+00 -2.0501711050043241e+00 -1.0868004292038709e-01 1.0549968072126232e+00 6.1224446926097631e-02 2.2525198840139758e+01 3.7124419525362096e-01 -2.3406250164639864e+00 -1.7086343976267043e-02 1.3589453097965447e+00 7.0321058847314410e-01 -4.8050670639231757e-01 2.0254428098450208e-01 -2.7122834211718366e-01 4.7817946101400750e+00 2.7308740464073824e+00 1.8349890875511949e+00 1.2314682283942052e-01 8.0859228320038362e-03 7.2348342254712081e-02 1.8590233926510713e-02 -5.9854264839390520e-02 6.7380891076916063e-04 3.9586093264246142e-02 4.0673713044697679e-01 2.2324536468783415e-01 2.3413716200340402e+00 8.8533238389638935e-01 -3.8219597586819187e+00 7.1379010828338280e-02 -3.7488181320453040e-01 1.2287160709247225e-01 -1.7928199103841322e+01 1.0928537895745642e+01 1.1712755817883611e+00 -3.7306657705416075e+00 2.1674509274165490e+00 -8.3332006996452588e+00 -9.2563003260983190e-01 -1.6451607913973332e+00 -8.9102280104967957e-01 2.0896842564708233e+01 7.9495458240542138e-01 5.4321592526814033e+00 -2.6071132992283342e+01 
      </Row>
      <Row Index="2">
        -9.3305388477837283e+00 -6.0867721356290962e+00 5.3000264542097483e+01 -1.4188237197095550e+00 -1.7175853281330720e+00 -5.4536046605862576e-01 -5.7247457642994519e+01 -5.4643155373736967e+01 -1.9924315894610467e+00 -7.2583961293952370e-01 3.1748175288364613e+00 1.7670161213604938e+01 -1.4449754738008216e-01 -4.3548764282738119e+00 4.2657228236767947e-01 -1.4899179831904343e+01 -2.0263543876370047e+01 1.3069994249461809e+00 1.0713387509307555e+00 -1.4093041062285672e+00 4.0177162110805709e+00 2.4552788743745912e+00 -4.6559814775948161e-01 1.9121465204424442e+00 2.1019224945928379e+01 3.1385448566341520e+01 -9.2557048632593386e-01 -1.1542049947197643e-01 7.4012527184099036e-02 9.0048339232079078e-01 -8.3347507116696529e-02 3.0793518639046391e-01 -9.0782515058392424e-02 -1.2760124749913262e+00 -1.5201979966039485e+00 -2.3690554559052371e-01 -6.7798431076197820e+00 -1.9984705870295865e+00 2.8108884138556217e+01 -5.3175677412394529e-01 3.7022918271990440e-01 -4.8840896184326399e-01 -7.9430653355544933e+01 -1.2554365042404055e+02 2.9109052007023278e-01 1.1549516942478107e+01 2.7001001608236512e+00 1.6077510928571292e+02 5.8010536116624856e+00 6.1409294380327690e+00 5.8098538764783001e+00 -6.4026981037190325e+01 1.5457739752439468e+02 -3.4652842829263499e+00 5.8967750157767725e+01 
      </Row>
      <Row Index="3">
        3.4502861210014579e-01 3.0012530290705436e-01 -1.4188237131156907e+00 8.6272205722269781e+00 6.6915020041935946e-02 3.1837344267577463e+00 1.0514644716723684e+01 5.4011154890675261e-02 1.0986943530075364e+00 -5.9768115936964961e-02 -1.7507402746962750e-01 -5.8079169140022535e-01 -9.2204739007916203e-01 3.3104530612198216e-02 -5.4430566015705273e-01 4.2227852045280372e+00 1.8732103975325487e-02 -4.8441717623821173e-01 -1.9379990735244199e-01 3.4072306229920157e-01 -4.2139487950584816e-02 -1.3800606625749488e+01 1.9952803271408560e-02 -7.6047889366987258e+00 -1.4918157065119626e+00 -2.1512569970230131e+00 1.8931095363720962e-01 6.1652115390009241e-04 7.3632099281245077e-03 3.1005493731867576e-02 4.3771355822000019e-01 -2.1522259162019004e-02 2.7001595663131861e-01 -2.5367926252048917e-01 1.4818840008966552e-01 1.3824474018472893e-02 1.7834510506980542e-01 -1.6416300559585717e-01 -5.8720811096639214e-01 2.9888795419654977e+00 5.9985955410895769e-02 2.1368826098919746e+00 1.2449512513216024e-01 -2.2813828419929436e+00 3.5867379172510883e-01 -3.3456267464056788e-01 9.0271612596355089e-01 -2.6097876605706380e+00 -2.6864181019366782e+01 -8.5938802244297119e-02 -2.6668212565993127e+01 8.7445855136090582e+00 -7.5658601370087073e+00 8.7800292486323206e-01 -3.5613346567937776e+00 
      </Row>
      <Row Index="4">
        -6.8135975538448590e-01 5.1434427837872054e-02 -1.7175853265946341e+00 6.6915020254077529e-02 4.9623165746455156e+00 -9.4569922849652488e-02 8.0880713309033503e+00 7.2848285867440952e+00 -6.9389793634907582e-01 -3.4266717276483616e-01 -8.9565281203789163e-02 -1.9766646684238132e-01 -2.1084556879661411e-02 4.0912023424999910e+00 3.6185600119837187e-02 1.9620004131297717e+00 1.7500017509030834e+00 3.3606602482034281e-01 7.7607658396780854e-02 -3.9979898094276219e-02 3.7632448000617080e-01 -1.8067182441338073e-01 9.2767980978690823e-01 2.0741409009866754e-01 -3.4071914375010723e+00 -1.0627044834069552e+00 -2.4526985813596267e-01 9.1333043065040150e-03 -1.1162540240675527e-02 -1.7131022398757880e-02 8.5544872883612805e-03 -1.3445846577389703e-01 -6.3029067765794358e-03 1.5734034323920321e-01 1.8851680783365371e-01 -2.0869773229929122e-02 -6.4942529614345723e-01 3.6167771071372690e-01 -4.7399732846388867e+00 -5.4586682298583697e-02 -1.5429715555489225e+00 5.7150727112785044e-02 -1.9056436880433893e+01 8.3635428692370137e+00 -2.5506350711791997e-01 6.3355722051649266e-01 -1.2251972884709155e+00 -1.0837594746816819e+01 -9.6889799928426321e-02 -4.7877588387997108e+00 -2.6093929990372372e-01 2.3149069792044457e+00 -9.3368120614492192e+00 -6.3084931884903783e-01 -1.5636259988848927e-01 
      </Row>
      <Row Index="5">
        6.9756088273886174e-01 1.5551327587787628e-01 -5.4536046394933124e-01 3.1837344266966991e+00 -9.4569922917724369e-02 1.9739346108979259e+00 6.1011453053668356e+00 -1.1141449520126614e-01 7.8392305075454993e-01 8.5113957454099776e-02 -1.2224037240901688e-01 -1.8860817246684128e-01 -3.6216388579717762e-01 -1.4898722684166563e-01 -2.8168003505610395e-01 1.3713587464590593e+00 5.4583037622782415e-01 -3.3730835115412533e-01 -7.1192868293130429e-02 1.5745591961094141e-01 2.3566752530529750e-01 -5.4463482763249571e+00 1.0379705656771765e-01 -3.9288917289548477e+00 8.1341056404092826e-01 1.7239818206602660e+00 1.6064082981646463e-01 1.4645683561298807e-02 2.0378129179654883e-04 3.0872065860771090e-02 1.8979081660785610e-01 7.8248817682739225e-03 1.1371992060260894e-01 -8.5488180525874410e-02 1.0148695169804230e-01 1.7864337559424213e-02 4.8341422629851083e-01 -2.1365444557965524e-01 3.7796198084052368e-01 1.2425605533561592e+00 9.5613246481289410e-02 1.0052047788361234e+00 -1.8364829278733927e+00 1.4887061350607462e+00 3.0583270014346109e-01 -6.6952657279197947e-01 6.7847248256120329e-01 1.0309832028030954e+00 -1.1607740822313239e+01 1.8858431683598231e-01 -1.1198356795885809e+01 1.0770713512607775e+00 4.7597928846409001e+00 6.3541647017515734e-01 -4.2411602010008087e+00 
      </Row>
      <Row Index="6">
        4.1527806623110337e+01 5.1725305691414846e+01 -5.7247457798624147e+01 1.0514644754300264e+01 8.0880713455544537e+00 6.1011453158704567e+00 1.5645367074019143e+03 9.0159017441418030e+01 3.0187165669357778e+01 1.0390222558314463e+01 -2.4676584208802389e+01 -2.8241132864072455e+01 -3.3501412201091059e+00 2.4424251232618818e+01 1.9532356493529344e+00 7.1475437338737299e+02 1.5276256066800462e+01 -1.4064618009352113e+01 3.3833288313113599e+00 1.4187950137298195e+01 4.2194830258976893e+01 -1.7541943096144429e+01 6.0974142937607487e+00 -1.1535977730866167e+01 8.5810445892386852e+01 1.2297019516690963e+02 9.9803102232598437e+00 2.1666564027050486e+00 -4.2218243997531207e-01 3.7329750057055500e+00 7.3341072295078369e-01 -1.1515811278659367e+00 1.1768752206202861e-02 -6.5320552542460577e+00 9.8142251751238643e+00 2.4253947805445408e+00 2.5337228788231407e+01 1.2404160828138680e+01 -6.8740072629613266e+01 3.3814615497506795e+00 -1.0251494597620567e+01 3.9900717651179836e+00 -7.8839065145708935e+02 2.4636614286220609e+02 3.9394265103691559e+00 -4.3969998472701832e+01 -3.8463995694476476e+00 1.2434053617433369e+01 -3.7067104923922713e+01 -4.0430545240871886e+01 -3.6874294008681623e+01 7.2033307835530957e+02 2.1073973300784709e+02 3.7475461443752252e+01 -8.3507540656075707e+02 
      </Row>
      <Row Index="7">
        -9.1362277063871034e-01 1.5919458582980188e+00 -5.4643155380453187e+01 5.4011166384412945e-02 7.2848285893383036e+00 -1.1141449151548388e-01 9.0159017254117899e+01 1.5129496279129495e+02 8.0317268195836766e-01 -1.1227861806942201e+00 -1.2678705696828418e+00 -1.8179077976870360e+01 3.6162340994038017e-01 8.6679491688759676e+00 -3.1879656540468609e-01 3.2884513887849181e+01 5.6841605262546480e+01 -4.8071576029693330e-01 -8.6641234053480787e-02 9.0174257207401987e-01 2.7224763150431297e+00 -4.9101356659523920e-01 1.9696875959384197e+00 -2.5963048027814295e-01 -6.0969006851397168e+01 -2.8641848295430133e+01 -1.2184266473800265e-01 -3.8666185677591197e-02 -3.6827071681840295e-02 -1.1529010949928657e+00 2.4168125328755438e-02 -4.9036207536327248e-01 1.9979317901071894e-02 4.6816705030096384e-02 2.4063035284904055e+00 1.2015127556910717e-01 -1.2112533341235507e+00 9.2072578224236823e-01 -4.3287682690953652e+01 1.3070819124213928e-02 -2.6796258789161103e+00 1.9639334901335664e-01 4.0078830789917511e+01 2.7229105661950132e+02 -1.5116622350388581e-01 -1.5718569523555175e+00 -1.6788130384180606e+00 -2.2273343643374628e+02 -1.5536761197901239e+00 -1.2620741808055792e+01 -2.0110818855755084e+00 1.2964216503868440e+02 -1.9027406340448283e+02 7.8660873985387525e-01 -1.5067376495390889e+02 
      </Row>
      <Row Index="8">
        2.4358166856057935e+00 5.4704848450413426e+00 -1.9924315910901196e+00 1.0986943537513021e+00 -6.9389793613581219e-01 7.8392305102328586e-01 3.0187165684719744e+01 8.0317268482412474e-01 1.3237412619697237e+01 9.1650808675678164e-01 -3.3167677145339503e+00 -9.3991010465576341e-01 -2.3821164034855963e-01 6.3098582949987742e-02 9.3158716715337469e-03 1.3332757196938186e+01 6.0102971299912955e-01 -5.2780701229385780e+00 8.6546999420198389e-02 1.8915064590061768e+00 7.7485352549669906e-01 -1.7232400830888037e+00 1.0811286528451285e-01 -1.6512569119838845e+00 3.7183272900374513e+00 3.9076886427054811e+00 3.9559133677141674e+00 1.1876789454051195e-01 7.3925383255324287e-02 7.6901035319705074e-02 5.9363362881790720e-02 7.3022658345617553e-03 4.0428635862458956e-02 -7.8664627430682060e-02 2.7632121800328568e-01 3.6182457975954374e-01 1.8903914208114450e+00 -3.9846632014892724e-01 -9.0912269802452184e-01 4.7941288570006524e-01 -1.2211199890200354e-01 3.3893439228937694e-01 -9.8541496069945858e+00 6.4724985191011850e+00 3.9682779166806608e+00 -2.7568770441152921e+00 8.8628694251789959e+00 -6.2139118602086496e-01 -4.0657594698026074e+00 -2.2559815880740910e-01 -3.7565615425083854e+00 1.1677746024072448e+01 8.2839878450853881e+00 1.0610121652116218e+01 -1.8188774582225079e+01 
      </Row>
      <Row Index="9">
        1.0647086766757017e+00 9.3247185367494434e-01 -7.2583961429240007e-01 -5.9768115762390384e-02 -3.4266717266064717e-01 8.5113957496028639e-02 1.0390222561662096e+01 -1.1227861788050748e+00 9.1650808671731365e-01 3.2790070532615978e-01 -5.4030700931232856e-01 -2.4154200903525544e-01 -1.2052884579618445e-02 -7.3703932628423646e-02 1.1199160953932004e-02 4.4287438393745324e+00 -2.3431594037767750e-01 -3.6333751046032153e-01 -2.1185357978079633e-03 2.5583391441486925e-01 1.6803649617567054e-01 7.3656768944029366e-02 3.7294485735738903e-02 -7.1360251790229645e-02 2.0871232360164083e+00 1.6812341803451654e+00 3.0721738313700592e-01 3.1653708547857921e-02 -3.6172425608137090e-03 3.0483035643297726e-02 -6.6820672432772016e-04 1.7181872460873687e-03 -2.6198458266300582e-03 1.0410281606604128e-02 6.5758163784223347e-02 4.4710299611537614e-02 8.2959366588571148e-01 1.1052414548131012e-01 -1.8633397157883980e-02 -6.2627694059154762e-03 1.9845388239700494e-02 8.5037935922975122e-03 -4.1331590449543647e+00 6.1854128726688240e-01 2.1572965068689945e-01 -1.0770346155071429e+00 2.2979707774687314e-01 1.1730727792352118e+00 6.5501873545712908e-02 3.0914450857038367e-02 1.3899644860301569e-01 2.5603488550690634e+00 4.6409914930015654e+00 9.5651135654942820e-01 -5.2616520992396438e+00 
      </Row>
      <Row Index="10">
        -1.7868533334891801e+00 -2.6614252570074743e+00 3.1748175309661892e+00 -1.7507402816045037e-01 -8.9565281456870594e-02 -1.2224037261410145e-01 -2.4676584207922055e+01 -1.2678705723518948e+00 -3.3167677143551888e+00 -5.4030700924861463e-01 1.5505938922154863e+00 9.8171747550917843e-01 5.8207338536933592e-02 -5.5889685077557316e-01 -2.5974925213876565e-02 -1.0751993074544572e+01 -5.8287533192107521e-01 1.3178571577195264e+00 1.0211155991630250e-02 -7.5608314415328715e-01 -3.2570771067862042e-01 3.0782180734000752e-01 -1.6391720831241230e-01 2.0635376589967125e-01 -1.9341760915681832e+00 -1.1719288844388356e+00 -1.0754919062918085e+00 -6.5494306969873711e-02 -7.1910151969944817e-03 -2.9487907701688614e-02 -1.2180069113266089e-02 3.1564585516129423e-02 -1.7902248927225593e-03 -1.9793314545702712e-02 -1.9943518263254315e-01 -1.2281023542384080e-01 -1.3647351596360646e+00 -3.9708959138572386e-01 1.9228439564268651e+00 -4.5802147398557966e-02 2.4529758895188930e-01 -8.2505470830669586e-02 8.3030495049307351e+00 -6.2953404116832541e+00 -7.7318218544590744e-01 2.0442708698742109e+00 -1.3264807886318943e+00 4.8897634180950673e+00 6.2946126206084396e-01 8.4140680141896651e-01 5.9785202414549954e-01 -1.0357780160347149e+01 4.0919975615091042e-01 -3.1196416764744188e+00 1.2896180095168736e+01 
      </Row>
      <Row Index="11">
        -3.2845783690658479e+00 -2.0501711035595669e+00 1.7670161214414332e+01 -5.8079169378532391e-01 -1.9766646741817340e-01 -1.8860817322655724e-01 -2.8241132813388067e+01 -1.8179077975630086e+01 -9.3991010404632092e-01 -2.4154200857704211e-01 9.8171747481971650e-01 6.3298094623505863e+00 -1.4342391610658825e-02 -1.1137275039265973e+00 1.2075513512101210e-01 -8.8424942813162808e+00 -6.0441666220752266e+00 5.4405504048334707e-01 3.4372119743406948e-01 -5.0684471039396828e-01 1.1106390631112912e+00 9.5242498595328806e-01 -8.6813647395018734e-02 7.2409746229640426e-01 6.5543382747944792e+00 1.0029159126910965e+01 -3.7139477833447737e-01 -4.7386301387602234e-02 2.4202943948423025e-02 2.6847452645122616e-01 -2.9117363116123219e-02 8.1545606177578889e-02 -3.5317053127658253e-02 -3.6025227193336457e-01 -5.6712039730275354e-01 -9.6087069624632981e-02 -2.2988641990826126e+00 -5.7265827094911348e-01 9.1223928460454893e+00 -2.2133782017609177e-01 -1.7363834055791105e-01 -1.7434067099048936e-01 -2.1355640572810774e+01 -4.2082692292128861e+01 -2.3468714531581940e-02 3.9446610991657174e+00 4.7002128898234674e-01 5.2298729212743190e+01 2.2353257610776280e+00 1.8531877373841110e+00 2.2567317650293983e+00 -2.5833095445417104e+01 5.0396888789455197e+01 -1.3595342096386669e+00 2.3707916378588273e+01 
      </Row>
      <Row Index="12">
        -4.7396074733818683e-02 -1.0868004281584900e-01 -1.4449754786704089e-01 -9.2204739008300574e-01 -2.1084556865960558e-02 -3.6216388580331438e-01 -3.3501412174357932e+00 3.6162341084642702e-01 -2.3821164026071076e-01 -1.2052884567481215e-02 5.8207338482194164e-02 -1.4342391787731973e-02 1.3622965217583313e-01 -2.0123125419519550e-02 2.9546470305772038e-02 -1.4982400498590986e+00 1.5460633433974375e-01 1.0152944995128710e-01 2.7882396801397480e-03 -6.4607289118369798e-02 -8.7868089981966421e-02 1.4932169998211111e+00 -1.7277680696390796e-02 8.3845590859480001e-01 -2.3927205168353005e-01 -1.7856583651972890e-01 -5.2568127006915731e-02 -3.4297738950056543e-03 -8.9844106615286621e-04 -1.7290978445337394e-02 -4.7426186004713308e-02 1.6091286200793642e-03 -2.9184667452141010e-02 4.7967205511523565e-02 -2.3165232904307727e-02 -6.6928007892802094e-03 -1.8282288771359397e-02 2.2616773344556518e-02 -4.9213810535699162e-02 -3.1826022235706641e-01 5.1072393450842576e-03 -2.3855105875536900e-01 2.2629930693561686e+00 7.6198649473641455e-01 -7.4509942186365100e-02 3.8439468010418532e-02 -1.8838897408002764e-01 -9.9201705511630367e-01 2.9311537878483191e+00 4.4319920582374252e-02 2.9115520924850928e+00 -1.4965259994335289e+00 -7.8706893593707883e-01 -2.0835846865183572e-01 1.1842059119708459e+00 
      </Row>
      <Row Index="13">
        2.5375897650710399e-01 1.0549968066083759e+00 -4.3548764284874579e+00 3.3104531420939054e-02 4.0912023427185531e+00 -1.4898722660181166e-01 2.4424251213554982e+01 8.6679491682708285e+00 6.3098582562309602e-02 -7.3703932808847128e-02 -5.5889685048018289e-01 -1.1137275038989518e+00 -2.0123125476117845e-02 4.2586242996813333e+00 4.8080366441051736e-02 1.0219703843541396e+01 2.2410909228249976e+00 -1.1143849896677160e-01 7.9702874375637389e-02 2.2047101504694672e-01 4.4135738747676317e-01 -8.4184931410563907e-02 7.0647983769801925e-01 2.7810201015451064e-01 -1.4123912152165241e+00 -9.1715810506672746e-01 3.8700488230212590e-02 4.0464989957772646e-02 -2.2482467829226041e-02 -1.7374578492781491e-02 1.7934344008053978e-03 -1.6893562816429891e-01 -5.8292007421217951e-03 1.7717343837956295e-01 3.4095762596749929e-01 3.4176753860753181e-02 2.6444886552319753e-02 5.0666208987762107e-01 -6.7661528581035606e+00 -5.6815435771864403e-02 -1.7385561635304070e+00 1.7592625803173553e-02 -1.7689681278640773e+01 1.2748458340860168e+01 -1.1952871646815516e-01 -4.1237552701656988e-01 -1.0200454958413567e+00 -1.6743645271925015e+01 1.1874236184665377e-01 -4.9897842580928389e+00 -5.5699492279044055e-02 1.0574655848590103e+01 -1.2290997169363219e+01 3.1382177432094127e-01 -1.0371169077506059e+01 
      </Row>
      <Row Index="14">
        -8.9237912700598887e-02 6.1224447043297492e-02 4.2657228170444900e-01 -5.4430566013345438e-01 3.6185600146090291e-02 -2.8168003505434713e-01 1.9532356527780204e+00 -3.1879656433663900e-01 9.3158717036176397e-03 1.1199160968199839e-02 -2.5974925272378005e-02 1.2075513488421610e-01 2.9546470303650044e-02 4.8080366523126861e-02 7.2808488120412393e-02 1.1033626725218644e+00 -2.0735341013219755e-01 -1.3701041583642493e-03 3.1989642119962441e-02 2.2318056046369368e-03 8.6928402742036656e-02 9.0146649474755425e-01 4.2242466758106723e-03 6.0370487603401179e-01 2.9406971512363089e-01 3.0969469931077254e-01 1.3889888453725827e-02 2.1655304463027479e-03 -1.8952326496938130e-04 1.2086244351730297e-02 -3.0922294639201413e-02 -3.9685265703050948e-04 -1.8751144413078999e-02 -1.1181295396261467e-02 -5.3181124975492065e-03 3.4549204941961148e-03 -7.2044025425621661e-02 2.4834367369136842e-02 5.6991744351671932e-02 -2.0700705764135613e-01 -3.1993301838899244e-02 -1.5368345462105060e-01 -2.5330900396797773e+00 -7.3636001157181608e-01 -6.4954381069973026e-03 9.2002545723187668e-02 -6.9255796176447282e-03 1.3365402412923868e+00 1.8690564047470688e+00 -7.9228038048076821e-02 1.8135648798221018e+00 5.9827628975835090e-01 1.2903508263325993e+00 2.7693483936854675e-02 -5.1134574313138670e-01 
      </Row>
      <Row Index="15">
        1.5789160613306649e+01 2.2525198841767271e+01 -1.4899179905427307e+01 4.2227852212853918e+00 1.9620004197531671e+00 1.3713587511127809e+00 7.1475437341362078e+02 3.2884513977375626e+01 1.3332757190000564e+01 4.4287438380188178e+00 -1.0751993075320922e+01 -8.8424943054061007e+00 -1.4982400510533627e+00 1.0219703852541898e+01 1.1033626710083126e+00 3.4022501269242417e+02 3.4488225295138490e+00 -6.2071868291807277e+00 1.7149562573214183e+00 6.3255133355572788e+00 2.0149608763456445e+01 -6.5146416375318097e+00 2.1968883318636472e+00 -3.2395282729972763e+00 3.8992213114283885e+01 5.5857589032950791e+01 4.3107580231190923e+00 9.3392218450023401e-01 -1.6568572260729864e-01 1.8697253460762469e+00 2.7207063467238357e-01 -5.0824370230642757e-01 -4.3024317118809385e-02 -3.7958361664504285e+00 4.0418670594827750e+00 1.0443772608834034e+00 9.3680989751161530e+00 5.5416021488346034e+00 -2.6314027035119658e+01 1.2812457729403275e+00 -5.2968639060445808e+00 1.2215037800705664e+00 -3.7909626803087485e+02 8.5581990777174468e+01 1.6655342452340172e+00 -1.6576203497295978e+01 -1.4957101197530120e+00 3.6318423126266730e+01 -1.2916844329783995e+01 -1.6336161044501573e+01 -1.3545855539450347e+01 3.3832220627864905e+02 1.0880238835411670e+02 1.6390141963020529e+01 -3.7756943308169485e+02 
      </Row>
      <Row Index="16">
        -2.1195227794025584e-01 3.7124419336213282e-01 -2.0263543878105260e+01 1.8732107926144437e-02 1.7500017517615447e+00 5.4583037751088281e-01 1.5276256002804233e+01 5.6841605262006567e+01 6.0102971214518419e-01 -2.3431594101739961e-01 -5.8287533101268996e-01 -6.0441666223160002e+00 1.5460633402237534e-01 2.2410909229866149e+00 -2.0735341049468836e-01 3.4488224990110012e+00 2.4486077625703956e+01 -3.1032709233871003e-01 -6.6707888080440370e-02 2.7982948197865792e-01 8.9918803456047147e-01 -3.8872361894547441e-01 9.0285934142951874e-01 -9.2978394513417051e-01 -2.4472494691751923e+01 -9.3996202612647934e+00 1.3764668126372470e-01 -3.2021574478335063e-02 -5.6185644116250634e-03 -4.9350778224009495e-01 3.2395597888664973e-02 -1.3065139491202693e-01 1.1806209173546182e-02 3.3046586357929134e-03 7.4482502736662026e-01 3.6228161841841189e-02 -1.0269963244066027e-01 2.1015282525638002e-02 -1.3994587975240506e+01 9.4685430666938186e-02 -8.6811635964527589e-01 2.2639990011540098e-01 2.5063778733236063e+01 1.0721894195022495e+02 9.8199888511946332e-02 -9.7446381132604643e-01 -1.1734323416851566e-01 -8.2375086994346049e+01 -1.6193499957521269e+00 -3.0498636945716280e+00 -1.4005894304453328e+00 3.9393821536159564e+01 -6.6109576862412609e+01 6.0728252482891620e-01 -5.2812886594229973e+01 
      </Row>
      <Row Index="17">
        -1.0717498080185379e+00 -2.3406250165864115e+00 1.3069994256926829e+00 -4.8441717660052941e-01 3.3606602471252955e-01 -3.3730835128095110e-01 -1.4064618014340255e+01 -4.8071576150402184e-01 -5.2780701229130109e+00 -3.6333751046426421e-01 1.3178571577755256e+00 5.4405504075157196e-01 1.0152944999088831e-01 -1.1143849913418791e-01 -1.3701041389535540e-03 -6.2071868313923169e+00 -3.1032709270430248e-01 2.2173599360325671e+00 -2.7744338958854087e-02 -7.7558083756589935e-01 -2.9026454081351227e-01 7.4407482815636550e-01 -1.3154252460019222e-02 7.2852630588769562e-01 -1.8401150458975513e+00 -1.5842044166862286e+00 -1.6034525337287064e+00 -5.0444068190862987e-02 -2.8080813796605653e-02 -2.7304984941284006e-02 -2.6421513155445185e-02 4.1906609600641104e-03 -1.7433632181132693e-02 1.6548212401419033e-02 -1.3430793465441851e-01 -1.5018559808974172e-01 -8.0860900386785162e-01 1.1503381276932452e-01 7.3085714408009173e-01 -2.1603865115627929e-01 8.6207004077078986e-02 -1.4059228077405100e-01 3.6406640381802617e+00 -3.3316208929326780e+00 -1.5580580000005908e+00 1.2210231786589096e+00 -3.5995156696568578e+00 1.4160891890110510e+00 1.7701109125655334e+00 1.9038995781538620e-01 1.6304861726703896e+00 -5.3554119159633391e+00 -2.8871352218236366e+00 -4.3398040648842970e+00 8.4336374406166676e+00 
      </Row>
      <Row Index="18">
        -2.6157843587821672e-01 -1.7086343854151739e-02 1.0713387503281280e+00 -1.9379990735268449e-01 7.7607658417154113e-02 -7.1192868298508724e-02 3.3833288353203770e+00 -8.6641233113503413e-02 8.6546999417278503e-02 -2.1185357779498482e-03 1.0211155932869920e-02 3.4372119721591937e-01 2.7882396796359288e-03 7.9702874456799577e-02 3.1989642122492695e-02 1.7149562591176259e+00 -6.6707887773213112e-02 -2.7744338964489579e-02 8.2995795807091044e-02 8.4046113791511144e-04 2.9651369150972146e-01 3.0113981443236698e-01 2.8093593911023618e-02 2.1007562908787908e-01 5.8654866710247089e-01 1.2589234112652476e+00 2.1764749949378270e-02 2.7209955228783738e-03 6.5716917422444486e-04 2.9252414160204299e-02 -1.1220487013957859e-02 -1.7289384071760006e-03 -7.4494081649849522e-03 -3.9888235296350202e-02 6.5457797220971415e-03 2.5622653035647729e-03 -2.1114984828452710e-01 -2.0545117767202678e-02 1.3195050070118072e-01 -7.1478342584536156e-02 -7.5569706010390078e-02 -4.9526179298564538e-02 -4.2640374827742669e+00 -5.1072705473417479e-01 3.6105982732501062e-02 2.9389426648711514e-01 9.2647712205967209e-02 2.9854809387772980e+00 6.5075689760985189e-01 -1.3087598719965454e-01 6.3867934117723446e-01 7.8109071416291387e-01 4.1524181622262191e+00 4.0458108048954791e-02 -1.9359679230724824e+00 
      </Row>
      <Row Index="19">
        8.7677105137164091e-01 1.3589453097896766e+00 -1.4093041072880721e+00 3.4072306266830044e-01 -3.9979897964279587e-02 1.5745591972282477e-01 1.4187950136927014e+01 9.0174257335095720e-01 1.8915064588895572e+00 2.5583391438276770e-01 -7.5608314414923239e-01 -5.0684471073611959e-01 -6.4607289148197466e-02 2.2047101519814660e-01 2.2318055737441389e-03 6.3255133351970505e+00 2.7982948240714817e-01 -7.7558083752735563e-01 8.4046110776947458e-04 4.4091407627447843e-01 2.5983180105161024e-01 -5.4696142126593084e-01 7.0345177724675523e-02 -3.4151366780988646e-01 1.0486053539804061e+00 9.2293832040094326e-01 5.5860853674737498e-01 3.4025757448235584e-02 6.2672030926175315e-03 2.3685370124749746e-02 1.9855493426718409e-02 -1.2225529675953292e-02 7.7144276563180045e-03 -1.7858231000631546e-02 1.1095988502285754e-01 6.6367433928200645e-02 6.4146561318367212e-01 1.7203653423951973e-01 -8.7471218830346475e-01 1.0698908239496119e-01 -8.5247435985946807e-02 1.1133009460514841e-01 -5.5366337737012543e+00 3.1448356099182573e+00 4.6115234950632789e-01 -9.7684623100486068e-01 9.1208124518166389e-01 -1.7644071648712218e+00 -1.1180619309103741e+00 -3.6790784051711539e-01 -1.0942003846839858e+00 6.1212870596792213e+00 7.3539947553877016e-01 1.7226490842990843e+00 -7.5884568869032698e+00 
      </Row>
      <Row Index="20">
        -2.5378334693238003e-01 7.0321058907795864e-01 4.0177162058253328e+00 -4.2139487353772154e-02 3.7632448032687194e-01 2.3566752545234770e-01 4.2194830278228892e+01 2.7224763222933523e+00 7.7485352519877537e-01 1.6803649622178085e-01 -3.2570771096762385e-01 1.1106390612985519e+00 -8.7868090027384937e-02 4.4135738815849379e-01 8.6928402699403051e-02 2.0149608771667559e+01 8.9918803696495553e-01 -2.9026454074527663e-01 2.9651369144733319e-01 2.5983180119783217e-01 2.3576399158248331e+00 7.6016521074662672e-03 3.2201044896942221e-01 -2.1087316855335470e-01 3.4239962662331891e+00 9.1609120138241522e+00 1.8039744386519274e-01 4.8444341980976427e-02 -1.3003621840535135e-03 2.0316282015766798e-01 9.5423720327363695e-03 3.8106589720487893e-03 -1.7776506572477764e-02 -3.8450332956987704e-01 1.9747323541091694e-01 4.5116526158441562e-02 -3.7215623537535925e-01 5.1841305814740390e-02 5.3817635911300421e-01 1.6510693509137343e-02 -3.3817714857586284e-01 4.8891018260497569e-02 -3.7968336917717124e+01 5.6893875311080517e+00 2.1491399578326625e-01 3.3281093951581298e-01 3.8241906166046813e-01 1.5575604612348368e+01 -1.4881018233446427e-01 -8.1625747556412598e-01 -3.2805779601270846e-02 1.5410051866193919e+01 2.6691069197639496e+01 7.4038509283717024e-01 -2.5021453719670991e+01 
      </Row>
      <Row Index="21">
        -5.7662377939424836e-01 -4.8050670418613806e-01 2.4552788637096419e+00 -1.3800606625757712e+01 -1.8067182407682481e-01 -5.4463482764250246e+00 -1.7541943034857255e+01 -4.9101354797098262e-01 -1.7232400818705882e+00 7.3656769230355579e-02 3.0782180621489363e-01 9.5242498209217263e-01 1.4932169998149298e+00 -8.4184930104068911e-02 9.0146649478708829e-01 -6.5146416101877280e+00 -3.8872361254350657e-01 7.4407482756385868e-01 3.0113981443380000e-01 -5.4696142066433329e-01 7.6016530912944580e-03 2.2516759568353041e+01 -6.2830781285249770e-02 1.2484316386668686e+01 2.5694841434041109e+00 3.0157585552983837e+00 -3.0306601652312981e-01 -3.8387213504413181e-03 -1.0076181291533530e-02 -5.1875681970678440e-02 -7.1584059284530288e-01 3.5410595181595762e-02 -4.4161412000120037e-01 4.1479808662027706e-01 -2.6620714727894873e-01 -2.2090469749394447e-02 -2.9280369380681781e-01 2.6643549718489684e-01 1.0678727283673897e+00 -4.7020408242282725e+00 -9.2625963272907813e-02 -3.6457370551286425e+00 -9.0942778155309156e-02 2.4782605214826576e+00 -5.6236778437529367e-01 6.0512283893241925e-01 -1.3621200473617463e+00 4.5815261808750298e+00 4.3917025277193524e+01 1.9578410028724069e-01 4.3539495611254317e+01 -1.3854663656053820e+01 1.1445550601293546e+01 -1.3808456429970057e+00 6.5467967533501463e+00 
      </Row>
      <Row Index="22">
        3.4356279242038834e-01 2.0254428098206798e-01 -4.6559814810960809e-01 1.9952803368660454e-02 9.2767980982096887e-01 1.0379705659512679e-01 6.0974142938511449e+00 1.9696875964099290e+00 1.0811286523910590e-01 3.7294485726365956e-02 -1.6391720831090661e-01 -8.6813647510132208e-02 -1.7277680703724485e-02 7.0647983774083389e-01 4.2242466674488055e-03 2.1968883318542671e+00 9.0285934159086223e-01 -1.3154252444051551e-02 2.8093593902270508e-02 7.0345177724213392e-02 3.2201044893047676e-01 -6.2830781443818373e-02 4.1171827966012842e-01 -1.4897012912913515e-01 -4.5784911308520648e-01 1.0268577762100310e+00 2.3951786958890331e-02 1.2821503057708801e-02 -8.7348885708490084e-04 1.1875147711227880e-02 7.0665093926837348e-03 -1.0051398908796888e-02 -3.0136368431423425e-03 -8.9080574012409298e-03 5.5310626453900898e-02 5.6006391314668618e-03 2.6401230195094444e-01 6.8873337083698458e-02 -3.8086970667248432e-01 2.4707373869696701e-02 -2.5522317369901004e-01 2.8454379455824571e-02 -1.0171084472720196e+01 4.5724113626932281e+00 1.5109784842251357e-02 -3.4324993475253196e-01 -1.6780365094748839e-01 -8.8958687311175200e-01 -2.3550887015659927e-01 -8.4446876619060351e-01 -1.8998290628916492e-01 1.3101803314878795e+00 1.7400713600672226e+00 1.1441756316165104e-01 -2.8421613833585835e+00 
      </Row>
      <Row Index="23">
        -1.2184036542211771e+00 -2.7122834101763726e-01 1.9121465149707366e+00 -7.6047889366869095e+00 2.0741409026550883e-01 -3.9288917290043797e+00 -1.1535977700756604e+01 -2.5963047071823148e-01 -1.6512569113377245e+00 -7.1360251654782658e-02 2.0635376533704708e-01 7.2409746031754596e-01 8.3845590859140096e-01 2.7810201080258778e-01 6.0370487605171386e-01 -3.2395282595835031e+00 -9.2978394183323709e-01 7.2852630557683007e-01 2.1007562908439370e-01 -3.4151366750802248e-01 -2.1087316808688839e-01 1.2484316386644670e+01 -1.4897012905135654e-01 8.5038515518823417e+00 -1.0799818850401266e-01 -5.6700925809189973e-01 -3.1709495537641708e-01 -1.7508158313860520e-02 -4.6359440369030851e-03 -3.7021239838748068e-02 -4.2754142648053434e-01 -7.3756534036988342e-03 -2.5781225964668802e-01 2.1452931171884965e-01 -1.9268410267822622e-01 -3.2276757963451030e-02 -8.4843260004592347e-01 4.3141438521170994e-01 -3.0025730144782187e-01 -2.9361141018226879e+00 -2.0856208342752872e-01 -2.1059792156502564e+00 8.2537142372063954e-01 -2.6335247276644003e+00 -6.3038961016910844e-01 1.1638898912709443e+00 -1.5140440060656932e+00 1.5084309559768749e+00 2.6144956478157169e+01 -3.6003961317608812e-01 2.5463318597158334e+01 -5.6050807365190431e+00 -7.5915474886978640e-01 -1.3161839976518568e+00 7.0923020434812818e+00 
      </Row>
      <Row Index="24">
        7.7548672116033401e+00 4.7817946143887378e+00 2.1019224930559432e+01 -1.4918157094968301e+00 -3.4071914372927381e+00 8.1341056288314939e-01 8.5810446025619285e+01 -6.0969006825667321e+01 3.7183272906256413e+00 2.0871232368927011e+00 -1.9341760936453625e+00 6.5543382691100964e+00 -2.3927205142304331e-01 -1.4123912130326346e+00 2.9406971542594595e-01 3.8992213174662659e+01 -2.4472494683326875e+01 -1.8401150463213369e+00 5.8654866726674815e-01 1.0486053549903358e+00 3.4239962689610013e+00 2.5694841481921058e+00 -4.5784911274822093e-01 -1.0799818587297949e-01 6.4769322783100563e+01 4.8055255515900086e+01 1.1035597211319228e+00 3.1866612412306072e-01 -5.6192380172418691e-02 9.3538536367084602e-01 -6.4811689777627191e-02 7.0075078275863234e-02 -8.3707388736427649e-02 3.5755121137601931e-01 9.7150362509044075e-02 2.3618500133572698e-01 5.2856979963550472e+00 6.2778686016255980e-01 1.3639261347854758e+01 -1.3518143451340980e-01 -1.9057674094472782e-01 -4.7578635985665224e-01 -7.3065158328575706e+01 -7.9360887463801959e+01 9.5169623090505406e-01 -6.1466051404178188e+00 7.8517666217261439e-01 1.1361148764950798e+02 4.4045064461575203e+00 2.1490794364584547e+00 5.6110299105555601e+00 -3.8730258679573325e+01 1.8326440359552907e+02 4.1637698805888181e+00 -2.3726438591610901e+01 
      </Row>
      <Row Index="25">
        3.6360507132405360e+00 2.7308740516988883e+00 3.1385448543884205e+01 -2.1512569989061348e+00 -1.0627044828381145e+00 1.7239818198323273e+00 1.2297019533673688e+02 -2.8641848259365133e+01 3.9076886429661357e+00 1.6812341813354976e+00 -1.1719288870070557e+00 1.0029159118717560e+01 -1.7856583636645951e-01 -9.1715810193989000e-01 3.0969469955296525e-01 5.5857589109440426e+01 -9.3996202494757153e+00 -1.5842044170558438e+00 1.2589234113722192e+00 9.2293832168020884e-01 9.1609120168858471e+00 3.0157585582732480e+00 1.0268577766066187e+00 -5.6700925637310284e-01 4.8055255512741269e+01 6.6051826090839185e+01 8.5332891473856876e-01 2.9552886492064800e-01 -2.0242968635178882e-02 1.1407163536095057e+00 -4.4941716486629958e-02 1.7909204491360242e-01 -1.3687585096453597e-01 -7.2173967592611465e-01 2.8276847526428484e-01 1.9167955872915499e-01 2.0789979525832227e+00 -2.7700017629256601e-01 1.6348963029705811e+01 -4.0512032007145837e-01 -6.5240645377252848e-01 -1.0594175911418693e-01 -1.4831027051267711e+02 -3.2098862416896480e+01 1.3852183960163880e+00 -1.8926935586280962e+00 2.2207707517060919e+00 1.3232997626629114e+02 4.7819678248068893e+00 1.0183148463417753e+00 6.5510276276677750e+00 -1.4901812932606230e+01 2.2438333449263828e+02 3.5463844961650048e+00 -6.9561429209095124e+01 
      </Row>
      <Row Index="26">
        7.5133455510261271e-01 1.8349890876644070e+00 -9.2557048694307353e-01 1.8931095389843922e-01 -2.4526985805781010e-01 1.6064082990799411e-01 9.9803102275792241e+00 -1.2184266370659694e-01 3.9559133677150351e+00 3.0721738314372082e-01 -1.0754919063447654e+00 -3.7139477855831382e-01 -5.2568127035982570e-02 3.8700488360881025e-02 1.3889888440504317e-02 4.3107580250430857e+00 1.3764668158276996e-01 -1.6034525337374070e+00 2.1764749946306505e-02 5.5860853678230504e-01 1.8039744393167323e-01 -3.0306601695035118e-01 2.3951786972340017e-02 -3.1709495560154044e-01 1.1035597208063450e+00 8.5332891448392334e-01 1.2758264380805686e+00 3.7502857533719958e-02 2.1004926105343810e-02 1.9735789865277069e-02 9.0027648076177608e-03 7.0730147441366853e-04 8.6917011841864001e-03 -1.3930575596811936e-02 8.6221575085686036e-02 1.1467599991559554e-01 5.8944702538494476e-01 -7.1343626820451034e-02 -4.3501587797530783e-01 8.5715330650471253e-02 -4.1990359747677175e-02 6.5350440851936295e-02 -2.6394312756807352e+00 1.9261428148057882e+00 1.1583559750889580e+00 -9.2385551735315730e-01 2.6411672569692963e+00 -8.6411212863820741e-01 -7.3228396764010173e-01 -9.6756560161972011e-02 -6.5967752705584282e-01 3.9958579812374011e+00 1.3673146685239037e+00 3.2879573329579377e+00 -5.4823645524943911e+00 
      </Row>
      <Row Index="27">
        1.3606767249795526e-01 1.2314682285283997e-01 -1.1542049970343729e-01 6.1652119428357022e-04 9.1333043262853408e-03 1.4645683571795255e-02 2.1666564030413227e+00 -3.8666185371953397e-02 1.1876789452603931e-01 3.1653708545720027e-02 -6.5494306976575323e-02 -4.7386301464744623e-02 -3.4297738978308345e-03 4.0464989987842426e-02 2.1655304427820599e-03 9.3392218462039245e-01 -3.2021574374659668e-02 -5.0444068186953794e-02 2.7209955184240298e-03 3.4025757451542418e-02 4.8444341964507809e-02 -3.8387214164669614e-03 1.2821503058646933e-02 -1.7508158345633851e-02 3.1866612395211469e-01 2.9552886471605239e-01 3.7502857530065770e-02 1.2267216468081266e-02 5.0213586202729234e-03 8.7601458710239513e-03 9.0466473202242283e-04 4.1788634993835672e-03 1.9561398100262709e-04 -1.7222717696351697e-02 3.4684302719889586e-02 -6.0732083137831619e-04 9.6620393436176705e-02 2.0106117707702893e-02 -7.6745697250889852e-02 1.7561394126635807e-03 -1.6413666656589498e-02 3.8538414881406444e-03 -1.0701636050427297e+00 2.3892863912523696e-01 2.7003368618164991e-02 -1.3473451555493088e-01 2.8072355602196841e-02 1.0565896339089831e-01 -1.9329037591811989e-02 -6.0604467077752536e-02 -1.0077069659001570e-02 6.6552085778290959e-01 7.1658601581079884e-01 1.2146658373056704e-01 -1.0971543589316177e+00 
      </Row>
      <Row Index="28">
        -2.5955952628110068e-02 8.0859228374422845e-03 7.4012527231964539e-02 7.3632099156048375e-03 -1.1162540246298036e-02 2.0378128878502984e-04 -4.2218243974019387e-01 -3.6827071730558950e-02 7.3925383261676608e-02 -3.6172425581712520e-03 -7.1910151994749594e-03 2.4202943962787694e-02 -8.9844106555769798e-04 -2.2482467833894848e-02 -1.8952326349472651e-04 -1.6568572248882066e-01 -5.6185644296674227e-03 -2.8080813798986304e-02 6.5716917618936777e-04 6.2672030941092454e-03 -1.3003621705113162e-03 -1.0076181271236308e-02 -8.7348885652716035e-04 -4.6359440273417776e-03 -5.6192380111993678e-02 -2.0242968553987970e-02 2.1004926107214966e-02 5.0213586206889482e-03 1.4321775031501748e-02 1.6378820928530935e-03 2.1895833615013021e-03 4.4500272194369916e-03 -2.3550893981215950e-03 1.5207957810594279e-02 -1.0758775127606080e-02 -1.4715116068071694e-02 -1.7140287865859912e-02 -6.7251467003932777e-03 6.2142851996056063e-02 2.2758143440666139e-03 8.0133841380059523e-03 1.1465802064381282e-03 4.9386071351335215e-02 -1.2140567712280720e-01 2.2597338218477980e-02 2.5689998445584755e-02 6.8947339863259433e-02 1.6266254927918425e-01 -1.9067760967123364e-02 2.8337789455855140e-02 -1.9715460457636683e-02 -1.4934529604027214e-01 3.7115661578802590e-02 5.1273749879914510e-02 2.2664943927350384e-01 
      </Row>
      <Row Index="29">
        3.4978929213109744e-03 7.2348342357829692e-02 9.0048339187310922e-01 3.1005493688820995e-02 -1.7131022389787809e-02 3.0872065842296421e-02 3.7329750091045568e+00 -1.1529010943072602e+00 7.6901035309927090e-02 3.0483035663579683e-02 -2.9487907750942899e-02 2.6847452628802249e-01 -1.7290978441616645e-02 -1.7374578432608700e-02 1.2086244356802736e-02 1.8697253476060618e+00 -4.9350778201792750e-01 -2.7304984942749799e-02 2.9252414161990370e-02 2.3685370148798467e-02 2.0316282021728441e-01 -5.1875681902518123e-02 1.1875147718846790e-02 -3.7021239799505140e-02 9.3538536362876279e-01 1.1407163536173526e+00 1.9735789866070830e-02 8.7601458751542793e-03 1.6378820911075490e-03 4.8063749519459797e-02 -3.5125525205987902e-03 -2.5815525143180196e-04 5.4382099108570350e-03 -7.9757166980999356e-02 5.7667128305083866e-02 -8.9813872395944766e-07 -1.1959686536230826e-02 4.8707190878446646e-03 4.1129042505969943e-01 1.2060841469289544e-02 -1.3331176701249614e-02 1.0968764933871481e-02 -4.3444874633171757e+00 -2.1534463506792942e+00 2.1811931095787163e-02 3.7588702301169730e-02 4.3633657058097207e-02 3.6079842711166075e+00 -1.0052974477025660e-01 1.0700675392102468e-03 -9.1369174044529267e-02 5.0332767021686087e-01 4.3160449284002862e+00 7.4550756429194787e-02 -1.1310835509637467e+00 
      </Row>
      <Row Index="30">
        3.7647499003965579e-02 1.8590233858511669e-02 -8.3347506798530840e-02 4.3771355822258473e-01 8.5544872790066506e-03 1.8979081661161593e-01 7.3341072106432126e-01 2.4168124764146336e-02 5.9363362841788281e-02 -6.6820673328549240e-04 -1.2180069078539579e-02 -2.9117363000456808e-02 -4.7426186004669968e-02 1.7934343619654403e-03 -3.0922294640655063e-02 2.7207063382867835e-01 3.2395597694334491e-02 -2.6421513136297592e-02 -1.1220487014295719e-02 1.9855493408092333e-02 9.5423720009482904e-03 -7.1584059284914603e-01 7.0665093877591012e-03 -4.2754142648311932e-01 -6.4811689636376624e-02 -4.4941716405323406e-02 9.0027647937425681e-03 9.0466472997635661e-04 2.1895833620945728e-03 -3.5125525187076983e-03 4.7808529670457858e-02 2.9585809871832680e-03 -2.7940575009370479e-03 2.2288375623944388e-02 -1.5285372123086956e-02 1.7674773503377214e-03 2.4014815997949870e-02 -8.8656204061828385e-03 -1.7530447698266144e-02 1.5300333041025621e-01 2.6241046531527701e-03 1.2018726600902360e-01 -1.5415310062094889e-01 -8.5910619359343826e-03 1.9187473557866930e-02 -3.5939900198552366e-02 4.5469048898630279e-02 -9.2004727538887915e-02 -1.4339144465027214e+00 -4.0770072277621326e-03 -1.4134461626388204e+00 4.8014269093720319e-01 -2.1047143091579562e-01 4.8703019748685898e-02 -3.3308958121471272e-01 
      </Row>
      <Row Index="31">
        -1.5569238814827635e-02 -5.9854264795516386e-02 3.0793518640100437e-01 -2.1522259219962758e-02 -1.3445846578941811e-01 7.8248817509213361e-03 -1.1515811264200675e+00 -4.9036207530453224e-01 7.3022658599762869e-03 1.7181872591276459e-03 3.1564585494824215e-02 8.1545606173426474e-02 1.6091286240915714e-03 -1.6893562816365426e-01 -3.9685265104152934e-04 -5.0824370162348176e-01 -1.3065139489533495e-01 4.1906609490520719e-03 -1.7289384012204312e-03 -1.2225529664986697e-02 3.8106590231602733e-03 3.5410595275286644e-02 -1.0051398905473796e-02 -7.3756533570585314e-03 7.0075078428505577e-02 1.7909204513903232e-01 7.0730148305886420e-04 4.1788635015895803e-03 4.4500272190673932e-03 -2.5815524703215985e-04 2.9585809844083402e-03 3.3742121341841624e-02 -3.8490693450755611e-03 4.5651656917783237e-02 -2.0999724313470587e-02 -3.1546953926353529e-03 -5.3237660365884464e-03 -3.3051604096945561e-02 4.0458285740608230e-01 -2.7468924492498113e-03 7.6334796711289954e-02 -4.1544625580754871e-03 -5.6846597915864550e-02 -6.7636426194339405e-01 1.3668669115955323e-02 2.5615418894119668e-02 6.8752741901627931e-02 1.1774145261177678e+00 4.5924056512416808e-02 2.0586212717737212e-01 5.9661308850155997e-02 -7.5541649230347263e-01 1.1033745322112072e+00 -1.0300190468508124e-02 6.5681770385396998e-01 
      </Row>
      <Row Index="32">
        9.7856355226122321e-03 6.7380886195717374e-04 -9.0782514805372708e-02 2.7001595662911326e-01 -6.3029067853778986e-03 1.1371992060428636e-01 1.1768750833077157e-02 1.9979317475168557e-02 4.0428635840782684e-02 -2.6198458328429500e-03 -1.7902248679872515e-03 -3.5317053036747689e-02 -2.9184667451906308e-02 -5.8292007731584466e-03 -1.8751144413678880e-02 -4.3024317728656558e-02 1.1806209027765026e-02 -1.7433632169977779e-02 -7.4494081645692274e-03 7.7144276432297206e-03 -1.7776506592185218e-02 -4.4161411999723904e-01 -3.0136368465948915e-03 -2.5781225964552784e-01 -8.3707388622140277e-02 -1.3687585088359833e-01 8.6917011762348284e-03 1.9561397954425894e-04 -2.3550893976067595e-03 5.4382099126644070e-03 -2.7940575011439653e-03 -3.8490693428317735e-03 2.2453611467389008e-02 -4.8696427526398314e-02 3.4031241187513876e-02 6.5615203448599871e-04 5.5532270605065208e-03 -1.2591487367734645e-02 -3.1329423657251818e-02 9.6713521571875960e-02 7.3874850247420132e-03 7.0722393700701866e-02 3.5883163236910665e-01 -1.5447001720552432e-02 1.6057870340923236e-02 -1.2645431679364438e-02 4.1358495165617591e-02 -2.6708782816805127e-01 -8.7804717371496410e-01 6.4553252263678303e-03 -8.6852052367699717e-01 1.6645706442164987e-01 -4.6893905054091989e-01 3.0296694244443978e-02 3.1074859312955564e-02 
      </Row>
      <Row Index="33">
        3.0590099983881558e-01 3.9586093186474658e-02 -1.2760124743086465e+00 -2.5367926261212825e-01 1.5734034320389512e-01 -8.5488180551724927e-02 -6.5320552569648527e+00 4.6816704168456263e-02 -7.8664627360856443e-02 1.0410281598616677e-02 -1.9793314510619719e-02 -3.6025227169736984e-01 4.7967205519008793e-02 1.7717343829484378e-01 -1.1181295389725565e-02 -3.7958361676133014e+00 3.3046583560217835e-03 1.6548212380755878e-02 -3.9888235287493856e-02 -1.7858231018237705e-02 -3.8450332957137384e-01 4.1479808677155700e-01 -8.9080574051756400e-03 2.1452931179301127e-01 3.5755121166671699e-01 -7.2173967556169316e-01 -1.3930575578939841e-02 -1.7222717698811341e-02 1.5207957812692276e-02 -7.9757166974267088e-02 2.2288375619005464e-02 4.5651656924416528e-02 -4.8696427529334611e-02 8.2016913722427254e-01 -2.8072563164002878e-01 -3.5423536957889593e-03 2.3647320176291836e-01 4.3289420198267606e-02 -6.1126835402455604e-01 -8.4096880846739566e-02 -1.1214197516557611e-02 -6.8212992230840777e-02 6.6044543358629753e+00 1.0578020049746124e+00 -3.3741037462371004e-02 -3.2583821549711223e-01 -1.5721768780755560e-01 -4.0707584210297760e+00 8.2117257763436247e-01 -1.9536556031480165e-01 8.4507980728734999e-01 -4.1900017913712908e+00 -2.8785442088062942e+00 -4.6451595193030673e-02 3.3270882276349942e+00 
      </Row>
      <Row Index="34">
        3.8423649237455493e-01 4.0673713034464698e-01 -1.5201979973559048e+00 1.4818840044297277e-01 1.8851680794574577e-01 1.0148695180372677e-01 9.8142251714204889e+00 2.4063035292308914e+00 2.7632121787768238e-01 6.5758163734503938e-02 -1.9943518258322257e-01 -5.6712039752800247e-01 -2.3165232930281832e-02 3.4095762605844016e-01 -5.3181125308228161e-03 4.0418670576070852e+00 7.4482502762958847e-01 -1.3430793460750579e-01 6.5457796879941910e-03 1.1095988499810990e-01 1.9747323519111037e-01 -2.6620714785303479e-01 5.5310626445091771e-02 -1.9268410296561322e-01 9.7150361487408077e-02 2.8276847389104276e-01 8.6221575046089960e-02 3.4684302712630455e-02 -1.0758775127683830e-02 5.7667128278015845e-02 -1.5285372105637074e-02 -2.0999724320454050e-02 3.4031241200633250e-02 -2.8072563161096475e-01 3.9387779548274726e-01 1.3555429042874892e-02 2.3917523381244329e-01 8.8033332759131694e-02 -1.2310618399754625e+00 5.5565065306801872e-02 -9.9585677443085885e-02 5.5593839778746997e-02 -2.8870773019045544e+00 5.3925113134587708e+00 4.7650175655222782e-02 -4.4283004219842415e-01 -1.3212616614496872e-02 -4.0274251396059313e+00 -5.7371089199988501e-01 -5.1015242907081948e-01 -5.5717378535053408e-01 4.9438606773994014e+00 -1.7125946730791892e+00 3.2331405112414552e-01 -6.3991621591140300e+00 
      </Row>
      <Row Index="35">
        1.4196529004165503e-01 2.2324536469559406e-01 -2.3690554580194026e-01 1.3824474082933969e-02 -2.0869773206639408e-02 1.7864337579005355e-02 2.4253947807587366e+00 1.2015127584711005e-01 3.6182457974472193e-01 4.4710299607435555e-02 -1.2281023542761116e-01 -9.6087069694646837e-02 -6.6928007946982504e-03 3.4176753891348888e-02 3.4549204891128754e-03 1.0443772609481874e+00 3.6228161934908833e-02 -1.5018559808557974e-01 2.5622652987443151e-03 6.6367433930719130e-02 4.5116526139695273e-02 -2.2090469854534778e-02 5.6006391322949156e-03 -3.2276758016419715e-02 2.3618500115528640e-01 1.9167955851305152e-01 1.1467599991131783e-01 -6.0732083162884365e-04 -1.4715116068406881e-02 -8.9814272676708162e-07 1.7674773536192796e-03 -3.1546953948335954e-03 6.5615203673063949e-04 -3.5423536938556932e-03 1.3555429049318224e-02 3.7824928293239163e-02 1.0217612710965233e-01 7.5646613085248726e-03 -1.5442061437745835e-01 6.9731066818174790e-03 -1.1359865805891101e-02 6.5728079975386298e-03 -7.9527164437728715e-01 5.7221689991189573e-01 1.0128973682781806e-01 -1.6170627414090066e-01 2.0922743876698027e-01 -3.1477369045219034e-01 -6.2596154536904536e-02 -5.7576020308851797e-02 -5.3366169283469711e-02 9.8413183502843182e-01 2.2788730286586140e-01 3.2241642357972761e-01 -1.3395935270420598e+00 
      </Row>
      <Row Index="36">
        4.8944482691252240e+00 2.3413716200224810e+00 -6.7798431107203943e+00 1.7834510579011553e-01 -6.4942529580665109e-01 4.8341422648934962e-01 2.5337228784459569e+01 -1.2112533302097190e+00 1.8903914206549199e+00 8.2959366579583715e-01 -1.3647351596424517e+00 -2.2988642000718706e+00 -1.8282288817623282e-02 2.6444886942726953e-02 -7.2044025496441400e-02 9.3680989728218123e+00 -1.0269963105976609e-01 -8.0860900382461409e-01 -2.1114984836983552e-01 6.4146561318394690e-01 -3.7215623585667168e-01 -2.9280369497947500e-01 2.6401230194862535e-01 -8.4843260061517967e-01 5.2856979932900856e+00 2.0789979487816055e+00 5.8944702534260074e-01 9.6620393424988293e-02 -1.7140287868206872e-02 -1.1959686616086262e-02 2.4014816033300551e-02 -5.3237660649188001e-03 5.5532270880962464e-03 2.3647320183623499e-01 2.3917523387089251e-01 1.0217612710542415e-01 3.7833465824320625e+00 4.5919026116964301e-01 -9.9733673975305526e-01 1.8062345287511233e-01 1.0410772821484215e-01 9.3007294520677158e-02 -5.1316418504407579e-01 9.0672303122986779e+00 3.6454875501372186e-01 -4.6769364760303027e+00 -1.2223055398379193e-01 -9.1409683894121940e+00 -1.1949041409247358e+00 -6.7233156381072967e-02 -8.5227201717445933e-01 6.2235888133883694e+00 2.4619317840554813e+00 2.0568614410855970e+00 -1.4299213940839053e+01 
      </Row>
      <Row Index="37">
        6.6632496849512535e-01 8.8533238378747003e-01 -1.9984705882428497e+00 -1.6416300522302141e-01 3.6167771086005729e-01 -2.1365444547920909e-01 1.2404160823393070e+01 9.2072578354458023e-01 -3.9846632029249207e-01 1.1052414541934397e-01 -3.9708959133575972e-01 -5.7265827132034042e-01 2.2616773321647798e-02 5.0666209000836915e-01 2.4834367330205998e-02 5.5416021463969551e+00 2.1015282997872635e-02 1.1503381282139458e-01 -2.0545117814055214e-02 1.7203653421143658e-01 5.1841305511661218e-02 2.6643549657959587e-01 6.8873337073394936e-02 4.3141438491681616e-01 6.2778685869094630e-01 -2.7700017823219625e-01 -7.1343626863342280e-02 2.0106117698502679e-02 -6.7251467006260168e-03 4.8707190473022688e-03 -8.8656203880762424e-03 -3.3051604106937305e-02 -1.2591487353213554e-02 4.3289420242728305e-02 8.8033332764298186e-02 7.5646613014154762e-03 4.5919026111671202e-01 5.5290451609731872e-01 -1.5172242771045270e+00 -1.1707632318615691e-01 -1.7041438662191588e-01 -4.7277680214896568e-02 -4.2842432150356302e+00 2.8354954227061060e+00 -3.6322615694367855e-01 -7.5580360671343128e-01 -9.9289698231981416e-01 -3.9053255351327176e+00 8.0757570955867086e-01 -7.3964350388624234e-01 6.9558641899499229e-01 5.6966616806015304e+00 -3.1776860739659765e+00 -2.1776140317734116e-02 -5.4763363911961234e+00 
      </Row>
      <Row Index="38">
        -1.9537469035135473e+00 -3.8219597557016685e+00 2.8108884140273176e+01 -5.8720811576704435e-01 -4.7399732858225434e+00 3.7796197933899123e-01 -6.8740072528658629e+01 -4.3287682688372755e+01 -9.0912269650220878e-01 -1.8633396220963050e-02 1.9228439549896592e+00 9.1223928460839936e+00 -4.9213810180688711e-02 -6.7661528581814707e+00 5.6991744825487523e-02 -2.6314026987193380e+01 -1.3994587974659789e+01 7.3085714342083463e-01 1.3195050114529394e-01 -8.7471218758550029e-01 5.3817636277445136e-01 1.0678727361354330e+00 -3.8086970643803397e-01 -3.0025729750205699e-01 1.3639261359490320e+01 1.6348963046506043e+01 -4.3501587743845960e-01 -7.6745697094466436e-02 6.2142851969130053e-02 4.1129042538763882e-01 -1.7530447930928728e-02 4.0458285741596001e-01 -3.1329423839706827e-02 -6.1126835449035610e-01 -1.2310618395219735e+00 -1.5442061422979669e-01 -9.9733673774527010e-01 -1.5172242763899522e+00 2.4522130797957352e+01 2.9102270212835180e-03 2.3169242172647699e+00 -1.9390509794450733e-01 -2.1838473294876962e+01 -7.7357185482859066e+01 3.0944548527534721e-01 3.3103757762737231e+00 2.2746370289033879e+00 9.7972401223453829e+01 1.4933361688102760e+00 9.1118592937762877e+00 2.0483236998039871e+00 -5.7599772019510347e+01 9.3739187847378474e+01 -1.7786507450433566e+00 5.2786379685347782e+01 
      </Row>
      <Row Index="39">
        2.6629482972244300e-01 7.1379010388078978e-02 -5.3175677189940962e-01 2.9888795419503928e+00 -5.4586682372931961e-02 1.2425605533726614e+00 3.3814615376462918e+00 1.3070815272278984e-02 4.7941288545551064e-01 -6.2627694599708406e-03 -4.5802147173554797e-02 -2.2133781937388994e-01 -3.1826022235493223e-01 -5.6815436040921874e-02 -2.0700705764751148e-01 1.2812457675556514e+00 9.4685429340047769e-02 -2.1603865103702091e-01 -7.1478342582305232e-02 1.0698908227460217e-01 1.6510693326758807e-02 -4.7020408242013376e+00 2.4707373838307234e-02 -2.9361141018146801e+00 -1.3518143345021727e-01 -4.0512031935552706e-01 8.5715330564556824e-02 1.7561393998950514e-03 2.2758143480982457e-03 1.2060841485490879e-02 1.5300333040868933e-01 -2.7468924299149933e-03 9.6713521571986441e-02 -8.4096880818257169e-02 5.5565065190581582e-02 6.9731066608409858e-03 1.8062345264320295e-01 -1.1707632330739168e-01 2.9102286296415793e-03 1.1591996534519466e+00 4.8872746640513220e-02 6.8813951096141557e-01 -5.5933954976616462e-02 1.1260594266247176e-02 1.7845198041666288e-01 -2.3769121822188288e-01 4.5576487828889434e-01 -6.5599476900935871e-01 -9.5349732040199608e+00 7.4720742287566061e-02 -9.3811754831079526e+00 2.4017423605150476e+00 -1.2963792235494918e+00 3.7532961291461620e-01 -1.6257043164154599e+00 
      </Row>
      <Row Index="40">
        1.0911067206884617e-01 -3.7488181308436125e-01 3.7022918328655796e-01 5.9985955134943314e-02 -1.5429715556453374e+00 9.5613246406505148e-02 -1.0251494593972396e+01 -2.6796258794455836e+00 -1.2211199875245704e-01 1.9845388288750598e-02 2.4529758889216469e-01 -1.7363834039091364e-01 5.1072393641558023e-03 -1.7385561635975399e+00 -3.1993301812454078e-02 -5.2968639042476555e+00 -8.6811635982845692e-01 8.6207004018247879e-02 -7.5569705981115121e-02 -8.5247435954758810e-02 -3.3817714837807744e-01 -9.2625962826021091e-02 -2.5522317369048153e-01 -2.0856208321243486e-01 -1.9057674002250025e-01 -6.5240645254664287e-01 -4.1990359701253865e-02 -1.6413666649331748e-02 8.0133841379667614e-03 -1.3331176677979367e-02 2.6241046397136730e-03 7.6334796716409414e-02 7.3874850143819115e-03 -1.1214197540529991e-02 -9.9585677437465575e-02 -1.1359865798612596e-02 1.0410772828609596e-01 -1.7041438661403563e-01 2.3169242175978928e+00 4.8872746550913115e-02 9.4146017749620370e-01 2.0820851523522185e-02 7.5509794961608492e+00 -2.6270898622851400e+00 7.7582077198394828e-03 -8.8977537002193685e-02 3.5431057520340575e-01 3.0664136667968025e+00 -3.4047422423652302e-01 1.8834164387910883e+00 -2.6784741881455543e-01 -4.4282830296095055e+00 7.5802063010945075e-01 -1.7605919734107034e-01 5.1730955132826368e+00 
      </Row>
      <Row Index="41">
        1.6743547544472293e-01 1.2287160674476902e-01 -4.8840896024571878e-01 2.1368826099118894e+00 5.7150727069403828e-02 1.0052047788568157e+00 3.9900717554485325e+00 1.9639334617226378e-01 3.3893439208460663e-01 8.5037935453646796e-03 -8.2505470653260193e-02 -1.7434067040856657e-01 -2.3855105875560945e-01 1.7592625609384349e-02 -1.5368345462905766e-01 1.2215037757415026e+00 2.2639989913757042e-01 -1.4059228067619989e-01 -4.9526179300967144e-02 1.1133009451002528e-01 4.8891018094175009e-02 -3.6457370551591168e+00 2.8454379430851162e-02 -2.1059792156684147e+00 -4.7578635916965695e-01 -1.0594175873691380e-01 6.5350440780945984e-02 3.8538414775586283e-03 1.1465802094629274e-03 1.0968764942787868e-02 1.2018726600934518e-01 -4.1544625441947147e-03 7.0722393702015010e-02 -6.8212992205158640e-02 5.5593839690206204e-02 6.5728079807471189e-03 9.3007294338511279e-02 -4.7277680307120845e-02 -1.9390509677624460e-01 6.8813951097154025e-01 2.0820851591112799e-02 6.7764551949820118e-01 -4.4485647602109779e-01 -7.2352238207599617e-02 1.0967918963759438e-01 -1.8939503299617155e-01 2.3576349010888281e-01 -6.8360028114688065e-01 -7.2258596577367173e+00 -5.0211764959266346e-02 -7.1219025735152073e+00 2.4235338063559371e+00 -1.1222394503579627e+00 2.8124149796933035e-01 -1.7973931895701309e+00 
      </Row>
      <Row Index="42">
        -4.6296031949318603e+00 -1.7928199114972344e+01 -7.9430653277507417e+01 1.2449512133207463e-01 -1.9056436884164668e+01 -1.8364829283515860e+00 -7.8839065182133254e+02 4.0078830678884401e+01 -9.8541496028190920e+00 -4.1331590463843213e+00 8.3030495102319719e+00 -2.1355640545482323e+01 2.2629930695949270e+00 -1.7689681288610700e+01 -2.5330900394857672e+00 -3.7909626818986862e+02 2.5063778696512031e+01 3.6406640372988477e+00 -4.2640374821728813e+00 -5.5366337763188378e+00 -3.7968336920445573e+01 -9.0942771746369999e-02 -1.0171084473507790e+01 8.2537142636725491e-01 -7.3065158296715254e+01 -1.4831027047977625e+02 -2.6394312748565767e+00 -1.0701636054086237e+00 4.9386071580894253e-02 -4.3444874626549677e+00 -1.5415310084358547e-01 -5.6846597170306268e-02 3.5883163226099413e-01 6.6044543361443289e+00 -2.8870773055246000e+00 -7.9527164475322909e-01 -5.1316419402866531e-01 -4.2842432202130984e+00 -2.1838473240254491e+01 -5.5933955976044558e-02 7.5509794992761954e+00 -4.4485647723152688e-01 9.2407813949671618e+02 6.3611598003624323e+01 -1.3150892508493257e+00 1.7948569421454579e+00 5.2064420560133939e-01 -3.5830136252792386e+02 4.0069328948110794e-01 2.6683624561104317e+01 2.7489569806093073e-01 -2.1362892998649943e+02 -4.8004704417535919e+02 -1.2311656262026213e+01 2.9407737143541328e+02 
      </Row>
      <Row Index="43">
        1.3284316480509460e+01 1.0928537887061999e+01 -1.2554365045197794e+02 -2.2813828187542811e+00 8.3635428752213556e+00 1.4887061423929708e+00 2.4636614255161112e+02 2.7229105664218275e+02 6.4724985139750970e+00 6.1854128378479345e-01 -6.2953404075670676e+00 -4.2082692299658802e+01 7.6198649292336995e-01 1.2748458344045503e+01 -7.3636001371552950e-01 8.5581990625836227e+01 1.0721894195905827e+02 -3.3316208909043326e+00 -5.1072705668833862e-01 3.1448356079788611e+00 5.6893875171886492e+00 2.4782604837819662e+00 4.5724113619337459e+00 -2.6335247469413616e+00 -7.9360887521589120e+01 -3.2098862494687182e+01 1.9261428130008085e+00 2.3892863858466740e-01 -1.2140567705845484e-01 -2.1534463521893876e+00 -8.5910607899295499e-03 -6.7636426220133217e-01 -1.5447000860991267e-02 1.0578020066766953e+00 5.3925113126642996e+00 5.7221689945806320e-01 9.0672303060674047e+00 2.8354954209274825e+00 -7.7357185498438156e+01 1.1260602014985466e-02 -2.6270898618819274e+00 -7.2352232416704965e-02 6.3611598226924798e+01 5.8457907997466657e+02 6.0470089322586773e-01 -1.9300916373745167e+01 -2.6459837805860182e+00 -4.3311881472920550e+02 2.5617822596499273e-01 -1.9070593926011963e+01 1.3945796112293465e+00 2.3404288757282282e+02 -2.8964793228580544e+02 8.0848109848660066e+00 -3.4652133015300990e+02 
      </Row>
      <Row Index="44">
        4.4304349661967901e-01 1.1712755819499168e+00 2.9109052005090674e-01 3.5867379178644798e-01 -2.5506350711404835e-01 3.0583270017866138e-01 3.9394265169084548e+00 -1.5116622314100692e-01 3.9682779167378852e+00 2.1572965072406358e-01 -7.7318218552058893e-01 -2.3468714571459270e-02 -7.4509942202102941e-02 -1.1952871640445828e-01 -6.4954381002738093e-03 1.6655342483052937e+00 9.8199888588318629e-02 -1.5580580000290061e+00 3.6105982752102306e-02 4.6115234955269130e-01 2.1491399599349753e-01 -5.6236778447799318e-01 1.5109784859944853e-02 -6.3038961023343898e-01 9.5169623130966841e-01 1.3852183967068683e+00 1.1583559751060850e+00 2.7003368626239421e-02 2.2597338216638702e-02 2.1811931114622207e-02 1.9187473561964194e-02 1.3668669112327336e-02 1.6057870341218583e-02 -3.3741037500749638e-02 4.7650175691176258e-02 1.0128973683519457e-01 3.6454875508445383e-01 -3.6322615689974957e-01 3.0944548509704639e-01 1.7845198043717336e-01 7.7582076783748732e-03 1.0967918965878809e-01 -1.3150892541498393e+00 6.0470089410944627e-01 1.3188399683039260e+00 -4.8664648662255861e-01 2.9230056496655168e+00 1.5187163451702375e+00 -1.4162607739743414e+00 1.5474389238013042e-01 -1.2786169614559082e+00 9.8038551774366711e-01 4.0764308070061208e+00 3.0291308616137647e+00 -3.1350801735177565e+00 
      </Row>
      <Row Index="45">
        -6.2227875776034693e+00 -3.7306657703075188e+00 1.1549516947018365e+01 -3.3456267607209078e-01 6.3355721994986425e-01 -6.6952657319843922e-01 -4.3969998460313604e+01 -1.5718569576923755e+00 -2.7568770437542085e+00 -1.0770346153122148e+00 2.0442708697762484e+00 3.9446611005779104e+00 3.8439468108450114e-02 -4.1237552758089180e-01 9.2002545862335250e-02 -1.6576203490679937e+01 -9.7446381322896514e-01 1.2210231785393617e+00 2.9389426664169171e-01 -9.7684623095303957e-01 3.3281094046047510e-01 6.0512284126061644e-01 -3.4324993473254040e-01 1.1638898924230556e+00 -6.1466051352701925e+00 -1.8926935520424024e+00 -9.2385551724457216e-01 -1.3473451552800420e-01 2.5689998447325113e-02 3.7588702437290289e-02 -3.5939900268910530e-02 2.5615418935501566e-02 -1.2645431733643409e-02 -3.2583821563391702e-01 -4.4283004225075689e-01 -1.6170627412369126e-01 -4.6769364758927487e+00 -7.5580360674066305e-01 3.3103757791339041e+00 -2.3769121868888554e-01 -8.8977536923991352e-02 -1.8939503335618357e-01 1.7948569255174789e+00 -1.9300916381420038e+01 -4.8664648649945264e-01 6.4024794728955943e+00 1.1153805798140226e-01 1.9412659252366772e+01 1.9523115122073271e+00 6.5182332317296643e-01 1.5340031882043750e+00 -1.4796941908441923e+01 3.4324786362185327e+00 -3.1565005692109103e+00 2.5441140304469073e+01 
      </Row>
      <Row Index="46">
        -2.1770241823365286e-01 2.1674509278615881e+00 2.7001001621859149e+00 9.0271612572132531e-01 -1.2251972886228497e+00 6.7847248254223369e-01 -3.8463995508646898e+00 -1.6788130392196865e+00 8.8628694254509082e+00 2.2979707789052234e-01 -1.3264807888358439e+00 4.7002128933134052e-01 -1.8838897409216659e-01 -1.0200454958581970e+00 -6.9255795636400446e-03 -1.4957101107973569e+00 -1.1734323457203150e-01 -3.5995156697711681e+00 9.2647712297945412e-02 9.1208124530702284e-01 3.8241906243037344e-01 -1.3621200469754373e+00 -1.6780365089915295e-01 -1.5140440059140108e+00 7.8517666468374869e-01 2.2207707553200473e+00 2.6411672570495255e+00 2.8072355628858639e-02 6.8947339859792039e-02 4.3633657143016015e-02 4.5469048889377174e-02 6.8752741905569681e-02 4.1358495151532719e-02 -1.5721768793662177e-01 -1.3212616547599558e-02 2.0922743878960728e-01 -1.2223055378564762e-01 -9.9289698223239997e-01 2.2746370293661538e+00 4.5576487821248968e-01 3.5431057512826092e-01 2.3576349006224695e-01 5.2064419298032072e-01 -2.6459837809414655e+00 2.9230056497139447e+00 1.1153805770711794e-01 7.6082089602653715e+00 7.5487475556595651e+00 -3.4441371328132089e+00 1.3149399872646088e+00 -3.1468440699605944e+00 -2.4312488504952876e+00 9.4174745387656973e+00 6.8129630601988778e+00 -7.2527155973163046e-02 
      </Row>
      <Row Index="47">
        -1.2351981807499527e+01 -8.3332006831186884e+00 1.6077510926404500e+02 -2.6097876801777957e+00 -1.0837594750318885e+01 1.0309831962935334e+00 1.2434054174520952e+01 -2.2273343638267349e+02 -6.2139118166720664e-01 1.1730727836978474e+00 4.8897634101652869e+00 5.2298729202812076e+01 -9.9201705361792847e-01 -1.6743645268480577e+01 1.3365402432682814e+00 3.6318423385700896e+01 -8.2375086978733066e+01 1.4160891867717851e+00 2.9854809404191087e+00 -1.7644071609601615e+00 1.5575604628611966e+01 4.5815262125213465e+00 -8.8958687182991980e-01 1.5084309724098830e+00 1.1361148768673570e+02 1.3232997632435823e+02 -8.6411212681835536e-01 1.0565896418238196e-01 1.6266254907753552e-01 3.6079842722436286e+00 -9.2004728479125220e-02 1.1774145258825683e+00 -2.6708782892175797e-01 -4.0707584230484599e+00 -4.0274251363879303e+00 -3.1477368970381492e-01 -9.1409683776018937e+00 -3.9053255301467100e+00 9.7972401203274842e+01 -6.5599477569780618e-01 3.0664136642200219e+00 -6.8360028583611321e-01 -3.5830136275736072e+02 -4.3311881458273717e+02 1.5187163445316685e+00 1.9412659234169482e+01 7.5487475486120985e+00 5.6960329206416702e+02 9.7281823670994498e+00 2.2425038622501358e+01 1.1298269803887976e+01 -1.6923862261522413e+02 6.0009407979053776e+02 -3.1941761406688487e+00 1.1613871039324587e+02 
      </Row>
      <Row Index="48">
        -1.9419720889679688e+00 -9.2563002833648689e-01 5.8010535911516534e+00 -2.6864181019470223e+01 -9.6889799304051394e-02 -1.1607740822538050e+01 -3.7067104805237420e+01 -1.5536760838630173e+00 -4.0657594674156421e+00 6.5501874104072044e-02 6.2946125988124990e-01 2.2353257536437723e+00 2.9311537878443090e+00 1.1874236434496055e-01 1.8690564048305052e+00 -1.2916844276794601e+01 -1.6193499833965248e+00 1.7701109114087750e+00 6.5075689761724131e-01 -1.1180619297455625e+00 -1.4881018040765381e-01 4.3917025277337117e+01 -2.3550886984955355e-01 2.6144956478278615e+01 4.4045064369909142e+00 4.7819678192090933e+00 -7.3228396680370267e-01 -1.9329037463666765e-02 -1.9067761006009487e-02 -1.0052974489948019e-01 -1.4339144464997780e+00 4.5924056333248586e-02 -8.7804717372560970e-01 8.2117257733817972e-01 -5.7371089089241534e-01 -6.2596154332694859e-02 -1.1949041386581776e+00 8.0757571072455736e-01 1.4933361538791339e+00 -9.5349732041011261e+00 -3.4047422509223679e-01 -7.2258596577008962e+00 4.0069327671494648e-01 2.5617829880355458e-01 -1.4162607737648969e+00 1.9523115077093021e+00 -3.4441371335302904e+00 9.7281823063276303e+00 8.7850010791697287e+01 -1.4448334351734760e-02 8.6659185788871980e+01 -2.7098349293828413e+01 1.9101964050723431e+01 -3.2442842452782306e+00 1.6415975948577202e+01 
      </Row>
      <Row Index="49">
        -4.3044247802422575e-01 -1.6451607905986785e+00 6.1409294391019635e+00 -8.5938803545326792e-02 -4.7877588391646952e+00 1.8858431644955687e-01 -4.0430545215240784e+01 -1.2620741808159632e+01 -2.2559815821968954e-01 3.0914451115798158e-02 8.4140680102850851e-01 1.8531877376015857e+00 4.4319920674659841e-02 -4.9897842581868517e+00 -7.9228037918743555e-02 -1.6336161032262481e+01 -3.0498636946690780e+00 1.9038995756995902e-01 -1.3087598706982462e-01 -3.6790784031764401e-01 -8.1625747454992092e-01 1.9578410239254840e-01 -8.4446876613179711e-01 -3.6003961212909097e-01 2.1490794400469042e+00 1.0183148513921196e+00 -9.6756559967527522e-02 -6.0604467035712872e-02 2.8337789450708639e-02 1.0700676369890250e-03 -4.0770072907827526e-03 2.0586212718545482e-01 6.4553251769213782e-03 -1.9536556044237940e-01 -5.1015242896744906e-01 -5.7576020266899341e-02 -6.7233155876923689e-02 -7.3964350373354826e-01 9.1118592941764422e+00 7.4720741856221018e-02 1.8834164387182852e+00 -5.0211765275196552e-02 2.6683624545840644e+01 -1.9070593923254467e+01 1.5474389249539300e-01 6.5182332247974983e-01 1.3149399873270013e+00 2.2425038629913828e+01 -1.4448330315322111e-02 6.3297320126449694e+00 2.4010172124941143e-01 -1.8531453621026934e+01 1.6887114029857063e+01 -5.7727065590460613e-01 1.8049256989588091e+01 
      </Row>
      <Row Index="50">
        -1.4848607924846142e+00 -8.9102279669616635e-01 5.8098538558591342e+00 -2.6668212566178770e+01 -2.6093929928526904e-01 -1.1198356796137347e+01 -3.6874293887325337e+01 -2.0110818493854872e+00 -3.7565615401001455e+00 1.3899644918249265e-01 5.9785202192680487e-01 2.2567317575484722e+00 2.9115520924870850e+00 -5.5699489752306874e-02 1.8135648799142299e+00 -1.3545855485221558e+01 -1.4005894180113501e+00 1.6304861715025716e+00 6.3867934119263925e-01 -1.0942003834999248e+00 -3.2805777597517016e-02 4.3539495611529873e+01 -1.8998290597561152e-01 2.5463318597348973e+01 5.6110299015636258e+00 6.5510276223419694e+00 -6.5967752621101639e-01 -1.0077069527012483e-02 -1.9715460497565895e-02 -9.1369174168420164e-02 -1.4134461626397876e+00 5.9661308669163304e-02 -8.6852052369086108e-01 8.4507980698228558e-01 -5.5717378422690178e-01 -5.3366169075660552e-02 -8.5227201485188431e-01 6.9558642018558192e-01 2.0483236847551032e+00 -9.3811754832173921e+00 -2.6784741968829451e-01 -7.1219025734985948e+00 2.7489568420909904e-01 1.3945796847627960e+00 -1.2786169612494938e+00 1.5340031836210812e+00 -3.1468440707141152e+00 1.1298269743074371e+01 8.6659185789126198e+01 2.4010171716302325e-01 8.5679612830035524e+01 -2.9380767307926639e+01 2.4662913098236480e+01 -2.9923933130648983e+00 1.5015910963462979e+01 
      </Row>
      <Row Index="51">
        1.1271489303480735e+01 2.0896842559157534e+01 -6.4026981104213291e+01 8.7445855402167751e+00 2.3149069874662018e+00 1.0770713591998629e+00 7.2033307814272666e+02 1.2964216510760002e+02 1.1677746014408285e+01 2.5603488517336928e+00 -1.0357780157635261e+01 -2.5833095466157616e+01 -1.4965260013966599e+00 1.0574655856328263e+01 5.9827628727897064e-01 3.3832220616684015e+02 3.9393821560303422e+01 -5.3554119124812587e+00 7.8109071155000720e-01 6.1212870583250947e+00 1.5410051850521526e+01 -1.3854663699322870e+01 1.3101803308973103e+00 -5.6050807582144699e+00 -3.8730258757560478e+01 -1.4901813037243983e+01 3.9958579782773995e+00 6.6552085731632360e-01 -1.4934529608082769e-01 5.0332766815161989e-01 4.8014269225854633e-01 -7.5541649291062640e-01 1.6645706540384175e-01 -4.1900017892911023e+00 4.9438606779495915e+00 9.8413183462414722e-01 6.2235888107837809e+00 5.6966616810412063e+00 -5.7599772060313278e+01 2.4017423692460653e+00 -4.4282830302926186e+00 2.4235338130736466e+00 -2.1362892972150894e+02 2.3404288766332331e+02 9.8038551463389467e-01 -1.4796941907607902e+01 -2.4312488572132906e+00 -1.6923862288329235e+02 -2.7098349377458081e+01 -1.8531453630382622e+01 -2.9380767392840028e+01 4.7961971096146738e+02 -1.8018325461857222e+02 1.4623534327655978e+01 -4.4126653518372655e+02 
      </Row>
      <Row Index="52">
        4.7048750584367838e+00 7.9495460386463890e-01 1.5457739746598625e+02 -7.5658601537342456e+00 -9.3368120625539177e+00 4.7597928786871222e+00 2.1073973371031889e+02 -1.9027406329852113e+02 8.2839878490568069e+00 4.6409914978985967e+00 4.0919974576251406e-01 5.0396888766803272e+01 -7.8706893464325844e-01 -1.2290997160835758e+01 1.2903508281249616e+00 1.0880238867620844e+02 -6.6109576828413594e+01 -2.8871352242588983e+00 4.1524181635458639e+00 7.3539948069874828e-01 2.6691069214510541e+01 1.1445550628164952e+01 1.7400713617124097e+00 -7.5915473457718363e-01 1.8326440361341577e+02 2.2438333453109618e+02 1.3673146703966950e+00 7.1658601673689049e-01 3.7115661290016533e-02 4.3160449291275507e+00 -2.1047143170087912e-01 1.1033745316092336e+00 -4.6893905119997958e-01 -2.8785442108717163e+00 -1.7125946682374444e+00 2.2788730379911493e-01 2.4619317992317065e+00 -3.1776860669139566e+00 9.3739187800758785e+01 -1.2963792293975480e+00 7.5802062593353980e-01 -1.1222394542161753e+00 -4.8004704439221450e+02 -2.8964793203419964e+02 4.0764308054188092e+00 3.4324786113721046e+00 9.4174745274638383e+00 6.0009407967558252e+02 1.9101964102094048e+01 1.6887114014893093e+01 2.4662913149097136e+01 -1.8018325423485891e+02 8.5650779190459082e+02 6.0099668566445210e+00 -7.1007332419012684e+01 
      </Row>
      <Row Index="53">
        2.7097569654938738e+00 5.4321592529443876e+00 -3.4652842854681332e+00 8.7800292580629957e-01 -6.3084931853870785e-01 6.3541647048697669e-01 3.7475461453582852e+01 7.8660874357778710e-01 1.0610121651991381e+01 9.5651135653564978e-01 -3.1196416765968298e+00 -1.3595342105165527e+00 -2.0835846874536657e-01 3.1382177477983930e-01 2.7693483877109459e-02 1.6390141967200357e+01 6.0728252601597177e-01 -4.3398040648622249e+00 4.0458108011633520e-02 1.7226490843805347e+00 7.4038509284481391e-01 -1.3808456445380823e+00 1.1441756319352692e-01 -1.3161839984470727e+00 4.1637698788311184e+00 3.5463844942928375e+00 3.2879573329207368e+00 1.2146658373610819e-01 5.1273749873829821e-02 7.4550756402710472e-02 4.8703019797858571e-02 -1.0300190499918926e-02 3.0296694274946856e-02 -4.6451595215055264e-02 3.2331405124245371e-01 3.2241642358729267e-01 2.0568614411966557e+00 -2.1776140185118642e-02 -1.7786507470360946e+00 3.7532961322320002e-01 -1.7605919748184817e-01 2.8124149822096878e-01 -1.2311656261280291e+01 8.0848109911364503e+00 3.0291308615228445e+00 -3.1565005695325485e+00 6.8129630598703450e+00 -3.1941761489357461e+00 -3.2442842482819989e+00 -5.7727065656193655e-01 -2.9923933161084664e+00 1.4623534335982196e+01 6.0099668470680037e+00 9.0303891265957859e+00 -2.0902363867993063e+01 
      </Row>
      <Row Index="54">
        -2.3076700316044480e+01 -2.6071132992048248e+01 5.8967750254842315e+01 -3.5613346841373641e+00 -1.5636260972632954e-01 -4.2411602088928930e+00 -8.3507540650936789e+02 -1.5067376506996220e+02 -1.8188774572978616e+01 -5.2616520966255393e+00 1.2896180095092973e+01 2.3707916409953967e+01 1.1842059139889898e+00 -1.0371169089497471e+01 -5.1134574067221905e-01 -3.7756943304109006e+02 -5.2812886634049164e+01 8.4336374376139247e+00 -1.9359679203645044e+00 -7.5884568868920415e+00 -2.5021453705947465e+01 6.5467967979044488e+00 -2.8421613831624200e+00 7.0923020656031213e+00 -2.3726438501792472e+01 -6.9561429094489313e+01 -5.4823645498274800e+00 -1.0971543586382495e+00 2.2664943939633986e-01 -1.1310835486923025e+00 -3.3308958258522381e-01 6.5681770476567181e-01 3.1074858316308962e-02 3.3270882257848484e+00 -6.3991621612044032e+00 -1.3395935268528962e+00 -1.4299213941785069e+01 -5.4763363936260987e+00 5.2786379748360815e+01 -1.6257043252896324e+00 5.1730955154487219e+00 -1.7973931965788488e+00 2.9407737118118894e+02 -3.4652133033759151e+02 -3.1350801697317365e+00 2.5441140310257651e+01 -7.2527145638332513e-02 1.1613871074982217e+02 1.6415976034875413e+01 1.8049257005460799e+01 1.5015911051460677e+01 -4.4126653529678032e+02 -7.1007331956822526e+01 -2.0902363861644961e+01 5.8384235595466669e+02 
      </Row>
    </InverseHessian>
  </Weights>
</MethodSetup>
