<?xml version="1.0"?>
<MethodSetup Method="BDT::BDTG">
  <GeneralInfo>
    <Info name="TMVA Release" value="4.1.2 [262402]"/>
    <Info name="ROOT Release" value="5.32/04 [335876]"/>
    <Info name="Creator" value="brianpollack"/>
    <Info name="Date" value="Sat May 24 14:34:48 2014"/>
    <Info name="Host" value="Darwin pb-d-128-141-108-211.cern.ch 11.4.2 Darwin Kernel Version 11.4.2: Thu Aug 23 16:25:48 PDT 2012; root:xnu-1699.32.7~1/RELEASE_X86_64 x86_64"/>
    <Info name="Dir" value="/Users/brianpollack/HZG_Analyzer/mva"/>
    <Info name="Training events" value="13044"/>
    <Info name="TrainingTime" value="1.13949389e+01"/>
    <Info name="AnalysisType" value="Classification"/>
  </GeneralInfo>
  <Options>
    <Option name="V" modified="Yes">False</Option>
    <Option name="VerbosityLevel" modified="No">Default</Option>
    <Option name="VarTransform" modified="No">None</Option>
    <Option name="H" modified="Yes">False</Option>
    <Option name="CreateMVAPdfs" modified="No">False</Option>
    <Option name="IgnoreNegWeightsInTraining" modified="No">False</Option>
    <Option name="NTrees" modified="Yes">1200</Option>
    <Option name="RenormByClass" modified="No">False</Option>
    <Option name="BoostType" modified="Yes">Grad</Option>
    <Option name="AdaBoostR2Loss" modified="No">quadratic</Option>
    <Option name="UseBaggedGrad" modified="Yes">True</Option>
    <Option name="GradBaggingFraction" modified="Yes">7.000000e-01</Option>
    <Option name="Shrinkage" modified="Yes">1.000000e-01</Option>
    <Option name="AdaBoostBeta" modified="No">1.000000e+00</Option>
    <Option name="UseRandomisedTrees" modified="No">False</Option>
    <Option name="UseNvars" modified="No">2</Option>
    <Option name="UsePoissonNvars" modified="No">True</Option>
    <Option name="UseNTrainEvents" modified="No">13044</Option>
    <Option name="UseWeightedTrees" modified="No">True</Option>
    <Option name="UseYesNoLeaf" modified="No">True</Option>
    <Option name="NodePurityLimit" modified="No">5.000000e-01</Option>
    <Option name="SeparationType" modified="No">giniindex</Option>
    <Option name="nEventsMin" modified="Yes">100</Option>
    <Option name="nCuts" modified="Yes">5000</Option>
    <Option name="UseFisherCuts" modified="No">False</Option>
    <Option name="MinLinCorrForFisher" modified="No">8.000000e-01</Option>
    <Option name="UseExclusiveVars" modified="No">False</Option>
    <Option name="PruneStrength" modified="No">0.000000e+00</Option>
    <Option name="PruneMethod" modified="No">nopruning</Option>
    <Option name="PruneBeforeBoost" modified="No">False</Option>
    <Option name="PruningValFraction" modified="No">5.000000e-01</Option>
    <Option name="NNodesMax" modified="Yes">4</Option>
    <Option name="MaxDepth" modified="No">3</Option>
    <Option name="DoBoostMonitor" modified="No">False</Option>
    <Option name="NegWeightTreatment" modified="Yes">ignorenegweights</Option>
  </Options>
  <Variables NVar="2">
    <Variable VarIndex="0" Expression="GEta" Label="GEta" Title="#eta_{#gamma}" Unit="" Internal="GEta" Type="F" Min="-2.51608276e+00" Max="2.52249050e+00"/>
    <Variable VarIndex="1" Expression="l1Eta" Label="l1Eta" Title="#eta_{l1}" Unit="" Internal="l1Eta" Type="F" Min="-2.52269697e+00" Max="2.51828051e+00"/>
  </Variables>
  <Spectators NSpec="1">
    <Spectator SpecIndex="0" Expression="threeBodyMass" Label="threeBodyMass" Title="m_{ll#gamma}" Unit="GeV" Internal="threeBodyMass" Type="F" Min="1.00008141e+02" Max="1.89985962e+02"/>
  </Spectators>
  <Classes NClass="2">
    <Class Name="Signal" Index="0"/>
    <Class Name="Background" Index="1"/>
  </Classes>
  <Transformations NTransformations="0"/>
  <MVAPdfs/>
  <Weights NTrees="1200" AnalysisType="1">
    <BinaryTree type="DecisionTree" boostWeight="1.0000000000000000e+00" itree="0">
      <Node pos="s" depth="0" NCoef="0" IVar="1" Cut="-1.6165105104446411e+00" cType="0" res="-1.5175543725490570e-01" rms="4.7641399502754211e-01" purity="3.4824454784393311e-01" nType="0">
        <Node pos="l" depth="1" NCoef="0" IVar="-1" Cut="0.0000000000000000e+00" cType="1" res="-5.8339494280517101e-03" rms="4.8051741719245911e-01" purity="3.6178627610206604e-01" nType="-99"/>
        <Node pos="r" depth="1" NCoef="0" IVar="1" Cut="-2.2983846664428711e+00" cType="0" res="-2.6308828592300415e-01" rms="4.2518767714500427e-01" purity="2.3691172897815704e-01" nType="0">
          <Node pos="l" depth="2" NCoef="0" IVar="-1" Cut="0.0000000000000000e+00" cType="1" res="-8.6375037208199501e-03" rms="4.3968299031257629e-01" purity="2.6192680001258850e-01" nType="-99"/>
          <Node pos="r" depth="2" NCoef="0" IVar="-1" Cut="0.0000000000000000e+00" cType="1" res="-1.1814094148576260e-02" rms="3.1478542089462280e-01" purity="1.1152847111225128e-01" nType="-99"/>
        </Node>
      </Node>
    </BinaryTree>
    <BinaryTree type="DecisionTree" boostWeight="1.0000000000000000e+00" itree="1">
      <Node pos="s" depth="0" NCoef="0" IVar="1" Cut="-1.2062569856643677e+00" cType="0" res="-1.4084102213382721e-01" rms="4.7879046201705933e-01" purity="3.5606619715690613e-01" nType="0">
        <Node pos="l" depth="1" NCoef="0" IVar="-1" Cut="0.0000000000000000e+00" cType="1" res="-4.8650000244379044e-03" rms="4.8442605137825012e-01" purity="3.7617993354797363e-01" nType="-99"/>
        <Node pos="r" depth="1" NCoef="0" IVar="0" Cut="1.9794425368309021e-01" cType="1" res="-2.2928468883037567e-01" rms="4.4223862886428833e-01" purity="2.6684248447418213e-01" nType="0">
          <Node pos="l" depth="2" NCoef="0" IVar="-1" Cut="0.0000000000000000e+00" cType="1" res="-7.9865353181958199e-03" rms="4.5116895437240601e-01" purity="2.8468388319015503e-01" nType="-99"/>
          <Node pos="r" depth="2" NCoef="0" IVar="-1" Cut="0.0000000000000000e+00" cType="1" res="-7.9684667289257050e-03" rms="2.9795187711715698e-01" purity="9.8493538796901703e-02" nType="-99"/>
        </Node>
      </Node>
    </BinaryTree>
    <BinaryTree type="DecisionTree" boostWeight="1.0000000000000000e+00" itree="2">
      <Node pos="s" depth="0" NCoef="0" IVar="0" Cut="1.4150072336196899e+00" cType="1" res="-1.4565120637416840e-01" rms="4.7643437981605530e-01" purity="3.4854516386985779e-01" nType="0">
        <Node pos="l" depth="1" NCoef="0" IVar="-1" Cut="0.0000000000000000e+00" cType="1" res="-5.5534271523356438e-03" rms="4.8119571805000305e-01" purity="3.6452835798263550e-01" nType="-99"/>
        <Node pos="r" depth="1" NCoef="0" IVar="1" Cut="8.7563955783843994e-01" cType="0" res="-2.5175687670707703e-01" rms="4.2881879210472107e-01" purity="2.4288296699523926e-01" nType="0">
          <Node pos="l" depth="2" NCoef="0" IVar="-1" Cut="0.0000000000000000e+00" cType="1" res="-9.1755595058202744e-03" rms="4.6276149153709412e-01" purity="3.1065431237220764e-01" nType="-99"/>
          <Node pos="r" depth="2" NCoef="0" IVar="-1" Cut="0.0000000000000000e+00" cType="1" res="-1.0946132242679596e-02" rms="3.4576910734176636e-01" purity="1.3884058594703674e-01" nType="-99"/>
        </Node>
      </Node>
    </BinaryTree>
    <BinaryTree type="DecisionTree" boostWeight="1.0000000000000000e+00" itree="3">
      <Node pos="s" depth="0" NCoef="0" IVar="1" Cut="1.9487936496734619e+00" cType="1" res="-1.4746305346488953e-01" rms="4.7475168108940125e-01" purity="3.4365835785865784e-01" nType="0">
        <Node pos="l" depth="1" NCoef="0" IVar="-1" Cut="0.0000000000000000e+00" cType="1" res="-4.9214069731533527e-03" rms="4.7887265682220459e-01" purity="3.5682770609855652e-01" nType="-99"/>
        <Node pos="r" depth="1" NCoef="0" IVar="0" Cut="6.7165911197662354e-01" cType="0" res="-3.2442221045494080e-01" rms="3.7273478507995605e-01" purity="1.6667562723159790e-01" nType="0">
          <Node pos="l" depth="2" NCoef="0" IVar="-1" Cut="0.0000000000000000e+00" cType="1" res="-1.1697070673108101e-02" rms="4.0033578872680664e-01" purity="2.0048724114894867e-01" nType="-99"/>
          <Node pos="r" depth="2" NCoef="0" IVar="-1" Cut="0.0000000000000000e+00" cType="1" res="-9.6592400223016739e-03" rms="2.8182211518287659e-01" purity="8.6991176009178162e-02" nType="-99"/>
        </Node>
      </Node>
    </BinaryTree>
    <BinaryTree type="DecisionTree" boostWeight="1.0000000000000000e+00" itree="4">
      <Node pos="s" depth="0" NCoef="0" IVar="1" Cut="-1.6185264587402344e+00" cType="0" res="-1.3917031884193420e-01" rms="4.7657063603401184e-01" purity="3.4933137893676758e-01" nType="0">
        <Node pos="l" depth="1" NCoef="0" IVar="-1" Cut="0.0000000000000000e+00" cType="1" res="-4.7195139341056347e-03" rms="4.8067507147789001e-01" purity="3.6278522014617920e-01" nType="-99"/>
        <Node pos="r" depth="1" NCoef="0" IVar="0" Cut="-5.8133327960968018e-01" cType="1" res="-2.5067374110221863e-01" rms="4.2422607541084290e-01" purity="2.3547516763210297e-01" nType="0">
          <Node pos="l" depth="2" NCoef="0" IVar="-1" Cut="0.0000000000000000e+00" cType="1" res="-9.8372297361493111e-03" rms="4.4329223036766052e-01" purity="2.6888734102249146e-01" nType="-99"/>
          <Node pos="r" depth="2" NCoef="0" IVar="-1" Cut="0.0000000000000000e+00" cType="1" res="-8.4843272343277931e-03" rms="3.4590661525726318e-01" purity="1.3899327814579010e-01" nType="-99"/>
        </Node>
      </Node>
    </BinaryTree>
    <BinaryTree type="DecisionTree" boostWeight="1.0000000000000000e+00" itree="5">
      <Node pos="s" depth="0" NCoef="0" IVar="0" Cut="1.4202711582183838e+00" cType="1" res="-1.3925388455390930e-01" rms="4.7562599182128906e-01" purity="3.4659847617149353e-01" nType="0">
        <Node pos="l" depth="1" NCoef="0" IVar="-1" Cut="0.0000000000000000e+00" cType="1" res="-5.3628752939403057e-03" rms="4.8076209425926208e-01" purity="3.6342576146125793e-01" nType="-99"/>
        <Node pos="r" depth="1" NCoef="0" IVar="1" Cut="9.0204417705535889e-01" cType="0" res="-2.4745289981365204e-01" rms="4.2503568530082703e-01" purity="2.3675669729709625e-01" nType="0">
          <Node pos="l" depth="2" NCoef="0" IVar="-1" Cut="0.0000000000000000e+00" cType="1" res="-9.7958436235785484e-03" rms="4.4842663407325745e-01" purity="2.7905899286270142e-01" nType="-99"/>
          <Node pos="r" depth="2" NCoef="0" IVar="-1" Cut="0.0000000000000000e+00" cType="1" res="-1.0576006025075912e-02" rms="3.7082073092460632e-01" purity="1.6460515558719635e-01" nType="-99"/>
        </Node>
      </Node>
    </BinaryTree>
    <BinaryTree type="DecisionTree" boostWeight="1.0000000000000000e+00" itree="6">
      <Node pos="s" depth="0" NCoef="0" IVar="1" Cut="-1.6251649856567383e+00" cType="0" res="-1.3140404224395752e-01" rms="4.7715103626251221e-01" purity="3.5151961445808411e-01" nType="0">
        <Node pos="l" depth="1" NCoef="0" IVar="-1" Cut="0.0000000000000000e+00" cType="1" res="-5.5671641603112221e-03" rms="4.8115235567092896e-01" purity="3.6472868919372559e-01" nType="-99"/>
        <Node pos="r" depth="1" NCoef="0" IVar="0" Cut="-1.9999946653842926e-01" cType="1" res="-2.4059060215950012e-01" rms="4.2598986625671387e-01" purity="2.3820522427558899e-01" nType="0">
          <Node pos="l" depth="2" NCoef="0" IVar="-1" Cut="0.0000000000000000e+00" cType="1" res="-9.2377848923206329e-03" rms="4.3832999467849731e-01" purity="2.5951245427131653e-01" nType="-99"/>
          <Node pos="r" depth="2" NCoef="0" IVar="-1" Cut="0.0000000000000000e+00" cType="1" res="-7.5969924218952656e-03" rms="3.3032640814781189e-01" purity="1.2464293837547302e-01" nType="-99"/>
        </Node>
      </Node>
    </BinaryTree>
    <BinaryTree type="DecisionTree" boostWeight="1.0000000000000000e+00" itree="7">
      <Node pos="s" depth="0" NCoef="0" IVar="1" Cut="-1.1921449899673462e+00" cType="0" res="-1.3502261042594910e-01" rms="4.7503685951232910e-01" purity="3.4496450424194336e-01" nType="0">
        <Node pos="l" depth="1" NCoef="0" IVar="-1" Cut="0.0000000000000000e+00" cType="1" res="-4.4008027762174606e-03" rms="4.8081955313682556e-01" purity="3.6353507637977600e-01" nType="-99"/>
        <Node pos="r" depth="1" NCoef="0" IVar="0" Cut="-1.1065836064517498e-02" cType="1" res="-2.1324265003204346e-01" rms="4.4034862518310547e-01" purity="2.6352632045745850e-01" nType="0">
          <Node pos="l" depth="2" NCoef="0" IVar="-1" Cut="0.0000000000000000e+00" cType="1" res="-7.0639639161527157e-03" rms="4.5043650269508362e-01" purity="2.8349888324737549e-01" nType="-99"/>
          <Node pos="r" depth="2" NCoef="0" IVar="-1" Cut="0.0000000000000000e+00" cType="1" res="-8.4188384935259819e-03" rms="3.4959959983825684e-01" purity="1.4276729524135590e-01" nType="-99"/>
        </Node>
      </Node>
    </BinaryTree>
    <BinaryTree type="DecisionTree" boostWeight="1.0000000000000000e+00" itree="8">
      <Node pos="s" depth="0" NCoef="0" IVar="1" Cut="-1.6759821176528931e+00" cType="0" res="-1.2311420589685440e-01" rms="4.7792172431945801e-01" purity="3.5436940193176270e-01" nType="0">
        <Node pos="l" depth="1" NCoef="0" IVar="-1" Cut="0.0000000000000000e+00" cType="1" res="-4.2712660506367683e-03" rms="4.8221284151077271e-01" purity="3.6861318349838257e-01" nType="-99"/>
        <Node pos="r" depth="1" NCoef="0" IVar="1" Cut="-2.2984285354614258e+00" cType="0" res="-2.4801966547966003e-01" rms="4.1593196988105774e-01" purity="2.2257407009601593e-01" nType="0">
          <Node pos="l" depth="2" NCoef="0" IVar="-1" Cut="0.0000000000000000e+00" cType="1" res="-8.6686899885535240e-03" rms="4.2624318599700928e-01" purity="2.3862484097480774e-01" nType="-99"/>
          <Node pos="r" depth="2" NCoef="0" IVar="-1" Cut="0.0000000000000000e+00" cType="1" res="-1.1985288932919502e-02" rms="3.5684245824813843e-01" purity="1.4972451329231262e-01" nType="-99"/>
        </Node>
      </Node>
    </BinaryTree>
    <BinaryTree type="DecisionTree" boostWeight="1.0000000000000000e+00" itree="9">
      <Node pos="s" depth="0" NCoef="0" IVar="1" Cut="-1.6255824565887451e+00" cType="0" res="-1.2463831901550293e-01" rms="4.7663274407386780e-01" purity="3.5044834017753601e-01" nType="0">
        <Node pos="l" depth="1" NCoef="0" IVar="-1" Cut="0.0000000000000000e+00" cType="1" res="-4.2557436972856522e-03" rms="4.8161089420318604e-01" purity="3.6639824509620667e-01" nType="-99"/>
        <Node pos="r" depth="1" NCoef="0" IVar="0" Cut="-9.6175014972686768e-01" cType="1" res="-2.4284461140632629e-01" rms="4.1650781035423279e-01" purity="2.2348582744598389e-01" nType="0">
          <Node pos="l" depth="2" NCoef="0" IVar="-1" Cut="0.0000000000000000e+00" cType="1" res="-8.2915332168340683e-03" rms="4.3961909413337708e-01" purity="2.6221296191215515e-01" nType="-99"/>
          <Node pos="r" depth="2" NCoef="0" IVar="-1" Cut="0.0000000000000000e+00" cType="1" res="-7.8003928065299988e-03" rms="3.6994162201881409e-01" purity="1.6363370418548584e-01" nType="-99"/>
        </Node>
      </Node>
    </BinaryTree>
    <BinaryTree type="DecisionTree" boostWeight="1.0000000000000000e+00" itree="10">
      <Node pos="s" depth="0" NCoef="0" IVar="1" Cut="-1.7400251626968384e+00" cType="0" res="-1.2128408253192902e-01" rms="4.7689139842987061e-01" purity="3.5147657990455627e-01" nType="0">
        <Node pos="l" depth="1" NCoef="0" IVar="-1" Cut="0.0000000000000000e+00" cType="1" res="-4.2677363380789757e-03" rms="4.8123407363891602e-01" purity="3.6521783471107483e-01" nType="-99"/>
        <Node pos="r" depth="1" NCoef="0" IVar="0" Cut="-8.2982558012008667e-01" cType="1" res="-2.5375756621360779e-01" rms="4.0595182776451111e-01" purity="2.0815783739089966e-01" nType="0">
          <Node pos="l" depth="2" NCoef="0" IVar="-1" Cut="0.0000000000000000e+00" cType="1" res="-9.2267608270049095e-03" rms="4.2120844125747681e-01" purity="2.3079058527946472e-01" nType="-99"/>
          <Node pos="r" depth="2" NCoef="0" IVar="-1" Cut="0.0000000000000000e+00" cType="1" res="-1.0439710691571236e-02" rms="3.6226528882980347e-01" purity="1.5534703433513641e-01" nType="-99"/>
        </Node>
      </Node>
    </BinaryTree>
    <BinaryTree type="DecisionTree" boostWeight="1.0000000000000000e+00" itree="11">
      <Node pos="s" depth="0" NCoef="0" IVar="1" Cut="1.8600604534149170e+00" cType="1" res="-1.1805053055286407e-01" rms="4.7728228569030762e-01" purity="3.5251176357269287e-01" nType="0">
        <Node pos="l" depth="1" NCoef="0" IVar="-1" Cut="0.0000000000000000e+00" cType="1" res="-4.1438117623329163e-03" rms="4.8050233721733093e-01" purity="3.6340555548667908e-01" nType="-99"/>
        <Node pos="r" depth="1" NCoef="0" IVar="0" Cut="1.4677982330322266e+00" cType="0" res="-2.4261459708213806e-01" rms="4.1852554678916931e-01" purity="2.2612451016902924e-01" nType="0">
          <Node pos="l" depth="2" NCoef="0" IVar="-1" Cut="0.0000000000000000e+00" cType="1" res="-7.7621848322451115e-03" rms="4.6156367659568787e-01" purity="3.0821958184242249e-01" nType="-99"/>
          <Node pos="r" depth="2" NCoef="0" IVar="-1" Cut="0.0000000000000000e+00" cType="1" res="-1.0114599950611591e-02" rms="3.7988367676734924e-01" purity="1.7498612403869629e-01" nType="-99"/>
        </Node>
      </Node>
    </BinaryTree>
    <BinaryTree type="DecisionTree" boostWeight="1.0000000000000000e+00" itree="12">
      <Node pos="s" depth="0" NCoef="0" IVar="1" Cut="1.8600604534149170e+00" cType="1" res="-1.1542741954326630e-01" rms="4.7717070579528809e-01" purity="3.5269477963447571e-01" nType="0">
        <Node pos="l" depth="1" NCoef="0" IVar="-1" Cut="0.0000000000000000e+00" cType="1" res="-4.1552851907908916e-03" rms="4.8114553093910217e-01" purity="3.6605077981948853e-01" nType="-99"/>
        <Node pos="r" depth="1" NCoef="0" IVar="0" Cut="6.7045050859451294e-01" cType="0" res="-2.6017746329307556e-01" rms="4.0306743979454041e-01" purity="2.0405010879039764e-01" nType="0">
          <Node pos="l" depth="2" NCoef="0" IVar="-1" Cut="0.0000000000000000e+00" cType="1" res="-9.1989086940884590e-03" rms="4.2833846807479858e-01" purity="2.4229268729686737e-01" nType="-99"/>
          <Node pos="r" depth="2" NCoef="0" IVar="-1" Cut="0.0000000000000000e+00" cType="1" res="-8.6056571453809738e-03" rms="3.0371773242950439e-01" purity="1.0284117609262466e-01" nType="-99"/>
        </Node>
      </Node>
    </BinaryTree>
    <BinaryTree type="DecisionTree" boostWeight="1.0000000000000000e+00" itree="13">
      <Node pos="s" depth="0" NCoef="0" IVar="0" Cut="1.4150072336196899e+00" cType="1" res="-1.1038184911012650e-01" rms="4.7801062464714050e-01" purity="3.5560232400894165e-01" nType="0">
        <Node pos="l" depth="1" NCoef="0" IVar="-1" Cut="0.0000000000000000e+00" cType="1" res="-3.6099224817007780e-03" rms="4.8254278302192688e-01" purity="3.7142387032508850e-01" nType="-99"/>
        <Node pos="r" depth="1" NCoef="0" IVar="1" Cut="9.0545123815536499e-01" cType="0" res="-2.1150200068950653e-01" rms="4.3354129791259766e-01" purity="2.5106808543205261e-01" nType="0">
          <Node pos="l" depth="2" NCoef="0" IVar="-1" Cut="0.0000000000000000e+00" cType="1" res="-7.3891622014343739e-03" rms="4.6076077222824097e-01" purity="3.0662915110588074e-01" nType="-99"/>
          <Node pos="r" depth="2" NCoef="0" IVar="-1" Cut="0.0000000000000000e+00" cType="1" res="-9.6309557557106018e-03" rms="3.6941054463386536e-01" purity="1.6307523846626282e-01" nType="-99"/>
        </Node>
      </Node>
    </BinaryTree>
    <BinaryTree type="DecisionTree" boostWeight="1.0000000000000000e+00" itree="14">
      <Node pos="s" depth="0" NCoef="0" IVar="1" Cut="-1.6254248619079590e+00" cType="0" res="-1.1162322759628296e-01" rms="4.7686529159545898e-01" purity="3.5218414664268494e-01" nType="0">
        <Node pos="l" depth="1" NCoef="0" IVar="-1" Cut="0.0000000000000000e+00" cType="1" res="-3.7586616817861795e-03" rms="4.8201337456703186e-01" purity="3.6868754029273987e-01" nType="-99"/>
        <Node pos="r" depth="1" NCoef="0" IVar="0" Cut="-5.7637792825698853e-01" cType="1" res="-2.3502130806446075e-01" rms="4.1218277812004089e-01" purity="2.1705420315265656e-01" nType="0">
          <Node pos="l" depth="2" NCoef="0" IVar="-1" Cut="0.0000000000000000e+00" cType="1" res="-7.4577028863132000e-03" rms="4.2763882875442505e-01" purity="2.4124974012374878e-01" nType="-99"/>
          <Node pos="r" depth="2" NCoef="0" IVar="-1" Cut="0.0000000000000000e+00" cType="1" res="-8.1564281135797501e-03" rms="3.3907052874565125e-01" purity="1.3240954279899597e-01" nType="-99"/>
        </Node>
      </Node>
    </BinaryTree>
    <BinaryTree type="DecisionTree" boostWeight="1.0000000000000000e+00" itree="15">
      <Node pos="s" depth="0" NCoef="0" IVar="0" Cut="1.4152334928512573e+00" cType="1" res="-1.1153306812047958e-01" rms="4.7609677910804749e-01" purity="3.5001257061958313e-01" nType="0">
        <Node pos="l" depth="1" NCoef="0" IVar="-1" Cut="0.0000000000000000e+00" cType="1" res="-4.4839004985988140e-03" rms="4.8112779855728149e-01" purity="3.6672425270080566e-01" nType="-99"/>
        <Node pos="r" depth="1" NCoef="0" IVar="1" Cut="8.8277757167816162e-01" cType="0" res="-2.1490617096424103e-01" rms="4.2791157960891724e-01" purity="2.4165454506874084e-01" nType="0">
          <Node pos="l" depth="2" NCoef="0" IVar="-1" Cut="0.0000000000000000e+00" cType="1" res="-7.5588976033031940e-03" rms="4.5208674669265747e-01" purity="2.8706961870193481e-01" nType="-99"/>
          <Node pos="r" depth="2" NCoef="0" IVar="-1" Cut="0.0000000000000000e+00" cType="1" res="-1.0724606923758984e-02" rms="3.6718654632568359e-01" purity="1.6065661609172821e-01" nType="-99"/>
        </Node>
      </Node>
    </BinaryTree>
    <BinaryTree type="DecisionTree" boostWeight="1.0000000000000000e+00" itree="16">
      <Node pos="s" depth="0" NCoef="0" IVar="0" Cut="-1.6073058843612671e+00" cType="0" res="-1.0608576238155365e-01" rms="4.7715017199516296e-01" purity="3.5321265459060669e-01" nType="0">
        <Node pos="l" depth="1" NCoef="0" IVar="-1" Cut="0.0000000000000000e+00" cType="1" res="-3.6473833024501801e-03" rms="4.8156133294105530e-01" purity="3.6830008029937744e-01" nType="-99"/>
        <Node pos="r" depth="1" NCoef="0" IVar="1" Cut="-8.8868361711502075e-01" cType="1" res="-2.2964368760585785e-01" rms="4.1831576824188232e-01" purity="2.2619107365608215e-01" nType="0">
          <Node pos="l" depth="2" NCoef="0" IVar="-1" Cut="0.0000000000000000e+00" cType="1" res="-8.4772994741797447e-03" rms="4.4547522068023682e-01" purity="2.7568137645721436e-01" nType="-99"/>
          <Node pos="r" depth="2" NCoef="0" IVar="-1" Cut="0.0000000000000000e+00" cType="1" res="-9.4087589532136917e-03" rms="3.4861117601394653e-01" purity="1.4157253503799438e-01" nType="-99"/>
        </Node>
      </Node>
    </BinaryTree>
    <BinaryTree type="DecisionTree" boostWeight="1.0000000000000000e+00" itree="17">
      <Node pos="s" depth="0" NCoef="0" IVar="1" Cut="1.9487639665603638e+00" cType="1" res="-1.0554597526788712e-01" rms="4.7667458653450012e-01" purity="3.5172301530838013e-01" nType="0">
        <Node pos="l" depth="1" NCoef="0" IVar="-1" Cut="0.0000000000000000e+00" cType="1" res="-4.1603432036936283e-03" rms="4.8017460107803345e-01" purity="3.6311349272727966e-01" nType="-99"/>
        <Node pos="r" depth="1" NCoef="0" IVar="0" Cut="1.5429036617279053e+00" cType="0" res="-2.5377196073532104e-01" rms="3.9730393886566162e-01" purity="1.9598220288753510e-01" nType="0">
          <Node pos="l" depth="2" NCoef="0" IVar="-1" Cut="0.0000000000000000e+00" cType="1" res="-8.1493742763996124e-03" rms="4.4160676002502441e-01" purity="2.6551449298858643e-01" nType="-99"/>
          <Node pos="r" depth="2" NCoef="0" IVar="-1" Cut="0.0000000000000000e+00" cType="1" res="-1.0202632285654545e-02" rms="3.5682693123817444e-01" purity="1.4990669488906860e-01" nType="-99"/>
        </Node>
      </Node>
    </BinaryTree>
    <BinaryTree type="DecisionTree" boostWeight="1.0000000000000000e+00" itree="18">
      <Node pos="s" depth="0" NCoef="0" IVar="1" Cut="2.0785915851593018e+00" cType="1" res="-1.0369893908500671e-01" rms="4.7655442357063293e-01" purity="3.5131469368934631e-01" nType="0">
        <Node pos="l" depth="1" NCoef="0" IVar="-1" Cut="0.0000000000000000e+00" cType="1" res="-4.1103954426944256e-03" rms="4.7947850823402405e-01" purity="3.6058202385902405e-01" nType="-99"/>
        <Node pos="r" depth="1" NCoef="0" IVar="1" Cut="2.1924412250518799e+00" cType="0" res="-2.7497121691703796e-01" rms="3.7654522061347961e-01" purity="1.7071571946144104e-01" nType="0">
          <Node pos="l" depth="2" NCoef="0" IVar="-1" Cut="0.0000000000000000e+00" cType="1" res="-1.0288163088262081e-02" rms="4.1459539532661438e-01" purity="2.2001853585243225e-01" nType="-99"/>
          <Node pos="r" depth="2" NCoef="0" IVar="-1" Cut="0.0000000000000000e+00" cType="1" res="-7.7840941958129406e-03" rms="3.0188840627670288e-01" purity="1.0117694735527039e-01" nType="-99"/>
        </Node>
      </Node>
    </BinaryTree>
    <BinaryTree type="DecisionTree" boostWeight="1.0000000000000000e+00" itree="19">
      <Node pos="s" depth="0" NCoef="0" IVar="1" Cut="1.8600604534149170e+00" cType="1" res="-1.0550257563591003e-01" rms="4.7513973712921143e-01" purity="3.4735885262489319e-01" nType="0">
        <Node pos="l" depth="1" NCoef="0" IVar="-1" Cut="0.0000000000000000e+00" cType="1" res="-3.9424933493137360e-03" rms="4.7976899147033691e-01" purity="3.6184427142143250e-01" nType="-99"/>
        <Node pos="r" depth="1" NCoef="0" IVar="0" Cut="6.7045050859451294e-01" cType="0" res="-2.5490447878837585e-01" rms="3.9086320996284485e-01" purity="1.8799220025539398e-01" nType="0">
          <Node pos="l" depth="2" NCoef="0" IVar="-1" Cut="0.0000000000000000e+00" cType="1" res="-8.9742410928010941e-03" rms="4.1474673151969910e-01" purity="2.2086372971534729e-01" nType="-99"/>
          <Node pos="r" depth="2" NCoef="0" IVar="-1" Cut="0.0000000000000000e+00" cType="1" res="-8.4429215639829636e-03" rms="3.0488163232803345e-01" purity="1.0374307632446289e-01" nType="-99"/>
        </Node>
      </Node>
    </BinaryTree>
    <BinaryTree type="DecisionTree" boostWeight="1.0000000000000000e+00" itree="20">
      <Node pos="s" depth="0" NCoef="0" IVar="1" Cut="-1.1921449899673462e+00" cType="0" res="-1.0060353577136993e-01" rms="4.7598510980606079e-01" purity="3.5018992424011230e-01" nType="0">
        <Node pos="l" depth="1" NCoef="0" IVar="-1" Cut="0.0000000000000000e+00" cType="1" res="-3.2355666626244783e-03" rms="4.8227819800376892e-01" purity="3.7092202901840210e-01" nType="-99"/>
        <Node pos="r" depth="1" NCoef="0" IVar="0" Cut="3.4716300666332245e-02" cType="1" res="-1.8551053106784821e-01" rms="4.3692550063133240e-01" purity="2.5795671343803406e-01" nType="0">
          <Node pos="l" depth="2" NCoef="0" IVar="-1" Cut="0.0000000000000000e+00" cType="1" res="-6.0518034733831882e-03" rms="4.4808658957481384e-01" purity="2.7960035204887390e-01" nType="-99"/>
          <Node pos="r" depth="2" NCoef="0" IVar="-1" Cut="0.0000000000000000e+00" cType="1" res="-7.7496161684393883e-03" rms="3.2894784212112427e-01" purity="1.2415864318609238e-01" nType="-99"/>
        </Node>
      </Node>
    </BinaryTree>
    <BinaryTree type="DecisionTree" boostWeight="1.0000000000000000e+00" itree="21">
      <Node pos="s" depth="0" NCoef="0" IVar="1" Cut="-1.2506818771362305e+00" cType="0" res="-1.0182253271341324e-01" rms="4.7481629252433777e-01" purity="3.4687873721122742e-01" nType="0">
        <Node pos="l" depth="1" NCoef="0" IVar="-1" Cut="0.0000000000000000e+00" cType="1" res="-3.1902703922241926e-03" rms="4.8136731982231140e-01" purity="3.6770156025886536e-01" nType="-99"/>
        <Node pos="r" depth="1" NCoef="0" IVar="1" Cut="-2.2405574321746826e+00" cType="0" res="-1.9169683754444122e-01" rms="4.3118244409561157e-01" purity="2.4796897172927856e-01" nType="0">
          <Node pos="l" depth="2" NCoef="0" IVar="-1" Cut="0.0000000000000000e+00" cType="1" res="-6.1394954100251198e-03" rms="4.4313210248947144e-01" purity="2.6904433965682983e-01" nType="-99"/>
          <Node pos="r" depth="2" NCoef="0" IVar="-1" Cut="0.0000000000000000e+00" cType="1" res="-8.9556667953729630e-03" rms="3.3955496549606323e-01" purity="1.3294878602027893e-01" nType="-99"/>
        </Node>
      </Node>
    </BinaryTree>
    <BinaryTree type="DecisionTree" boostWeight="1.0000000000000000e+00" itree="22">
      <Node pos="s" depth="0" NCoef="0" IVar="1" Cut="1.8905037641525269e+00" cType="1" res="-9.4133369624614716e-02" rms="4.7670954465866089e-01" purity="3.5276323556900024e-01" nType="0">
        <Node pos="l" depth="1" NCoef="0" IVar="-1" Cut="0.0000000000000000e+00" cType="1" res="-3.1624422408640385e-03" rms="4.8039379715919495e-01" purity="3.6460524797439575e-01" nType="-99"/>
        <Node pos="r" depth="1" NCoef="0" IVar="0" Cut="1.3253861665725708e+00" cType="0" res="-2.2130769491195679e-01" rms="4.1028770804405212e-01" purity="2.1385091543197632e-01" nType="0">
          <Node pos="l" depth="2" NCoef="0" IVar="-1" Cut="0.0000000000000000e+00" cType="1" res="-6.5055880695581436e-03" rms="4.5084547996520996e-01" purity="2.8496712446212769e-01" nType="-99"/>
          <Node pos="r" depth="2" NCoef="0" IVar="-1" Cut="0.0000000000000000e+00" cType="1" res="-8.6903413757681847e-03" rms="3.6048963665962219e-01" purity="1.5333639085292816e-01" nType="-99"/>
        </Node>
      </Node>
    </BinaryTree>
    <BinaryTree type="DecisionTree" boostWeight="1.0000000000000000e+00" itree="23">
      <Node pos="s" depth="0" NCoef="0" IVar="0" Cut="-1.8481014966964722e+00" cType="0" res="-8.8998399674892426e-02" rms="4.7774749994277954e-01" purity="3.5626757144927979e-01" nType="0">
        <Node pos="l" depth="1" NCoef="0" IVar="-1" Cut="0.0000000000000000e+00" cType="1" res="-3.0834497883915901e-03" rms="4.8058441281318665e-01" purity="3.6603301763534546e-01" nType="-99"/>
        <Node pos="r" depth="1" NCoef="0" IVar="1" Cut="-8.8848590850830078e-01" cType="1" res="-2.2609280049800873e-01" rms="4.1034016013145447e-01" purity="2.1336312592029572e-01" nType="0">
          <Node pos="l" depth="2" NCoef="0" IVar="-1" Cut="0.0000000000000000e+00" cType="1" res="-9.0326694771647453e-03" rms="4.4066014885902405e-01" purity="2.6478010416030884e-01" nType="-99"/>
          <Node pos="r" depth="2" NCoef="0" IVar="-1" Cut="0.0000000000000000e+00" cType="1" res="-8.9332237839698792e-03" rms="3.1922531127929688e-01" purity="1.1516861617565155e-01" nType="-99"/>
        </Node>
      </Node>
    </BinaryTree>
    <BinaryTree type="DecisionTree" boostWeight="1.0000000000000000e+00" itree="24">
      <Node pos="s" depth="0" NCoef="0" IVar="0" Cut="-1.8390339612960815e+00" cType="0" res="-1.0355981439352036e-01" rms="4.7264769673347473e-01" purity="3.3991459012031555e-01" nType="0">
        <Node pos="l" depth="1" NCoef="0" IVar="-1" Cut="0.0000000000000000e+00" cType="1" res="-3.9349645376205444e-03" rms="4.7593465447425842e-01" purity="3.4962797164916992e-01" nType="-99"/>
        <Node pos="r" depth="1" NCoef="0" IVar="1" Cut="-8.5901433229446411e-01" cType="1" res="-2.2672955691814423e-01" rms="4.0577304363250732e-01" purity="2.0764169096946716e-01" nType="0">
          <Node pos="l" depth="2" NCoef="0" IVar="-1" Cut="0.0000000000000000e+00" cType="1" res="-8.6845150217413902e-03" rms="4.3995386362075806e-01" purity="2.6551291346549988e-01" nType="-99"/>
          <Node pos="r" depth="2" NCoef="0" IVar="-1" Cut="0.0000000000000000e+00" cType="1" res="-8.8491300120949745e-03" rms="3.0766829848289490e-01" purity="1.0586620122194290e-01" nType="-99"/>
        </Node>
      </Node>
    </BinaryTree>
    <BinaryTree type="DecisionTree" boostWeight="1.0000000000000000e+00" itree="25">
      <Node pos="s" depth="0" NCoef="0" IVar="0" Cut="-1.6067658662796021e+00" cType="0" res="-8.0944836139678955e-02" rms="4.7892495989799500e-01" purity="3.6053687334060669e-01" nType="0">
        <Node pos="l" depth="1" NCoef="0" IVar="-1" Cut="0.0000000000000000e+00" cType="1" res="-2.7281625661998987e-03" rms="4.8286181688308716e-01" purity="3.7429648637771606e-01" nType="-99"/>
        <Node pos="r" depth="1" NCoef="0" IVar="1" Cut="-2.2546817362308502e-01" cType="1" res="-1.9012005627155304e-01" rms="4.2843234539031982e-01" purity="2.4240769445896149e-01" nType="0">
          <Node pos="l" depth="2" NCoef="0" IVar="-1" Cut="0.0000000000000000e+00" cType="1" res="-7.2296718135476112e-03" rms="4.4166198372840881e-01" purity="2.6683041453361511e-01" nType="-99"/>
          <Node pos="r" depth="2" NCoef="0" IVar="-1" Cut="0.0000000000000000e+00" cType="1" res="-8.6508411914110184e-03" rms="3.1018438935279846e-01" purity="1.0798678547143936e-01" nType="-99"/>
        </Node>
      </Node>
    </BinaryTree>
    <BinaryTree type="DecisionTree" boostWeight="1.0000000000000000e+00" itree="26">
      <Node pos="s" depth="0" NCoef="0" IVar="0" Cut="1.4152334928512573e+00" cType="1" res="-8.1803709268569946e-02" rms="4.7820279002189636e-01" purity="3.5821244120597839e-01" nType="0">
        <Node pos="l" depth="1" NCoef="0" IVar="-1" Cut="0.0000000000000000e+00" cType="1" res="-2.5545828975737095e-03" rms="4.8303979635238647e-01" purity="3.7519678473472595e-01" nType="-99"/>
        <Node pos="r" depth="1" NCoef="0" IVar="1" Cut="9.0199518203735352e-01" cType="0" res="-1.9008041918277740e-01" rms="4.2859113216400146e-01" purity="2.4301716685295105e-01" nType="0">
          <Node pos="l" depth="2" NCoef="0" IVar="-1" Cut="0.0000000000000000e+00" cType="1" res="-6.5297400578856468e-03" rms="4.5640468597412109e-01" purity="2.9747051000595093e-01" nType="-99"/>
          <Node pos="r" depth="2" NCoef="0" IVar="-1" Cut="0.0000000000000000e+00" cType="1" res="-8.9417323470115662e-03" rms="3.6285525560379028e-01" purity="1.5598432719707489e-01" nType="-99"/>
        </Node>
      </Node>
    </BinaryTree>
    <BinaryTree type="DecisionTree" boostWeight="1.0000000000000000e+00" itree="27">
      <Node pos="s" depth="0" NCoef="0" IVar="1" Cut="-1.6766934394836426e+00" cType="0" res="-8.1875436007976532e-02" rms="4.7767925262451172e-01" purity="3.5645917057991028e-01" nType="0">
        <Node pos="l" depth="1" NCoef="0" IVar="-1" Cut="0.0000000000000000e+00" cType="1" res="-2.7084506582468748e-03" rms="4.8176911473274231e-01" purity="3.6952513456344604e-01" nType="-99"/>
        <Node pos="r" depth="1" NCoef="0" IVar="0" Cut="-9.5448726415634155e-01" cType="1" res="-1.8459868431091309e-01" rms="4.2472097277641296e-01" purity="2.3628789186477661e-01" nType="0">
          <Node pos="l" depth="2" NCoef="0" IVar="-1" Cut="0.0000000000000000e+00" cType="1" res="-6.5081976354122162e-03" rms="4.4417846202850342e-01" purity="2.7130496501922607e-01" nType="-99"/>
          <Node pos="r" depth="2" NCoef="0" IVar="-1" Cut="0.0000000000000000e+00" cType="1" res="-7.0069590583443642e-03" rms="3.8495576381683350e-01" purity="1.8113435804843903e-01" nType="-99"/>
        </Node>
      </Node>
    </BinaryTree>
    <BinaryTree type="DecisionTree" boostWeight="1.0000000000000000e+00" itree="28">
      <Node pos="s" depth="0" NCoef="0" IVar="0" Cut="1.4150072336196899e+00" cType="1" res="-9.2294514179229736e-02" rms="4.7398948669433594e-01" purity="3.4451717138290405e-01" nType="0">
        <Node pos="l" depth="1" NCoef="0" IVar="-1" Cut="0.0000000000000000e+00" cType="1" res="-3.4674915950745344e-03" rms="4.7834488749504089e-01" purity="3.5796824097633362e-01" nType="-99"/>
        <Node pos="r" depth="1" NCoef="0" IVar="1" Cut="9.0455043315887451e-01" cType="0" res="-1.7423892021179199e-01" rms="4.3465843796730042e-01" purity="2.5361943244934082e-01" nType="0">
          <Node pos="l" depth="2" NCoef="0" IVar="-1" Cut="0.0000000000000000e+00" cType="1" res="-5.7586370967328548e-03" rms="4.6181949973106384e-01" purity="3.1026926636695862e-01" nType="-99"/>
          <Node pos="r" depth="2" NCoef="0" IVar="-1" Cut="0.0000000000000000e+00" cType="1" res="-9.2091076076030731e-03" rms="3.6736530065536499e-01" purity="1.6083034873008728e-01" nType="-99"/>
        </Node>
      </Node>
    </BinaryTree>
    <BinaryTree type="DecisionTree" boostWeight="1.0000000000000000e+00" itree="29">
      <Node pos="s" depth="0" NCoef="0" IVar="1" Cut="1.8930052518844604e+00" cType="1" res="-7.7836699783802032e-02" rms="4.7780945897102356e-01" purity="3.5716727375984192e-01" nType="0">
        <Node pos="l" depth="1" NCoef="0" IVar="-1" Cut="0.0000000000000000e+00" cType="1" res="-2.7380681131035089e-03" rms="4.8108828067779541e-01" purity="3.6798605322837830e-01" nType="-99"/>
        <Node pos="r" depth="1" NCoef="0" IVar="0" Cut="1.4373632669448853e+00" cType="0" res="-2.0019303262233734e-01" rms="4.1545283794403076e-01" purity="2.2111208736896515e-01" nType="0">
          <Node pos="l" depth="2" NCoef="0" IVar="-1" Cut="0.0000000000000000e+00" cType="1" res="-7.1749677881598473e-03" rms="4.6444398164749146e-01" purity="3.1474483013153076e-01" nType="-99"/>
          <Node pos="r" depth="2" NCoef="0" IVar="-1" Cut="0.0000000000000000e+00" cType="1" res="-7.9409060999751091e-03" rms="3.7628710269927979e-01" purity="1.7102888226509094e-01" nType="-99"/>
        </Node>
      </Node>
    </BinaryTree>
    <BinaryTree type="DecisionTree" boostWeight="1.0000000000000000e+00" itree="30">
      <Node pos="s" depth="0" NCoef="0" IVar="1" Cut="-1.7505736351013184e+00" cType="0" res="-8.4770493209362030e-02" rms="4.7499981522560120e-01" purity="3.4861195087432861e-01" nType="0">
        <Node pos="l" depth="1" NCoef="0" IVar="-1" Cut="0.0000000000000000e+00" cType="1" res="-2.7620329055935144e-03" rms="4.7994863986968994e-01" purity="3.6342060565948486e-01" nType="-99"/>
        <Node pos="r" depth="1" NCoef="0" IVar="1" Cut="-2.1948299407958984e+00" cType="0" res="-2.1854080259799957e-01" rms="3.9637705683708191e-01" purity="1.9542706012725830e-01" nType="0">
          <Node pos="l" depth="2" NCoef="0" IVar="-1" Cut="0.0000000000000000e+00" cType="1" res="-7.2500510141253471e-03" rms="4.1820386052131653e-01" purity="2.2625409066677094e-01" nType="-99"/>
          <Node pos="r" depth="2" NCoef="0" IVar="-1" Cut="0.0000000000000000e+00" cType="1" res="-9.1258278116583824e-03" rms="3.3935445547103882e-01" purity="1.3234978914260864e-01" nType="-99"/>
        </Node>
      </Node>
    </BinaryTree>
    <BinaryTree type="DecisionTree" boostWeight="1.0000000000000000e+00" itree="31">
      <Node pos="s" depth="0" NCoef="0" IVar="0" Cut="1.4150072336196899e+00" cType="1" res="-8.8986381888389587e-02" rms="4.7314614057540894e-01" purity="3.4280580282211304e-01" nType="0">
        <Node pos="l" depth="1" NCoef="0" IVar="-1" Cut="0.0000000000000000e+00" cType="1" res="-2.7903208974748850e-03" rms="4.7810968756675720e-01" purity="3.5790425539016724e-01" nType="-99"/>
        <Node pos="r" depth="1" NCoef="0" IVar="1" Cut="8.7649136781692505e-01" cType="0" res="-1.7945896089076996e-01" rms="4.2764210700988770e-01" purity="2.4181982874870300e-01" nType="0">
          <Node pos="l" depth="2" NCoef="0" IVar="-1" Cut="0.0000000000000000e+00" cType="1" res="-5.7410923764109612e-03" rms="4.5822158455848694e-01" purity="3.0180177092552185e-01" nType="-99"/>
          <Node pos="r" depth="2" NCoef="0" IVar="-1" Cut="0.0000000000000000e+00" cType="1" res="-8.3906250074505806e-03" rms="3.5109531879425049e-01" purity="1.4402231574058533e-01" nType="-99"/>
        </Node>
      </Node>
    </BinaryTree>
    <BinaryTree type="DecisionTree" boostWeight="1.0000000000000000e+00" itree="32">
      <Node pos="s" depth="0" NCoef="0" IVar="1" Cut="-1.6265903711318970e+00" cType="0" res="-7.7587522566318512e-02" rms="4.7630465030670166e-01" purity="3.5277447104454041e-01" nType="0">
        <Node pos="l" depth="1" NCoef="0" IVar="-1" Cut="0.0000000000000000e+00" cType="1" res="-2.4940003640949726e-03" rms="4.8106178641319275e-01" purity="3.6749079823493958e-01" nType="-99"/>
        <Node pos="r" depth="1" NCoef="0" IVar="0" Cut="-2.1347565948963165e-01" cType="1" res="-1.8319959938526154e-01" rms="4.1919153928756714e-01" purity="2.2779719531536102e-01" nType="0">
          <Node pos="l" depth="2" NCoef="0" IVar="-1" Cut="0.0000000000000000e+00" cType="1" res="-6.6916644573211670e-03" rms="4.3266099691390991e-01" purity="2.5030985474586487e-01" nType="-99"/>
          <Node pos="r" depth="2" NCoef="0" IVar="-1" Cut="0.0000000000000000e+00" cType="1" res="-6.6297613084316254e-03" rms="3.2455775141716003e-01" purity="1.1960864812135696e-01" nType="-99"/>
        </Node>
      </Node>
    </BinaryTree>
    <BinaryTree type="DecisionTree" boostWeight="1.0000000000000000e+00" itree="33">
      <Node pos="s" depth="0" NCoef="0" IVar="1" Cut="-1.7505736351013184e+00" cType="0" res="-7.7398858964443207e-02" rms="4.7565332055091858e-01" purity="3.5119891166687012e-01" nType="0">
        <Node pos="l" depth="1" NCoef="0" IVar="-1" Cut="0.0000000000000000e+00" cType="1" res="-2.6030219160020351e-03" rms="4.8027223348617554e-01" purity="3.6506292223930359e-01" nType="-99"/>
        <Node pos="r" depth="1" NCoef="0" IVar="0" Cut="-5.6488716602325439e-01" cType="1" res="-1.9206397235393524e-01" rms="4.0993589162826538e-01" purity="2.1391072869300842e-01" nType="0">
          <Node pos="l" depth="2" NCoef="0" IVar="-1" Cut="0.0000000000000000e+00" cType="1" res="-6.6769500263035297e-03" rms="4.2382758855819702e-01" purity="2.3518161475658417e-01" nType="-99"/>
          <Node pos="r" depth="2" NCoef="0" IVar="-1" Cut="0.0000000000000000e+00" cType="1" res="-8.1594372168183327e-03" rms="3.4317678213119507e-01" purity="1.3655184209346771e-01" nType="-99"/>
        </Node>
      </Node>
    </BinaryTree>
    <BinaryTree type="DecisionTree" boostWeight="1.0000000000000000e+00" itree="34">
      <Node pos="s" depth="0" NCoef="0" IVar="0" Cut="-1.1589626073837280e+00" cType="0" res="-7.8016154468059540e-02" rms="4.7511628270149231e-01" purity="3.4927198290824890e-01" nType="0">
        <Node pos="l" depth="1" NCoef="0" IVar="-1" Cut="0.0000000000000000e+00" cType="1" res="-2.3008394055068493e-03" rms="4.8063355684280396e-01" purity="3.6757737398147583e-01" nType="-99"/>
        <Node pos="r" depth="1" NCoef="0" IVar="1" Cut="-2.7039894461631775e-01" cType="1" res="-1.5334141254425049e-01" rms="4.4156682491302490e-01" purity="2.6656597852706909e-01" nType="0">
          <Node pos="l" depth="2" NCoef="0" IVar="-1" Cut="0.0000000000000000e+00" cType="1" res="-5.0992211326956749e-03" rms="4.5676440000534058e-01" purity="3.0042052268981934e-01" nType="-99"/>
          <Node pos="r" depth="2" NCoef="0" IVar="-1" Cut="0.0000000000000000e+00" cType="1" res="-9.3103982508182526e-03" rms="3.4500950574874878e-01" purity="1.3850061595439911e-01" nType="-99"/>
        </Node>
      </Node>
    </BinaryTree>
    <BinaryTree type="DecisionTree" boostWeight="1.0000000000000000e+00" itree="35">
      <Node pos="s" depth="0" NCoef="0" IVar="1" Cut="1.9020526409149170e+00" cType="1" res="-6.7603878676891327e-02" rms="4.7773179411888123e-01" purity="3.5825863480567932e-01" nType="0">
        <Node pos="l" depth="1" NCoef="0" IVar="-1" Cut="0.0000000000000000e+00" cType="1" res="-2.3964520078152418e-03" rms="4.8120990395545959e-01" purity="3.6976054310798645e-01" nType="-99"/>
        <Node pos="r" depth="1" NCoef="0" IVar="0" Cut="1.5551111698150635e+00" cType="0" res="-2.0127546787261963e-01" rms="4.0707620978355408e-01" purity="2.0903746783733368e-01" nType="0">
          <Node pos="l" depth="2" NCoef="0" IVar="-1" Cut="0.0000000000000000e+00" cType="1" res="-6.9712745025753975e-03" rms="4.5276021957397461e-01" purity="2.8805279731750488e-01" nType="-99"/>
          <Node pos="r" depth="2" NCoef="0" IVar="-1" Cut="0.0000000000000000e+00" cType="1" res="-8.5114240646362305e-03" rms="3.7061834335327148e-01" purity="1.6458433866500854e-01" nType="-99"/>
        </Node>
      </Node>
    </BinaryTree>
    <BinaryTree type="DecisionTree" boostWeight="1.0000000000000000e+00" itree="36">
      <Node pos="s" depth="0" NCoef="0" IVar="1" Cut="1.4437589645385742e+00" cType="1" res="-8.1494703888893127e-02" rms="4.7315296530723572e-01" purity="3.4310716390609741e-01" nType="0">
        <Node pos="l" depth="1" NCoef="0" IVar="-1" Cut="0.0000000000000000e+00" cType="1" res="-3.0683304648846388e-03" rms="4.7771155834197998e-01" purity="3.5728764533996582e-01" nType="-99"/>
        <Node pos="r" depth="1" NCoef="0" IVar="0" Cut="7.3585772514343262e-01" cType="0" res="-1.6772487759590149e-01" rms="4.3172481656074524e-01" purity="2.4843733012676239e-01" nType="0">
          <Node pos="l" depth="2" NCoef="0" IVar="-1" Cut="0.0000000000000000e+00" cType="1" res="-6.2585780397057533e-03" rms="4.5774737000465393e-01" purity="3.0150589346885681e-01" nType="-99"/>
          <Node pos="r" depth="2" NCoef="0" IVar="-1" Cut="0.0000000000000000e+00" cType="1" res="-6.7948773503303528e-03" rms="3.5496476292610168e-01" purity="1.4874665439128876e-01" nType="-99"/>
        </Node>
      </Node>
    </BinaryTree>
    <BinaryTree type="DecisionTree" boostWeight="1.0000000000000000e+00" itree="37">
      <Node pos="s" depth="0" NCoef="0" IVar="1" Cut="-1.0449779033660889e+00" cType="0" res="-7.1911513805389404e-02" rms="4.7541141510009766e-01" purity="3.5087966918945312e-01" nType="0">
        <Node pos="l" depth="1" NCoef="0" IVar="-1" Cut="0.0000000000000000e+00" cType="1" res="-2.0876857452094555e-03" rms="4.8243820667266846e-01" purity="3.7420389056205750e-01" nType="-99"/>
        <Node pos="r" depth="1" NCoef="0" IVar="0" Cut="1.1584735661745071e-01" cType="1" res="-1.4405605196952820e-01" rms="4.4231361150741577e-01" purity="2.6878026127815247e-01" nType="0">
          <Node pos="l" depth="2" NCoef="0" IVar="-1" Cut="0.0000000000000000e+00" cType="1" res="-4.5305020175874233e-03" rms="4.5075953006744385e-01" purity="2.8635567426681519e-01" nType="-99"/>
          <Node pos="r" depth="2" NCoef="0" IVar="-1" Cut="0.0000000000000000e+00" cType="1" res="-7.6306071132421494e-03" rms="3.4292453527450562e-01" purity="1.3724468648433685e-01" nType="-99"/>
        </Node>
      </Node>
    </BinaryTree>
    <BinaryTree type="DecisionTree" boostWeight="1.0000000000000000e+00" itree="38">
      <Node pos="s" depth="0" NCoef="0" IVar="1" Cut="-1.7504274845123291e+00" cType="0" res="-7.7238060534000397e-02" rms="4.7319397330284119e-01" purity="3.4404304623603821e-01" nType="0">
        <Node pos="l" depth="1" NCoef="0" IVar="-1" Cut="0.0000000000000000e+00" cType="1" res="-3.1110178679227829e-03" rms="4.7825944423675537e-01" purity="3.5829320549964905e-01" nType="-99"/>
        <Node pos="r" depth="1" NCoef="0" IVar="0" Cut="-5.6509292125701904e-01" cType="1" res="-1.9646647572517395e-01" rms="3.9898449182510376e-01" purity="1.9882738590240479e-01" nType="0">
          <Node pos="l" depth="2" NCoef="0" IVar="-1" Cut="0.0000000000000000e+00" cType="1" res="-6.8160714581608772e-03" rms="4.1288599371910095e-01" purity="2.1835148334503174e-01" nType="-99"/>
          <Node pos="r" depth="2" NCoef="0" IVar="-1" Cut="0.0000000000000000e+00" cType="1" res="-8.2868179306387901e-03" rms="3.2020208239555359e-01" purity="1.1635018885135651e-01" nType="-99"/>
        </Node>
      </Node>
    </BinaryTree>
    <BinaryTree type="DecisionTree" boostWeight="1.0000000000000000e+00" itree="39">
      <Node pos="s" depth="0" NCoef="0" IVar="0" Cut="-1.7336933612823486e+00" cType="0" res="-6.5330050885677338e-02" rms="4.7646650671958923e-01" purity="3.5446375608444214e-01" nType="0">
        <Node pos="l" depth="1" NCoef="0" IVar="-1" Cut="0.0000000000000000e+00" cType="1" res="-2.1187993697822094e-03" rms="4.8034849762916565e-01" purity="3.6693567037582397e-01" nType="-99"/>
        <Node pos="r" depth="1" NCoef="0" IVar="1" Cut="-1.3058437108993530e+00" cType="1" res="-1.8656976521015167e-01" rms="4.1251686215400696e-01" purity="2.1742217242717743e-01" nType="0">
          <Node pos="l" depth="2" NCoef="0" IVar="-1" Cut="0.0000000000000000e+00" cType="1" res="-6.1443666927516460e-03" rms="4.3533077836036682e-01" purity="2.5793710350990295e-01" nType="-99"/>
          <Node pos="r" depth="2" NCoef="0" IVar="-1" Cut="0.0000000000000000e+00" cType="1" res="-9.3139735981822014e-03" rms="3.7968558073043823e-01" purity="1.7516678571701050e-01" nType="-99"/>
        </Node>
      </Node>
    </BinaryTree>
    <BinaryTree type="DecisionTree" boostWeight="1.0000000000000000e+00" itree="40">
      <Node pos="s" depth="0" NCoef="0" IVar="0" Cut="-1.6919369697570801e+00" cType="0" res="-5.9004921466112137e-02" rms="4.7799444198608398e-01" purity="3.5958856344223022e-01" nType="0">
        <Node pos="l" depth="1" NCoef="0" IVar="-1" Cut="0.0000000000000000e+00" cType="1" res="-1.8692755838856101e-03" rms="4.8158410191535950e-01" purity="3.7162473797798157e-01" nType="-99"/>
        <Node pos="r" depth="1" NCoef="0" IVar="1" Cut="-1.0196806192398071e+00" cType="1" res="-1.7511872947216034e-01" rms="4.1924795508384705e-01" purity="2.2678849101066589e-01" nType="0">
          <Node pos="l" depth="2" NCoef="0" IVar="-1" Cut="0.0000000000000000e+00" cType="1" res="-5.9148855507373810e-03" rms="4.4649422168731689e-01" purity="2.7778387069702148e-01" nType="-99"/>
          <Node pos="r" depth="2" NCoef="0" IVar="-1" Cut="0.0000000000000000e+00" cType="1" res="-1.0006986558437347e-02" rms="3.5467532277107239e-01" purity="1.4781171083450317e-01" nType="-99"/>
        </Node>
      </Node>
    </BinaryTree>
    <BinaryTree type="DecisionTree" boostWeight="1.0000000000000000e+00" itree="41">
      <Node pos="s" depth="0" NCoef="0" IVar="1" Cut="-1.8029893636703491e+00" cType="0" res="-7.0787414908409119e-02" rms="4.7399914264678955e-01" purity="3.4654313325881958e-01" nType="0">
        <Node pos="l" depth="1" NCoef="0" IVar="-1" Cut="0.0000000000000000e+00" cType="1" res="-2.9100833926349878e-03" rms="4.7816786170005798e-01" purity="3.5826408863067627e-01" nType="-99"/>
        <Node pos="r" depth="1" NCoef="0" IVar="1" Cut="-2.2024841308593750e+00" cType="0" res="-1.7796282470226288e-01" rms="4.0773615241050720e-01" purity="2.1086488664150238e-01" nType="0">
          <Node pos="l" depth="2" NCoef="0" IVar="-1" Cut="0.0000000000000000e+00" cType="1" res="-7.5960224494338036e-03" rms="4.2639061808586121e-01" purity="2.3961795866489410e-01" nType="-99"/>
          <Node pos="r" depth="2" NCoef="0" IVar="-1" Cut="0.0000000000000000e+00" cType="1" res="-7.3609580285847187e-03" rms="3.7332949042320251e-01" purity="1.6672767698764801e-01" nType="-99"/>
        </Node>
      </Node>
    </BinaryTree>
    <BinaryTree type="DecisionTree" boostWeight="1.0000000000000000e+00" itree="42">
      <Node pos="s" depth="0" NCoef="0" IVar="0" Cut="1.4333688020706177e+00" cType="1" res="-6.0537215322256088e-02" rms="4.7681829333305359e-01" purity="3.5537019371986389e-01" nType="0">
        <Node pos="l" depth="1" NCoef="0" IVar="-1" Cut="0.0000000000000000e+00" cType="1" res="-2.1693229209631681e-03" rms="4.8151096701622009e-01" purity="3.7103518843650818e-01" nType="-99"/>
        <Node pos="r" depth="1" NCoef="0" IVar="1" Cut="8.7663793563842773e-01" cType="0" res="-1.5629921853542328e-01" rms="4.3137362599372864e-01" purity="2.4821762740612030e-01" nType="0">
          <Node pos="l" depth="2" NCoef="0" IVar="-1" Cut="0.0000000000000000e+00" cType="1" res="-5.9791398234665394e-03" rms="4.4687417149543762e-01" purity="2.7742567658424377e-01" nType="-99"/>
          <Node pos="r" depth="2" NCoef="0" IVar="-1" Cut="0.0000000000000000e+00" cType="1" res="-8.0556711181998253e-03" rms="3.9085465669631958e-01" purity="1.8833771347999573e-01" nType="-99"/>
        </Node>
      </Node>
    </BinaryTree>
    <BinaryTree type="DecisionTree" boostWeight="1.0000000000000000e+00" itree="43">
      <Node pos="s" depth="0" NCoef="0" IVar="1" Cut="-1.6251649856567383e+00" cType="0" res="-6.4459063112735748e-02" rms="4.7505411505699158e-01" purity="3.5020250082015991e-01" nType="0">
        <Node pos="l" depth="1" NCoef="0" IVar="-1" Cut="0.0000000000000000e+00" cType="1" res="-2.0013675093650818e-03" rms="4.8040273785591125e-01" purity="3.6575657129287720e-01" nType="-99"/>
        <Node pos="r" depth="1" NCoef="0" IVar="0" Cut="-5.8548861742019653e-01" cType="1" res="-1.6954600811004639e-01" rms="4.1222879290580750e-01" purity="2.1810868382453918e-01" nType="0">
          <Node pos="l" depth="2" NCoef="0" IVar="-1" Cut="0.0000000000000000e+00" cType="1" res="-5.5793188512325287e-03" rms="4.2695856094360352e-01" purity="2.4227955937385559e-01" nType="-99"/>
          <Node pos="r" depth="2" NCoef="0" IVar="-1" Cut="0.0000000000000000e+00" cType="1" res="-7.0490101352334023e-03" rms="3.4188264608383179e-01" purity="1.3490080833435059e-01" nType="-99"/>
        </Node>
      </Node>
    </BinaryTree>
    <BinaryTree type="DecisionTree" boostWeight="1.0000000000000000e+00" itree="44">
      <Node pos="s" depth="0" NCoef="0" IVar="1" Cut="1.8915100097656250e+00" cType="1" res="-6.2036365270614624e-02" rms="4.7543966770172119e-01" purity="3.5142979025840759e-01" nType="0">
        <Node pos="l" depth="1" NCoef="0" IVar="-1" Cut="0.0000000000000000e+00" cType="1" res="-2.3553427308797836e-03" rms="4.7891303896903992e-01" purity="3.6224603652954102e-01" nType="-99"/>
        <Node pos="r" depth="1" NCoef="0" IVar="0" Cut="1.5430731773376465e+00" cType="0" res="-1.8202452361583710e-01" rms="4.1001191735267639e-01" purity="2.1304455399513245e-01" nType="0">
          <Node pos="l" depth="2" NCoef="0" IVar="-1" Cut="0.0000000000000000e+00" cType="1" res="-5.1174033433198929e-03" rms="4.5411366224288940e-01" purity="2.9078280925750732e-01" nType="-99"/>
          <Node pos="r" depth="2" NCoef="0" IVar="-1" Cut="0.0000000000000000e+00" cType="1" res="-8.5568223148584366e-03" rms="3.7220436334609985e-01" purity="1.6628929972648621e-01" nType="-99"/>
        </Node>
      </Node>
    </BinaryTree>
    <BinaryTree type="DecisionTree" boostWeight="1.0000000000000000e+00" itree="45">
      <Node pos="s" depth="0" NCoef="0" IVar="1" Cut="1.4477909803390503e+00" cType="1" res="-4.8957150429487228e-02" rms="4.7881343960762024e-01" purity="3.6330950260162354e-01" nType="0">
        <Node pos="l" depth="1" NCoef="0" IVar="-1" Cut="0.0000000000000000e+00" cType="1" res="-1.4153523370623589e-03" rms="4.8305305838584900e-01" purity="3.7853100895881653e-01" nType="-99"/>
        <Node pos="r" depth="1" NCoef="0" IVar="0" Cut="5.1051884889602661e-01" cType="0" res="-1.4169393479824066e-01" rms="4.3784713745117188e-01" purity="2.5997057557106018e-01" nType="0">
          <Node pos="l" depth="2" NCoef="0" IVar="-1" Cut="0.0000000000000000e+00" cType="1" res="-4.6876906417310238e-03" rms="4.6096515655517578e-01" purity="3.1044423580169678e-01" nType="-99"/>
          <Node pos="r" depth="2" NCoef="0" IVar="-1" Cut="0.0000000000000000e+00" cType="1" res="-6.0648862272500992e-03" rms="3.3129853010177612e-01" purity="1.2606106698513031e-01" nType="-99"/>
        </Node>
      </Node>
    </BinaryTree>
    <BinaryTree type="DecisionTree" boostWeight="1.0000000000000000e+00" itree="46">
      <Node pos="s" depth="0" NCoef="0" IVar="1" Cut="1.3088593482971191e+00" cType="1" res="-4.4398956000804901e-02" rms="4.7981941699981689e-01" purity="3.6687996983528137e-01" nType="0">
        <Node pos="l" depth="1" NCoef="0" IVar="-1" Cut="0.0000000000000000e+00" cType="1" res="-1.2533133849501610e-03" rms="4.8434880375862122e-01" purity="3.8392454385757446e-01" nType="-99"/>
        <Node pos="r" depth="1" NCoef="0" IVar="0" Cut="7.5430041551589966e-01" cType="0" res="-1.2615682184696198e-01" rms="4.4597756862640381e-01" purity="2.7555537223815918e-01" nType="0">
          <Node pos="l" depth="2" NCoef="0" IVar="-1" Cut="0.0000000000000000e+00" cType="1" res="-3.8902889937162399e-03" rms="4.6212020516395569e-01" purity="3.1330227851867676e-01" nType="-99"/>
          <Node pos="r" depth="2" NCoef="0" IVar="-1" Cut="0.0000000000000000e+00" cType="1" res="-5.8709648437798023e-03" rms="3.9662227034568787e-01" purity="1.9656562805175781e-01" nType="-99"/>
        </Node>
      </Node>
    </BinaryTree>
    <BinaryTree type="DecisionTree" boostWeight="1.0000000000000000e+00" itree="47">
      <Node pos="s" depth="0" NCoef="0" IVar="0" Cut="1.4353837966918945e+00" cType="1" res="-6.4614251255989075e-02" rms="4.7338807582855225e-01" purity="3.4549677371978760e-01" nType="0">
        <Node pos="l" depth="1" NCoef="0" IVar="-1" Cut="0.0000000000000000e+00" cType="1" res="-2.0312126725912094e-03" rms="4.7762283682823181e-01" purity="3.5878023505210876e-01" nType="-99"/>
        <Node pos="r" depth="1" NCoef="0" IVar="1" Cut="8.7687945365905762e-01" cType="0" res="-1.4762458205223083e-01" rms="4.3254229426383972e-01" purity="2.4931293725967407e-01" nType="0">
          <Node pos="l" depth="2" NCoef="0" IVar="-1" Cut="0.0000000000000000e+00" cType="1" res="-4.6874540857970715e-03" rms="4.5930275321006775e-01" purity="3.0288389325141907e-01" nType="-99"/>
          <Node pos="r" depth="2" NCoef="0" IVar="-1" Cut="0.0000000000000000e+00" cType="1" res="-7.8390948474407196e-03" rms="3.6616405844688416e-01" purity="1.5963558852672577e-01" nType="-99"/>
        </Node>
      </Node>
    </BinaryTree>
    <BinaryTree type="DecisionTree" boostWeight="1.0000000000000000e+00" itree="48">
      <Node pos="s" depth="0" NCoef="0" IVar="1" Cut="-1.1049587726593018e+00" cType="0" res="-5.8242820203304291e-02" rms="4.7525992989540100e-01" purity="3.5097014904022217e-01" nType="0">
        <Node pos="l" depth="1" NCoef="0" IVar="-1" Cut="0.0000000000000000e+00" cType="1" res="-1.8943178001791239e-03" rms="4.8199349641799927e-01" purity="3.7257215380668640e-01" nType="-99"/>
        <Node pos="r" depth="1" NCoef="0" IVar="0" Cut="3.5059675574302673e-02" cType="1" res="-1.2328067421913147e-01" rms="4.4381082057952881e-01" purity="2.7216389775276184e-01" nType="0">
          <Node pos="l" depth="2" NCoef="0" IVar="-1" Cut="0.0000000000000000e+00" cType="1" res="-4.0940754115581512e-03" rms="4.5461907982826233e-01" purity="2.9554307460784912e-01" nType="-99"/>
          <Node pos="r" depth="2" NCoef="0" IVar="-1" Cut="0.0000000000000000e+00" cType="1" res="-7.9563101753592491e-03" rms="3.4964394569396973e-01" purity="1.4412459731101990e-01" nType="-99"/>
        </Node>
      </Node>
    </BinaryTree>
    <BinaryTree type="DecisionTree" boostWeight="1.0000000000000000e+00" itree="49">
      <Node pos="s" depth="0" NCoef="0" IVar="1" Cut="1.7968595027923584e+00" cType="1" res="-5.5072791874408722e-02" rms="4.7597798705101013e-01" purity="3.5320866107940674e-01" nType="0">
        <Node pos="l" depth="1" NCoef="0" IVar="-1" Cut="0.0000000000000000e+00" cType="1" res="-1.8413623329252005e-03" rms="4.7950449585914612e-01" purity="3.6417457461357117e-01" nType="-99"/>
        <Node pos="r" depth="1" NCoef="0" IVar="0" Cut="5.4453808069229126e-01" cType="0" res="-1.5475051105022430e-01" rms="4.2289343476295471e-01" purity="2.3320883512496948e-01" nType="0">
          <Node pos="l" depth="2" NCoef="0" IVar="-1" Cut="0.0000000000000000e+00" cType="1" res="-5.9510604478418827e-03" rms="4.4553315639495850e-01" purity="2.7372118830680847e-01" nType="-99"/>
          <Node pos="r" depth="2" NCoef="0" IVar="-1" Cut="0.0000000000000000e+00" cType="1" res="-8.2829724997282028e-03" rms="3.2190099358558655e-01" purity="1.1746211349964142e-01" nType="-99"/>
        </Node>
      </Node>
    </BinaryTree>
    <BinaryTree type="DecisionTree" boostWeight="1.0000000000000000e+00" itree="50">
      <Node pos="s" depth="0" NCoef="0" IVar="0" Cut="1.4216585159301758e+00" cType="1" res="-5.2595000714063644e-02" rms="4.7575840353965759e-01" purity="3.5407072305679321e-01" nType="0">
        <Node pos="l" depth="1" NCoef="0" IVar="-1" Cut="0.0000000000000000e+00" cType="1" res="-1.5697944909334183e-03" rms="4.8038366436958313e-01" purity="3.6923247575759888e-01" nType="-99"/>
        <Node pos="r" depth="1" NCoef="0" IVar="1" Cut="8.7649136781692505e-01" cType="0" res="-1.4243921637535095e-01" rms="4.3179926276206970e-01" purity="2.4895882606506348e-01" nType="0">
          <Node pos="l" depth="2" NCoef="0" IVar="-1" Cut="0.0000000000000000e+00" cType="1" res="-4.1195168159902096e-03" rms="4.6008557081222534e-01" purity="3.0653852224349976e-01" nType="-99"/>
          <Node pos="r" depth="2" NCoef="0" IVar="-1" Cut="0.0000000000000000e+00" cType="1" res="-8.3537092432379723e-03" rms="3.5055032372474670e-01" purity="1.4365215599536896e-01" nType="-99"/>
        </Node>
      </Node>
    </BinaryTree>
    <BinaryTree type="DecisionTree" boostWeight="1.0000000000000000e+00" itree="51">
      <Node pos="s" depth="0" NCoef="0" IVar="1" Cut="1.9487639665603638e+00" cType="1" res="-4.9706984311342239e-02" rms="4.7634592652320862e-01" purity="3.5605257749557495e-01" nType="0">
        <Node pos="l" depth="1" NCoef="0" IVar="-1" Cut="0.0000000000000000e+00" cType="1" res="-1.6426765359938145e-03" rms="4.7997036576271057e-01" purity="3.6709025502204895e-01" nType="-99"/>
        <Node pos="r" depth="1" NCoef="0" IVar="0" Cut="1.5551111698150635e+00" cType="0" res="-1.7823517322540283e-01" rms="4.0049272775650024e-01" purity="2.0059069991111755e-01" nType="0">
          <Node pos="l" depth="2" NCoef="0" IVar="-1" Cut="0.0000000000000000e+00" cType="1" res="-5.8631571009755135e-03" rms="4.3446880578994751e-01" purity="2.5250244140625000e-01" nType="-99"/>
          <Node pos="r" depth="2" NCoef="0" IVar="-1" Cut="0.0000000000000000e+00" cType="1" res="-7.3326714336872101e-03" rms="3.7252029776573181e-01" purity="1.6719733178615570e-01" nType="-99"/>
        </Node>
      </Node>
    </BinaryTree>
    <BinaryTree type="DecisionTree" boostWeight="1.0000000000000000e+00" itree="52">
      <Node pos="s" depth="0" NCoef="0" IVar="1" Cut="-1.1921449899673462e+00" cType="0" res="-5.1173899322748184e-02" rms="4.7553837299346924e-01" purity="3.5366940498352051e-01" nType="0">
        <Node pos="l" depth="1" NCoef="0" IVar="-1" Cut="0.0000000000000000e+00" cType="1" res="-1.4117519604042172e-03" rms="4.8246052861213684e-01" purity="3.7608286738395691e-01" nType="-99"/>
        <Node pos="r" depth="1" NCoef="0" IVar="0" Cut="1.9504672288894653e-01" cType="1" res="-1.3029719889163971e-01" rms="4.3625634908676147e-01" purity="2.5876882672309875e-01" nType="0">
          <Node pos="l" depth="2" NCoef="0" IVar="-1" Cut="0.0000000000000000e+00" cType="1" res="-4.2641391046345234e-03" rms="4.4517692923545837e-01" purity="2.7660250663757324e-01" nType="-99"/>
          <Node pos="r" depth="2" NCoef="0" IVar="-1" Cut="0.0000000000000000e+00" cType="1" res="-6.2493882142007351e-03" rms="2.8058278560638428e-01" purity="8.6832515895366669e-02" nType="-99"/>
        </Node>
      </Node>
    </BinaryTree>
    <BinaryTree type="DecisionTree" boostWeight="1.0000000000000000e+00" itree="53">
      <Node pos="s" depth="0" NCoef="0" IVar="0" Cut="1.4149584770202637e+00" cType="1" res="-5.0493247807025909e-02" rms="4.7560527920722961e-01" purity="3.5361334681510925e-01" nType="0">
        <Node pos="l" depth="1" NCoef="0" IVar="-1" Cut="0.0000000000000000e+00" cType="1" res="-1.4568431070074439e-03" rms="4.8083063960075378e-01" purity="3.7050455808639526e-01" nType="-99"/>
        <Node pos="r" depth="1" NCoef="0" IVar="1" Cut="8.6298406124114990e-01" cType="0" res="-1.4317548274993896e-01" rms="4.2872157692909241e-01" purity="2.4381491541862488e-01" nType="0">
          <Node pos="l" depth="2" NCoef="0" IVar="-1" Cut="0.0000000000000000e+00" cType="1" res="-4.4176299124956131e-03" rms="4.5637893676757812e-01" purity="2.9824668169021606e-01" nType="-99"/>
          <Node pos="r" depth="2" NCoef="0" IVar="-1" Cut="0.0000000000000000e+00" cType="1" res="-7.8846523538231850e-03" rms="3.5584810376167297e-01" purity="1.4873494207859039e-01" nType="-99"/>
        </Node>
      </Node>
    </BinaryTree>
    <BinaryTree type="DecisionTree" boostWeight="1.0000000000000000e+00" itree="54">
      <Node pos="s" depth="0" NCoef="0" IVar="1" Cut="1.9669078588485718e+00" cType="1" res="-4.2026929557323456e-02" rms="4.7813475131988525e-01" purity="3.6150848865509033e-01" nType="0">
        <Node pos="l" depth="1" NCoef="0" IVar="-1" Cut="0.0000000000000000e+00" cType="1" res="-1.3800343731418252e-03" rms="4.8155453801155090e-01" purity="3.7214094400405884e-01" nType="-99"/>
        <Node pos="r" depth="1" NCoef="0" IVar="0" Cut="1.5430414676666260e+00" cType="0" res="-1.7013533413410187e-01" rms="4.0309184789657593e-01" purity="2.0402760803699493e-01" nType="0">
          <Node pos="l" depth="2" NCoef="0" IVar="-1" Cut="0.0000000000000000e+00" cType="1" res="-4.8737572506070137e-03" rms="4.4379395246505737e-01" purity="2.6934409141540527e-01" nType="-99"/>
          <Node pos="r" depth="2" NCoef="0" IVar="-1" Cut="0.0000000000000000e+00" cType="1" res="-7.7605471014976501e-03" rms="3.7547230720520020e-01" purity="1.7058824002742767e-01" nType="-99"/>
        </Node>
      </Node>
    </BinaryTree>
    <BinaryTree type="DecisionTree" boostWeight="1.0000000000000000e+00" itree="55">
      <Node pos="s" depth="0" NCoef="0" IVar="1" Cut="1.9020526409149170e+00" cType="1" res="-5.3128957748413086e-02" rms="4.7413843870162964e-01" purity="3.4913846850395203e-01" nType="0">
        <Node pos="l" depth="1" NCoef="0" IVar="-1" Cut="0.0000000000000000e+00" cType="1" res="-1.7137705581262708e-03" rms="4.7824552655220032e-01" purity="3.6091521382331848e-01" nType="-99"/>
        <Node pos="r" depth="1" NCoef="0" IVar="0" Cut="7.5401711463928223e-01" cType="0" res="-1.7303492128849030e-01" rms="3.9935338497161865e-01" purity="1.9914706051349640e-01" nType="0">
          <Node pos="l" depth="2" NCoef="0" IVar="-1" Cut="0.0000000000000000e+00" cType="1" res="-6.0965605080127716e-03" rms="4.2100521922111511e-01" purity="2.3079551756381989e-01" nType="-99"/>
          <Node pos="r" depth="2" NCoef="0" IVar="-1" Cut="0.0000000000000000e+00" cType="1" res="-6.9443942047655582e-03" rms="3.2472768425941467e-01" purity="1.1982780694961548e-01" nType="-99"/>
        </Node>
      </Node>
    </BinaryTree>
    <BinaryTree type="DecisionTree" boostWeight="1.0000000000000000e+00" itree="56">
      <Node pos="s" depth="0" NCoef="0" IVar="0" Cut="-1.6068638563156128e+00" cType="0" res="-4.2008973658084869e-02" rms="4.7696352005004883e-01" purity="3.5909003019332886e-01" nType="0">
        <Node pos="l" depth="1" NCoef="0" IVar="-1" Cut="0.0000000000000000e+00" cType="1" res="-1.2451302027329803e-03" rms="4.8119959235191345e-01" purity="3.7323763966560364e-01" nType="-99"/>
        <Node pos="r" depth="1" NCoef="0" IVar="1" Cut="-3.8395845890045166e-01" cType="1" res="-1.5240615606307983e-01" rms="4.2085406184196472e-01" purity="2.3065868020057678e-01" nType="0">
          <Node pos="l" depth="2" NCoef="0" IVar="-1" Cut="0.0000000000000000e+00" cType="1" res="-6.2616104260087013e-03" rms="4.3360555171966553e-01" purity="2.5297501683235168e-01" nType="-99"/>
          <Node pos="r" depth="2" NCoef="0" IVar="-1" Cut="0.0000000000000000e+00" cType="1" res="-7.5229122303426266e-03" rms="3.1359323859214783e-01" purity="1.1130126565694809e-01" nType="-99"/>
        </Node>
      </Node>
    </BinaryTree>
    <BinaryTree type="DecisionTree" boostWeight="1.0000000000000000e+00" itree="57">
      <Node pos="s" depth="0" NCoef="0" IVar="1" Cut="-1.6254248619079590e+00" cType="0" res="-4.8182159662246704e-02" rms="4.7509160637855530e-01" purity="3.5236531496047974e-01" nType="0">
        <Node pos="l" depth="1" NCoef="0" IVar="-1" Cut="0.0000000000000000e+00" cType="1" res="-1.4760892372578382e-03" rms="4.8030406236648560e-01" purity="3.6790415644645691e-01" nType="-99"/>
        <Node pos="r" depth="1" NCoef="0" IVar="0" Cut="-5.7634681463241577e-01" cType="1" res="-1.4665904641151428e-01" rms="4.1715162992477417e-01" purity="2.2500939667224884e-01" nType="0">
          <Node pos="l" depth="2" NCoef="0" IVar="-1" Cut="0.0000000000000000e+00" cType="1" res="-4.7310795634984970e-03" rms="4.3283268809318542e-01" purity="2.5157839059829712e-01" nType="-99"/>
          <Node pos="r" depth="2" NCoef="0" IVar="-1" Cut="0.0000000000000000e+00" cType="1" res="-6.0479422099888325e-03" rms="3.5205218195915222e-01" purity="1.4479872584342957e-01" nType="-99"/>
        </Node>
      </Node>
    </BinaryTree>
    <BinaryTree type="DecisionTree" boostWeight="1.0000000000000000e+00" itree="58">
      <Node pos="s" depth="0" NCoef="0" IVar="0" Cut="1.7041779756546021e+00" cType="1" res="-4.7644775360822678e-02" rms="4.7520068287849426e-01" purity="3.5212469100952148e-01" nType="0">
        <Node pos="l" depth="1" NCoef="0" IVar="-1" Cut="0.0000000000000000e+00" cType="1" res="-1.4728365931659937e-03" rms="4.7892975807189941e-01" purity="3.6372879147529602e-01" nType="-99"/>
        <Node pos="r" depth="1" NCoef="0" IVar="1" Cut="8.7660646438598633e-01" cType="0" res="-1.4768844842910767e-01" rms="4.2216038703918457e-01" purity="2.3270916938781738e-01" nType="0">
          <Node pos="l" depth="2" NCoef="0" IVar="-1" Cut="0.0000000000000000e+00" cType="1" res="-5.1134345121681690e-03" rms="4.5172166824340820e-01" purity="2.8693267703056335e-01" nType="-99"/>
          <Node pos="r" depth="2" NCoef="0" IVar="-1" Cut="0.0000000000000000e+00" cType="1" res="-8.6462022736668587e-03" rms="3.4044894576072693e-01" purity="1.3380606472492218e-01" nType="-99"/>
        </Node>
      </Node>
    </BinaryTree>
    <BinaryTree type="DecisionTree" boostWeight="1.0000000000000000e+00" itree="59">
      <Node pos="s" depth="0" NCoef="0" IVar="0" Cut="1.4152334928512573e+00" cType="1" res="-4.3514892458915710e-02" rms="4.7579184174537659e-01" purity="3.5508063435554504e-01" nType="0">
        <Node pos="l" depth="1" NCoef="0" IVar="-1" Cut="0.0000000000000000e+00" cType="1" res="-1.2435218086466193e-03" rms="4.8075982928276062e-01" purity="3.7096104025840759e-01" nType="-99"/>
        <Node pos="r" depth="1" NCoef="0" IVar="1" Cut="1.0815732479095459e+00" cType="0" res="-1.2920211255550385e-01" rms="4.3154805898666382e-01" purity="2.4914345145225525e-01" nType="0">
          <Node pos="l" depth="2" NCoef="0" IVar="-1" Cut="0.0000000000000000e+00" cType="1" res="-3.2672954257577658e-03" rms="4.6282771229743958e-01" purity="3.1586912274360657e-01" nType="-99"/>
          <Node pos="r" depth="2" NCoef="0" IVar="-1" Cut="0.0000000000000000e+00" cType="1" res="-7.4127521365880966e-03" rms="3.7293961644172668e-01" purity="1.6742175817489624e-01" nType="-99"/>
        </Node>
      </Node>
    </BinaryTree>
    <BinaryTree type="DecisionTree" boostWeight="1.0000000000000000e+00" itree="60">
      <Node pos="s" depth="0" NCoef="0" IVar="1" Cut="-1.7505736351013184e+00" cType="0" res="-4.9614213407039642e-02" rms="4.7365841269493103e-01" purity="3.4795340895652771e-01" nType="0">
        <Node pos="l" depth="1" NCoef="0" IVar="-1" Cut="0.0000000000000000e+00" cType="1" res="-1.5629106201231480e-03" rms="4.7844767570495605e-01" purity="3.6140635609626770e-01" nType="-99"/>
        <Node pos="r" depth="1" NCoef="0" IVar="1" Cut="-2.1560850143432617e+00" cType="0" res="-1.5425011515617371e-01" rms="4.0689340233802795e-01" purity="2.0995782315731049e-01" nType="0">
          <Node pos="l" depth="2" NCoef="0" IVar="-1" Cut="0.0000000000000000e+00" cType="1" res="-4.8685064539313316e-03" rms="4.3396198749542236e-01" purity="2.5238904356956482e-01" nType="-99"/>
          <Node pos="r" depth="2" NCoef="0" IVar="-1" Cut="0.0000000000000000e+00" cType="1" res="-7.4473191052675247e-03" rms="3.5429653525352478e-01" purity="1.4681722223758698e-01" nType="-99"/>
        </Node>
      </Node>
    </BinaryTree>
    <BinaryTree type="DecisionTree" boostWeight="1.0000000000000000e+00" itree="61">
      <Node pos="s" depth="0" NCoef="0" IVar="1" Cut="-1.6249932050704956e+00" cType="0" res="-4.1806999593973160e-02" rms="4.7584003210067749e-01" purity="3.5499051213264465e-01" nType="0">
        <Node pos="l" depth="1" NCoef="0" IVar="-1" Cut="0.0000000000000000e+00" cType="1" res="-1.2015122920274734e-03" rms="4.8099672794342041e-01" purity="3.7056028842926025e-01" nType="-99"/>
        <Node pos="r" depth="1" NCoef="0" IVar="0" Cut="-5.7634681463241577e-01" cType="1" res="-1.3206581771373749e-01" rms="4.2303630709648132e-01" purity="2.3423750698566437e-01" nType="0">
          <Node pos="l" depth="2" NCoef="0" IVar="-1" Cut="0.0000000000000000e+00" cType="1" res="-4.3937782756984234e-03" rms="4.3619772791862488e-01" purity="2.5730997323989868e-01" nType="-99"/>
          <Node pos="r" depth="2" NCoef="0" IVar="-1" Cut="0.0000000000000000e+00" cType="1" res="-5.7201767340302467e-03" rms="3.6560630798339844e-01" purity="1.5896350145339966e-01" nType="-99"/>
        </Node>
      </Node>
    </BinaryTree>
    <BinaryTree type="DecisionTree" boostWeight="1.0000000000000000e+00" itree="62">
      <Node pos="s" depth="0" NCoef="0" IVar="0" Cut="1.4147291183471680e+00" cType="1" res="-4.2832084000110626e-02" rms="4.7511726617813110e-01" purity="3.5333740711212158e-01" nType="0">
        <Node pos="l" depth="1" NCoef="0" IVar="-1" Cut="0.0000000000000000e+00" cType="1" res="-1.1872915783897042e-03" rms="4.8016613721847534e-01" purity="3.6922383308410645e-01" nType="-99"/>
        <Node pos="r" depth="1" NCoef="0" IVar="1" Cut="9.6757960319519043e-01" cType="0" res="-1.3037118315696716e-01" rms="4.2883169651031494e-01" purity="2.4444818496704102e-01" nType="0">
          <Node pos="l" depth="2" NCoef="0" IVar="-1" Cut="0.0000000000000000e+00" cType="1" res="-3.4794085659086704e-03" rms="4.6202266216278076e-01" purity="3.1170472502708435e-01" nType="-99"/>
          <Node pos="r" depth="2" NCoef="0" IVar="-1" Cut="0.0000000000000000e+00" cType="1" res="-7.9514048993587494e-03" rms="3.6040627956390381e-01" purity="1.5382263064384460e-01" nType="-99"/>
        </Node>
      </Node>
    </BinaryTree>
    <BinaryTree type="DecisionTree" boostWeight="1.0000000000000000e+00" itree="63">
      <Node pos="s" depth="0" NCoef="0" IVar="1" Cut="-1.2748005390167236e+00" cType="0" res="-4.0260694921016693e-02" rms="4.7531002759933472e-01" purity="3.5478204488754272e-01" nType="0">
        <Node pos="l" depth="1" NCoef="0" IVar="-1" Cut="0.0000000000000000e+00" cType="1" res="-1.0100243380293250e-03" rms="4.8161837458610535e-01" purity="3.7499359250068665e-01" nType="-99"/>
        <Node pos="r" depth="1" NCoef="0" IVar="0" Cut="-6.3600414991378784e-01" cType="1" res="-1.1873900145292282e-01" rms="4.3456333875656128e-01" purity="2.5546938180923462e-01" nType="0">
          <Node pos="l" depth="2" NCoef="0" IVar="-1" Cut="0.0000000000000000e+00" cType="1" res="-3.6328902933746576e-03" rms="4.5004907250404358e-01" purity="2.8757891058921814e-01" nType="-99"/>
          <Node pos="r" depth="2" NCoef="0" IVar="-1" Cut="0.0000000000000000e+00" cType="1" res="-5.2645062096416950e-03" rms="3.8101211190223694e-01" purity="1.7749316990375519e-01" nType="-99"/>
        </Node>
      </Node>
    </BinaryTree>
    <BinaryTree type="DecisionTree" boostWeight="1.0000000000000000e+00" itree="64">
      <Node pos="s" depth="0" NCoef="0" IVar="0" Cut="1.4146212339401245e+00" cType="1" res="-4.3089631944894791e-02" rms="4.7443002462387085e-01" purity="3.5154810547828674e-01" nType="0">
        <Node pos="l" depth="1" NCoef="0" IVar="-1" Cut="0.0000000000000000e+00" cType="1" res="-1.1065928265452385e-03" rms="4.8047307133674622e-01" purity="3.7038922309875488e-01" nType="-99"/>
        <Node pos="r" depth="1" NCoef="0" IVar="1" Cut="1.3238674402236938e+00" cType="0" res="-1.4344505965709686e-01" rms="4.1927245259284973e-01" purity="2.2851812839508057e-01" nType="0">
          <Node pos="l" depth="2" NCoef="0" IVar="-1" Cut="0.0000000000000000e+00" cType="1" res="-3.8879497442394495e-03" rms="4.5473888516426086e-01" purity="2.9497966170310974e-01" nType="-99"/>
          <Node pos="r" depth="2" NCoef="0" IVar="-1" Cut="0.0000000000000000e+00" cType="1" res="-7.0950631052255630e-03" rms="3.8403794169425964e-01" purity="1.8089890480041504e-01" nType="-99"/>
        </Node>
      </Node>
    </BinaryTree>
    <BinaryTree type="DecisionTree" boostWeight="1.0000000000000000e+00" itree="65">
      <Node pos="s" depth="0" NCoef="0" IVar="1" Cut="-1.1925190687179565e+00" cType="0" res="-3.5367522388696671e-02" rms="4.7668656706809998e-01" purity="3.5863152146339417e-01" nType="0">
        <Node pos="l" depth="1" NCoef="0" IVar="-1" Cut="0.0000000000000000e+00" cType="1" res="-8.1867241533473134e-04" rms="4.8254451155662537e-01" purity="3.7858125567436218e-01" nType="-99"/>
        <Node pos="r" depth="1" NCoef="0" IVar="0" Cut="-7.7176505327224731e-01" cType="1" res="-1.0455362498760223e-01" rms="4.4326436519622803e-01" purity="2.7030268311500549e-01" nType="0">
          <Node pos="l" depth="2" NCoef="0" IVar="-1" Cut="0.0000000000000000e+00" cType="1" res="-2.7451913338154554e-03" rms="4.6381184458732605e-01" purity="3.1708309054374695e-01" nType="-99"/>
          <Node pos="r" depth="2" NCoef="0" IVar="-1" Cut="0.0000000000000000e+00" cType="1" res="-4.5770849101245403e-03" rms="4.0286386013031006e-01" purity="2.0590892434120178e-01" nType="-99"/>
        </Node>
      </Node>
    </BinaryTree>
    <BinaryTree type="DecisionTree" boostWeight="1.0000000000000000e+00" itree="66">
      <Node pos="s" depth="0" NCoef="0" IVar="1" Cut="1.8600704669952393e+00" cType="1" res="-3.5695966333150864e-02" rms="4.7632223367691040e-01" purity="3.5762664675712585e-01" nType="0">
        <Node pos="l" depth="1" NCoef="0" IVar="-1" Cut="0.0000000000000000e+00" cType="1" res="-1.0867642704397440e-03" rms="4.8026633262634277e-01" purity="3.6978274583816528e-01" nType="-99"/>
        <Node pos="r" depth="1" NCoef="0" IVar="0" Cut="6.2695056200027466e-01" cType="0" res="-1.4561986923217773e-01" rms="4.1265258193016052e-01" purity="2.1757197380065918e-01" nType="0">
          <Node pos="l" depth="2" NCoef="0" IVar="-1" Cut="0.0000000000000000e+00" cType="1" res="-4.7772768884897232e-03" rms="4.3667143583297729e-01" purity="2.5732535123825073e-01" nType="-99"/>
          <Node pos="r" depth="2" NCoef="0" IVar="-1" Cut="0.0000000000000000e+00" cType="1" res="-6.4762718975543976e-03" rms="3.2334017753601074e-01" purity="1.1869460344314575e-01" nType="-99"/>
        </Node>
      </Node>
    </BinaryTree>
    <BinaryTree type="DecisionTree" boostWeight="1.0000000000000000e+00" itree="67">
      <Node pos="s" depth="0" NCoef="0" IVar="1" Cut="-1.0913456678390503e+00" cType="0" res="-3.7042260169982910e-02" rms="4.7556877136230469e-01" purity="3.5529208183288574e-01" nType="0">
        <Node pos="l" depth="1" NCoef="0" IVar="-1" Cut="0.0000000000000000e+00" cType="1" res="-7.9484633170068264e-04" rms="4.8232048749923706e-01" purity="3.7820735573768616e-01" nType="-99"/>
        <Node pos="r" depth="1" NCoef="0" IVar="0" Cut="1.9794425368309021e-01" cType="1" res="-1.0397983342409134e-01" rms="4.4373592734336853e-01" purity="2.7183842658996582e-01" nType="0">
          <Node pos="l" depth="2" NCoef="0" IVar="-1" Cut="0.0000000000000000e+00" cType="1" res="-3.1843788456171751e-03" rms="4.5437592267990112e-01" purity="2.9445728659629822e-01" nType="-99"/>
          <Node pos="r" depth="2" NCoef="0" IVar="-1" Cut="0.0000000000000000e+00" cType="1" res="-5.9128492139279842e-03" rms="2.9737240076065063e-01" purity="9.9066220223903656e-02" nType="-99"/>
        </Node>
      </Node>
    </BinaryTree>
    <BinaryTree type="DecisionTree" boostWeight="1.0000000000000000e+00" itree="68">
      <Node pos="s" depth="0" NCoef="0" IVar="0" Cut="-1.8982381820678711e+00" cType="0" res="-3.8772225379943848e-02" rms="4.7518020868301392e-01" purity="3.5353720188140869e-01" nType="0">
        <Node pos="l" depth="1" NCoef="0" IVar="-1" Cut="0.0000000000000000e+00" cType="1" res="-1.1978279799222946e-03" rms="4.7838419675827026e-01" purity="3.6349430680274963e-01" nType="-99"/>
        <Node pos="r" depth="1" NCoef="0" IVar="1" Cut="-8.5901433229446411e-01" cType="1" res="-1.7702157795429230e-01" rms="3.9455649256706238e-01" purity="1.9111643731594086e-01" nType="0">
          <Node pos="l" depth="2" NCoef="0" IVar="-1" Cut="0.0000000000000000e+00" cType="1" res="-6.7801475524902344e-03" rms="4.2912325263023376e-01" purity="2.4581612646579742e-01" nType="-99"/>
          <Node pos="r" depth="2" NCoef="0" IVar="-1" Cut="0.0000000000000000e+00" cType="1" res="-7.4797938577830791e-03" rms="3.0641049146652222e-01" purity="1.0492175072431564e-01" nType="-99"/>
        </Node>
      </Node>
    </BinaryTree>
    <BinaryTree type="DecisionTree" boostWeight="1.0000000000000000e+00" itree="69">
      <Node pos="s" depth="0" NCoef="0" IVar="0" Cut="-1.6943800449371338e+00" cType="0" res="-3.3488161861896515e-02" rms="4.7627633810043335e-01" purity="3.5775321722030640e-01" nType="0">
        <Node pos="l" depth="1" NCoef="0" IVar="-1" Cut="0.0000000000000000e+00" cType="1" res="-9.4692717539146543e-04" rms="4.7993543744087219e-01" purity="3.6978226900100708e-01" nType="-99"/>
        <Node pos="r" depth="1" NCoef="0" IVar="1" Cut="-7.1238559484481812e-01" cType="1" res="-1.4034460484981537e-01" rms="4.2023819684982300e-01" purity="2.2792555391788483e-01" nType="0">
          <Node pos="l" depth="2" NCoef="0" IVar="-1" Cut="0.0000000000000000e+00" cType="1" res="-4.3204575777053833e-03" rms="4.4842374324798584e-01" purity="2.8196573257446289e-01" nType="-99"/>
          <Node pos="r" depth="2" NCoef="0" IVar="-1" Cut="0.0000000000000000e+00" cType="1" res="-7.7987886033952236e-03" rms="3.1750288605690002e-01" purity="1.1425849795341492e-01" nType="-99"/>
        </Node>
      </Node>
    </BinaryTree>
    <BinaryTree type="DecisionTree" boostWeight="1.0000000000000000e+00" itree="70">
      <Node pos="s" depth="0" NCoef="0" IVar="0" Cut="1.4337224960327148e+00" cType="1" res="-4.0219280868768692e-02" rms="4.7420525550842285e-01" purity="3.5048249363899231e-01" nType="0">
        <Node pos="l" depth="1" NCoef="0" IVar="-1" Cut="0.0000000000000000e+00" cType="1" res="-1.2370276963338256e-03" rms="4.8033243417739868e-01" purity="3.6879971623420715e-01" nType="-99"/>
        <Node pos="r" depth="1" NCoef="0" IVar="1" Cut="8.7663793563842773e-01" cType="0" res="-1.3519375026226044e-01" rms="4.1962626576423645e-01" purity="2.3024941980838776e-01" nType="0">
          <Node pos="l" depth="2" NCoef="0" IVar="-1" Cut="0.0000000000000000e+00" cType="1" res="-4.6129785478115082e-03" rms="4.5043101906776428e-01" purity="2.8570953011512756e-01" nType="-99"/>
          <Node pos="r" depth="2" NCoef="0" IVar="-1" Cut="0.0000000000000000e+00" cType="1" res="-7.4698431417346001e-03" rms="3.4591302275657654e-01" purity="1.3930277526378632e-01" nType="-99"/>
        </Node>
      </Node>
    </BinaryTree>
    <BinaryTree type="DecisionTree" boostWeight="1.0000000000000000e+00" itree="71">
      <Node pos="s" depth="0" NCoef="0" IVar="1" Cut="1.7975648641586304e+00" cType="1" res="-2.9139481484889984e-02" rms="4.7701516747474670e-01" purity="3.6076399683952332e-01" nType="0">
        <Node pos="l" depth="1" NCoef="0" IVar="-1" Cut="0.0000000000000000e+00" cType="1" res="-8.2174415001645684e-04" rms="4.8082497715950012e-01" purity="3.7298884987831116e-01" nType="-99"/>
        <Node pos="r" depth="1" NCoef="0" IVar="0" Cut="5.4463452100753784e-01" cType="0" res="-1.3260227441787720e-01" rms="4.2003360390663147e-01" purity="2.2870706021785736e-01" nType="0">
          <Node pos="l" depth="2" NCoef="0" IVar="-1" Cut="0.0000000000000000e+00" cType="1" res="-5.1485486328601837e-03" rms="4.4213914871215820e-01" purity="2.6685026288032532e-01" nType="-99"/>
          <Node pos="r" depth="2" NCoef="0" IVar="-1" Cut="0.0000000000000000e+00" cType="1" res="-7.2106961160898209e-03" rms="3.1735068559646606e-01" purity="1.1478966474533081e-01" nType="-99"/>
        </Node>
      </Node>
    </BinaryTree>
    <BinaryTree type="DecisionTree" boostWeight="1.0000000000000000e+00" itree="72">
      <Node pos="s" depth="0" NCoef="0" IVar="1" Cut="-1.6161092519760132e+00" cType="0" res="-3.4069418907165527e-02" rms="4.7521638870239258e-01" purity="3.5458171367645264e-01" nType="0">
        <Node pos="l" depth="1" NCoef="0" IVar="-1" Cut="0.0000000000000000e+00" cType="1" res="-9.1441598488017917e-04" rms="4.8065119981765747e-01" purity="3.7073358893394470e-01" nType="-99"/>
        <Node pos="r" depth="1" NCoef="0" IVar="0" Cut="-5.7625794410705566e-01" cType="1" res="-1.2425196915864944e-01" rms="4.2023700475692749e-01" purity="2.3008039593696594e-01" nType="0">
          <Node pos="l" depth="2" NCoef="0" IVar="-1" Cut="0.0000000000000000e+00" cType="1" res="-3.9331675507128239e-03" rms="4.3691813945770264e-01" purity="2.5916987657546997e-01" nType="-99"/>
          <Node pos="r" depth="2" NCoef="0" IVar="-1" Cut="0.0000000000000000e+00" cType="1" res="-5.7743471115827560e-03" rms="3.4461641311645508e-01" purity="1.3755205273628235e-01" nType="-99"/>
        </Node>
      </Node>
    </BinaryTree>
    <BinaryTree type="DecisionTree" boostWeight="1.0000000000000000e+00" itree="73">
      <Node pos="s" depth="0" NCoef="0" IVar="1" Cut="1.8930052518844604e+00" cType="1" res="-4.1143514215946198e-02" rms="4.7306653857231140e-01" purity="3.4737238287925720e-01" nType="0">
        <Node pos="l" depth="1" NCoef="0" IVar="-1" Cut="0.0000000000000000e+00" cType="1" res="-1.5460851136595011e-03" rms="4.7732660174369812e-01" purity="3.5939374566078186e-01" nType="-99"/>
        <Node pos="r" depth="1" NCoef="0" IVar="0" Cut="1.2726360559463501e+00" cType="0" res="-1.5712343156337738e-01" rms="3.9836063981056213e-01" purity="1.9721469283103943e-01" nType="0">
          <Node pos="l" depth="2" NCoef="0" IVar="-1" Cut="0.0000000000000000e+00" cType="1" res="-4.5816339552402496e-03" rms="4.3571829795837402e-01" purity="2.5626397132873535e-01" nType="-99"/>
          <Node pos="r" depth="2" NCoef="0" IVar="-1" Cut="0.0000000000000000e+00" cType="1" res="-7.6207760721445084e-03" rms="3.5265395045280457e-01" purity="1.4555434882640839e-01" nType="-99"/>
        </Node>
      </Node>
    </BinaryTree>
    <BinaryTree type="DecisionTree" boostWeight="1.0000000000000000e+00" itree="74">
      <Node pos="s" depth="0" NCoef="0" IVar="1" Cut="-1.1921553611755371e+00" cType="0" res="-3.7716206163167953e-02" rms="4.7374576330184937e-01" purity="3.5003957152366638e-01" nType="0">
        <Node pos="l" depth="1" NCoef="0" IVar="-1" Cut="0.0000000000000000e+00" cType="1" res="-1.0471724672242999e-03" rms="4.8010265827178955e-01" purity="3.6992666125297546e-01" nType="-99"/>
        <Node pos="r" depth="1" NCoef="0" IVar="0" Cut="1.9504672288894653e-01" cType="1" res="-1.0308893769979477e-01" rms="4.3883255124092102e-01" purity="2.6275205612182617e-01" nType="0">
          <Node pos="l" depth="2" NCoef="0" IVar="-1" Cut="0.0000000000000000e+00" cType="1" res="-3.2367783132940531e-03" rms="4.4904065132141113e-01" purity="2.8369161486625671e-01" nType="-99"/>
          <Node pos="r" depth="2" NCoef="0" IVar="-1" Cut="0.0000000000000000e+00" cType="1" res="-7.4244188144803047e-03" rms="2.7738183736801147e-01" purity="8.4773339331150055e-02" nType="-99"/>
        </Node>
      </Node>
    </BinaryTree>
    <BinaryTree type="DecisionTree" boostWeight="1.0000000000000000e+00" itree="75">
      <Node pos="s" depth="0" NCoef="0" IVar="1" Cut="-1.0868470668792725e+00" cType="0" res="-2.9725616797804832e-02" rms="4.7614574432373047e-01" purity="3.5757678747177124e-01" nType="0">
        <Node pos="l" depth="1" NCoef="0" IVar="-1" Cut="0.0000000000000000e+00" cType="1" res="-5.4134556557983160e-04" rms="4.8263180255889893e-01" purity="3.7948700785636902e-01" nType="-99"/>
        <Node pos="r" depth="1" NCoef="0" IVar="0" Cut="1.9792443513870239e-01" cType="1" res="-9.4492658972740173e-02" rms="4.4482880830764771e-01" purity="2.7464112639427185e-01" nType="0">
          <Node pos="l" depth="2" NCoef="0" IVar="-1" Cut="0.0000000000000000e+00" cType="1" res="-3.2886534463614225e-03" rms="4.5261925458908081e-01" purity="2.9127514362335205e-01" nType="-99"/>
          <Node pos="r" depth="2" NCoef="0" IVar="-1" Cut="0.0000000000000000e+00" cType="1" res="-5.6368228979408741e-03" rms="3.3377897739410400e-01" purity="1.2916211783885956e-01" nType="-99"/>
        </Node>
      </Node>
    </BinaryTree>
    <BinaryTree type="DecisionTree" boostWeight="1.0000000000000000e+00" itree="76">
      <Node pos="s" depth="0" NCoef="0" IVar="1" Cut="2.0786635875701904e+00" cType="1" res="-3.6949783563613892e-02" rms="4.7341218590736389e-01" purity="3.4943038225173950e-01" nType="0">
        <Node pos="l" depth="1" NCoef="0" IVar="-1" Cut="0.0000000000000000e+00" cType="1" res="-1.2047383934259415e-03" rms="4.7666266560554504e-01" purity="3.5838168859481812e-01" nType="-99"/>
        <Node pos="r" depth="1" NCoef="0" IVar="0" Cut="9.9484688043594360e-01" cType="0" res="-1.7797727882862091e-01" rms="3.7608692049980164e-01" purity="1.7031373083591461e-01" nType="0">
          <Node pos="l" depth="2" NCoef="0" IVar="-1" Cut="0.0000000000000000e+00" cType="1" res="-5.6293215602636337e-03" rms="4.1861143708229065e-01" purity="2.2756309807300568e-01" nType="-99"/>
          <Node pos="r" depth="2" NCoef="0" IVar="-1" Cut="0.0000000000000000e+00" cType="1" res="-6.7159403115510941e-03" rms="2.9681974649429321e-01" purity="9.7734518349170685e-02" nType="-99"/>
        </Node>
      </Node>
    </BinaryTree>
    <BinaryTree type="DecisionTree" boostWeight="1.0000000000000000e+00" itree="77">
      <Node pos="s" depth="0" NCoef="0" IVar="0" Cut="1.5633380413055420e+00" cType="1" res="-3.0209667980670929e-02" rms="4.7584804892539978e-01" purity="3.5609149932861328e-01" nType="0">
        <Node pos="l" depth="1" NCoef="0" IVar="-1" Cut="0.0000000000000000e+00" cType="1" res="-7.9169502714648843e-04" rms="4.8043006658554077e-01" purity="3.7019690871238708e-01" nType="-99"/>
        <Node pos="r" depth="1" NCoef="0" IVar="1" Cut="8.6298406124114990e-01" cType="0" res="-1.1733583360910416e-01" rms="4.2717573046684265e-01" purity="2.4206081032752991e-01" nType="0">
          <Node pos="l" depth="2" NCoef="0" IVar="-1" Cut="0.0000000000000000e+00" cType="1" res="-3.4844491165131330e-03" rms="4.5846733450889587e-01" purity="3.0274468660354614e-01" nType="-99"/>
          <Node pos="r" depth="2" NCoef="0" IVar="-1" Cut="0.0000000000000000e+00" cType="1" res="-7.9453717917203903e-03" rms="3.3420673012733459e-01" purity="1.2823911011219025e-01" nType="-99"/>
        </Node>
      </Node>
    </BinaryTree>
    <BinaryTree type="DecisionTree" boostWeight="1.0000000000000000e+00" itree="78">
      <Node pos="s" depth="0" NCoef="0" IVar="1" Cut="-1.6255824565887451e+00" cType="0" res="-3.6019507795572281e-02" rms="4.7316712141036987e-01" purity="3.4885954856872559e-01" nType="0">
        <Node pos="l" depth="1" NCoef="0" IVar="-1" Cut="0.0000000000000000e+00" cType="1" res="-1.1723119532689452e-03" rms="4.7850149869918823e-01" purity="3.6389553546905518e-01" nType="-99"/>
        <Node pos="r" depth="1" NCoef="0" IVar="0" Cut="-5.8192449808120728e-01" cType="1" res="-1.2127990275621414e-01" rms="4.1739460825920105e-01" purity="2.2591191530227661e-01" nType="0">
          <Node pos="l" depth="2" NCoef="0" IVar="-1" Cut="0.0000000000000000e+00" cType="1" res="-3.7635720800608397e-03" rms="4.3454152345657349e-01" purity="2.5531610846519470e-01" nType="-99"/>
          <Node pos="r" depth="2" NCoef="0" IVar="-1" Cut="0.0000000000000000e+00" cType="1" res="-5.6033693253993988e-03" rms="3.4839054942131042e-01" purity="1.4076240360736847e-01" nType="-99"/>
        </Node>
      </Node>
    </BinaryTree>
    <BinaryTree type="DecisionTree" boostWeight="1.0000000000000000e+00" itree="79">
      <Node pos="s" depth="0" NCoef="0" IVar="1" Cut="1.3086878061294556e+00" cType="1" res="-2.8885103762149811e-02" rms="4.7539615631103516e-01" purity="3.5578376054763794e-01" nType="0">
        <Node pos="l" depth="1" NCoef="0" IVar="-1" Cut="0.0000000000000000e+00" cType="1" res="-6.6068273736163974e-04" rms="4.7966167330741882e-01" purity="3.7036544084548950e-01" nType="-99"/>
        <Node pos="r" depth="1" NCoef="0" IVar="0" Cut="1.2567888498306274e+00" cType="0" res="-9.8826274275779724e-02" rms="4.4338989257812500e-01" purity="2.7104854583740234e-01" nType="0">
          <Node pos="l" depth="2" NCoef="0" IVar="-1" Cut="0.0000000000000000e+00" cType="1" res="-1.0253490181639791e-03" rms="4.7089475393295288e-01" purity="3.4267276525497437e-01" nType="-99"/>
          <Node pos="r" depth="2" NCoef="0" IVar="-1" Cut="0.0000000000000000e+00" cType="1" res="-5.3742830641567707e-03" rms="4.1120037436485291e-01" purity="2.1849590539932251e-01" nType="-99"/>
        </Node>
      </Node>
    </BinaryTree>
    <BinaryTree type="DecisionTree" boostWeight="1.0000000000000000e+00" itree="80">
      <Node pos="s" depth="0" NCoef="0" IVar="1" Cut="-1.6991659402847290e+00" cType="0" res="-2.7854019775986671e-02" rms="4.7529003024101257e-01" purity="3.5611757636070251e-01" nType="0">
        <Node pos="l" depth="1" NCoef="0" IVar="-1" Cut="0.0000000000000000e+00" cType="1" res="-7.2958512464538217e-04" rms="4.8014938831329346e-01" purity="3.7022221088409424e-01" nType="-99"/>
        <Node pos="r" depth="1" NCoef="0" IVar="0" Cut="-7.7663660049438477e-01" cType="1" res="-1.2744094431400299e-01" rms="4.1071018576622009e-01" purity="2.1544300019741058e-01" nType="0">
          <Node pos="l" depth="2" NCoef="0" IVar="-1" Cut="0.0000000000000000e+00" cType="1" res="-5.0385356880724430e-03" rms="4.2174193263053894e-01" purity="2.3244348168373108e-01" nType="-99"/>
          <Node pos="r" depth="2" NCoef="0" IVar="-1" Cut="0.0000000000000000e+00" cType="1" res="-5.8996211737394333e-03" rms="3.7631797790527344e-01" purity="1.7095988988876343e-01" nType="-99"/>
        </Node>
      </Node>
    </BinaryTree>
    <BinaryTree type="DecisionTree" boostWeight="1.0000000000000000e+00" itree="81">
      <Node pos="s" depth="0" NCoef="0" IVar="0" Cut="1.5633380413055420e+00" cType="1" res="-2.7501596137881279e-02" rms="4.7539708018302917e-01" purity="3.5602661967277527e-01" nType="0">
        <Node pos="l" depth="1" NCoef="0" IVar="-1" Cut="0.0000000000000000e+00" cType="1" res="-7.4617424979805946e-04" rms="4.7950252890586853e-01" purity="3.6877846717834473e-01" nType="-99"/>
        <Node pos="r" depth="1" NCoef="0" IVar="1" Cut="8.8599181175231934e-01" cType="0" res="-1.0619313269853592e-01" rms="4.3176677823066711e-01" purity="2.4984356760978699e-01" nType="0">
          <Node pos="l" depth="2" NCoef="0" IVar="-1" Cut="0.0000000000000000e+00" cType="1" res="-1.8155786674469709e-03" rms="4.7078657150268555e-01" purity="3.3283767104148865e-01" nType="-99"/>
          <Node pos="r" depth="2" NCoef="0" IVar="-1" Cut="0.0000000000000000e+00" cType="1" res="-7.5567206367850304e-03" rms="3.2574909925460815e-01" purity="1.2077540159225464e-01" nType="-99"/>
        </Node>
      </Node>
    </BinaryTree>
    <BinaryTree type="DecisionTree" boostWeight="1.0000000000000000e+00" itree="82">
      <Node pos="s" depth="0" NCoef="0" IVar="0" Cut="-1.6919369697570801e+00" cType="0" res="-2.3456027731299400e-02" rms="4.7595474123954773e-01" purity="3.5903891921043396e-01" nType="0">
        <Node pos="l" depth="1" NCoef="0" IVar="-1" Cut="0.0000000000000000e+00" cType="1" res="-5.5105873616412282e-04" rms="4.7972768545150757e-01" purity="3.7161809206008911e-01" nType="-99"/>
        <Node pos="r" depth="1" NCoef="0" IVar="1" Cut="-8.7782913446426392e-01" cType="1" res="-1.2354043126106262e-01" rms="4.2390954494476318e-01" purity="2.3411773145198822e-01" nType="0">
          <Node pos="l" depth="2" NCoef="0" IVar="-1" Cut="0.0000000000000000e+00" cType="1" res="-3.4311071503907442e-03" rms="4.5029741525650024e-01" purity="2.8820750117301941e-01" nType="-99"/>
          <Node pos="r" depth="2" NCoef="0" IVar="-1" Cut="0.0000000000000000e+00" cType="1" res="-6.9364183582365513e-03" rms="3.5718920826911926e-01" purity="1.5054635703563690e-01" nType="-99"/>
        </Node>
      </Node>
    </BinaryTree>
    <BinaryTree type="DecisionTree" boostWeight="1.0000000000000000e+00" itree="83">
      <Node pos="s" depth="0" NCoef="0" IVar="1" Cut="1.5576623678207397e+00" cType="1" res="-2.4368450045585632e-02" rms="4.7522693872451782e-01" purity="3.5769093036651611e-01" nType="0">
        <Node pos="l" depth="1" NCoef="0" IVar="-1" Cut="0.0000000000000000e+00" cType="1" res="-4.7119156806729734e-04" rms="4.8024162650108337e-01" purity="3.7402689456939697e-01" nType="-99"/>
        <Node pos="r" depth="1" NCoef="0" IVar="0" Cut="7.5407886505126953e-01" cType="0" res="-1.2203739583492279e-01" rms="4.2362228035926819e-01" purity="2.3645028471946716e-01" nType="0">
          <Node pos="l" depth="2" NCoef="0" IVar="-1" Cut="0.0000000000000000e+00" cType="1" res="-4.0910821408033371e-03" rms="4.4862508773803711e-01" purity="2.8356143832206726e-01" nType="-99"/>
          <Node pos="r" depth="2" NCoef="0" IVar="-1" Cut="0.0000000000000000e+00" cType="1" res="-6.8418341688811779e-03" rms="3.4996744990348816e-01" purity="1.4437966048717499e-01" nType="-99"/>
        </Node>
      </Node>
    </BinaryTree>
    <BinaryTree type="DecisionTree" boostWeight="1.0000000000000000e+00" itree="84">
      <Node pos="s" depth="0" NCoef="0" IVar="1" Cut="1.8570364713668823e+00" cType="1" res="-2.6346057653427124e-02" rms="4.7546869516372681e-01" purity="3.5624429583549500e-01" nType="0">
        <Node pos="l" depth="1" NCoef="0" IVar="-1" Cut="0.0000000000000000e+00" cType="1" res="-7.4579648207873106e-04" rms="4.7921025753021240e-01" purity="3.6742022633552551e-01" nType="-99"/>
        <Node pos="r" depth="1" NCoef="0" IVar="0" Cut="4.8628011345863342e-01" cType="0" res="-1.2345031648874283e-01" rms="4.1545441746711731e-01" purity="2.2089360654354095e-01" nType="0">
          <Node pos="l" depth="2" NCoef="0" IVar="-1" Cut="0.0000000000000000e+00" cType="1" res="-4.7755991108715534e-03" rms="4.3975555896759033e-01" purity="2.6119756698608398e-01" nType="-99"/>
          <Node pos="r" depth="2" NCoef="0" IVar="-1" Cut="0.0000000000000000e+00" cType="1" res="-6.4313234761357307e-03" rms="2.9100951552391052e-01" purity="9.3124292790889740e-02" nType="-99"/>
        </Node>
      </Node>
    </BinaryTree>
    <BinaryTree type="DecisionTree" boostWeight="1.0000000000000000e+00" itree="85">
      <Node pos="s" depth="0" NCoef="0" IVar="1" Cut="1.3086878061294556e+00" cType="1" res="-2.1201636642217636e-02" rms="4.7616285085678101e-01" purity="3.6023321747779846e-01" nType="0">
        <Node pos="l" depth="1" NCoef="0" IVar="-1" Cut="0.0000000000000000e+00" cType="1" res="-2.8202278190292418e-04" rms="4.8143285512924194e-01" purity="3.7837281823158264e-01" nType="-99"/>
        <Node pos="r" depth="1" NCoef="0" IVar="0" Cut="6.2252861261367798e-01" cType="0" res="-9.8010309040546417e-02" rms="4.3947952985763550e-01" purity="2.6473301649093628e-01" nType="0">
          <Node pos="l" depth="2" NCoef="0" IVar="-1" Cut="0.0000000000000000e+00" cType="1" res="-2.6650666259229183e-03" rms="4.5592573285102844e-01" purity="3.0050051212310791e-01" nType="-99"/>
          <Node pos="r" depth="2" NCoef="0" IVar="-1" Cut="0.0000000000000000e+00" cType="1" res="-5.6343744508922100e-03" rms="3.7984412908554077e-01" purity="1.7728072404861450e-01" nType="-99"/>
        </Node>
      </Node>
    </BinaryTree>
    <BinaryTree type="DecisionTree" boostWeight="1.0000000000000000e+00" itree="86">
      <Node pos="s" depth="0" NCoef="0" IVar="1" Cut="-1.1925013065338135e+00" cType="0" res="-3.0870795249938965e-02" rms="4.7338563203811646e-01" purity="3.5034886002540588e-01" nType="0">
        <Node pos="l" depth="1" NCoef="0" IVar="-1" Cut="0.0000000000000000e+00" cType="1" res="-7.9418643144890666e-04" rms="4.8006170988082886e-01" purity="3.7076872587203979e-01" nType="-99"/>
        <Node pos="r" depth="1" NCoef="0" IVar="0" Cut="-7.4955058097839355e-01" cType="1" res="-9.5108479261398315e-02" rms="4.3761411309242249e-01" purity="2.6210808753967285e-01" nType="0">
          <Node pos="l" depth="2" NCoef="0" IVar="-1" Cut="0.0000000000000000e+00" cType="1" res="-2.6230374351143837e-03" rms="4.5193210244178772e-01" purity="2.9403775930404663e-01" nType="-99"/>
